SVM-light Version V6.02
0 # kernel type
3 # kernel parameter -d 
1 # kernel parameter -g 
1 # kernel parameter -s 
1 # kernel parameter -r 
empty# kernel parameter -u 
1987 # highest feature index 
453 # number of training documents 
280 # number of support vectors plus 1 
-0.48747213 # threshold b, each following line is a SV (starting with alpha*y)
0.030274288547367380480812570908711 141:0.88200003 207:0.83700001 248:0.84780002 290:0.81989998 331:0.82980001 335:0.83789998 369:0.84240001 370:0.84869999 373:0.85140002 430:0.84149998 439:0.84689999 445:0.86489999 446:0.81089997 458:0.86760002 464:0.83609998 546:0.88919997 551:0.89459997 553:0.83340001 566:0.8847 567:0.83160001 601:0.84509999 627:0.87480003 680:0.85500002 708:0.81629997 733:0.81809998 815:0.8118 832:0.83789998 841:0.83160001 873:0.84060001 893:0.84060001 956:0.81449997 983:0.82800001 1024:0.86940002 1031:0.8721 1094:0.81989998 1102:0.83700001 1123:0.82260001 1135:0.82260001 1147:0.83609998 1189:0.83429998 1279:0.81989998 1299:0.82260001 1310:0.8847 1328:0.82800001 #
-0.0062672620171106505765346028624663 153:0.949 245:0.94300002 329:0.94199997 358:0.89999998 369:0.92799997 381:0.954 392:0.97299999 439:0.912 464:0.921 499:0.917 546:0.96399999 551:0.97799999 554:0.95599997 573:0.98799998 586:0.95899999 662:0.91799998 692:0.90399998 708:0.91000003 742:0.935 751:0.958 770:0.90700001 796:0.94400001 843:0.91399997 850:0.92900002 869:0.89999998 964:0.91299999 1022:0.93900001 1090:0.93900001 1117:0.958 1121:0.95599997 1219:0.89999998 1315:0.93900001 1318:0.93000001 1365:0.96799999 1367:1 #
-0.025083509052304261977006660799816 31:1 107:0.94999999 141:0.97500002 153:0.94499999 207:0.94999999 245:0.96200001 248:0.93099999 321:0.94800001 329:0.94 365:0.96200001 392:0.97600001 400:0.99699998 401:0.92799997 439:0.94700003 464:0.93099999 546:0.98799998 551:0.98900002 571:0.99699998 573:0.991 662:0.92500001 680:0.95300001 690:0.912 699:0.949 703:0.95300001 715:0.94300002 796:0.954 804:0.93199998 815:0.90499997 850:0.98299998 893:0.92699999 955:0.90499997 1022:0.93900001 1031:0.96700001 1098:0.935 1150:0.90100002 1219:0.92199999 1244:0.94400001 1285:0.94400001 1299:0.935 1311:0.96899998 1318:0.92500001 1365:0.995 1367:0.90899998 #
-0.021664486053283305011518677929416 7:0.98400003 235:0.95700002 245:0.921 264:0.986 317:0.93800002 321:0.935 329:0.92000002 335:0.93199998 358:0.95999998 365:0.96799999 369:0.94199997 370:0.91799998 373:0.93099999 458:0.93900001 464:0.93099999 467:0.917 546:0.96399999 549:0.92000002 601:0.94 602:0.958 760:0.95899999 831:0.96499997 845:0.949 850:0.94 885:0.92400002 930:0.93900001 935:0.95200002 1022:0.95999998 1031:0.912 1044:0.94800001 1069:0.93400002 1123:0.917 1127:0.91500002 1305:0.917 1310:0.91399997 #
-0.030274288547367380480812570908711 8:0.912 92:0.98799998 246:0.95099998 264:0.99599999 297:1 321:0.93099999 369:0.93099999 370:0.94300002 379:0.90100002 418:0.93699998 458:0.90600002 503:0.94599998 528:0.99400002 546:0.97899997 575:0.954 605:0.94099998 608:0.958 622:0.93199998 662:0.91900003 680:0.94999999 733:0.93000001 832:0.93099999 859:0.95200002 920:0.903 944:0.90200001 1014:0.95300001 #
0.030274288547367380480812570908711 56:0.85769999 168:0.88200003 179:0.87120003 243:0.83969998 273:0.84240001 290:0.82800001 303:0.8775 358:0.81449997 370:0.84420002 379:0.82800001 381:0.82620001 383:0.82980001 400:0.84509999 401:0.85049999 437:0.88559997 439:0.86309999 459:0.86129999 469:0.82440001 482:0.8721 503:0.84869999 546:0.89459997 556:0.85320002 567:0.82080001 602:0.84149998 605:0.83069998 622:0.82709998 689:0.86489999 690:0.81809998 699:0.83340001 712:0.87480003 731:0.81089997 807:0.85769999 811:0.85769999 815:0.84780002 870:0.85680002 930:0.84149998 945:0.83700001 983:0.83249998 1000:0.86849999 1003:0.8793 1035:0.84960002 1090:0.84240001 1113:0.86400002 1136:0.84149998 1200:0.84329998 1244:0.83520001 1285:0.82529998 1310:0.84869999 1315:0.81 1332:0.8154 1333:0.83880001 1334:0.89999998 #
-0.021606727283550852120042051751625 3:0.94499999 10:0.98699999 232:0.958 264:0.92199999 282:0.91600001 288:0.972 334:0.91600001 350:0.94400001 358:0.903 369:0.95599997 373:0.94300002 390:0.92199999 414:0.94999999 421:0.93599999 439:0.95300001 458:0.91600001 488:0.99699998 496:0.96600002 502:0.92799997 546:0.95200002 601:0.93099999 662:0.91900003 697:0.94999999 850:0.95099998 868:0.92000002 870:0.92699999 873:0.92199999 893:0.92900002 1000:0.963 1038:0.917 1272:0.91000003 1282:0.95499998 1283:0.921 1305:0.96200001 1320:0.91799998 1370:0.91600001 1396:0.94800001 1419:0.91299999 1509:0.91799998 1515:0.93199998 1530:0.935 1542:0.98699999 1623:0.92299998 1632:0.935 1924:0.94499999 1941:0.92299998 #
-0.030274288547367380480812570908711 84:0.99199998 255:0.91600001 264:0.99699998 288:0.99400002 298:0.92900002 311:0.90200001 365:0.93900001 369:0.93099999 379:0.99400002 400:0.99699998 413:0.94700003 418:0.93400002 496:0.96600002 505:0.96399999 508:0.92500001 575:0.95599997 644:0.95200002 649:0.98000002 686:0.92299998 702:0.95099998 703:0.92699999 732:0.92299998 799:0.96399999 821:0.912 843:0.91799998 850:0.954 927:0.90499997 940:0.94099998 969:0.963 1022:0.93699998 1044:0.94499999 1180:0.95700002 1223:1 #
-0.030274288547367380480812570908711 4:0.98799998 11:0.93000001 17:0.93099999 23:0.93000001 84:0.99199998 153:0.949 199:0.92000002 237:0.90799999 264:0.935 297:0.91799998 310:0.90499997 324:0.917 329:0.94 333:0.92799997 335:0.92299998 345:0.92699999 350:0.94400001 358:0.91600001 359:0.995 367:0.91900003 369:0.94300002 370:0.91299999 372:0.93400002 381:0.90899998 418:0.91500002 458:0.92299998 461:0.92500001 482:0.92500001 491:0.96600002 503:1 #
0.030274288547367380480812570908711 4:0.89639997 8:0.86489999 44:0.81629997 303:0.8973 329:0.84240001 333:0.82440001 365:0.86849999 367:0.83520001 369:0.84329998 373:0.84329998 458:0.87029999 461:0.85680002 528:0.83429998 546:0.86760002 644:0.84060001 649:0.82980001 651:0.82800001 675:0.86669999 693:0.81449997 701:0.86489999 703:0.81900001 796:0.85229999 845:0.89279997 850:0.85320002 859:0.84780002 870:0.85769999 1022:0.85680002 1075:0.84420002 1318:0.81900001 #
-0.0080799105358226007422839387572822 2:0.97899997 8:0.98000002 10:0.97000003 20:0.98699999 26:0.98400003 68:0.99599999 141:0.98799998 190:0.98400003 197:0.98299998 207:0.90499997 212:0.97399998 253:0.95300001 264:0.92500001 326:0.91600001 365:0.95300001 369:0.91399997 385:0.97100002 400:0.90399998 449:0.92799997 499:0.96200001 500:0.94199997 502:0.91299999 546:0.97600001 616:0.972 637:0.917 644:0.93199998 657:0.96200001 677:0.972 698:0.93199998 715:0.98100001 745:0.93599999 827:0.97899997 876:0.96600002 885:0.90399998 962:0.98100001 1022:0.94300002 1149:0.94 1152:0.96799999 1155:0.92900002 1168:0.903 1170:0.99299997 1276:0.94700003 1278:0.97600001 1348:0.93699998 1374:0.93800002 1463:0.93599999 1473:1 1474:1 1475:1 1476:1 1477:1 1478:1 1479:1 1480:1 1481:1 #
-0.011135176169908569954181132288795 133:0.98699999 264:0.92400002 275:0.97000003 288:0.93199998 306:0.94499999 321:0.91100001 329:0.92699999 358:0.91100001 359:0.93400002 365:0.96200001 367:0.93900001 369:0.94099998 373:0.935 387:0.95200002 390:0.95200002 414:0.96600002 418:0.91900003 421:0.93800002 464:0.92500001 482:0.93099999 496:0.96799999 546:0.98199999 554:0.97500002 610:0.96899998 622:0.93000001 644:0.95499998 680:0.935 688:0.96399999 690:0.93599999 697:0.926 702:0.97600001 733:0.90899998 745:0.94999999 796:0.94099998 815:0.93000001 845:0.91500002 850:0.93699998 893:0.93599999 912:0.921 945:0.93900001 1014:0.92900002 1252:0.92900002 1282:0.95499998 1283:0.921 1320:0.90700001 1408:0.93400002 1469:0.90899998 1502:0.94700003 1509:0.912 1515:0.921 1520:0.93800002 1522:1 #
-0.0029098167692955452003078509193301 143:0.91100001 153:0.92400002 245:0.91799998 283:0.977 285:0.95499998 297:0.95999998 321:0.91100001 324:0.92000002 335:0.91399997 365:0.96499997 368:0.94800001 381:0.92699999 400:0.93099999 441:0.977 455:0.98500001 482:0.93699998 581:0.96399999 622:0.91399997 644:0.949 693:0.90200001 712:0.97399998 715:0.991 763:0.92900002 850:0.96200001 922:0.91799998 964:0.91000003 1014:0.90700001 1041:0.917 1090:0.96600002 1126:0.96600002 #
0.030274288547367380480812570908711 107:0.85860002 269:0.89459997 387:0.86040002 390:0.83429998 575:0.8847 712:0.87480003 #
-0.0095138965358148100404100944160746 5:0.94700003 24:0.94400001 49:0.98500001 101:0.98000002 245:0.90799999 333:0.97100002 335:0.93400002 350:0.92500001 369:0.94300002 381:0.93099999 418:0.93300003 458:0.91500002 487:0.90100002 675:0.90100002 680:0.94499999 697:0.90899998 700:0.97899997 733:0.95700002 751:0.93199998 857:0.93800002 1014:0.94 1040:0.93199998 1090:0.94099998 1134:0.91500002 1235:0.93199998 1370:0.94800001 1417:0.917 1470:0.97100002 1494:0.96700001 1499:1 1500:1 1501:1 #
0.030274288547367380480812570908711 3:0.89279997 8:0.89639997 10:0.82349998 14:0.8118 25:0.83340001 28:0.86129999 66:0.81900001 101:0.8739 105:0.89639997 127:0.84240001 141:0.87480003 145:0.88559997 154:0.88559997 176:0.82529998 233:0.8865 248:0.83700001 264:0.8793 279:0.84600002 281:0.8118 283:0.86129999 297:0.8136 298:0.82260001 306:0.83520001 310:0.82260001 321:0.86040002 329:0.83340001 334:0.8136 340:0.82980001 358:0.8118 365:0.86849999 369:0.85860002 370:0.83969998 379:0.83340001 381:0.83340001 385:0.89999998 386:0.89999998 387:0.89999998 388:0.89999998 389:0.89999998 390:0.89999998 391:0.89999998 392:0.89999998 393:0.89999998 394:0.89999998 395:0.89999998 396:0.89999998 397:0.89999998 #
0.030274288547367380480812570908711 7:0.88559997 248:0.83249998 321:0.84060001 365:0.86489999 369:0.82260001 370:0.84329998 379:0.82080001 400:0.88919997 458:0.84600002 464:0.86220002 482:0.83520001 546:0.85769999 551:0.89279997 554:0.88020003 566:0.8973 702:0.85589999 760:0.86129999 763:0.86220002 804:0.82080001 805:0.85409999 832:0.82529998 835:0.83700001 840:0.82889998 845:0.85500002 859:0.85320002 867:0.83429998 885:0.83340001 902:0.82620001 930:0.84060001 1000:0.84780002 1026:0.82529998 1241:0.84149998 1294:0.82800001 #
0.030274288547367380480812570908711 2:0.8811 3:0.8883 4:0.87029999 8:0.89279997 11:0.86669999 12:0.82980001 15:0.89639997 16:0.8847 26:0.83700001 34:0.86940002 46:0.8136 57:0.8775 60:0.82080001 81:0.8775 83:0.8136 87:0.8793 88:0.89279997 108:0.88919997 141:0.88559997 194:0.83160001 246:0.81449997 248:0.84780002 255:0.82349998 264:0.8973 279:0.85320002 297:0.82620001 309:0.85320002 310:0.84240001 317:0.81720001 321:0.83789998 326:0.83520001 329:0.83609998 333:0.86129999 334:0.83249998 335:0.85140002 350:0.84960002 365:0.84780002 366:0.88380003 369:0.84060001 370:0.84149998 381:0.84960002 418:0.84149998 424:0.83340001 439:0.84149998 446:0.8154 457:0.87480003 458:0.85320002 464:0.8154 467:0.82800001 482:0.85320002 487:0.83160001 497:0.81269997 498:0.84600002 499:0.8973 502:0.85589999 503:0.84600002 506:0.8136 514:0.83969998 518:0.89999998 519:0.89999998 520:0.89999998 521:0.89999998 522:0.89999998 523:0.89999998 524:0.89999998 525:0.89999998 526:0.89999998 #
0.030274288547367380480812570908711 8:0.8757 84:0.89279997 207:0.88559997 212:0.85769999 269:0.89459997 275:0.87300003 288:0.8829 350:0.81720001 369:0.83520001 370:0.84420002 381:0.82620001 400:0.84869999 402:0.81720001 410:0.8901 458:0.84960002 464:0.84149998 482:0.81449997 496:0.86669999 514:0.83969998 518:0.87660003 525:0.82980001 546:0.88919997 607:0.82080001 622:0.83069998 662:0.83249998 702:0.85589999 708:0.81629997 712:0.8847 796:0.85229999 804:0.84149998 815:0.82800001 845:0.84780002 859:0.86040002 870:0.85409999 878:0.82260001 893:0.84780002 922:0.82169998 947:0.82709998 955:0.82980001 990:0.82709998 998:0.89999998 #
-0.021101032886409812339145730675227 8:0.98799998 88:0.95999998 101:0.98799998 153:0.92799997 235:0.93099999 264:0.98299998 321:0.89999998 335:0.93199998 365:0.96200001 369:0.917 402:0.90799999 464:0.93099999 482:0.92299998 503:0.93199998 547:0.97299999 549:0.92199999 601:0.94 646:0.97799999 649:0.977 763:0.95599997 831:0.93599999 832:0.917 845:0.98000002 869:0.93900001 873:0.93000001 950:0.91100001 1022:0.93400002 1031:0.90200001 1039:0.90100002 1044:0.92400002 1069:0.93400002 1117:0.94499999 1123:0.917 1192:0.94099998 1295:0.94700003 1305:0.91399997 1310:0.91299999 1311:0.93199998 #
-0.013927829333388644025837344031515 50:0.96499997 57:0.94199997 154:0.99000001 179:0.98799998 248:0.94999999 262:0.98299998 297:0.921 303:0.98900002 306:0.94300002 310:0.95499998 321:0.93900001 350:0.94400001 369:0.93699998 370:0.93800002 381:0.94800001 399:0.94300002 417:0.90600002 439:0.94700003 446:0.91399997 455:0.99699998 458:0.96100003 488:0.903 496:0.963 514:0.94199997 522:0.926 532:0.92799997 546:0.98799998 622:0.93699998 649:0.90499997 662:0.91100001 688:0.94599998 702:0.95300001 703:0.92699999 708:0.912 715:0.92799997 763:0.91399997 845:0.95499998 850:0.94800001 859:0.95899999 870:0.949 873:0.93400002 893:0.94199997 902:0.93599999 947:0.92900002 956:0.92500001 986:1 987:1 988:1 #
0.030274288547367380480812570908711 28:0.85589999 45:0.89279997 311:0.81900001 336:0.86669999 418:0.83700001 505:0.85229999 508:0.84960002 522:0.83880001 528:0.89459997 575:0.86220002 611:0.84509999 622:0.81629997 925:0.89459997 940:0.84329998 1090:0.84509999 #
-0.0016235449319548732848017547070185 3:0.97500002 7:0.98400003 8:0.98799998 13:0.91799998 23:0.93300003 28:0.96200001 56:0.97299999 84:0.98799998 97:0.99599999 141:0.98799998 143:0.94300002 145:0.98400003 187:0.95300001 207:0.99599999 243:0.97500002 248:0.921 293:0.91799998 304:0.926 310:0.92900002 336:0.98500001 365:0.96100003 384:0.917 448:0.99599999 455:0.97299999 458:0.93400002 462:0.89999998 465:0.91799998 487:0.90399998 503:0.91900003 506:0.94300002 538:0.92299998 546:1 554:0.98500001 575:0.93000001 585:0.95300001 627:0.92299998 644:0.92400002 680:0.949 702:0.97899997 715:0.98900002 731:0.92000002 763:0.972 796:0.96899998 806:0.91900003 815:0.92900002 850:0.95200002 854:0.96700001 859:0.93900001 927:0.912 940:0.92699999 955:0.91399997 1022:0.96200001 1031:0.926 1076:0.92299998 1116:0.977 1216:0.93099999 1252:0.95599997 1285:0.93199998 1294:0.94199997 1469:0.96399999 1471:0.91500002 1488:1 1489:1 1490:1 1491:1 1492:1 #
0.030274288547367380480812570908711 3:0.8847 49:0.8775 133:0.86220002 324:0.82800001 329:0.83340001 369:0.84060001 381:0.83609998 461:0.86489999 538:0.83429998 649:0.82440001 693:0.81269997 697:0.85680002 712:0.8721 804:0.83880001 843:0.81900001 850:0.86400002 859:0.85589999 975:0.86129999 1024:0.82260001 1090:0.84240001 1098:0.84149998 1306:0.85589999 1353:0.89999998 1354:0.89999998 #
-0.030274288547367380480812570908711 81:0.99599999 92:0.98400003 324:0.935 418:0.93800002 420:0.93900001 432:0.99699998 575:0.95700002 610:0.926 700:0.99400002 712:0.98000002 857:0.94300002 929:0.92000002 940:0.93800002 1053:0.94499999 1055:0.95099998 1090:0.93800002 1130:0.94999999 1252:0.94 1315:0.93599999 1622:0.94 1634:0.92699999 #
0.030274288547367380480812570908711 6:0.86580002 233:0.87480003 257:0.8793 264:0.8154 321:0.84060001 335:0.83520001 350:0.85500002 365:0.87120003 369:0.84329998 439:0.83700001 467:0.81720001 482:0.84509999 575:0.86129999 622:0.84329998 644:0.86940002 649:0.88919997 796:0.87029999 850:0.89459997 893:0.82440001 920:0.81269997 #
0.030274288547367380480812570908711 84:0.8775 264:0.8901 265:0.8919 297:0.82080001 303:0.8973 321:0.82980001 329:0.83880001 346:0.86580002 358:0.86040002 365:0.87120003 369:0.84149998 402:0.82169998 418:0.83609998 455:0.89459997 461:0.85949999 484:0.89459997 491:0.89099997 499:0.84060001 528:0.89459997 575:0.86040002 610:0.83429998 612:0.84689999 699:0.85320002 712:0.88739997 850:0.85320002 857:0.83969998 940:0.83880001 1090:0.81269997 1220:0.82620001 1252:0.85409999 1264:0.82260001 1305:0.86669999 1360:0.83340001 1495:0.82440001 1502:0.81629997 1526:0.87120003 1527:0.82440001 1530:0.85860002 1596:0.83429998 1620:0.86129999 1622:0.84420002 1634:0.8154 1721:0.83609998 1736:0.83700001 1788:0.87840003 1809:0.81089997 #
0.030274288547367380480812570908711 133:0.8883 224:0.89999998 246:0.89279997 255:0.83340001 321:0.83520001 329:0.86669999 335:0.84869999 365:0.86849999 369:0.84869999 402:0.82800001 418:0.85049999 433:0.83880001 441:0.84329998 528:0.8919 644:0.83880001 670:0.81900001 675:0.82980001 697:0.8154 703:0.85049999 733:0.84960002 796:0.86309999 801:0.84960002 850:0.86580002 866:0.83429998 912:0.87300003 983:0.83160001 1022:0.84509999 1117:0.8775 1294:0.83249998 #
0.030274288547367380480812570908711 17:0.89279997 40:0.85140002 50:0.85769999 79:0.8739 127:0.84240001 248:0.82440001 298:0.83609998 303:0.89459997 365:0.87120003 369:0.83520001 431:0.88919997 491:0.8901 622:0.83880001 644:0.82889998 649:0.85320002 690:0.81629997 699:0.85589999 732:0.81449997 733:0.84780002 806:0.83789998 850:0.85500002 873:0.89999998 #
0.030274288547367380480812570908711 4:0.84060001 79:0.84420002 85:0.89279997 245:0.8973 264:0.89459997 310:0.86220002 335:0.81989998 365:0.87120003 368:0.83160001 379:0.83880001 382:0.84149998 429:0.83609998 458:0.85589999 464:0.82709998 490:0.87480003 502:0.83520001 514:0.82620001 537:0.8919 551:0.83789998 594:0.84149998 644:0.84149998 649:0.88919997 657:0.8901 680:0.85769999 688:0.84329998 703:0.82620001 742:0.83249998 796:0.85229999 827:0.83069998 832:0.82529998 850:0.86040002 893:0.84780002 944:0.83340001 1022:0.84509999 1027:0.82080001 1069:0.82529998 1178:0.85769999 1179:0.82800001 1249:0.8154 #
-0.030274288547367380480812570908711 6:0.96600002 14:0.99199998 22:0.95499998 28:0.92900002 29:0.97399998 40:0.92000002 54:0.93199998 76:0.95899999 79:0.97600001 81:0.99599999 92:0.98400003 95:0.96200001 105:0.991 109:0.98799998 143:0.935 246:0.96600002 247:0.94099998 248:0.92799997 251:1 252:1 253:1 254:1 255:1 256:1 257:1 #
-0.030274288547367380480812570908711 6:0.91399997 28:0.94099998 61:0.93800002 79:0.963 143:0.91100001 248:0.926 264:0.99699998 282:0.92500001 335:0.917 365:0.97100002 369:0.89999998 399:0.917 426:0.91100001 441:1 #
-0.030274288547367380480812570908711 3:0.99199998 4:0.99599999 26:0.97500002 28:0.94499999 32:0.99599999 143:0.91900003 242:0.96899998 264:0.972 278:1 283:0.95999998 303:0.98000002 304:0.95300001 309:0.92699999 311:0.90799999 322:0.90499997 329:0.926 365:0.96799999 368:0.92699999 414:0.92900002 425:1 426:1 427:1 428:1 #
0.030274288547367380480812570908711 3:0.89279997 4:0.8775 5:0.86760002 13:0.84869999 17:0.86760002 18:0.8775 20:0.89999998 24:0.89279997 25:0.83700001 41:0.83609998 44:0.84149998 50:0.86849999 54:0.89639997 61:0.87840003 79:0.84689999 85:0.89999998 90:0.81900001 94:0.84780002 101:0.8775 104:0.85500002 108:0.83700001 141:0.81809998 143:0.84869999 152:0.8883 153:0.85409999 168:0.86760002 187:0.86580002 201:0.84600002 206:0.84600002 215:0.85140002 245:0.82800001 248:0.84780002 252:0.82980001 254:0.82709998 257:0.83789998 264:0.8955 290:0.8154 306:0.85320002 308:0.83249998 317:0.82529998 329:0.83789998 330:0.89999998 331:0.89999998 332:0.89999998 333:0.89999998 334:0.89999998 335:0.89999998 #
-0.030274288547367380480812570908711 81:0.963 255:0.91600001 324:0.92799997 381:0.90700001 418:0.93199998 505:0.94800001 575:0.95700002 672:0.90899998 712:0.94300002 720:0.94 857:0.935 940:0.93199998 1053:0.94300002 1055:0.95499998 1090:0.93900001 1622:0.95099998 1805:0.95300001 1806:0.97399998 1808:1 1809:1 #
-0.030274288547367380480812570908711 6:0.98500001 283:0.97100002 461:0.94300002 581:0.97000003 632:0.98799998 644:0.96899998 703:0.93900001 745:0.954 751:0.95099998 806:0.93800002 850:0.93800002 1000:0.92400002 1176:0.96399999 1208:0.91600001 1305:0.92900002 1449:1 1450:1 #
0.030274288547367380480812570908711 50:0.85500002 134:0.8775 135:0.85320002 243:0.85680002 252:0.86040002 264:0.89459997 273:0.84960002 290:0.8847 298:0.84060001 321:0.82709998 334:0.82980001 358:0.85860002 381:0.85320002 458:0.85949999 482:0.81 544:0.82800001 546:0.8757 551:0.8775 556:0.84869999 567:0.82349998 605:0.82169998 622:0.83789998 644:0.8739 649:0.85049999 651:0.8793 680:0.82800001 745:0.85049999 796:0.86040002 804:0.83340001 814:0.81449997 832:0.84060001 835:0.86669999 845:0.83789998 850:0.82889998 859:0.83429998 870:0.85949999 887:0.82349998 1022:0.84780002 1044:0.85589999 1090:0.82889998 1189:0.81809998 1208:0.8136 1262:0.84509999 1294:0.83880001 1295:0.85409999 1299:0.82529998 #
0.030274288547367380480812570908711 7:0.87840003 17:0.88559997 50:0.8721 153:0.84329998 179:0.87120003 290:0.8847 303:0.88200003 310:0.82260001 321:0.84780002 358:0.86129999 365:0.84509999 370:0.84149998 379:0.81809998 381:0.82889998 383:0.82980001 400:0.84329998 439:0.84420002 469:0.82889998 482:0.83160001 488:0.81900001 500:0.84960002 506:0.82260001 546:0.89459997 556:0.85320002 573:0.8919 602:0.83340001 605:0.85500002 644:0.84780002 690:0.81809998 699:0.83789998 703:0.84509999 712:0.86129999 731:0.81269997 762:0.81629997 807:0.85229999 814:0.82260001 815:0.84240001 835:0.83969998 845:0.82980001 893:0.85500002 940:0.83340001 945:0.8136 983:0.81989998 1022:0.84509999 1036:0.82709998 1090:0.84960002 1113:0.85500002 1200:0.84060001 1219:0.82260001 1252:0.85140002 1269:0.82800001 1285:0.82440001 1315:0.83700001 1331:0.82889998 1332:0.83609998 1333:0.83969998 1335:0.89999998 1336:0.89999998 1337:0.89999998 1338:0.89999998 1339:0.89999998 #
0.030274288547367380480812570908711 15:0.89999998 101:0.89279997 187:0.86129999 245:0.82889998 248:0.86309999 252:0.86129999 290:0.8847 303:0.89459997 321:0.83340001 329:0.82529998 336:0.8739 350:0.82440001 365:0.87660003 369:0.84329998 370:0.84869999 400:0.87300003 433:0.83880001 455:0.8973 458:0.84329998 464:0.84060001 503:0.84869999 546:0.8865 585:0.86669999 611:0.83069998 612:0.84060001 622:0.83789998 627:0.82080001 680:0.84600002 697:0.8973 699:0.84600002 702:0.86040002 703:0.82889998 731:0.82349998 733:0.83429998 751:0.82709998 796:0.85500002 850:0.85860002 859:0.85320002 860:0.83249998 863:0.89459997 868:0.81629997 1022:0.84780002 1031:0.81720001 1044:0.82980001 1069:0.82080001 1178:0.83789998 1211:0.81269997 1252:0.85680002 1295:0.86400002 1310:0.8865 1315:0.84509999 1318:0.84689999 1331:0.89999998 #
0.030274288547367380480812570908711 8:0.89279997 84:0.89279997 141:0.84960002 159:0.89639997 168:0.88200003 229:0.86580002 233:0.8829 264:0.83880001 310:0.84509999 321:0.82080001 329:0.84329998 369:0.83609998 400:0.87029999 439:0.83700001 458:0.84420002 464:0.83609998 467:0.83789998 506:0.84509999 528:0.8919 533:0.84600002 546:0.89459997 605:0.86669999 612:0.84329998 617:0.85140002 622:0.83340001 662:0.85140002 678:0.81089997 680:0.85769999 708:0.81089997 712:0.8793 815:0.84780002 832:0.83340001 859:0.86669999 893:0.83969998 930:0.84420002 947:0.81809998 983:0.82800001 1090:0.84509999 1211:0.8118 1246:0.89999998 #
-0.030274288547367380480812570908711 196:0.91500002 262:0.99400002 310:0.93400002 335:0.92299998 365:0.96499997 381:0.90700001 399:0.91299999 432:0.99699998 487:0.91600001 506:0.903 519:0.912 522:0.96799999 528:0.99400002 545:0.90100002 546:0.96399999 548:0.95599997 605:0.95700002 608:0.96100003 644:0.95099998 697:0.91100001 731:0.92400002 746:1 815:0.954 850:0.97899997 983:0.95599997 988:0.93300003 1079:0.92699999 1136:0.93800002 1211:0.90600002 1299:0.90100002 1315:0.93900001 1360:0.91500002 1373:0.92500001 1433:0.96100003 1436:0.917 1489:0.96399999 1495:0.91900003 1524:0.94400001 1530:0.96200001 1616:1 1617:1 #
-0.0046400227634390868447500366755776 25:0.92199999 50:1 245:0.92000002 297:0.921 317:0.94800001 320:0.935 329:0.949 331:0.949 358:0.90499997 365:0.97100002 367:0.94199997 369:0.94 370:0.93000001 381:0.92799997 458:0.92299998 461:0.903 464:0.92500001 482:0.949 514:0.94400001 546:0.93199998 551:0.99199998 554:0.95700002 601:0.93400002 644:0.94700003 662:0.92500001 680:0.949 688:0.94 690:0.91100001 697:0.90600002 702:0.97500002 712:0.963 721:0.95200002 731:0.926 843:0.90700001 845:0.98100001 859:0.95099998 870:0.95200002 893:0.958 915:0.89999998 950:0.917 959:0.90799999 1039:0.91399997 1090:0.94599998 1189:0.912 1249:0.90200001 1305:0.95999998 1306:0.93900001 1310:0.91600001 1313:1 1314:1 #
-0.030274288547367380480812570908711 159:0.99299997 179:0.92900002 205:0.93199998 219:0.97600001 252:0.93400002 288:0.991 290:0.98299998 322:0.926 350:0.92000002 379:0.90899998 381:0.91500002 389:0.90899998 400:0.98500001 417:0.926 439:0.91799998 453:0.96799999 458:0.95700002 487:0.935 500:0.954 546:0.96700001 548:0.97100002 566:0.99400002 651:0.92500001 692:0.94800001 698:0.92299998 708:0.91799998 712:0.97399998 796:0.94700003 804:0.935 807:0.95300001 815:0.90200001 832:0.90799999 837:0.92500001 845:0.94199997 863:1 870:0.94800001 878:0.92900002 940:0.91000003 941:0.96200001 960:0.99400002 990:0.91900003 1035:0.94099998 1053:0.93900001 1073:1 1074:1 #
0.030274288547367380480812570908711 265:0.89459997 373:0.81629997 482:0.84060001 752:0.84509999 #
-0.030274288547367380480812570908711 4:0.99599999 24:0.99599999 50:0.90700001 133:0.97899997 179:0.96399999 204:0.98299998 247:0.91900003 252:0.977 264:0.954 275:0.97000003 293:0.94800001 298:0.94199997 303:0.99699998 329:0.95099998 336:0.95700002 346:0.96200001 358:0.95899999 365:0.96799999 367:0.92699999 369:0.94300002 383:0.92799997 400:0.93000001 409:0.991 417:0.93800002 418:0.94 421:0.926 439:0.95300001 444:0.94599998 445:0.94999999 446:0.90399998 458:0.94300002 461:0.954 464:0.926 491:0.991 499:0.97600001 502:0.92799997 546:0.98799998 621:0.89999998 632:1 649:0.99699998 693:0.90200001 697:0.90600002 700:0.93099999 703:0.92400002 708:0.90700001 733:0.94400001 796:0.95899999 804:0.93800002 806:0.94199997 815:0.90499997 826:0.91600001 837:0.93099999 870:0.94599998 955:0.90200001 1022:0.95099998 1025:0.90799999 1031:0.912 1131:0.96899998 #
-0.030274288547367380480812570908711 159:0.99599999 381:0.91500002 390:0.91100001 481:0.99699998 546:0.97799999 859:0.94599998 1090:0.94499999 1094:0.92400002 1282:0.95700002 1283:0.92000002 1285:0.90600002 1315:0.93900001 1597:0.92900002 1973:0.94700003 1987:1 #
0.02532707847779859869352669932141 4:0.89639997 5:0.8118 6:0.87300003 8:0.88919997 14:0.89279997 16:0.81 18:0.87029999 25:0.84240001 33:0.86669999 44:0.84420002 55:0.86129999 61:0.8811 68:0.86489999 79:0.8811 80:0.81900001 82:0.89279997 85:0.89999998 90:0.85049999 101:0.88559997 115:0.82349998 134:0.86129999 143:0.84509999 153:0.86580002 177:0.83340001 183:0.84600002 187:0.86940002 193:0.85320002 205:0.86040002 206:0.89999998 212:0.8919 215:0.89999998 216:0.89999998 217:0.89999998 218:0.89999998 219:0.89999998 220:0.89999998 221:0.89999998 222:0.89999998 223:0.89999998 #
-0.0085384957785659583440196485071283 15:0.99599999 283:0.94800001 297:0.93199998 365:0.96499997 368:0.99699998 369:0.93099999 370:0.94 399:0.954 575:0.95099998 675:0.93699998 680:0.94999999 811:0.93699998 815:0.90799999 845:0.97799999 850:0.954 870:0.95099998 917:0.93400002 940:0.93199998 1090:0.95499998 #
-0.020554624920107483765363554084615 41:0.95999998 90:0.90899998 255:0.92299998 279:0.94599998 310:0.90899998 329:0.93199998 358:0.95999998 360:0.95499998 369:0.917 383:0.91799998 429:0.89999998 440:0.917 457:0.94 458:0.92799997 461:0.995 464:0.92799997 482:0.91000003 500:0.958 525:0.91799998 537:0.926 544:0.90799999 546:0.97000003 551:0.99699998 613:0.94099998 649:0.92199999 693:0.91100001 699:0.89999998 708:0.90100002 755:0.93300003 815:0.93599999 832:0.92000002 845:0.92400002 859:0.95499998 873:0.93400002 983:0.91100001 989:0.91399997 1036:0.99699998 #
0.030274288547367380480812570908711 28:0.86489999 84:0.86129999 134:0.8811 152:0.8883 212:0.87660003 283:0.85589999 311:0.81989998 365:0.86580002 369:0.84060001 372:0.82709998 373:0.84869999 379:0.81269997 458:0.85409999 461:0.85860002 482:0.84509999 505:0.84420002 518:0.87660003 525:0.83609998 575:0.86129999 581:0.85949999 582:0.85949999 644:0.85860002 649:0.81720001 675:0.8739 688:0.85140002 697:0.83160001 702:0.86220002 712:0.88739997 734:0.81269997 804:0.84149998 850:0.86400002 940:0.84060001 1022:0.84509999 1041:0.82260001 1133:0.82529998 1176:0.86129999 1199:0.84600002 1315:0.85589999 1375:0.82709998 1386:0.89999998 1387:0.89999998 #
-0.0046535256661954732884667329528838 113:0.94599998 235:0.95200002 245:0.92299998 246:0.99199998 247:0.94499999 264:0.99699998 310:0.912 329:0.926 369:0.93699998 370:0.93300003 379:0.93599999 458:0.90399998 464:0.917 465:0.96899998 469:0.917 487:0.97299999 514:0.94999999 546:0.97000003 551:0.93400002 554:0.98100001 567:0.91500002 576:0.90899998 585:0.97000003 662:0.92799997 675:0.94300002 680:0.94999999 690:0.91100001 702:0.94499999 703:0.91799998 731:0.91399997 815:0.92400002 832:0.93400002 845:0.95300001 850:0.96799999 859:0.94800001 893:0.917 902:0.91100001 983:0.94400001 1022:0.94199997 1027:0.903 1094:0.912 1189:0.94400001 1205:0.92900002 1249:0.92900002 1285:0.90799999 1316:1 #
0.030274288547367380480812570908711 2:0.85229999 7:0.88919997 183:0.8757 207:0.89639997 310:0.8154 335:0.82260001 365:0.84780002 369:0.86309999 370:0.84600002 371:0.81 373:0.84060001 400:0.89459997 446:0.85680002 464:0.82529998 482:0.84509999 503:0.83249998 551:0.8973 566:0.84509999 608:0.86489999 644:0.84869999 702:0.85589999 715:0.82349998 804:0.82889998 832:0.81720001 840:0.83160001 859:0.85140002 860:0.81989998 870:0.86129999 885:0.82889998 1000:0.86669999 1031:0.86760002 1090:0.84780002 1113:0.86400002 1241:0.83069998 #
-0.030274288547367380480812570908711 79:0.95300001 293:0.93900001 336:0.97100002 365:0.96799999 644:0.92900002 #
0.030274288547367380480812570908711 84:0.88559997 233:0.8757 252:0.86669999 262:0.88739997 264:0.84329998 297:0.82889998 329:0.84600002 350:0.85500002 367:0.84780002 369:0.84329998 381:0.84329998 458:0.84060001 464:0.83969998 498:0.83700001 499:0.89279997 522:0.83160001 537:0.8757 546:0.88919997 573:0.8973 611:0.82169998 622:0.83789998 680:0.85769999 692:0.83249998 703:0.8136 712:0.85409999 796:0.82080001 815:0.83700001 859:0.85409999 870:0.85589999 873:0.83789998 898:0.86220002 920:0.81449997 956:0.83700001 1022:0.84060001 1069:0.81269997 1090:0.84240001 1136:0.84689999 1211:0.84780002 1246:0.85409999 1252:0.87029999 1254:0.89999998 #
0.030274288547367380480812570908711 50:0.8721 134:0.86489999 151:0.89639997 248:0.86760002 252:0.86489999 264:0.8919 273:0.81629997 358:0.82980001 370:0.83340001 458:0.82349998 482:0.85949999 525:0.83160001 546:0.8757 551:0.89459997 554:0.85500002 556:0.84329998 594:0.83969998 607:0.82800001 608:0.83160001 622:0.83520001 644:0.86669999 649:0.82440001 680:0.85769999 688:0.82980001 703:0.83700001 737:0.8136 796:0.86309999 804:0.82889998 832:0.84060001 859:0.85320002 870:0.85949999 947:0.8154 1022:0.84869999 1044:0.82440001 1090:0.84240001 1094:0.81809998 1127:0.82709998 1208:0.83969998 1252:0.83609998 1388:0.89999998 1389:0.89999998 1390:0.89999998 1391:0.89999998 #
-0.0031347511255438919794413799024824 4:0.99599999 12:0.98000002 24:0.99599999 33:0.98000002 34:0.97500002 44:0.94800001 50:0.91500002 68:0.99599999 80:0.95999998 84:0.98799998 85:1 88:1 90:0.92900002 107:0.98699999 135:0.96899998 143:0.91900003 145:0.99199998 153:0.949 168:0.95999998 205:0.93199998 210:0.91100001 240:0.91299999 298:0.92000002 305:0.98900002 326:0.96100003 358:0.94300002 365:0.96100003 369:0.90200001 392:0.97000003 394:0.99299997 456:0.991 491:0.97899997 499:0.972 586:0.99000001 600:0.90899998 621:0.991 642:0.96600002 649:0.92199999 657:0.98000002 692:0.90399998 702:0.95999998 751:0.96100003 783:0.99599999 796:0.96899998 826:0.921 841:0.949 850:0.954 873:0.90700001 890:0.903 1000:0.96100003 1044:0.90700001 1152:0.99000001 1192:0.97600001 1252:0.94 1391:0.912 1524:0.97100002 1526:0.95599997 1527:0.93400002 1530:0.96499997 1548:0.90399998 1576:0.97299999 1580:0.95099998 1623:0.93900001 1684:1 1685:1 1686:1 1687:1 1688:1 1689:1 #
0.030274288547367380480812570908711 64:0.89639997 141:0.87120003 279:0.81989998 303:0.84149998 369:0.85589999 370:0.83609998 373:0.85140002 439:0.85769999 445:0.86760002 448:0.8919 458:0.87300003 464:0.83789998 525:0.82440001 538:0.85680002 541:0.83520001 544:0.8118 546:0.8865 548:0.8973 551:0.89279997 566:0.8847 590:0.8955 627:0.82800001 680:0.85769999 699:0.84509999 708:0.82620001 804:0.84960002 815:0.85589999 832:0.83069998 837:0.82260001 841:0.82889998 873:0.83249998 893:0.83969998 1027:0.82080001 1031:0.86760002 1102:0.8739 1131:0.81720001 1135:0.81989998 1147:0.81989998 1279:0.83969998 1285:0.85140002 1310:0.86040002 1325:0.85229999 #
-0.0047448787405507675263294231626787 10:0.98699999 127:0.92799997 133:0.93199998 264:0.986 279:0.94300002 282:0.91600001 297:0.91799998 298:0.94999999 321:0.94700003 329:0.926 331:0.94599998 350:0.91900003 369:0.94499999 370:0.94499999 373:0.92900002 381:0.91799998 394:0.94199997 400:0.94 448:0.97399998 464:0.92199999 467:0.91100001 477:0.92199999 482:0.92299998 488:0.99400002 499:0.97799999 502:0.93900001 530:0.90100002 537:0.991 544:0.91399997 546:0.991 551:0.98900002 552:0.92199999 607:0.949 632:1 644:0.99400002 649:0.977 664:0.92199999 697:0.91500002 703:0.921 708:0.912 712:0.97399998 726:0.98299998 772:0.991 796:0.97000003 804:0.91500002 827:0.93400002 832:0.93699998 850:0.954 859:0.95300001 860:0.917 870:0.94199997 882:0.94800001 902:0.92199999 911:1 #
-0.030274288547367380480812570908711 3:0.97500002 79:0.95300001 84:0.98400003 88:0.99599999 135:0.96600002 245:0.92000002 246:0.93199998 264:0.99199998 329:0.926 365:0.95899999 369:0.92500001 402:0.96399999 458:0.93199998 503:0.94300002 519:0.90399998 525:0.912 541:0.98000002 546:0.96100003 551:1 567:0.90100002 573:0.99400002 644:0.926 649:0.98299998 699:0.94 732:0.91100001 796:0.96499997 815:0.90200001 832:0.903 843:0.90499997 850:0.977 1022:0.93900001 1038:0.917 1044:0.91900003 1075:0.94099998 1090:0.93199998 1094:1 #
0.030274288547367380480812570908711 3:0.87300003 131:0.86220002 233:0.8757 246:0.89279997 264:0.8973 297:0.82349998 321:0.82529998 322:0.84420002 350:0.83429998 365:0.87120003 369:0.84600002 400:0.89459997 418:0.83609998 455:0.89999998 458:0.82080001 467:0.81269997 488:0.8973 496:0.86669999 514:0.84780002 525:0.83969998 546:0.8865 551:0.8955 586:0.88919997 602:0.84960002 611:0.82800001 622:0.83609998 644:0.8118 662:0.82260001 712:0.8775 720:0.84240001 733:0.85769999 752:0.83160001 832:0.83069998 837:0.81449997 843:0.82440001 850:0.8793 859:0.85500002 870:0.85049999 956:0.83880001 1035:0.84689999 1038:0.84509999 1039:0.89999998 1040:0.89999998 #
0.030274288547367380480812570908711 168:0.88200003 329:0.84600002 335:0.83340001 350:0.82620001 365:0.86580002 369:0.83789998 370:0.83700001 382:0.83609998 445:0.87300003 448:0.8847 455:0.89459997 464:0.83429998 503:0.85949999 546:0.8919 551:0.89279997 601:0.82080001 622:0.83609998 680:0.85769999 702:0.8775 738:0.86309999 807:0.86309999 832:0.84060001 870:0.85589999 1022:0.86129999 1032:0.81720001 1044:0.85320002 1131:0.81989998 1189:0.82080001 #
0.030274288547367380480812570908711 88:0.86849999 204:0.88919997 229:0.85140002 248:0.83969998 297:0.82620001 321:0.85320002 329:0.84600002 332:0.84869999 365:0.87120003 379:0.85949999 381:0.85320002 417:0.84600002 433:0.86760002 455:0.89459997 458:0.83700001 496:0.86849999 546:0.8865 566:0.84780002 575:0.86580002 644:0.85320002 688:0.84060001 690:0.82440001 692:0.8118 796:0.85229999 804:0.84149998 843:0.81720001 845:0.8775 850:0.86129999 1044:0.85049999 1090:0.84689999 1262:0.86940002 1303:0.83700001 1310:0.82349998 1315:0.85589999 1318:0.82709998 1319:0.89999998 1320:0.89999998 1321:0.89999998 #
0.030274288547367380480812570908711 41:0.8739 101:0.89639997 246:0.84869999 264:0.89459997 306:0.84600002 311:0.81720001 317:0.85589999 321:0.81809998 325:0.85049999 329:0.84869999 359:0.8955 365:0.86849999 369:0.84869999 370:0.84420002 373:0.83160001 383:0.81809998 400:0.86489999 458:0.85860002 459:0.83340001 467:0.83789998 499:0.86760002 530:0.81089997 546:0.87029999 547:0.8973 554:0.86309999 605:0.86129999 607:0.84149998 644:0.85680002 649:0.83789998 688:0.86489999 690:0.81809998 699:0.86220002 702:0.8757 769:0.81989998 796:0.85500002 826:0.82260001 850:0.86849999 859:0.85229999 940:0.82260001 1006:0.8757 1022:0.82440001 1212:0.81 1235:0.83340001 1295:0.85500002 1318:0.84509999 1343:0.89999998 #
-0.030274288547367380480812570908711 8:0.99199998 154:0.991 232:0.96899998 264:0.97100002 455:0.99699998 537:0.94499999 551:0.98299998 576:0.94800001 601:0.93900001 644:0.917 688:0.949 870:0.958 1022:0.96600002 1090:0.90600002 1502:0.93199998 1510:0.92000002 1527:0.95599997 1530:0.95599997 1679:0.91500002 1745:0.98500001 1762:0.94400001 1870:0.95200002 1888:1 #
0.030274288547367380480812570908711 38:0.8919 88:0.8901 93:0.82980001 122:0.8775 154:0.88559997 168:0.87840003 248:0.82080001 275:0.87029999 288:0.88020003 310:0.84780002 321:0.85320002 329:0.8154 332:0.84600002 365:0.86309999 369:0.84149998 373:0.83520001 379:0.81809998 381:0.82169998 390:0.81 400:0.83520001 421:0.81449997 461:0.86129999 464:0.82709998 494:0.81089997 496:0.86940002 499:0.87300003 537:0.83340001 546:0.85229999 548:0.89999998 549:0.89999998 550:0.89999998 551:0.89999998 #
0.030274288547367380480812570908711 107:0.89279997 260:0.8973 287:0.89099997 296:0.88919997 297:0.89999998 311:0.8118 418:0.83880001 870:0.8757 981:0.85949999 #
0.030274288547367380480812570908711 79:0.86580002 85:0.83969998 101:0.89639997 245:0.87300003 264:0.89459997 365:0.86849999 371:0.83069998 429:0.83789998 446:0.85229999 458:0.85049999 499:0.87300003 502:0.85140002 524:0.81809998 546:0.8919 551:0.84149998 556:0.82980001 607:0.8883 627:0.83789998 649:0.88919997 657:0.8955 680:0.82709998 703:0.82889998 796:0.86580002 832:0.81269997 850:0.86669999 867:0.8154 869:0.81720001 1022:0.85589999 1026:0.8154 1123:0.8118 1171:0.83880001 1178:0.83789998 1211:0.81089997 1212:0.82980001 #
0.030274288547367380480812570908711 288:0.8829 336:0.8739 #
0.030274288547367380480812570908711 116:0.85769999 134:0.87480003 273:0.84420002 290:0.8847 321:0.8154 366:0.87840003 368:0.85409999 370:0.81900001 400:0.85140002 402:0.83609998 455:0.8973 458:0.85769999 464:0.83069998 469:0.8154 482:0.82529998 502:0.83160001 524:0.81809998 538:0.83700001 546:0.8919 605:0.84689999 616:0.8829 627:0.8136 680:0.85320002 702:0.82709998 703:0.86489999 712:0.8865 731:0.85680002 733:0.8154 796:0.85229999 804:0.83160001 832:0.81720001 859:0.85049999 930:0.84420002 1000:0.86220002 1022:0.85409999 1030:0.89999998 1031:0.89999998 #
0.030274288547367380480812570908711 3:0.89639997 4:0.89639997 32:0.89639997 79:0.86940002 85:0.86580002 87:0.86940002 89:0.89279997 97:0.89999998 168:0.88559997 264:0.85949999 281:0.83340001 306:0.84600002 329:0.83609998 350:0.84420002 365:0.86849999 369:0.84149998 376:0.88739997 379:0.8154 384:0.84960002 402:0.82440001 410:0.89279997 439:0.84689999 480:0.82529998 487:0.86220002 502:0.83520001 518:0.87660003 529:0.86220002 537:0.83609998 546:0.86940002 575:0.85860002 585:0.86400002 600:0.85409999 621:0.83789998 622:0.83609998 644:0.8721 649:0.81720001 662:0.82709998 669:0.83160001 688:0.82709998 694:0.89999998 695:0.89999998 #
-0.030274288547367380480812570908711 262:0.99699998 288:0.98900002 321:0.92299998 365:0.96499997 418:0.93699998 487:0.90499997 657:0.98299998 712:0.986 840:0.921 845:0.94999999 870:0.95499998 885:0.98100001 891:0.935 1064:0.97100002 1065:0.963 1067:0.97600001 1068:0.99699998 #
0.030274288547367380480812570908711 79:0.83520001 275:0.8973 305:0.83609998 321:0.83160001 365:0.8739 409:0.89999998 417:0.83249998 441:0.88380003 455:0.8973 469:0.81269997 575:0.86309999 697:0.87029999 940:0.82980001 1039:0.81449997 1210:0.8973 #
-0.030274288547367380480812570908711 4:0.98799998 6:0.97000003 81:0.99199998 92:0.98799998 109:0.98799998 233:0.98900002 246:0.98900002 252:0.97500002 255:0.91299999 264:0.991 324:0.92199999 335:0.90200001 365:0.96600002 373:0.935 418:0.926 487:0.954 575:0.94499999 611:0.91600001 622:0.93699998 644:0.926 649:0.98000002 669:0.90799999 703:0.92400002 796:0.98000002 810:1 #
-0.030274288547367380480812570908711 6:0.96499997 44:0.92699999 55:0.991 277:0.91000003 283:0.95999998 358:0.917 544:0.91399997 581:0.96700001 632:0.98299998 644:0.95700002 751:0.92400002 806:0.92900002 850:0.96200001 1000:0.97500002 1143:0.95999998 #
-0.028831243872165412261976413788034 101:0.98400003 207:0.96799999 212:0.97399998 283:0.93599999 297:0.91799998 321:0.94999999 370:0.95499998 402:0.91299999 418:0.90799999 443:0.91900003 458:0.95099998 464:0.926 522:0.95700002 548:0.97000003 551:0.99400002 576:0.903 585:0.97000003 605:0.954 610:0.90499997 617:0.96399999 680:0.95300001 712:0.98000002 804:0.93800002 832:0.90499997 1020:0.958 1090:0.93900001 1123:0.921 1296:1 #
-0.0026936594201407708555617848134034 7:0.98400003 34:0.97500002 63:0.95700002 124:0.97600001 207:0.99599999 283:0.95099998 297:1 298:0.95300001 305:0.98799998 369:0.93099999 379:0.96899998 400:0.93699998 446:0.93300003 458:0.94599998 464:0.92500001 500:0.95999998 502:0.91900003 546:0.97899997 585:0.95599997 662:0.91900003 676:0.91100001 697:0.99400002 699:0.93400002 702:0.94700003 715:0.92699999 804:0.93199998 806:0.935 807:0.94199997 808:0.96700001 850:0.96200001 859:0.93300003 870:0.95300001 893:0.94199997 1031:0.92400002 1135:0.90499997 1272:0.92199999 1276:0.92799997 1294:0.91299999 1306:0.95599997 1315:0.95099998 1371:0.935 1480:0.97000003 1489:0.94 1515:0.92900002 1534:0.94 1646:0.94999999 1650:0.917 1677:0.96399999 1741:0.91799998 1783:0.92199999 1941:0.93800002 1963:0.90899998 1978:1 1979:1 #
-0.030274288547367380480812570908711 7:0.99199998 8:0.99199998 50:1 94:0.98299998 143:0.93099999 160:0.92199999 207:0.99599999 248:0.95599997 264:0.98299998 279:0.93000001 458:0.91500002 505:0.94 617:0.97600001 699:0.96200001 1054:0.97600001 1110:0.94199997 1264:0.90499997 1295:0.926 1336:0.903 1402:0.90499997 1524:0.94300002 1530:0.95599997 1622:0.986 1623:0.92199999 1628:1 1629:1 1630:1 1631:1 1632:1 #
-0.010038540065734449444057041489486 2:0.98400003 17:0.93099999 30:0.986 41:0.97100002 50:0.926 135:0.98100001 237:0.90399998 245:0.91100001 246:0.97299999 248:0.94400001 264:0.98000002 278:0.91900003 311:0.90899998 329:0.92900002 334:0.95200002 335:0.94800001 345:0.92699999 358:0.92500001 373:0.92900002 387:0.95200002 390:0.91600001 448:0.99699998 458:0.958 461:0.986 482:0.926 514:0.93599999 525:0.92699999 546:0.96399999 550:0.92699999 556:0.95099998 567:0.90700001 573:0.95599997 575:0.95200002 627:0.90700001 629:0.98699999 649:0.98000002 654:0.935 690:1 691:1 692:1 693:1 #
0.030274288547367380480812570908711 84:0.89279997 168:0.88200003 264:0.89459997 283:0.89099997 358:0.84509999 365:0.86849999 369:0.84420002 370:0.84420002 382:0.83069998 399:0.8154 400:0.84329998 402:0.87029999 446:0.82800001 448:0.88919997 482:0.84420002 525:0.82620001 546:0.8775 554:0.87029999 644:0.83969998 699:0.84329998 733:0.83069998 738:0.81629997 745:0.86129999 850:0.85589999 893:0.84509999 1022:0.84329998 1108:0.81449997 1134:0.84689999 1176:0.84509999 1252:0.85680002 1268:0.82440001 #
0.030274288547367380480812570908711 2:0.87029999 152:0.81720001 212:0.87660003 246:0.89279997 264:0.86220002 306:0.82800001 321:0.83609998 329:0.86940002 334:0.85140002 335:0.83880001 365:0.86849999 382:0.82889998 401:0.85949999 487:0.8793 506:0.86580002 525:0.85049999 546:0.88919997 603:0.8937 605:0.85500002 611:0.81900001 622:0.83249998 644:0.85140002 702:0.85049999 708:0.81629997 731:0.83609998 738:0.87120003 815:0.84060001 840:0.82889998 845:0.87480003 870:0.86940002 903:0.82440001 915:0.82709998 983:0.83249998 1005:0.83069998 1022:0.85860002 1090:0.85769999 1211:0.81449997 1252:0.84869999 1295:0.8154 1298:0.82169998 1373:0.89999998 1374:0.89999998 #
-0.0039455515365023965945745487715612 49:0.93599999 56:0.94300002 88:0.99599999 207:0.95899999 248:0.91600001 262:0.991 264:0.958 290:0.96399999 303:0.93099999 310:0.92400002 321:0.95300001 359:0.99400002 365:0.96499997 369:0.94800001 370:0.94300002 439:0.93800002 458:0.949 464:0.94499999 482:0.95300001 490:0.97500002 503:0.95200002 525:0.90499997 546:0.99400002 605:0.95700002 617:0.97500002 622:0.92900002 651:0.92500001 670:0.921 699:0.95599997 708:0.91600001 712:0.977 733:0.958 738:0.96200001 751:0.95300001 806:0.93900001 811:0.92900002 815:0.95700002 878:0.89999998 893:0.91600001 920:0.90600002 955:0.91399997 983:0.93199998 1039:0.90499997 1041:1 #
0.030274288547367380480812570908711 154:0.88559997 212:0.87300003 264:0.86940002 329:0.84600002 365:0.86849999 491:0.8847 603:0.8973 644:0.84060001 702:0.86760002 796:0.81269997 903:0.82440001 #
0.030274288547367380480812570908711 20:0.8883 246:0.82440001 283:0.86580002 304:0.83609998 311:0.81989998 329:0.84060001 365:0.86580002 369:0.84060001 418:0.84329998 458:0.86220002 482:0.83789998 503:0.84329998 505:0.85229999 518:0.8757 546:0.85229999 575:0.86580002 581:0.85680002 582:0.8901 644:0.85949999 670:0.84509999 804:0.84420002 821:0.8955 832:0.84060001 843:0.81720001 850:0.85860002 902:0.82169998 940:0.84420002 964:0.8136 972:0.81720001 1002:0.87300003 1036:0.86400002 1116:0.88919997 1176:0.87660003 1186:0.81629997 1199:0.87300003 1276:0.8865 1385:0.89999998 #
-0.013830582074631381922502626480309 4:0.99599999 50:0.96899998 108:0.99199998 153:0.949 248:0.91100001 264:0.99400002 310:0.93900001 350:0.93599999 358:0.93099999 370:0.92000002 400:0.991 458:0.958 506:0.94099998 544:0.90499997 546:0.98500001 551:0.99699998 554:0.972 605:0.95999998 622:0.93099999 644:0.96799999 660:1 680:0.91100001 698:0.92900002 699:0.92799997 703:0.91799998 731:0.92900002 745:0.954 751:0.90399998 796:0.94999999 804:0.92000002 815:0.926 1022:0.95300001 1044:0.92299998 1121:0.92900002 #
-0.015155894861570901044345305308525 159:0.98900002 207:0.95599997 303:0.93000001 321:0.93199998 335:0.92900002 369:0.93699998 400:0.98500001 459:0.94199997 464:0.92799997 487:0.921 514:0.921 546:0.98199999 662:0.91900003 699:0.90799999 708:0.903 712:0.977 758:0.93699998 763:0.958 804:0.935 840:0.921 845:0.99199998 859:0.95300001 893:0.93599999 903:0.91600001 929:0.91600001 1098:0.94 1100:1 #
0.030274288547367380480812570908711 8:0.88919997 64:0.86040002 90:0.8118 115:0.85049999 133:0.8883 134:0.86129999 143:0.83069998 243:0.8865 248:0.82260001 252:0.84060001 254:0.82169998 273:0.8775 278:0.8955 290:0.8154 310:0.82260001 321:0.84960002 329:0.85769999 365:0.87120003 369:0.84869999 370:0.83969998 373:0.83609998 379:0.83520001 418:0.83429998 439:0.84689999 441:0.8757 446:0.81269997 455:0.8973 458:0.84060001 461:0.89999998 462:0.89999998 463:0.89999998 464:0.89999998 465:0.89999998 466:0.89999998 467:0.89999998 #
0.030274288547367380480812570908711 90:0.88020003 264:0.83069998 329:0.85140002 461:0.83340001 649:0.82440001 654:0.85049999 697:0.81089997 703:0.82889998 #
-0.0041525876943935505908322980417324 3:0.99199998 6:0.96100003 8:0.99599999 24:0.98000002 46:0.91600001 64:0.912 88:0.96600002 97:0.99599999 135:0.96899998 141:0.95599997 154:0.98400003 184:0.92799997 253:0.92799997 264:0.95200002 279:0.91399997 281:0.94 290:0.98100001 298:0.92799997 309:0.91399997 321:0.94400001 329:0.92299998 332:0.93699998 333:0.90200001 335:0.92299998 344:0.90100002 350:0.94599998 354:0.917 358:0.92500001 365:0.94199997 367:0.93400002 369:0.95999998 373:0.92799997 379:0.92000002 381:0.90600002 382:0.91399997 389:0.97799999 400:0.93099999 402:0.95200002 410:0.92900002 430:0.90700001 439:0.94700003 445:0.95599997 448:0.99400002 457:0.935 458:0.91900003 464:0.92500001 465:0.91000003 467:0.903 475:0.926 483:0.92400002 487:0.91000003 490:0.97000003 498:0.921 502:0.93099999 514:0.93000001 525:0.91600001 528:0.99400002 544:0.92000002 546:0.93800002 557:0.95599997 566:0.991 567:0.91799998 576:0.94599998 583:1 584:1 585:1 586:1 #
-0.014825822694537907006639976259521 8:0.98799998 135:0.93900001 204:0.98299998 245:0.92299998 288:0.99400002 297:0.91600001 321:0.94499999 369:0.926 370:0.91299999 372:0.95999998 381:0.926 382:0.92000002 417:0.92199999 418:0.92299998 439:0.94700003 445:0.93300003 455:0.98799998 458:0.94999999 464:0.92000002 467:0.92000002 496:0.92199999 503:0.94300002 533:0.90799999 546:0.98500001 551:0.986 566:0.99400002 567:0.91500002 644:0.94599998 649:0.98000002 662:0.917 688:0.93099999 712:1 731:0.94400001 732:0.91399997 763:0.935 796:0.972 815:0.93300003 832:0.92799997 859:0.95300001 870:0.97299999 955:0.92000002 1042:0.91600001 1044:0.94800001 1090:0.96899998 1113:0.94400001 1127:0.91799998 1181:0.91500002 1206:0.93300003 1209:0.96200001 1265:1 1266:1 #
-0.020524634053968007080248625584318 3:0.99599999 4:0.99599999 17:0.99599999 25:0.92199999 32:0.91100001 40:0.92500001 44:0.91500002 54:0.89999998 55:0.98299998 63:0.94099998 66:0.90600002 68:0.96100003 79:0.94099998 84:0.99199998 97:1 101:0.97100002 120:1 135:0.96600002 143:0.94700003 151:0.98799998 223:0.99199998 233:0.98900002 246:0.98500001 248:0.92199999 252:0.92500001 254:0.92900002 264:0.99400002 281:0.93199998 298:0.96700001 304:0.91399997 321:0.94199997 326:0.91600001 329:0.926 332:0.94599998 333:0.91299999 335:0.92299998 337:1 338:1 339:1 340:1 341:1 342:1 343:1 344:1 345:1 346:1 347:1 348:1 #
0.030274288547367380480812570908711 229:0.83160001 245:0.8973 248:0.82800001 310:0.87480003 329:0.84329998 365:0.86580002 369:0.84329998 373:0.83789998 400:0.84060001 506:0.83160001 546:0.89639997 605:0.84420002 644:0.83340001 662:0.82980001 688:0.84329998 699:0.81720001 708:0.81900001 741:0.84329998 815:0.84780002 859:0.85589999 873:0.84329998 902:0.83880001 956:0.8136 983:0.84060001 1022:0.84329998 1147:0.83069998 1290:0.81089997 #
0.030274288547367380480812570908711 90:0.85769999 134:0.8811 206:0.84960002 329:0.84329998 365:0.87120003 488:0.81269997 522:0.86940002 548:0.8847 610:0.83789998 644:0.85860002 649:0.82440001 688:0.84869999 697:0.83340001 702:0.85320002 712:0.88380003 796:0.85229999 804:0.83160001 850:0.81449997 1013:0.81449997 1022:0.84509999 1074:0.85680002 1269:0.8919 1363:0.89999998 1364:0.89999998 #
0.030274288547367380480812570908711 92:0.87480003 311:0.82260001 324:0.84060001 418:0.82620001 461:0.84420002 522:0.86400002 528:0.89459997 575:0.86849999 622:0.83880001 #
-0.030274288547367380480812570908711 28:0.94499999 293:0.93699998 311:0.91100001 336:0.97100002 409:0.99699998 575:0.95700002 #
-0.030274288547367380480812570908711 57:0.98299998 252:0.963 297:0.921 311:0.90799999 324:0.93099999 402:0.92299998 482:0.90100002 487:0.921 522:0.972 528:0.99400002 575:0.93300003 607:0.903 712:0.98799998 815:0.90700001 821:0.98900002 853:1 #
-0.030274288547367380480812570908711 41:0.95599997 262:0.99400002 303:0.99400002 329:0.93199998 461:0.98299998 508:0.91000003 575:0.94499999 649:0.92199999 1176:0.94599998 #
-0.030274288547367380480812570908711 293:0.93699998 336:0.96899998 #
0.030274288547367380480812570908711 4:0.89999998 15:0.86400002 85:0.86220002 93:0.88919997 228:0.83700001 232:0.86940002 245:0.89459997 264:0.89459997 335:0.83520001 365:0.86849999 410:0.86400002 439:0.88380003 458:0.84329998 471:0.81900001 502:0.83520001 546:0.8811 551:0.83700001 644:0.86760002 649:0.88919997 657:0.8919 688:0.82169998 703:0.83969998 796:0.87300003 807:0.82529998 815:0.81449997 825:0.83069998 832:0.82800001 850:0.88739997 859:0.85320002 885:0.82709998 1022:0.84780002 1123:0.82260001 1178:0.8793 1180:0.85589999 1247:0.86040002 #
-0.013711060389210195931131153201932 248:0.92799997 255:0.91299999 257:0.912 264:0.99699998 273:0.94099998 290:0.94499999 297:0.91799998 310:0.94700003 311:0.90200001 321:0.92799997 365:0.96499997 370:0.93300003 371:0.912 379:0.90600002 381:0.91799998 458:0.93900001 467:0.93400002 469:0.91799998 525:0.91100001 546:0.98500001 554:0.96600002 567:0.90100002 575:0.95700002 605:0.94700003 607:0.94999999 608:0.93599999 612:0.91900003 644:0.90600002 662:0.917 680:0.95599997 804:0.93800002 806:0.93099999 807:0.93400002 814:0.90499997 815:0.94199997 832:0.93699998 857:0.94 859:0.95599997 870:0.93699998 885:0.92799997 893:0.92199999 913:0.98400003 915:0.95499998 917:0.90399998 931:1 #
-0.030274288547367380480812570908711 212:0.96200001 246:0.99199998 278:0.995 303:0.96100003 311:0.90399998 313:0.94400001 369:0.93199998 414:0.95700002 430:0.94999999 439:0.96499997 445:0.90600002 459:0.954 480:0.90499997 495:0.93699998 496:0.97600001 551:0.986 575:0.954 622:0.92000002 873:0.926 940:0.93400002 950:0.90499997 #
0.030274288547367380480812570908711 329:0.84060001 365:0.87120003 400:0.83249998 455:0.8973 546:0.88919997 644:0.84149998 #
-0.030274288547367380480812570908711 212:0.97399998 279:0.93400002 370:0.98000002 373:0.94300002 381:0.93900001 383:0.91500002 443:0.92799997 458:0.94300002 464:0.94599998 496:0.963 499:0.963 546:0.98199999 551:0.99699998 612:0.90700001 676:0.991 712:0.97399998 804:0.93400002 825:0.90799999 845:0.94400001 853:0.912 885:0.921 1090:0.96600002 1123:0.91399997 1127:0.92199999 1146:0.91500002 1240:0.92199999 1297:0.97000003 1298:1 1299:1 1300:1 #
-0.030274288547367380480812570908711 28:0.93300003 212:0.95300001 278:0.995 304:0.90100002 369:0.94300002 410:0.97799999 414:0.96200001 439:0.95300001 496:0.97500002 505:0.96200001 575:0.95700002 612:0.90899998 920:0.89999998 940:0.92900002 1124:1 1125:1 #
0.030274288547367380480812570908711 8:0.86580002 36:0.8811 56:0.81 81:0.89279997 133:0.83880001 255:0.82169998 257:0.81089997 275:0.8973 304:0.8721 310:0.83429998 317:0.85860002 334:0.81629997 335:0.81989998 350:0.82440001 369:0.86400002 370:0.84149998 373:0.83609998 387:0.86040002 390:0.82980001 391:0.82080001 413:0.83520001 414:0.86489999 418:0.84329998 420:0.86309999 421:0.83520001 426:0.8118 439:0.83700001 458:0.83069998 486:0.8118 492:0.89999998 493:0.89999998 494:0.89999998 495:0.89999998 496:0.89999998 #
0.030274288547367380480812570908711 81:0.83429998 153:0.84329998 232:0.86940002 233:0.8793 264:0.84149998 297:0.82620001 298:0.84509999 318:0.88020003 329:0.84869999 350:0.86040002 369:0.84329998 381:0.83160001 417:0.84060001 418:0.84329998 452:0.82169998 457:0.86760002 461:0.83880001 499:0.89459997 502:0.84329998 546:0.86760002 573:0.85860002 575:0.85769999 611:0.84960002 622:0.83789998 680:0.84780002 712:0.86940002 751:0.83429998 829:0.83609998 832:0.83520001 841:0.83160001 870:0.86040002 878:0.82980001 920:0.81269997 922:0.8136 930:0.84689999 1022:0.84329998 1069:0.81269997 1090:0.86220002 1252:0.87660003 1255:0.89999998 1256:0.89999998 #
0.030274288547367380480812570908711 245:0.82889998 303:0.89279997 329:0.84869999 358:0.85860002 365:0.87120003 369:0.84600002 373:0.85140002 379:0.83340001 446:0.82529998 458:0.87029999 461:0.86849999 514:0.83429998 546:0.84149998 575:0.85140002 607:0.83609998 644:0.85589999 649:0.82709998 693:0.8118 703:0.82620001 745:0.85320002 796:0.85229999 815:0.82620001 845:0.8829 850:0.86400002 859:0.84329998 869:0.82260001 870:0.85680002 873:0.83520001 890:0.83249998 915:0.83700001 983:0.83520001 1022:0.85860002 1027:0.82080001 1102:0.81449997 1295:0.85409999 1318:0.83880001 1359:0.89999998 #
-0.028566058022037370267565137282872 74:0.99000001 246:0.99599999 269:0.94800001 288:0.97799999 290:0.98199999 310:0.91399997 321:0.93900001 350:0.91299999 417:0.92400002 446:0.92199999 458:0.95499998 467:0.92500001 482:0.92500001 496:0.95999998 506:0.935 514:0.958 524:0.91799998 546:0.98199999 644:0.93599999 662:0.912 690:0.903 697:0.94400001 699:0.95099998 731:0.90499997 770:0.94999999 815:0.963 859:0.95300001 887:0.93699998 893:0.93900001 930:0.935 956:0.92900002 983:0.977 1090:0.93599999 1206:0.92799997 1249:0.93199998 1285:0.90600002 1294:0.949 1332:0.92500001 1365:1 1371:0.91399997 1394:0.912 1429:0.96399999 1469:0.90700001 1488:0.97000003 1489:0.96600002 1495:0.92500001 1616:0.97799999 1650:0.92000002 1912:0.963 1963:0.92299998 1968:0.94700003 1981:1 1982:1 #
0.030274288547367380480812570908711 8:0.8793 248:0.83160001 283:0.86849999 321:0.86489999 350:0.83520001 365:0.87120003 369:0.84869999 382:0.82620001 482:0.83340001 535:0.84869999 546:0.8865 554:0.82620001 633:0.81 644:0.85769999 662:0.83249998 715:0.85229999 731:0.81720001 745:0.86129999 850:0.85860002 859:0.85320002 945:0.85949999 964:0.8136 972:0.82980001 1000:0.86129999 1022:0.84329998 1044:0.83700001 1176:0.86400002 1268:0.8118 1292:0.89999998 1293:0.89999998 1294:0.89999998 #
0.030274288547367380480812570908711 4:0.86309999 132:0.87120003 255:0.82620001 264:0.89279997 277:0.83700001 282:0.83249998 288:0.8973 297:0.82620001 311:0.81900001 329:0.82800001 365:0.87120003 369:0.83249998 409:0.84329998 417:0.84329998 423:0.85769999 495:0.8937 496:0.86849999 575:0.85860002 644:0.83160001 697:0.81809998 703:0.82349998 712:0.86940002 796:0.85500002 804:0.84149998 843:0.81720001 849:0.89999998 #
-0.030274288547367380480812570908711 #
0.030274288547367380480812570908711 61:0.86580002 66:0.82980001 245:0.83340001 264:0.81809998 290:0.8793 303:0.89459997 321:0.85500002 329:0.85140002 336:0.88380003 358:0.85680002 365:0.86849999 369:0.84060001 373:0.84869999 379:0.82080001 383:0.82529998 400:0.88919997 409:0.82800001 448:0.8973 458:0.83789998 464:0.83340001 499:0.88200003 546:0.8865 556:0.85589999 573:0.82080001 585:0.81269997 622:0.84060001 644:0.83160001 651:0.82349998 676:0.84060001 680:0.85049999 699:0.83880001 702:0.8811 703:0.82620001 796:0.85229999 806:0.84509999 814:0.84780002 815:0.84240001 850:0.88200003 859:0.85589999 952:0.86040002 964:0.86040002 983:0.83160001 1022:0.83520001 1031:0.83880001 1102:0.86580002 1178:0.83789998 1200:0.83340001 1211:0.81449997 1241:0.84689999 1264:0.81720001 1310:0.82349998 1318:0.81900001 1327:0.89999998 1328:0.89999998 #
0.030274288547367380480812570908711 4:0.88919997 21:0.81720001 84:0.89279997 264:0.85140002 298:0.84780002 329:0.84869999 335:0.83789998 350:0.86220002 358:0.81720001 369:0.83520001 373:0.83520001 379:0.84149998 458:0.83429998 482:0.82889998 537:0.86309999 546:0.88919997 576:0.8136 669:0.85680002 703:0.82889998 796:0.86489999 832:0.84329998 837:0.8118 859:0.85769999 873:0.83520001 898:0.88020003 899:0.82709998 901:0.89999998 #
0.030274288547367380480812570908711 45:0.87840003 184:0.84960002 204:0.88919997 275:0.87300003 288:0.89459997 381:0.81629997 390:0.82260001 414:0.83069998 417:0.84509999 464:0.83520001 495:0.88200003 496:0.87840003 550:0.83969998 662:0.8154 697:0.85500002 759:0.8901 804:0.84420002 868:0.86400002 870:0.85860002 990:0.81989998 1061:0.89999998 #
0.030274288547367380480812570908711 107:0.89639997 260:0.89999998 267:0.8973 293:0.84329998 297:0.88739997 336:0.89999998 #
-0.0041595483481420905680359112466249 4:0.99599999 50:1 249:0.93000001 264:0.99699998 279:0.95099998 298:0.94800001 311:0.90799999 346:0.96799999 365:0.96799999 369:0.93400002 402:0.96100003 429:0.92000002 461:0.94599998 544:0.90499997 575:0.954 644:0.954 680:0.94800001 688:0.94599998 699:0.90200001 703:0.921 733:0.94400001 796:0.96200001 832:0.91100001 850:0.97000003 885:0.92799997 #
0.030274288547367380480812570908711 28:0.84149998 168:0.88200003 229:0.85949999 252:0.8793 298:0.83969998 303:0.89999998 311:0.82980001 321:0.82169998 336:0.8721 373:0.83609998 379:0.84869999 383:0.82260001 400:0.83520001 440:0.83069998 467:0.81 487:0.8865 506:0.84689999 528:0.89459997 567:0.8136 575:0.86669999 612:0.82800001 762:0.8154 805:0.85680002 870:0.86129999 875:0.8919 915:0.8136 927:0.84060001 929:0.8739 938:0.89459997 940:0.83880001 983:0.81449997 1003:0.8919 1006:0.85589999 1009:0.89999998 1010:0.89999998 #
0.028394854292709392068472240566734 8:0.89639997 133:0.84329998 275:0.89999998 297:0.89999998 303:0.8973 321:0.85500002 324:0.83069998 331:0.84869999 335:0.84149998 336:0.86129999 404:0.8919 417:0.83880001 465:0.85589999 505:0.82529998 524:0.83249998 528:0.89459997 546:0.88919997 575:0.86129999 608:0.87120003 662:0.82980001 697:0.85769999 859:0.85769999 868:0.81269997 891:0.84420002 940:0.85409999 1027:0.82080001 1123:0.82889998 1147:0.83340001 1206:0.87029999 1235:0.8154 1249:0.82080001 1294:0.83249998 1295:0.8154 1305:0.89999998 1306:0.89999998 1307:0.89999998 1308:0.89999998 #
0.030274288547367380480812570908711 6:0.86940002 14:0.84149998 79:0.86580002 246:0.88739997 247:0.85500002 249:0.83700001 252:0.86580002 257:0.82620001 264:0.81809998 311:0.81720001 321:0.83789998 350:0.85500002 365:0.8793 369:0.84600002 379:0.82080001 400:0.82709998 402:0.81900001 439:0.85500002 482:0.83789998 575:0.85320002 622:0.84420002 644:0.85589999 649:0.88739997 703:0.82620001 832:0.82529998 850:0.8919 853:0.83069998 857:0.84329998 893:0.81269997 920:0.86220002 #
-0.021721180399936312888087286410155 8:0.98000002 46:0.90399998 85:0.92799997 134:0.94999999 153:0.94499999 159:0.97500002 207:1 235:0.95700002 245:0.91799998 310:0.93800002 321:0.94800001 335:0.903 358:0.90499997 369:0.93400002 370:0.93800002 373:0.93400002 400:0.94300002 430:0.94199997 439:0.93000001 446:0.917 458:0.93199998 464:0.93099999 482:0.917 487:0.90399998 503:0.95499998 524:0.949 538:0.94099998 546:0.991 556:0.954 608:0.93900001 617:0.97299999 625:0.921 662:0.90600002 680:0.94999999 708:0.91500002 734:0.96499997 804:0.93800002 815:0.93900001 832:0.91399997 845:0.92799997 850:0.96200001 859:0.95300001 893:0.91900003 940:0.90799999 983:0.91399997 1113:0.95700002 1178:0.93099999 1239:1 1240:1 #
-0.030274288547367380480812570908711 4:0.97100002 20:1 21:0.94999999 25:0.926 60:0.90799999 82:0.94999999 88:0.98900002 101:1 108:0.97899997 116:0.95700002 183:0.95300001 199:0.92000002 245:0.92299998 264:0.912 297:0.90899998 306:0.93099999 317:0.91100001 321:0.94700003 329:0.917 334:0.90700001 335:0.926 342:0.90899998 350:0.94199997 358:0.90799999 361:0.92799997 365:0.96499997 369:0.93699998 370:0.92299998 373:0.93099999 379:0.92900002 389:0.958 439:0.921 446:0.92199999 464:0.92199999 467:0.917 471:0.93400002 482:0.93699998 487:0.92500001 497:1 498:1 499:1 #
-0.00056959980894567222714508503145225 3:0.94999999 5:0.96399999 15:0.98799998 115:0.99199998 141:0.972 142:0.98000002 207:0.99599999 232:0.96899998 243:0.921 264:0.92299998 283:0.91600001 285:0.98199999 368:0.99000001 369:0.95200002 370:0.92299998 373:0.90600002 402:0.935 476:0.90100002 482:0.903 546:0.97899997 554:0.92699999 575:0.97299999 625:0.95200002 675:0.92400002 680:0.949 815:0.92400002 850:0.958 940:0.93400002 972:0.90700001 1036:0.94599998 1125:0.98500001 1176:0.98100001 1186:0.90399998 1252:0.94099998 1371:0.90100002 1469:0.912 1527:0.94300002 1530:0.95499998 1535:0.926 1537:0.89999998 1543:0.94099998 1548:0.94400001 1551:0.98199999 1552:1 #
-0.030274288547367380480812570908711 81:0.97100002 245:0.90899998 262:0.99699998 288:0.98799998 292:0.95499998 369:0.93400002 409:0.95200002 418:0.92400002 421:0.92799997 445:0.93400002 503:0.95200002 548:0.94400001 680:0.94999999 712:0.99699998 769:0.917 870:0.95700002 885:0.97799999 990:0.91299999 1044:0.94800001 1064:0.97600001 1067:0.97899997 1068:0.99699998 1070:1 1071:1 1072:1 #
-0.030274288547367380480812570908711 6:0.96499997 36:0.98299998 133:0.99199998 206:0.93599999 275:0.97299999 297:0.91500002 303:0.98299998 310:0.94999999 368:0.949 370:0.94099998 381:0.93199998 390:0.94 404:0.986 408:0.91100001 409:0.991 414:0.92500001 417:0.93400002 418:0.92900002 482:0.93699998 492:0.98199999 495:0.99599999 496:0.949 544:0.90200001 605:0.90700001 644:0.949 662:0.91900003 680:0.94499999 697:0.92400002 702:0.95599997 712:0.98000002 715:0.94199997 731:0.926 744:0.93599999 818:1 819:1 820:1 #
-0.0014905827535929838667527747020358 4:0.99599999 8:0.99199998 81:0.97899997 84:0.912 90:0.94099998 134:0.97500002 233:0.98500001 246:0.98100001 255:0.90799999 262:0.991 264:0.93400002 315:0.93599999 321:0.90600002 324:0.92799997 329:0.954 365:0.96499997 393:0.90100002 418:0.92699999 461:0.97000003 487:0.97799999 514:0.94700003 528:0.98799998 546:0.96399999 575:0.94999999 605:0.94700003 610:0.91600001 611:0.91600001 622:0.93300003 644:0.93000001 649:0.92199999 662:0.917 672:0.89999998 693:0.90100002 703:0.91799998 708:0.91000003 796:1 797:1 798:1 799:1 800:1 801:1 802:1 #
0.030274288547367380480812570908711 28:0.85769999 81:0.87120003 255:0.82169998 288:0.8829 297:0.81809998 301:0.8937 303:0.89459997 311:0.81900001 411:0.82440001 417:0.83609998 418:0.85049999 426:0.8847 496:0.86849999 505:0.82800001 528:0.89459997 575:0.86129999 624:0.8847 672:0.83340001 697:0.83700001 856:0.89639997 857:0.89999998 #
0.0045679849604418664224536605900084 5:0.86580002 6:0.85680002 14:0.84869999 17:0.89279997 21:0.85500002 23:0.87120003 24:0.88559997 25:0.81 32:0.83520001 33:0.8739 40:0.82800001 41:0.87840003 49:0.85860002 54:0.82620001 56:0.8883 57:0.8775 68:0.86760002 79:0.86849999 80:0.84869999 81:0.8847 84:0.88919997 88:0.89279997 90:0.85680002 93:0.83249998 109:0.84869999 127:0.84240001 135:0.85229999 143:0.84509999 153:0.8775 154:0.89639997 162:0.8847 193:0.83700001 197:0.8847 215:0.83789998 219:0.89999998 223:0.87029999 233:0.89639997 240:0.82169998 242:0.89999998 243:0.89999998 244:0.89999998 #
0.030274288547367380480812570908711 264:0.86400002 283:0.8739 285:0.85860002 298:0.85500002 332:0.84869999 350:0.84240001 365:0.8739 369:0.83249998 389:0.86940002 400:0.84869999 439:0.84149998 502:0.84329998 518:0.8721 528:0.85320002 581:0.86760002 644:0.83160001 796:0.85500002 804:0.83880001 832:0.83789998 850:0.8793 #
-0.013622441709713816251903217846575 15:0.99599999 84:0.99199998 124:0.98000002 248:0.91900003 283:0.95099998 310:0.917 311:0.91600001 321:0.95200002 350:0.94 365:0.96499997 370:0.94099998 373:0.94599998 400:0.94300002 439:0.91500002 446:0.91600001 458:0.93099999 476:0.92500001 503:0.94300002 525:0.93300003 544:0.92000002 575:0.95700002 581:0.96700001 602:0.96399999 703:0.91799998 751:0.92900002 763:0.92699999 804:0.935 887:0.91399997 #
-0.0017636578078905195288844653944693 3:0.99199998 25:0.91000003 38:0.991 127:0.91500002 134:0.954 219:0.99199998 243:0.958 248:0.91399997 273:0.93599999 283:0.95700002 285:0.98500001 317:0.91500002 321:0.93400002 333:0.90499997 334:0.91900003 335:0.93300003 344:0.97500002 350:0.94199997 365:0.96499997 367:0.91000003 369:0.963 370:0.93699998 381:0.93199998 435:0.917 439:0.94099998 455:1 458:0.958 467:0.93300003 482:0.93599999 487:0.91000003 497:0.90700001 503:0.93400002 546:0.98500001 551:0.99699998 554:0.95599997 567:0.90700001 574:0.91000003 581:0.97299999 585:0.91900003 586:0.98299998 594:0.917 632:0.99699998 651:0.903 675:0.95099998 680:0.94999999 681:1 682:1 683:1 684:1 685:1 #
-0.028179197674706519399778770207377 3:0.99199998 17:0.99599999 44:0.935 127:0.93599999 135:0.94800001 156:0.98799998 306:0.92500001 326:0.96799999 329:0.91399997 333:0.92500001 335:0.91000003 358:0.90799999 365:0.96799999 369:0.91399997 392:0.97299999 394:0.995 400:0.97299999 436:0.93199998 439:0.92400002 458:0.94199997 467:0.92199999 498:0.93800002 499:0.97299999 514:0.93300003 537:0.92299998 582:0.98900002 585:0.95999998 600:0.95099998 601:0.926 622:0.92299998 655:1 656:1 657:1 658:1 659:1 660:1 661:1 662:1 663:1 664:1 665:1 666:1 667:1 668:1 #
-0.030274288547367380480812570908711 79:0.92799997 293:0.93099999 336:0.98400003 365:0.97100002 644:0.91299999 #
0.030274288547367380480812570908711 6:0.86940002 14:0.88919997 29:0.8919 40:0.81449997 54:0.83520001 79:0.87840003 81:0.89999998 92:0.88200003 109:0.87029999 125:0.8154 143:0.84149998 245:0.89999998 246:0.89999998 247:0.89999998 248:0.89999998 249:0.89999998 250:0.89999998 #
-0.030274288547367380480812570908711 4:0.99599999 86:0.97299999 90:0.96899998 233:0.98900002 400:0.98199999 455:0.98900002 611:0.93199998 1414:0.903 1539:0.93900001 1788:0.96700001 1889:0.96899998 #
-0.030274288547367380480812570908711 212:0.96200001 278:0.995 369:0.93800002 414:0.96100003 430:0.95099998 459:0.95700002 496:0.97600001 551:0.99699998 575:0.954 585:0.95300001 804:0.92900002 873:0.93099999 940:0.92900002 1097:0.96200001 #
0.030274288547367380480812570908711 229:0.83520001 246:0.84869999 248:0.83249998 264:0.8721 297:0.82889998 303:0.88919997 321:0.83609998 329:0.86669999 335:0.83880001 359:0.82800001 365:0.86580002 368:0.84509999 379:0.82800001 381:0.82349998 400:0.82889998 466:0.83429998 487:0.88380003 525:0.86580002 546:0.88919997 548:0.8847 603:0.8937 605:0.85860002 608:0.86669999 622:0.8154 644:0.83880001 702:0.85320002 708:0.81900001 731:0.83520001 770:0.84420002 845:0.86669999 887:0.82980001 903:0.82440001 950:0.82260001 1022:0.86129999 1038:0.82980001 1090:0.83700001 1252:0.81809998 1266:0.81989998 1295:0.81269997 1298:0.82169998 1375:0.89999998 1376:0.89999998 #
-0.011731621978601811800979604072381 4:0.98699999 264:0.99400002 279:0.93400002 291:0.94300002 369:0.93699998 370:0.94300002 381:0.92400002 458:0.96899998 464:0.92900002 546:0.98500001 601:0.912 662:0.93099999 680:0.94999999 690:0.91299999 697:0.97000003 712:0.98500001 796:0.94999999 815:0.92400002 832:0.94 845:0.93300003 850:0.96200001 870:0.92400002 893:0.93199998 902:0.91299999 1022:0.94199997 1027:0.917 1044:0.94199997 1090:0.93900001 1096:0.92799997 1242:0.93900001 1252:0.93800002 1279:0.94 1306:0.95499998 1313:0.90200001 1315:0.93900001 1360:0.90100002 1394:0.93599999 1489:0.917 1526:0.97000003 1534:0.91299999 1632:0.92000002 1721:0.92900002 1766:0.92400002 1783:0.94199997 1790:0.949 1791:0.92000002 1819:0.95099998 1922:1 1923:1 #
-0.0037850328261582483896363626740822 3:0.95300001 84:0.98799998 168:0.98000002 264:0.99699998 288:0.99400002 311:0.90799999 329:0.92000002 350:0.93599999 369:0.93400002 370:0.92400002 379:0.991 400:0.99699998 414:0.95300001 451:0.986 488:0.99400002 496:0.96600002 505:0.94700003 575:0.95700002 644:0.94599998 649:0.98000002 698:0.93400002 702:0.94800001 703:0.91799998 732:0.92299998 733:0.90200001 843:0.90499997 850:0.954 913:0.90799999 940:0.94300002 1022:0.93400002 1044:0.903 1085:0.89999998 1090:0.963 1208:0.92199999 1216:0.93599999 1222:1 #
-0.030274288547367380480812570908711 101:0.99199998 246:0.98900002 252:0.93900001 301:0.98900002 321:0.92799997 370:0.92900002 429:0.91100001 487:0.96600002 502:0.93699998 506:0.93599999 528:0.94700003 546:0.98799998 554:0.98500001 575:0.94199997 818:0.94599998 859:0.91100001 #
0.030274288547367380480812570908711 3:0.8883 90:0.84689999 133:0.8847 264:0.84149998 273:0.82709998 321:0.83249998 324:0.83520001 329:0.83880001 369:0.84329998 461:0.84689999 462:0.81629997 546:0.88919997 662:0.82709998 697:0.85680002 712:0.85589999 733:0.82800001 804:0.83880001 843:0.81720001 850:0.86940002 975:0.86129999 1022:0.84780002 1130:0.86309999 1294:0.85229999 1306:0.86760002 1318:0.83880001 1353:0.83520001 1354:0.8973 #
-0.027585033341047924398958812730598 97:0.96700001 134:0.98199999 252:0.96499997 290:0.93099999 321:0.912 329:0.92000002 335:0.92299998 369:0.93699998 370:0.94099998 373:0.93099999 381:0.92400002 383:0.912 389:0.991 410:0.92900002 437:0.98199999 448:0.98199999 458:0.95300001 464:0.93599999 467:0.92000002 528:0.991 546:0.95300001 601:0.935 627:0.917 644:0.90600002 651:0.94 699:0.93699998 712:0.95700002 715:0.93099999 751:0.92699999 796:0.921 806:0.93599999 845:0.98100001 893:0.93800002 955:0.92799997 983:0.89999998 1022:0.963 1044:0.94499999 1090:0.95599997 1131:0.91100001 1219:0.94599998 1295:0.935 #
0.030274288547367380480812570908711 14:0.86940002 31:0.89639997 45:0.88919997 92:0.87120003 212:0.87300003 297:0.83160001 321:0.83880001 324:0.84060001 350:0.86309999 369:0.84060001 370:0.84600002 373:0.84600002 381:0.82080001 400:0.82709998 418:0.83340001 482:0.82800001 487:0.88020003 502:0.85589999 503:0.85140002 528:0.88380003 546:0.88919997 548:0.86400002 581:0.86489999 644:0.84869999 712:0.86940002 761:0.89459997 832:0.84060001 837:0.83609998 850:0.86400002 857:0.84600002 859:0.83069998 870:0.86940002 873:0.84060001 893:0.82980001 903:0.89459997 907:0.87120003 1079:0.82620001 1090:0.84420002 1094:0.8154 1130:0.8739 1176:0.85140002 1178:0.84060001 1192:0.89999998 #
0.030274288547367380480812570908711 16:0.88020003 36:0.89279997 122:0.82169998 246:0.87300003 252:0.8739 288:0.88020003 321:0.82440001 336:0.86669999 350:0.83969998 379:0.85680002 412:0.83609998 414:0.83789998 417:0.84329998 421:0.89999998 422:0.89999998 423:0.89999998 #
-0.030274288547367380480812570908711 168:0.98000002 252:0.963 288:0.99400002 303:0.96799999 321:0.912 329:0.92900002 379:0.90600002 381:0.91500002 383:0.91500002 417:0.935 487:0.977 488:0.991 522:0.977 541:0.90799999 612:0.90100002 622:0.92299998 644:0.94199997 693:0.90100002 712:0.96899998 796:0.94999999 850:0.95999998 897:0.95099998 913:0.958 983:0.94300002 1044:0.94199997 1090:0.97399998 1133:0.912 #
-0.0037019735554296158246134762492829 24:0.98000002 124:0.98400003 245:0.991 246:0.94800001 248:0.93300003 255:0.91799998 264:0.99699998 272:0.91299999 304:0.90700001 311:0.92500001 314:0.90100002 321:0.90600002 322:0.91100001 331:0.91299999 334:0.92500001 335:0.93400002 350:0.94400001 369:0.93400002 379:0.93800002 418:0.92199999 426:0.98000002 429:0.92000002 439:0.95300001 440:0.926 458:0.96100003 487:0.926 502:0.94300002 503:0.93699998 506:0.94199997 508:0.91600001 514:0.91500002 537:0.991 545:0.91900003 546:0.97000003 554:0.94499999 556:0.95099998 575:0.95099998 612:0.93699998 640:0.95099998 720:0.92699999 762:0.91299999 815:0.921 821:0.93199998 841:0.96100003 845:0.954 859:0.95300001 870:0.93599999 893:0.91900003 930:0.93699998 940:0.92000002 983:0.93800002 988:0.926 1003:0.99400002 1046:1 1047:1 1048:1 1049:1 #
-0.013212697152623223764700277627071 2:0.96700001 15:1 134:0.96799999 154:0.991 168:0.98000002 207:0.97600001 245:0.91500002 264:0.94700003 306:0.94499999 310:0.935 321:0.912 329:0.92000002 358:0.95700002 365:0.95899999 369:0.917 370:0.935 373:0.91799998 379:0.90100002 389:0.98799998 446:0.91100001 447:0.93199998 458:0.95599997 464:0.92500001 482:0.95899999 496:0.95999998 514:0.93400002 546:0.98799998 554:0.89999998 567:0.90600002 657:0.97399998 662:0.917 681:0.92799997 702:0.97399998 703:0.93599999 715:0.92299998 731:0.92199999 763:0.94999999 769:0.90600002 796:0.94700003 804:0.93199998 815:0.93000001 834:0.92699999 835:0.92000002 840:0.92400002 850:0.97000003 885:0.97899997 893:0.94400001 983:0.91399997 1000:0.91799998 1022:0.97100002 1027:0.903 1030:0.92799997 1031:0.93599999 1039:0.90200001 1135:0.90799999 1147:1 #
0.026702394434407791812269294950966 28:0.8775 107:0.89639997 204:0.88919997 263:0.8973 267:0.89459997 293:0.84509999 297:0.88739997 304:0.83340001 311:0.82529998 336:0.87660003 355:0.89999998 356:0.89999998 #
-0.0090337481911531378880875209347323 2:0.97500002 15:1 183:0.926 245:0.912 306:0.92199999 321:0.98500001 358:0.92199999 365:0.96200001 367:0.91000003 370:0.935 394:0.99699998 458:0.95999998 459:0.917 461:0.91900003 464:0.92799997 475:0.90899998 482:0.94800001 488:0.99400002 503:0.94400001 524:0.935 546:0.991 551:0.93800002 605:0.94700003 627:0.903 662:0.92500001 699:0.94400001 702:0.95099998 703:0.90100002 710:0.958 769:0.90600002 804:0.921 832:0.94 835:0.92000002 837:0.90200001 840:0.91799998 870:0.95099998 885:0.97799999 890:0.92799997 893:0.92199999 983:0.92000002 1001:0.91000003 1022:0.96799999 1030:0.91100001 1090:0.93000001 1123:0.91100001 1146:1 #
-0.011964558992601216635964789247737 28:0.95300001 84:0.98799998 113:0.92900002 115:0.91500002 154:0.98000002 243:0.95200002 248:0.91799998 273:0.93599999 290:0.92500001 293:0.93699998 306:0.94 310:0.94199997 321:0.94400001 336:0.963 350:0.91900003 365:0.96499997 370:0.935 379:0.935 410:0.92500001 458:0.96700001 464:0.93000001 469:0.91500002 482:0.93900001 485:0.91100001 546:0.98799998 548:0.991 575:0.95700002 585:0.95999998 605:0.92699999 608:0.96700001 627:0.90200001 662:0.91399997 702:0.95899999 731:0.91100001 796:0.94999999 804:0.93800002 806:0.94199997 814:0.903 815:0.93900001 832:0.92799997 845:0.91399997 850:0.95200002 858:1 859:1 #
0.030274288547367380480812570908711 111:0.82080001 212:0.86580002 264:0.87480003 265:0.8973 #
0.030274288547367380480812570908711 133:0.83520001 224:0.89639997 303:0.89459997 321:0.83429998 329:0.86940002 335:0.81449997 365:0.87120003 369:0.84869999 399:0.83069998 402:0.82529998 418:0.85049999 487:0.87120003 528:0.89459997 644:0.85589999 669:0.85409999 670:0.81449997 697:0.8136 712:0.8721 738:0.85680002 796:0.86040002 843:0.86040002 850:0.86669999 866:0.87029999 912:0.8757 983:0.84149998 1014:0.85589999 1022:0.84509999 1090:0.84149998 1134:0.85320002 1292:0.83880001 1294:0.83789998 #
-0.029344707286368947041221844074244 4:0.95099998 13:0.89999998 17:0.935 25:0.91799998 61:0.98500001 85:1 97:0.98199999 143:0.94300002 153:0.949 264:0.99000001 312:0.93800002 365:0.96100003 644:0.95700002 688:0.91399997 702:0.97399998 796:0.96899998 806:0.91000003 850:0.95499998 1022:0.93300003 1039:0.91100001 1404:0.96200001 1414:0.91299999 1502:0.93000001 1524:1 #
-0.030274288547367380480812570908711 23:0.93900001 184:0.94800001 245:0.90600002 262:0.963 310:0.93400002 321:0.94700003 369:0.92000002 373:0.95300001 382:0.91399997 401:0.917 458:0.958 542:0.95599997 544:0.917 546:0.99400002 605:0.95700002 651:0.90399998 680:0.90899998 699:0.90799999 733:0.97100002 815:0.97000003 832:0.93400002 845:0.972 850:0.95700002 859:0.95899999 873:0.92900002 885:0.90399998 893:0.94 1027:0.89999998 1032:0.90200001 1102:0.94499999 1139:0.91399997 1147:0.90799999 1241:0.92299998 1249:0.95300001 1295:0.91000003 1310:0.926 1339:0.94300002 #
0.030274288547367380480812570908711 275:0.8739 301:0.8937 311:0.81720001 379:0.84420002 505:0.83880001 508:0.86940002 575:0.86129999 712:0.8757 746:0.89459997 906:0.81720001 940:0.83880001 1003:0.87660003 1090:0.84509999 #
-0.012496017960870495905334465192027 3:0.96200001 246:0.99199998 252:0.954 335:0.92799997 350:0.94700003 480:0.93400002 537:0.94800001 546:0.991 551:0.91900003 575:0.95999998 605:0.92199999 610:0.92400002 699:0.92299998 800:0.99400002 818:0.94599998 843:0.94599998 850:0.954 857:0.94 992:0.90200001 1036:0.99400002 1227:0.995 1232:1 1233:1 #
-0.0057621453336457418778482342247571 2:0.97500002 207:0.94499999 240:0.94999999 243:0.94599998 297:0.92400002 306:0.92500001 321:0.94800001 324:0.92500001 358:0.95700002 365:0.96799999 369:0.94 370:0.935 373:0.92299998 381:0.93599999 449:0.92299998 455:0.99400002 462:0.92400002 522:0.926 538:0.90700001 544:0.91399997 546:0.96100003 554:0.97799999 675:0.95099998 680:0.94800001 688:0.93699998 697:0.96399999 702:0.95599997 708:0.91000003 712:0.972 737:0.93900001 741:0.96899998 796:0.96200001 804:0.93800002 832:0.93699998 840:0.926 845:0.98100001 850:0.95700002 893:0.94700003 912:0.92900002 983:0.92699999 1022:0.93400002 1035:0.92900002 1039:0.90100002 1090:0.921 1093:1 #
0.022692151739077053712589915335229 4:0.89279997 6:0.87300003 7:0.88559997 11:0.88919997 15:0.89999998 16:0.88020003 18:0.86309999 20:0.89999998 24:0.89639997 26:0.8847 31:0.81269997 41:0.86760002 54:0.88559997 57:0.88919997 59:0.8154 68:0.85320002 78:0.82440001 87:0.8919 90:0.83249998 101:0.89279997 110:0.81989998 111:0.81989998 135:0.83880001 137:0.82080001 180:0.84600002 186:0.84509999 187:0.83069998 190:0.89999998 192:0.81720001 195:0.89999998 196:0.89999998 197:0.89999998 198:0.89999998 199:0.89999998 200:0.89999998 201:0.89999998 202:0.89999998 203:0.89999998 #
-0.0019492805001138551260209119675437 85:0.995 153:0.949 204:0.99199998 279:0.94999999 288:0.986 291:1 354:0.92699999 365:0.93000001 369:0.94400001 382:0.917 383:0.92799997 417:0.92400002 439:0.95599997 458:0.93400002 464:0.92500001 514:0.912 546:0.97600001 566:0.991 607:0.93199998 618:0.917 630:0.93800002 644:0.94499999 646:0.991 649:0.98799998 669:0.95700002 680:0.94400001 703:0.90399998 731:0.94199997 796:0.94999999 806:0.93199998 808:0.98000002 832:0.91399997 840:0.91600001 841:0.90499997 845:0.97799999 859:0.95099998 882:0.92900002 945:0.93300003 1022:0.95300001 1031:0.90799999 1113:0.963 1123:0.92400002 1179:0.912 1252:0.94300002 1268:0.90499997 1272:0.92500001 1315:0.93400002 1324:0.903 1371:0.98199999 1489:0.96600002 1524:0.94400001 1623:0.94800001 1714:0.90799999 1783:0.91600001 1788:0.995 1819:0.94700003 1877:0.94700003 1941:0.92699999 1963:0.92000002 #
-0.030274288547367380480812570908711 49:0.93400002 233:0.98100001 321:0.92500001 329:0.91399997 350:0.92799997 365:0.96499997 369:0.93800002 430:0.93900001 546:0.97299999 611:0.95999998 622:0.92500001 850:0.977 920:0.90100002 1252:0.935 1294:0.92799997 1524:0.995 1530:0.977 1635:0.95599997 1788:0.93699998 #
-0.030274288547367380480812570908711 81:0.97100002 143:0.935 246:0.98100001 248:0.94199997 252:0.96499997 254:0.91900003 264:0.954 297:0.90700001 303:0.99400002 321:0.92799997 329:0.963 365:0.96499997 369:0.92799997 379:0.90100002 381:0.92299998 439:0.94999999 482:0.92000002 525:0.94300002 544:0.92299998 546:0.98500001 575:0.94800001 602:0.93699998 622:0.949 644:0.94300002 697:0.95300001 702:0.95099998 832:0.93699998 857:0.94300002 974:0.99699998 975:0.98799998 976:0.96600002 977:1 978:1 #
0.030274288547367380480812570908711 23:0.85769999 133:0.82800001 153:0.85049999 252:0.86129999 273:0.83969998 370:0.84149998 373:0.84329998 381:0.82349998 387:0.86040002 390:0.85140002 391:0.8154 400:0.84329998 414:0.84060001 417:0.83160001 421:0.83340001 427:0.86849999 430:0.85860002 439:0.86580002 446:0.83249998 458:0.84780002 464:0.83789998 496:0.86400002 514:0.83969998 537:0.85769999 546:0.88919997 550:0.84509999 551:0.89459997 586:0.88739997 592:0.81269997 601:0.81089997 627:0.85589999 644:0.88200003 662:0.83249998 680:0.82169998 697:0.8937 731:0.86129999 804:0.83340001 807:0.85409999 832:0.81989998 859:0.81809998 867:0.82889998 868:0.85320002 870:0.82889998 871:0.81900001 873:0.83249998 885:0.82620001 893:0.85229999 955:0.8118 1090:0.85140002 1235:0.81269997 1279:0.89999998 1280:0.89999998 1281:0.89999998 1282:0.89999998 1283:0.89999998 #
0.017305906735949189850787277578092 3:0.89279997 4:0.89999998 5:0.83520001 6:0.83520001 8:0.89639997 9:0.82440001 23:0.85589999 25:0.85229999 32:0.83520001 34:0.83609998 40:0.8919 64:0.85320002 66:0.85949999 79:0.84689999 80:0.85229999 97:0.89639997 105:0.8919 107:0.89279997 114:0.85769999 141:0.89279997 143:0.83789998 173:0.83700001 182:0.87660003 252:0.8739 254:0.82709998 264:0.8154 275:0.89999998 276:0.89999998 277:0.89999998 278:0.89999998 279:0.89999998 280:0.89999998 281:0.89999998 282:0.89999998 #
-0.0021754566647150903532792476369195 17:0.99599999 50:1 90:0.97899997 168:0.98000002 220:0.95099998 233:0.986 329:0.92299998 332:0.92799997 335:0.90499997 365:0.94400001 369:0.93800002 440:0.90799999 508:0.96700001 528:0.91399997 557:0.95599997 575:0.954 611:0.92299998 622:0.93000001 652:0.90799999 690:0.91600001 692:0.90399998 699:0.949 920:0.912 940:0.90200001 1133:0.92000002 1215:0.91100001 1252:0.93199998 1567:0.97100002 1622:0.94 1623:0.94800001 1634:0.94400001 1639:0.958 1640:1 1642:1 1643:1 1644:1 #
-0.030274288547367380480812570908711 81:0.949 311:0.90200001 324:0.92799997 418:0.93699998 575:0.95700002 712:0.963 857:0.94 903:0.97600001 940:0.94999999 1053:0.94300002 1055:0.95599997 1090:0.921 1622:0.95200002 1634:0.91799998 1645:0.90600002 1807:1 #
-0.015455655630256883575901483141024 36:1 232:0.977 288:0.99400002 297:0.91799998 321:0.94499999 359:0.98100001 369:0.95599997 373:0.94499999 390:0.92699999 391:0.96499997 401:0.90700001 414:0.94999999 421:0.93800002 464:0.91100001 467:0.94199997 488:0.98400003 492:0.98500001 495:0.98400003 496:0.96799999 546:0.94700003 576:0.91399997 601:0.94 697:0.91500002 712:0.91000003 715:0.92299998 731:0.91100001 796:0.94700003 804:0.93000001 845:0.98299998 873:0.92900002 1022:0.93900001 1041:0.91399997 1090:0.91900003 1235:0.92199999 1241:0.92900002 1269:0.99400002 1282:0.94400001 1283:0.92900002 1295:0.90899998 1315:0.91500002 1320:0.94099998 1371:0.97299999 1396:0.92900002 1469:0.90799999 1489:0.95200002 1509:1 1510:1 1511:1 1512:1 1513:1 #
-0.030274288547367380480812570908711 233:0.98900002 264:0.94400001 329:0.92299998 461:0.95099998 551:0.986 611:0.92299998 622:0.92799997 693:0.90899998 699:0.949 796:0.96700001 845:0.92500001 852:0.90600002 1022:0.93699998 1252:0.93800002 1255:0.94499999 1736:0.92000002 1753:0.92299998 1889:0.96700001 #
-0.021826076283063586269683753471327 17:0.92699999 86:0.912 90:0.98000002 133:1 154:0.963 233:0.98500001 298:0.94400001 305:0.991 329:0.93300003 365:0.94499999 383:0.90200001 440:0.917 499:1 537:0.96600002 611:0.926 622:0.92799997 690:0.91399997 692:0.93599999 693:0.90200001 699:0.94800001 741:0.99400002 850:0.921 920:0.90200001 1252:0.93099999 1255:0.96100003 1527:0.91799998 1567:0.96799999 1640:1 1649:0.99599999 1650:0.917 1651:0.96799999 1654:1 1655:1 #
-0.030274288547367380480812570908711 17:0.99599999 50:1 62:0.92500001 82:0.99199998 90:0.97600001 168:0.98000002 233:0.98500001 305:0.96399999 379:0.95999998 508:0.95899999 554:0.90499997 692:0.94700003 699:0.95300001 757:0.94400001 762:0.91500002 944:0.90700001 1255:0.935 1259:0.954 1590:0.912 1622:0.99000001 1634:0.98500001 1639:1 1640:1 1641:1 #
-0.030274288547367380480812570908711 19:0.90499997 28:0.95099998 134:0.954 154:0.98000002 175:0.96700001 246:0.98900002 248:0.93900001 273:0.93599999 290:0.97500002 303:0.92699999 310:0.94400001 311:0.91399997 321:0.92900002 329:0.93400002 336:0.963 365:0.96499997 370:0.93000001 371:0.91500002 448:1 455:1 458:0.93400002 462:0.92299998 464:0.92500001 467:0.90600002 482:0.93599999 546:0.98500001 567:0.90399998 575:0.95700002 585:0.95300001 594:0.90200001 608:0.94199997 662:0.91900003 680:0.96399999 702:0.95099998 731:0.94700003 734:0.96499997 796:0.93000001 804:0.93800002 806:0.94199997 814:0.95099998 832:0.926 845:0.92199999 859:0.95599997 860:1 #
-0.030274288547367380480812570908711 115:0.949 161:0.94999999 279:0.92900002 297:0.91799998 303:0.98900002 321:0.90799999 365:0.95899999 369:0.90799999 373:0.94800001 379:0.95700002 400:0.98500001 455:0.99699998 482:0.91600001 487:0.96600002 546:0.97500002 548:0.95899999 568:0.91900003 699:0.91399997 762:0.90700001 859:0.94 862:0.93800002 885:0.91900003 998:0.95300001 1022:0.94199997 1188:0.93400002 1274:0.99699998 1276:1 #
0.030274288547367380480812570908711 28:0.83609998 81:0.89279997 124:0.88559997 248:0.82260001 255:0.82620001 303:0.88919997 321:0.82349998 322:0.83880001 400:0.84060001 413:0.84869999 414:0.83429998 417:0.89999998 418:0.89999998 419:0.89999998 420:0.89999998 #
-0.023059487051574449612001416198837 8:0.96899998 245:0.95899999 248:0.95999998 290:0.94599998 310:0.93300003 321:0.94599998 329:0.93699998 335:0.926 365:0.96799999 369:0.93699998 370:0.94099998 402:0.935 446:0.92000002 458:0.96100003 503:0.92900002 519:0.90399998 528:0.99699998 546:0.991 571:0.90100002 575:0.95099998 605:0.954 607:0.90100002 644:0.94300002 662:0.92199999 675:0.93000001 676:0.93900001 699:0.94999999 702:0.95300001 703:0.91500002 708:0.903 734:0.97100002 796:0.94700003 815:0.921 850:0.954 859:0.94999999 868:0.903 878:0.89999998 893:0.93599999 897:0.90200001 902:0.90499997 927:0.90600002 930:0.93699998 940:0.926 983:0.93199998 1014:0.95599997 1022:0.93699998 1031:0.91100001 1038:0.94400001 1039:0.91399997 1058:0.926 1110:0.91299999 1133:0.926 1200:0.91000003 1211:0.92299998 1237:1 1238:1 #
0.030274288547367380480812570908711 16:0.8721 122:0.8847 133:0.89639997 212:0.85049999 288:0.87029999 369:0.84600002 402:0.83340001 414:0.88559997 417:0.86489999 421:0.81900001 423:0.81 496:0.86940002 519:0.81269997 697:0.8154 712:0.8793 796:0.85229999 #
0.01192158609800489377228416287835 3:0.89639997 4:0.84060001 6:0.81989998 12:0.8118 13:0.86040002 14:0.8739 17:0.87840003 18:0.8811 25:0.85949999 32:0.83429998 36:0.89639997 40:0.84060001 41:0.82080001 44:0.86129999 61:0.8847 64:0.85680002 68:0.82800001 79:0.87660003 85:0.89639997 90:0.83789998 94:0.88919997 97:0.89999998 109:0.81269997 113:0.84600002 125:0.8118 143:0.84869999 151:0.89999998 152:0.89999998 153:0.89999998 154:0.89999998 155:0.89999998 156:0.89999998 157:0.89999998 158:0.89999998 159:0.89999998 160:0.89999998 161:0.89999998 162:0.89999998 163:0.89999998 164:0.89999998 165:0.89999998 #
0.030274288547367380480812570908711 14:0.87029999 105:0.89639997 107:0.89639997 109:0.85589999 252:0.85049999 279:0.82169998 314:0.84869999 319:0.82260001 321:0.81089997 331:0.85409999 335:0.84509999 350:0.86489999 369:0.8739 370:0.82889998 373:0.85049999 402:0.8118 429:0.82800001 430:0.85589999 433:0.81989998 437:0.89999998 438:0.89999998 439:0.89999998 440:0.89999998 #
-0.030274288547367380480812570908711 4:1 6:0.94499999 8:0.99199998 25:0.94300002 41:0.93099999 54:0.91600001 57:0.99199998 64:0.95200002 66:0.92199999 74:0.93000001 81:0.93800002 90:0.98799998 105:0.99599999 139:0.991 141:0.94 193:0.917 196:0.94800001 204:0.97899997 246:0.98500001 248:0.96700001 252:0.90499997 255:0.91000003 264:0.92900002 297:0.92400002 298:0.93800002 310:0.91399997 321:0.93400002 329:0.94599998 334:0.91600001 335:0.917 350:0.90700001 359:0.90399998 365:0.94199997 375:1 376:1 377:1 378:1 379:1 380:1 381:1 382:1 383:1 384:1 #
0.030274288547367380480812570908711 28:0.86489999 81:0.8811 255:0.82620001 288:0.8847 291:0.8973 297:0.81809998 303:0.8973 311:0.82080001 411:0.82889998 417:0.83609998 418:0.84600002 426:0.83520001 522:0.87480003 528:0.84960002 575:0.86129999 610:0.82889998 672:0.83880001 697:0.82889998 856:0.89999998 #
-0.020897364141269726689476016190383 15:0.99199998 24:0.95999998 184:0.90799999 212:0.97399998 283:0.93900001 369:0.93699998 373:0.90700001 381:0.92400002 392:0.97600001 464:0.91100001 546:0.958 575:0.92400002 581:0.95099998 679:0.91399997 686:0.935 688:0.94300002 870:0.95099998 1051:0.92299998 1090:0.94800001 1098:0.91299999 #
0.024124988243768921702958607511391 3:0.89639997 4:0.89999998 5:0.85320002 6:0.85769999 8:0.89279997 13:0.81720001 17:0.89639997 23:0.86760002 28:0.83609998 41:0.86580002 64:0.84600002 76:0.88919997 88:0.87300003 94:0.8847 100:0.82349998 105:0.8847 107:0.89639997 130:0.84509999 134:0.8811 135:0.86940002 141:0.87480003 207:0.84600002 232:0.8721 246:0.89279997 248:0.82800001 252:0.84780002 257:0.81629997 258:0.89999998 259:0.89999998 260:0.89999998 261:0.89999998 262:0.89999998 263:0.89999998 264:0.89999998 265:0.89999998 266:0.89999998 267:0.89999998 268:0.89999998 #
0.030274288547367380480812570908711 8:0.86669999 49:0.82529998 81:0.89099997 261:0.86940002 273:0.86129999 369:0.84869999 373:0.81809998 418:0.84600002 465:0.84689999 487:0.8775 506:0.84149998 524:0.85769999 546:0.8865 610:0.82889998 662:0.83249998 697:0.8136 804:0.83609998 850:0.85589999 857:0.84600002 859:0.86040002 902:0.82169998 1027:0.8154 1294:0.85500002 1353:0.83520001 1371:0.86400002 1622:0.84149998 1870:0.88200003 #
0.030274288547367380480812570908711 107:0.85860002 269:0.8973 297:0.89999998 390:0.82980001 550:0.83969998 #
0.030274288547367380480812570908711 3:0.89639997 17:0.89639997 63:0.88559997 88:0.89279997 133:0.84689999 152:0.82169998 246:0.83520001 252:0.87480003 303:0.88919997 310:0.81269997 338:0.81900001 345:0.84149998 350:0.84960002 358:0.83249998 379:0.83340001 418:0.83609998 436:0.85140002 440:0.82800001 487:0.8154 499:0.87029999 528:0.89459997 551:0.8955 558:0.84780002 585:0.83789998 612:0.82260001 619:0.83160001 636:0.89999998 637:0.89999998 638:0.89999998 639:0.89999998 640:0.89999998 #
0.030274288547367380480812570908711 8:0.88919997 16:0.8847 18:0.84780002 25:0.83340001 80:0.82620001 84:0.89279997 97:0.89639997 113:0.85500002 124:0.88559997 127:0.85049999 134:0.85500002 143:0.84509999 175:0.8739 233:0.8901 245:0.8154 248:0.83520001 252:0.86400002 255:0.82169998 264:0.8973 272:0.83340001 281:0.83609998 297:0.82620001 306:0.84600002 308:0.82709998 310:0.81 320:0.8118 329:0.86400002 335:0.82349998 350:0.83969998 358:0.85860002 365:0.87120003 369:0.84600002 370:0.84149998 373:0.85680002 379:0.83880001 402:0.84149998 407:0.81900001 418:0.84149998 420:0.86220002 439:0.84960002 441:0.88380003 461:0.86129999 465:0.83340001 467:0.83789998 471:0.82529998 482:0.83520001 487:0.84420002 498:0.84869999 505:0.83700001 514:0.84509999 522:0.8154 525:0.83700001 532:0.82529998 537:0.8919 538:0.86849999 546:0.8919 549:0.81269997 575:0.85949999 603:0.89999998 604:0.89999998 605:0.89999998 606:0.89999998 607:0.89999998 608:0.89999998 609:0.89999998 610:0.89999998 611:0.89999998 612:0.89999998 613:0.89999998 #
-0.030274288547367380480812570908711 101:1 127:0.94499999 155:0.96499997 212:0.97399998 224:1 264:0.96499997 297:0.91500002 310:0.92199999 321:0.917 365:0.96799999 369:0.93699998 370:0.935 379:0.92299998 381:0.95599997 387:0.95599997 390:0.92900002 399:0.94300002 417:0.94199997 429:0.90899998 446:0.97799999 458:0.96100003 482:0.93099999 496:0.97600001 528:0.93800002 532:0.90600002 546:0.98799998 605:0.94400001 644:0.94 662:0.91100001 702:0.95099998 712:0.96600002 769:0.92000002 807:0.94499999 815:0.94199997 832:0.91399997 859:0.93400002 866:1 #
-0.018109916606148898643446898404363 4:0.98400003 10:0.98299998 15:1 28:0.95599997 68:0.94099998 168:0.98000002 253:0.95200002 309:0.91399997 365:0.96799999 369:0.93400002 394:0.98500001 400:0.99400002 442:0.91900003 461:0.94300002 464:0.91299999 499:0.97500002 502:0.926 518:0.95499998 549:0.95200002 554:0.95599997 575:0.95300001 580:0.986 597:0.98000002 616:0.97799999 637:0.93900001 644:0.94199997 657:0.97899997 677:0.958 725:0.921 804:0.93800002 831:0.94400001 840:0.90700001 876:0.96899998 940:0.91900003 1013:0.98299998 1022:0.93400002 1087:0.91799998 1149:0.94700003 1155:0.92400002 1165:0.91299999 1178:0.926 1252:0.92299998 1298:0.91900003 1333:0.93300003 1374:0.93400002 1475:0.92400002 1478:0.98100001 1483:0.95599997 1484:1 1485:1 1486:1 1487:1 #
-0.030274288547367380480812570908711 5:0.94 13:0.92799997 61:0.98000002 84:0.99199998 115:0.97000003 187:0.97000003 233:0.98100001 245:0.99699998 252:0.93800002 262:0.90600002 297:0.94999999 303:0.98900002 306:0.917 329:0.93699998 350:0.95499998 379:0.90899998 402:0.94599998 482:0.93000001 546:0.99400002 575:0.94999999 605:0.93099999 607:0.95499998 608:0.93599999 611:0.92000002 622:0.93099999 644:0.95200002 697:0.92699999 702:0.97799999 708:0.90700001 734:0.92799997 811:1 812:1 813:1 814:1 815:1 #
0.030274288547367380480812570908711 154:0.87840003 212:0.87660003 264:0.86940002 329:0.86669999 365:0.86849999 603:0.8937 644:0.84420002 903:0.82440001 #
-0.016469373837197036347657075339157 4:0.99199998 84:0.98299998 97:0.96700001 99:0.94099998 133:0.99599999 141:0.96700001 142:0.96399999 204:0.98299998 207:0.98000002 247:0.93900001 264:0.96200001 275:0.96700001 293:0.95200002 298:0.91799998 329:0.94300002 332:0.94 346:0.96399999 358:0.95999998 365:0.96499997 369:0.94 409:0.99400002 417:0.93400002 439:0.94400001 464:0.93699998 498:0.92000002 499:0.97500002 502:0.926 546:0.98199999 627:0.90399998 632:1 649:0.98299998 675:0.93699998 693:0.90200001 697:0.90399998 703:0.94800001 737:0.90600002 740:0.98799998 796:0.94700003 804:0.93699998 806:0.93900001 815:0.90200001 850:0.93099999 867:0.92400002 1022:0.95200002 1102:0.93199998 1131:1 1132:1 1133:1 #
-0.001943255823611416983204280839459 5:0.97600001 6:0.98500001 18:0.97500002 55:0.96899998 101:1 115:0.98699999 141:0.972 179:0.92500001 207:0.99199998 246:0.94599998 252:0.926 282:0.91000003 283:0.92900002 285:0.97299999 317:0.90200001 329:0.89999998 359:0.97100002 369:0.92699999 370:0.92699999 400:0.96899998 458:0.92199999 461:0.954 525:0.96399999 551:0.98100001 622:0.91600001 632:0.98500001 644:0.92199999 675:0.92799997 688:0.93900001 715:0.94199997 721:0.93900001 733:0.92799997 807:0.95499998 848:0.94300002 850:0.96899998 1000:0.97299999 1001:0.95899999 1102:0.90700001 1176:0.958 1288:0.90399998 1295:0.92900002 1299:0.92299998 1399:0.91900003 1455:0.92299998 1471:0.91100001 1505:1 1506:1 #
-0.030274288547367380480812570908711 50:0.91100001 61:0.92900002 85:0.96799999 187:0.949 264:0.98100001 312:0.91100001 329:0.96200001 359:0.91600001 365:0.96799999 690:0.90799999 702:0.97899997 796:0.96200001 806:0.94 850:0.95999998 940:0.92799997 1022:0.93900001 1502:0.94300002 1524:0.96799999 1525:1 1526:1 #
-0.021196573423370286548550467387031 179:0.98400003 207:0.94 246:0.954 248:0.91500002 321:0.94099998 370:0.921 380:0.90200001 400:0.98199999 464:0.92000002 482:0.92299998 525:0.912 554:0.92900002 698:0.90499997 720:0.93900001 726:0.94199997 840:0.95300001 893:0.91900003 983:0.91600001 1035:0.94499999 1053:0.95599997 1098:0.92799997 1136:0.94099998 1141:0.93400002 1190:1 #
-0.030274288547367380480812570908711 8:0.98000002 255:0.91600001 290:0.94300002 310:0.92900002 350:0.94400001 525:0.94 546:0.92299998 575:0.94700003 601:0.94300002 644:0.958 859:0.94800001 950:0.93099999 1133:0.90399998 1235:0.90899998 1375:0.93699998 1433:0.97299999 1436:1 #
0.030274288547367380480812570908711 8:0.88919997 350:0.81989998 365:0.87120003 369:0.84600002 370:0.84600002 445:0.86309999 458:0.87029999 465:0.83340001 514:0.84240001 525:0.81269997 546:0.8919 662:0.83249998 697:0.82620001 733:0.85500002 804:0.83880001 832:0.82260001 845:0.85769999 859:0.85589999 893:0.81809998 1039:0.81720001 1147:0.83609998 #
-0.0013687772781146359795528821834409 153:0.94499999 248:0.949 319:0.94300002 321:0.92799997 329:0.92000002 369:0.93699998 379:0.93800002 381:0.92400002 392:0.97299999 394:0.986 400:0.93699998 418:0.92199999 439:0.91799998 445:0.93800002 458:0.95700002 464:0.92900002 487:0.90700001 524:0.912 546:0.97600001 554:0.97500002 622:0.92900002 699:0.93400002 712:0.972 796:0.94099998 814:0.91100001 845:0.97500002 850:0.93400002 893:0.96899998 920:0.90499997 1022:0.94199997 1027:0.90899998 1090:0.93599999 1305:0.92299998 1360:0.912 1365:1 #
-0.030274288547367380480812570908711 6:0.958 335:0.917 350:0.95300001 418:0.912 465:0.91799998 488:0.99400002 525:0.94300002 528:0.90200001 537:0.97600001 546:0.926 644:0.95200002 763:0.92500001 859:0.949 902:0.92900002 940:0.912 1249:0.90399998 1294:0.917 1375:0.94599998 1434:1 1435:1 #
-0.02202925760585852654749317025562 4:0.99599999 79:0.95899999 101:0.99599999 133:0.98699999 168:0.98000002 243:0.93699998 246:0.99199998 252:0.96799999 264:0.98299998 273:0.92699999 279:0.97899997 334:0.958 335:0.94599998 350:0.93900001 358:0.95700002 365:0.96799999 373:0.94599998 379:0.90799999 392:0.98400003 439:0.90899998 462:0.94800001 499:0.986 524:0.94499999 525:0.93000001 546:0.98799998 575:0.954 582:0.97899997 591:0.94099998 605:0.96899998 607:0.90899998 608:0.94 628:0.94599998 662:0.92500001 683:0.977 690:0.91100001 697:0.90399998 731:0.91600001 738:0.96799999 770:0.95599997 796:0.96799999 815:0.94199997 850:0.96700001 859:0.93699998 885:0.92400002 902:0.90499997 983:0.92400002 1005:0.921 1022:0.949 1038:0.92299998 1123:0.917 1264:1 #
-0.030274288547367380480812570908711 204:0.917 247:0.94499999 252:0.95700002 264:0.96200001 311:0.92199999 321:0.90600002 329:0.926 350:0.94999999 365:0.96799999 400:0.94499999 417:0.93900001 418:0.92500001 575:0.958 622:0.93599999 720:0.93000001 870:0.93800002 1053:0.92199999 1090:0.94400001 1196:0.91500002 1199:0.95099998 #
0.030274288547367380480812570908711 28:0.8721 81:0.85589999 246:0.89639997 255:0.82349998 257:0.81809998 297:0.82620001 303:0.8973 311:0.81989998 315:0.84780002 321:0.83069998 324:0.83520001 331:0.84869999 373:0.83789998 381:0.83340001 409:0.8973 417:0.83880001 418:0.85140002 440:0.82529998 487:0.85680002 528:0.8919 547:0.8757 567:0.82349998 575:0.86400002 697:0.85229999 712:0.8721 731:0.86940002 763:0.84780002 768:0.86400002 853:0.81809998 857:0.84600002 870:0.85409999 #
0.030274288547367380480812570908711 74:0.82529998 79:0.86849999 252:0.85229999 310:0.85140002 311:0.8118 365:0.85049999 369:0.84869999 370:0.84329998 458:0.83789998 465:0.81089997 482:0.84509999 525:0.83160001 544:0.83069998 546:0.88919997 551:0.89459997 575:0.85860002 597:0.81989998 605:0.83069998 662:0.82260001 680:0.85500002 703:0.82620001 712:0.86129999 731:0.82529998 733:0.8793 811:0.84060001 815:0.83969998 832:0.84329998 859:0.85769999 868:0.81629997 902:0.82169998 940:0.82169998 1005:0.84960002 1014:0.85769999 1027:0.81269997 1094:0.82349998 1116:0.88919997 1199:0.86760002 1211:0.81720001 1294:0.84060001 1301:0.89999998 #
-0.030274288547367380480812570908711 3:0.99599999 6:0.94099998 8:1 16:0.97000003 97:0.99599999 175:0.97100002 248:0.93199998 252:0.94199997 281:0.92199999 288:0.97799999 297:0.91500002 321:0.94999999 335:0.93099999 350:0.93000001 365:0.93900001 370:0.93300003 400:0.93699998 402:0.95200002 417:0.93199998 437:0.90600002 439:0.93300003 458:0.958 487:0.90700001 495:0.97000003 #
0.030274288547367380480812570908711 233:0.8865 252:0.83069998 329:0.84600002 331:0.81629997 369:0.84869999 370:0.84869999 373:0.83609998 382:0.83160001 439:0.81 455:0.89459997 464:0.83609998 503:0.84060001 541:0.81629997 546:0.85949999 551:0.8973 566:0.8865 622:0.83789998 680:0.85769999 702:0.85320002 738:0.82709998 804:0.83429998 832:0.81989998 870:0.86129999 1022:0.85500002 1044:0.85769999 1110:0.85409999 1123:0.82529998 1147:0.81720001 1357:0.89999998 #
0.012844616883330861253909027652753 124:0.88200003 132:0.84509999 168:0.85949999 229:0.8757 247:0.85229999 252:0.8739 255:0.82169998 303:0.8973 336:0.8739 369:0.83789998 373:0.84329998 379:0.84780002 400:0.83429998 418:0.83700001 433:0.82529998 487:0.86400002 506:0.85229999 528:0.89459997 541:0.8919 575:0.86129999 602:0.85409999 720:0.83160001 805:0.88739997 870:0.85860002 875:0.83789998 929:0.87660003 940:0.83609998 983:0.81449997 1003:0.8136 1006:0.86400002 1007:0.89999998 1008:0.89999998 #
