SVM-light Version V6.02
0 # kernel type
3 # kernel parameter -d 
1 # kernel parameter -g 
1 # kernel parameter -s 
1 # kernel parameter -r 
empty# kernel parameter -u 
162 # highest feature index 
453 # number of training documents 
306 # number of support vectors plus 1 
0.91971632 # threshold b, each following line is a SV (starting with alpha*y)
-0.081020301003642214432431956083747 162:1 #
-0.98536559089589093041183787136106 24:0.94599998 #
-0.52637001225818358385311057645595 39:0.96200001 83:0.972 #
-0.65709440671329066852024425315903 7:0.99599999 #
-0.98536559089589093041183787136106 125:0.92699999 #
-0.98536559089589093041183787136106 27:0.93300003 #
0.98536559089589093041183787136106 24:0.86220002 #
0.98536559089589093041183787136106 3:0.81 48:0.88559997 #
0.98536559089589093041183787136106 105:0.85229999 #
0.98536559089589093041183787136106 65:0.86129999 #
-0.38126527388178754751635324282688 75:0.93800002 #
-0.12620518411130990377166938287701 24:0.96399999 #
-0.98536559089589093041183787136106 85:0.90100002 #
-0.98536559089589093041183787136106 129:0.90799999 #
0.98442214685337714463742031512083 9:0.86940002 #
0.98536559089589093041183787136106 7:0.8883 24:0.85949999 85:0.8154 #
0.98536559089589093041183787136106 25:0.85860002 85:0.8154 #
0.98536559089589093041183787136106 6:0.86400002 7:0.8919 25:0.89999998 26:0.89999998 #
0.98536559089589093041183787136106 27:0.84960002 85:0.81629997 #
0.98536559089589093041183787136106 125:0.85589999 #
-0.98536559089589093041183787136106 24:0.95499998 #
-0.98536559089589093041183787136106 7:0.95700002 #
0.98536559089589093041183787136106 19:0.89999998 #
-0.98536559089589093041183787136106 #
0.98536559089589093041183787136106 49:0.88200003 #
-0.98536559089589093041183787136106 24:0.949 #
0.98536559089589093041183787136106 24:0.88919997 27:0.8811 #
0.98536559089589093041183787136106 43:0.8919 #
0.98536559089589093041183787136106 49:0.87480003 #
0.98536559089589093041183787136106 4:0.8811 5:0.89999998 #
0.98536559089589093041183787136106 24:0.89999998 #
-0.98536559089589093041183787136106 85:0.90600002 #
-0.094118976625600384022796163208113 40:0.92400002 #
0.98536559089589093041183787136106 27:0.86669999 #
-0.98536559089589093041183787136106 #
-0.98536559089589093041183787136106 125:0.94400001 #
-0.0043969903646714769696046687386115 7:0.96100003 63:0.91299999 88:0.90100002 #
-0.98536559089589093041183787136106 #
-0.87129759171783316418213871656917 76:0.917 #
0.98536559089589093041183787136106 49:0.86669999 92:0.86760002 #
0.98536559089589093041183787136106 6:0.89639997 10:0.89639997 #
0.98536559089589093041183787136106 125:0.82800001 #
0.98536559089589093041183787136106 125:0.83609998 #
-0.17759218195296599951404914463637 16:0.94700003 55:0.94 #
-0.98536559089589093041183787136106 23:0.91399997 #
-0.057095167572414534662428309275128 69:0.91799998 #
-0.080471684393099929266668368654791 160:1 #
0.98536559089589093041183787136106 7:0.86489999 23:0.8154 #
0.98536559089589093041183787136106 7:0.89999998 34:0.89999998 #
-0.98536559089589093041183787136106 70:0.90399998 #
0.98536559089589093041183787136106 76:0.81449997 125:0.83340001 #
0.98536559089589093041183787136106 24:0.85409999 #
-0.084332869594859083406390709569678 23:0.92900002 140:1 #
-0.9536761202204324661124701378867 11:0.93099999 20:0.912 #
-0.080345600826457697074545194482198 101:1 #
-0.097434599508098101994235662459687 81:0.90799999 #
-0.98536559089589093041183787136106 74:0.96799999 #
0.98536559089589093041183787136106 92:0.81809998 125:0.85140002 #
0.98536559089589093041183787136106 75:0.84149998 #
0.98536559089589093041183787136106 25:0.87120003 74:0.8865 #
-0.88232229521361527080358655439341 125:0.95499998 #
0.12949639184416653070464064967382 5:0.8847 9:0.86940002 #
0.98536559089589093041183787136106 28:0.81900001 76:0.81269997 #
0.83417532569954155885483260135516 36:0.89999998 #
0.98536559089589093041183787136106 125:0.83429998 #
0.98536559089589093041183787136106 76:0.8973 #
-0.05410822410481305050344857932032 3:0.97000003 23:0.96700001 #
0.98536559089589093041183787136106 125:0.83160001 #
-0.98536559089589093041183787136106 24:0.95200002 #
-0.98536559089589093041183787136106 23:0.94199997 #
-0.98536559089589093041183787136106 92:0.94199997 #
-0.90350118899603226729766447533621 3:0.92199999 #
0.98536559089589093041183787136106 70:0.81089997 92:0.84509999 #
-0.98536559089589093041183787136106 #
0.98536559089589093041183787136106 36:0.8154 #
-0.98536559089589093041183787136106 76:0.903 #
0.98536559089589093041183787136106 7:0.8883 20:0.89999998 #
-0.98536559089589093041183787136106 7:0.926 #
-0.080441502123701935644817240245175 87:1 #
0.98536559089589093041183787136106 125:0.82889998 #
-0.97593057867292243301449161663186 18:0.99199998 #
-0.38340455184956567791232373565435 76:0.92000002 #
0.98536559089589093041183787136106 7:0.89639997 #
-0.98536559089589093041183787136106 #
0.98536559089589093041183787136106 76:0.84780002 #
0.98536559089589093041183787136106 69:0.83700001 125:0.83700001 #
0.98536559089589093041183787136106 27:0.85860002 #
0.98536559089589093041183787136106 125:0.82080001 #
-0.98536559089589093041183787136106 #
-0.98536559089589093041183787136106 16:0.94700003 #
0.98536559089589093041183787136106 24:0.89459997 54:0.8154 #
-0.98536559089589093041183787136106 15:0.91299999 20:0.98799998 27:0.95099998 #
0.98536559089589093041183787136106 7:0.89639997 8:0.86760002 11:0.83789998 #
0.98536559089589093041183787136106 7:0.8847 22:0.89999998 #
-0.98536559089589093041183787136106 76:0.90899998 #
0.98536559089589093041183787136106 92:0.81449997 #
0.98536559089589093041183787136106 16:0.83520001 #
-0.0066859464095415394729871039203317 27:0.94800001 #
-0.98536559089589093041183787136106 #
0.98536559089589093041183787136106 27:0.85320002 #
-0.98536559089589093041183787136106 27:0.94400001 #
-3.4000580129145419050473719835281e-16 20:0.99199998 41:1 #
-0.8216357930831315048436636061524 22:0.98400003 76:0.91100001 125:0.90399998 #
0.98536559089589093041183787136106 36:0.8847 #
-0.98536559089589093041183787136106 125:0.92299998 #
-0.084227063111973948794641842141573 23:0.94199997 80:1 #
-0.082990989216946531303875644880463 144:0.98400003 #
-0.097865243590118583538739471805457 117:0.90600002 #
-0.98536559089589093041183787136106 #
-0.94267132151027921427299816059531 45:1 #
-0.98536559089589093041183787136106 76:0.91600001 #
-0.98536559089589093041183787136106 #
-0.097999477226996825618421382841916 109:0.90600002 #
-0.029097265040278957881625387926761 26:0.93699998 142:1 #
0.98536559089589093041183787136106 24:0.89459997 39:0.88200003 54:0.89999998 #
-0.98536559089589093041183787136106 23:0.95999998 #
0.98536559089589093041183787136106 2:0.82169998 82:0.84780002 #
-0.093683459883153380465259374432208 95:0.926 #
0.98536559089589093041183787136106 #
-0.98536559089589093041183787136106 7:0.96100003 97:1 #
0.98536559089589093041183787136106 39:0.8793 #
0.98536559089589093041183787136106 39:0.8775 59:0.86220002 #
-0.081127181394972741612647837428085 112:0.99699998 #
0.98536559089589093041183787136106 5:0.8847 #
0.98536559089589093041183787136106 76:0.83609998 #
0.98536559089589093041183787136106 132:0.89999998 #
0.98536559089589093041183787136106 11:0.82349998 #
-0.091818138585226707903963472290343 60:0.93599999 #
-0.78030032246056102440689983268385 10:0.95300001 25:0.991 85:0.90899998 #
0.98536559089589093041183787136106 48:0.89999998 #
-0.25021246090958804142445615070756 25:0.93199998 #
0.98536559089589093041183787136106 70:0.87480003 #
-0.98536559089589093041183787136106 24:0.95200002 #
0.98536559089589093041183787136106 66:0.83340001 83:0.88559997 #
-0.086641842441624011827983053990465 131:0.96600002 #
0.98536559089589093041183787136106 76:0.83340001 #
0.98536559089589093041183787136106 7:0.89999998 15:0.83160001 38:0.89999998 #
-0.98536559089589093041183787136106 82:0.91399997 #
0.98536559089589093041183787136106 36:0.8973 #
0.98536559089589093041183787136106 24:0.86489999 36:0.8973 #
0.98536559089589093041183787136106 23:0.89999998 #
0.98536559089589093041183787136106 23:0.85500002 126:0.81809998 #
-0.51771392613422384521015828795498 76:0.90600002 #
0.98536559089589093041183787136106 31:0.83789998 59:0.89999998 #
0.98536559089589093041183787136106 4:0.87660003 18:0.89999998 #
0.98536559089589093041183787136106 106:0.87660003 126:0.89999998 #
-0.98536559089589093041183787136106 23:0.958 126:0.90399998 #
0.98536559089589093041183787136106 31:0.82169998 #
-0.98536559089589093041183787136106 #
0.98536559089589093041183787136106 12:0.89999998 13:0.89999998 #
-0.76470234108206969203536118584452 25:0.95700002 31:0.93099999 #
0.98536559089589093041183787136106 76:0.82529998 #
-0.71643913903416711619343004713301 76:0.926 88:0.90799999 #
-0.08033131828330619672584589352482 137:1 #
0.98536559089589093041183787136106 10:0.89999998 #
0.98536559089589093041183787136106 69:0.84509999 #
0.98536559089589093041183787136106 76:0.81809998 #
-0.097542556464815494132736262145045 67:0.90799999 #
-0.081811583127752079969141618676076 138:0.991 #
0.98536559089589093041183787136106 76:0.8154 #
-0.98536559089589093041183787136106 92:0.91799998 #
0.98536559089589093041183787136106 88:0.89999998 #
-0.11195869053150438177102188319623 24:0.958 #
-0.089611188563141430662994935119059 124:0.94999999 #
-0.98536559089589093041183787136106 #
0.98536559089589093041183787136106 76:0.81269997 #
0.98536559089589093041183787136106 36:0.89459997 #
0.98536559089589093041183787136106 104:0.89459997 #
0.98536559089589093041183787136106 94:0.89459997 #
0.98536559089589093041183787136106 88:0.82529998 #
-0.92095591724676617584322002585395 24:0.958 #
-0.98536559089589093041183787136106 #
-0.94758042981448342700900866475422 28:0.94199997 #
-0.98536559089589093041183787136106 23:0.972 #
0.98536559089589093041183787136106 #
-0.98536559089589093041183787136106 39:0.98299998 #
0.98536559089589093041183787136106 89:0.86669999 #
-0.98536559089589093041183787136106 36:0.99199998 #
0.98536559089589093041183787136106 #
-0.080355977851362392350154095765902 52:1 #
-0.98536559089589093041183787136106 27:0.94099998 #
-0.98536559089589093041183787136106 #
-0.98536559089589093041183787136106 125:0.92299998 #
-0.98536559089589093041183787136106 10:0.949 #
-0.88121804504748402209202140511479 125:0.94499999 #
0.98536559089589093041183787136106 #
0.98536559089589093041183787136106 119:0.83249998 #
-0.98536559089589093041183787136106 24:0.94099998 #
0.98536559089589093041183787136106 45:0.87480003 #
0.98536559089589093041183787136106 129:0.89999998 #
-0.98536559089589093041183787136106 #
0.98536559089589093041183787136106 #
0.98536559089589093041183787136106 42:0.89999998 #
-0.014921130220411409073033581762502 49:0.954 #
-0.98536559089589093041183787136106 #
0.98536559089589093041183787136106 97:0.8739 #
-0.0031198938099725181949395391711732 7:0.95700002 90:1 #
-0.90243649920339774617161765490891 13:0.98500001 125:0.921 #
0.98536559089589093041183787136106 100:0.89999998 #
0.98536559089589093041183787136106 23:0.81269997 #
-0.98536559089589093041183787136106 #
0.98536559089589093041183787136106 #
-0.090144845783242583125982605452009 37:0.94400001 #
0.98536559089589093041183787136106 #
-0.98536559089589093041183787136106 49:0.93199998 #
0.98536559089589093041183787136106 #
-0.98536559089589093041183787136106 31:0.93400002 #
0.98536559089589093041183787136106 #
-0.63239802468041506067208956665127 48:0.98900002 83:0.94999999 #
0.98536559089589093041183787136106 #
0.98536559089589093041183787136106 127:0.89999998 #
-0.98536559089589093041183787136106 #
-0.92427570200879216599787469021976 2:0.96600002 #
0.98536559089589093041183787136106 #
-0.98536559089589093041183787136106 49:0.90700001 #
0.98536559089589093041183787136106 #
-0.080843924390982979666375740634976 148:1 #
0.98536559089589093041183787136106 #
-0.83454152753660737484864284851938 23:0.91100001 69:0.95200002 #
0.98536559089589093041183787136106 #
-0.98536559089589093041183787136106 125:0.917 #
-0.77478168087997079105377906671492 7:1 11:0.96700001 #
-0.98536559089589093041183787136106 24:0.96100003 36:0.99400002 #
0.98536559089589093041183787136106 70:0.8154 #
-0.086112048196979193437350375006645 17:0.96600002 #
-0.48569837050824737900711625115946 42:0.917 98:1 #
-0.98536559089589093041183787136106 24:0.95200002 36:0.90100002 #
-0.98536559089589093041183787136106 7:0.99599999 #
-0.56555921835929567897949254984269 27:0.94800001 #
-0.98536559089589093041183787136106 76:0.89999998 #
-0.017346814784154233196611372136431 82:0.98799998 88:0.97899997 #
0.98536559089589093041183787136106 24:0.85949999 #
-0.09608303670987407285597470263383 88:0.92900002 115:0.92000002 #
1.5543122344752191565930843353271e-15 35:0.89999998 36:0.89999998 #
-0.69071018082658397485573686935822 92:0.95300001 #
-0.045985262959337351584832020989779 6:0.98799998 53:0.90600002 #
0.98536559089589093041183787136106 24:0.86220002 #
-0.049779783836375129935092331834312 53:0.92000002 #
0.98536559089589093041183787136106 24:0.86489999 #
-0.98536559089589093041183787136106 #
-0.080359384488148388747674744081451 123:1 #
0.98536559089589093041183787136106 97:0.8919 #
-0.03474652977226187766657261590808 104:0.94999999 #
-0.98536559089589093041183787136106 25:0.954 36:0.99699998 #
-0.98536559089589093041183787136106 88:0.95200002 92:0.903 #
0.98536559089589093041183787136106 36:0.8973 #
-0.98536559089589093041183787136106 6:0.93199998 #
0.98536559089589093041183787136106 23:0.83069998 #
-0.88695701792556302933689948986284 49:0.95099998 #
-0.98536559089589093041183787136106 59:0.94099998 #
0.98536559089589093041183787136106 23:0.84240001 #
-0.98536559089589093041183787136106 54:0.89999998 #
0.98536559089589093041183787136106 23:0.84600002 #
-0.099086866847126947588364487273793 153:0.90399998 #
-0.55491822696083170640690696018282 16:0.95099998 76:0.903 125:0.90899998 #
-0.98536559089589093041183787136106 #
-0.62697552819919133426651569607202 7:1 #
-0.98112573288161442075505647153477 66:0.926 #
-0.78460100797595744293033703797846 6:0.98400003 70:0.96899998 #
-0.98536559089589093041183787136106 #
-0.083381017292475267943530070624547 68:0.98299998 #
0.98536559089589093041183787136106 14:0.89999998 15:0.89999998 16:0.89999998 #
0.98536559089589093041183787136106 7:0.87660003 9:0.89999998 #
-0.081020301003642214432431956083747 149:1 #
-0.080419074804524259825200260820566 159:1 #
-0.59193994331701516031785104132723 75:0.94199997 #
-0.080345600826457697074545194482198 157:1 #
-0.089032951086661968331803507226141 91:0.954 #
-0.084011217922503517163690389679687 23:0.91399997 133:1 #
-0.3065315812156743646710310713388 76:0.917 #
-0.98536559089589093041183787136106 70:0.90899998 #
-0.080843924390982979666375740634976 152:1 #
-0.080471684393099929266668368654791 139:1 #
-0.98536559089589093041183787136106 24:0.95499998 #
-0.98536559089589093041183787136106 7:0.99599999 #
-0.082887033899565962236088978443149 56:0.98500001 #
-0.98536559089589093041183787136106 #
-0.091452619043264279929950077985268 23:0.96600002 121:0.96100003 #
-0.98536559089589093041183787136106 76:0.903 #
-0.98536559089589093041183787136106 #
-0.98536559089589093041183787136106 #
-0.98536559089589093041183787136106 48:1 65:0.99699998 #
-0.98210583651705951613308798187063 126:0.90700001 #
0.98536559089589093041183787136106 20:0.88200003 27:0.86129999 43:0.89999998 #
-0.98536559089589093041183787136106 27:0.93699998 #
-0.98536559089589093041183787136106 39:0.98100001 #
-0.98536559089589093041183787136106 5:0.97899997 #
-0.97881558383288114200126983632799 69:0.91799998 #
-0.96475652456923655098108838501503 5:0.94199997 94:0.99699998 #
-0.98536559089589093041183787136106 26:0.92799997 #
-0.98536559089589093041183787136106 104:0.94700003 #
-0.096500396510305105901572630955343 134:0.91399997 #
-0.23258573025560205782547029684793 7:0.991 #
-0.002520337018013241170422134018736 7:0.96499997 72:0.91799998 #
-0.98536559089589093041183787136106 7:0.96499997 #
-0.080471684393099929266668368654791 130:1 #
-0.080139636665876395893448602691933 19:0.991 158:1 #
0.40525462895504782423472533992026 9:0.86940002 #
-0.094214214774420573794699862446578 57:0.92400002 #
-0.080345600826457697074545194482198 107:1 #
-0.00044165664716509095422125596996921 53:0.91500002 58:1 #
-0.82930177779312774788422757410444 7:0.99599999 19:0.97399998 #
-0.98536559089589093041183787136106 54:0.903 #
-0.00031727849196851962707346950232079 82:0.98000002 #
-0.011717444137566259201865825900768 85:0.90899998 #
