SVM-light Version V6.02
0 # kernel type
3 # kernel parameter -d 
1 # kernel parameter -g 
1 # kernel parameter -s 
1 # kernel parameter -r 
empty# kernel parameter -u 
1988 # highest feature index 
724 # number of training documents 
386 # number of support vectors plus 1 
-0.74882957 # threshold b, each following line is a SV (starting with alpha*y)
-0.029733434013846166826811057148916 41:0.95599997 262:0.99400002 303:0.99400002 329:0.93199998 461:0.98299998 508:0.91000003 575:0.94499999 649:0.92199999 1176:0.94599998 #
0.029733434013846166826811057148916 36:0.89639997 224:0.89639997 246:0.85860002 247:0.87480003 252:0.8793 321:0.83249998 350:0.83429998 379:0.8973 403:0.89999998 404:0.89999998 405:0.89999998 #
0.029733434013846166826811057148916 3:0.8739 4:0.88200003 7:0.88200003 15:0.89279997 24:0.89639997 25:0.84869999 26:0.88559997 143:0.84149998 264:0.8919 288:0.89459997 297:0.82080001 306:0.84060001 319:0.85140002 350:0.81449997 358:0.81989998 365:0.86849999 383:0.83789998 414:0.83789998 455:0.87840003 458:0.86220002 496:0.87120003 500:0.89999998 501:0.89999998 502:0.89999998 #
-0.016401825234447952456262598275316 2:0.97100002 4:0.991 17:0.91900003 133:0.92799997 269:0.97799999 329:0.949 358:0.90499997 365:0.96799999 437:0.98100001 458:0.972 461:0.95099998 467:0.91399997 487:0.94800001 496:0.963 506:0.93300003 546:0.98799998 566:0.99699998 644:0.93300003 649:0.92500001 690:0.91900003 692:0.90499997 693:0.90200001 699:0.935 796:0.98500001 804:0.93300003 815:0.93900001 840:0.90899998 850:0.98900002 852:0.921 940:0.917 1022:0.93699998 1038:0.92000002 1090:0.92400002 1139:0.90700001 1252:0.94300002 1315:0.92900002 1320:0.99699998 1328:0.94 1398:1 #
-0.029733434013846166826811057148916 36:0.991 272:0.93000001 297:0.91799998 311:0.90499997 350:0.93900001 365:0.95599997 369:0.917 381:0.912 400:0.93400002 417:0.93199998 421:0.99199998 458:0.95300001 482:0.91100001 496:0.96799999 546:0.98500001 551:0.986 575:0.95899999 662:0.90600002 688:0.94300002 845:0.93000001 940:0.935 990:0.92400002 1027:0.90899998 1090:0.96100003 1139:0.91799998 1194:0.991 1198:1 1199:1 1200:1 #
0.0073037009930286599448945317192283 8:0.89639997 133:0.84329998 275:0.89999998 293:0.86940002 303:0.8973 321:0.85500002 335:0.84869999 336:0.86669999 404:0.8793 409:0.87660003 417:0.84329998 440:0.83340001 445:0.85680002 465:0.82260001 479:0.87029999 482:0.83340001 524:0.83789998 528:0.8973 546:0.8865 575:0.85589999 608:0.86129999 662:0.82980001 697:0.84780002 700:0.81809998 708:0.81089997 744:0.83789998 820:0.82440001 859:0.85949999 891:0.84420002 893:0.81900001 902:0.83429998 940:0.82800001 986:0.81989998 992:0.83249998 999:0.82709998 1003:0.8721 1123:0.83969998 1241:0.8136 1294:0.82980001 1295:0.82080001 #
0.029733434013846166826811057148916 50:0.8721 134:0.88380003 243:0.85320002 252:0.87120003 264:0.89459997 269:0.88739997 290:0.83609998 335:0.83520001 350:0.83520001 358:0.85860002 439:0.82349998 440:0.85949999 458:0.86220002 467:0.82529998 487:0.81720001 498:0.85140002 546:0.88380003 556:0.83520001 573:0.89459997 599:0.82620001 622:0.83609998 644:0.85409999 680:0.85769999 688:0.84600002 696:0.81629997 712:0.8883 745:0.85860002 796:0.86040002 832:0.8154 850:0.83609998 859:0.85589999 870:0.85769999 945:0.82800001 950:0.82169998 1022:0.84509999 1044:0.85769999 1079:0.85409999 1090:0.84509999 1094:0.81629997 1123:0.82889998 1127:0.82080001 1180:0.8739 1252:0.83609998 1295:0.84869999 1348:0.83340001 1370:0.82440001 1392:0.89999998 #
0.029733434013846166826811057148916 5:0.8739 6:0.83880001 8:0.85229999 17:0.89279997 18:0.8775 23:0.85589999 25:0.84329998 29:0.8919 32:0.83520001 33:0.85769999 41:0.88559997 44:0.85140002 54:0.89639997 56:0.8883 57:0.8847 68:0.86129999 79:0.85680002 81:0.8775 84:0.89999998 90:0.86760002 93:0.82620001 115:0.88380003 116:0.84060001 127:0.84600002 135:0.8757 142:0.89999998 143:0.84689999 153:0.85409999 154:0.89639997 180:0.87480003 197:0.89639997 207:0.85589999 215:0.81629997 219:0.89279997 233:0.89639997 236:0.85320002 239:0.89999998 240:0.89999998 241:0.89999998 #
-0.029733434013846166826811057148916 28:0.95300001 134:0.98199999 245:0.92299998 265:0.99400002 297:0.93199998 311:0.90799999 365:0.96200001 370:0.93800002 400:0.90700001 418:0.93400002 458:0.94700003 482:0.917 522:0.96899998 528:0.95300001 548:0.96499997 575:0.95700002 700:0.98500001 702:0.94199997 712:0.96899998 746:0.98500001 804:0.93800002 845:0.94999999 856:0.99599999 857:0.94800001 903:1 904:1 905:1 906:1 907:1 #
-0.029733434013846166826811057148916 8:0.99599999 248:0.93599999 336:0.95700002 365:0.95999998 369:0.93800002 370:0.935 381:0.91600001 458:0.94 464:0.92199999 514:0.94400001 533:0.92000002 554:0.94700003 556:0.91399997 566:1 605:0.93800002 608:0.921 662:0.912 680:0.95599997 697:0.91799998 702:0.94999999 703:0.91500002 832:0.926 859:0.95300001 860:0.93400002 964:0.94199997 1022:0.94400001 1094:0.903 1252:0.95200002 1272:0.91900003 #
-0.029733434013846166826811057148916 212:0.96200001 246:0.99199998 278:0.995 303:0.96100003 311:0.90399998 313:0.94400001 369:0.93199998 414:0.95700002 430:0.94999999 439:0.96499997 445:0.90600002 459:0.954 480:0.90499997 495:0.93699998 496:0.97600001 551:0.986 575:0.954 622:0.92000002 873:0.926 940:0.93400002 950:0.90499997 #
0.029733434013846166826811057148916 41:0.83249998 154:0.88559997 254:0.82440001 264:0.8721 329:0.86940002 334:0.8136 365:0.86849999 461:0.83249998 546:0.86489999 574:0.82260001 603:0.89099997 622:0.82800001 644:0.85409999 649:0.82169998 654:0.89999998 #
0.029733434013846166826811057148916 141:0.88200003 207:0.83700001 248:0.84780002 290:0.81989998 331:0.82980001 335:0.83789998 369:0.84240001 370:0.84869999 373:0.85140002 430:0.84149998 439:0.84689999 445:0.86489999 446:0.81089997 458:0.86760002 464:0.83609998 546:0.88919997 551:0.89459997 553:0.83340001 566:0.8847 567:0.83160001 601:0.84509999 627:0.87480003 680:0.85500002 708:0.81629997 733:0.81809998 815:0.8118 832:0.83789998 841:0.83160001 873:0.84060001 893:0.84060001 956:0.81449997 983:0.82800001 1024:0.86940002 1031:0.8721 1094:0.81989998 1102:0.83700001 1123:0.82260001 1135:0.82260001 1147:0.83609998 1189:0.83429998 1279:0.81989998 1299:0.82260001 1310:0.8847 1328:0.82800001 #
-0.029733434013846166826811057148916 6:0.958 335:0.917 350:0.95300001 418:0.912 465:0.91799998 488:0.99400002 525:0.94300002 528:0.90200001 537:0.97600001 546:0.926 644:0.95200002 763:0.92500001 859:0.949 902:0.92900002 940:0.912 1249:0.90399998 1294:0.917 1375:0.94599998 1434:1 1435:1 #
-0.029733434013846166826811057148916 101:0.97100002 333:0.90499997 369:0.94300002 418:0.94199997 498:0.91799998 502:0.92699999 525:0.96399999 537:0.991 712:0.97000003 714:0.93199998 733:0.94700003 829:0.96899998 833:0.90700001 857:0.903 1014:0.90799999 1090:0.93199998 1136:0.97000003 1144:0.912 1235:0.935 1248:0.90799999 1315:0.921 #
0.029733434013846166826811057148916 3:0.89279997 8:0.89639997 10:0.82349998 14:0.8118 25:0.83340001 28:0.86129999 66:0.81900001 101:0.8739 105:0.89639997 127:0.84240001 141:0.87480003 145:0.88559997 154:0.88559997 176:0.82529998 233:0.8865 248:0.83700001 264:0.8793 279:0.84600002 281:0.8118 283:0.86129999 297:0.8136 298:0.82260001 306:0.83520001 310:0.82260001 321:0.86040002 329:0.83340001 334:0.8136 340:0.82980001 358:0.8118 365:0.86849999 369:0.85860002 370:0.83969998 379:0.83340001 381:0.83340001 385:0.89999998 386:0.89999998 387:0.89999998 388:0.89999998 389:0.89999998 390:0.89999998 391:0.89999998 392:0.89999998 393:0.89999998 394:0.89999998 395:0.89999998 396:0.89999998 397:0.89999998 #
0.029733434013846166826811057148916 2:0.8811 3:0.8883 4:0.87029999 8:0.89279997 11:0.86669999 12:0.82980001 15:0.89639997 16:0.8847 26:0.83700001 34:0.86940002 46:0.8136 57:0.8775 60:0.82080001 81:0.8775 83:0.8136 87:0.8793 88:0.89279997 108:0.88919997 141:0.88559997 194:0.83160001 246:0.81449997 248:0.84780002 255:0.82349998 264:0.8973 279:0.85320002 297:0.82620001 309:0.85320002 310:0.84240001 317:0.81720001 321:0.83789998 326:0.83520001 329:0.83609998 333:0.86129999 334:0.83249998 335:0.85140002 350:0.84960002 365:0.84780002 366:0.88380003 369:0.84060001 370:0.84149998 381:0.84960002 418:0.84149998 424:0.83340001 439:0.84149998 446:0.8154 457:0.87480003 458:0.85320002 464:0.8154 467:0.82800001 482:0.85320002 487:0.83160001 497:0.81269997 498:0.84600002 499:0.8973 502:0.85589999 503:0.84600002 506:0.8136 514:0.83969998 518:0.89999998 519:0.89999998 520:0.89999998 521:0.89999998 522:0.89999998 523:0.89999998 524:0.89999998 525:0.89999998 526:0.89999998 #
0.029733434013846166826811057148916 107:0.85860002 269:0.89459997 387:0.86040002 390:0.83429998 575:0.8847 712:0.87480003 #
-0.022267737457584035887236950657098 235:0.94400001 240:0.98799998 245:0.903 246:0.96600002 252:0.96499997 283:0.95999998 285:0.97299999 297:1 322:0.90499997 358:0.90799999 359:0.921 365:0.96499997 368:0.95099998 397:0.954 400:0.93400002 435:0.90899998 441:0.98199999 455:0.97299999 482:0.94099998 534:0.93599999 581:0.96700001 608:0.95300001 622:0.92900002 632:0.98299998 644:0.95700002 699:0.92900002 712:0.972 715:0.96799999 796:0.912 801:0.91600001 850:0.95700002 893:0.93900001 964:0.92400002 1024:0.93199998 1036:0.94700003 1038:0.93900001 1116:0.98100001 1143:1 #
0.029733434013846166826811057148916 84:0.89279997 168:0.88200003 264:0.89459997 283:0.89099997 358:0.84509999 365:0.86849999 369:0.84420002 370:0.84420002 382:0.83069998 399:0.8154 400:0.84329998 402:0.87029999 446:0.82800001 448:0.88919997 482:0.84420002 525:0.82620001 546:0.8775 554:0.87029999 644:0.83969998 699:0.84329998 733:0.83069998 738:0.81629997 745:0.86129999 850:0.85589999 893:0.84509999 1022:0.84329998 1108:0.81449997 1134:0.84689999 1176:0.84509999 1252:0.85680002 1268:0.82440001 #
-0.029733434013846166826811057148916 81:0.949 311:0.90200001 324:0.92799997 418:0.93699998 575:0.95700002 712:0.963 857:0.94 903:0.97600001 940:0.94999999 1053:0.94300002 1055:0.95599997 1090:0.921 1622:0.95200002 1634:0.91799998 1645:0.90600002 1807:1 #
-0.029733434013846166826811057148916 8:0.99199998 315:0.93900001 321:0.95300001 335:0.93099999 345:0.93199998 350:0.93599999 370:0.94300002 400:0.93099999 408:0.89999998 412:0.94099998 425:0.90200001 473:0.991 484:0.99400002 496:0.95899999 502:0.94800001 503:0.94300002 505:0.96600002 508:0.94700003 514:0.91500002 525:0.926 528:0.98500001 551:0.98900002 575:0.95999998 602:0.94 859:0.91500002 924:0.90700001 927:0.935 930:0.93300003 940:0.94 1006:0.95700002 1192:0.917 1199:0.94499999 1210:1 1211:1 1212:1 1213:1 #
-0.025430947784827500485205220570606 252:0.96499997 264:0.98500001 290:0.97899997 303:0.95899999 321:0.91600001 329:0.94 350:0.92500001 368:0.91399997 461:0.93599999 481:0.98900002 551:0.986 567:0.91900003 622:0.92900002 644:0.94599998 649:0.91900003 688:0.94599998 693:0.91900003 741:0.98400003 745:0.91500002 796:0.97500002 850:0.95499998 920:0.903 997:0.92699999 1008:0.93900001 1022:0.95099998 1075:0.93199998 1318:0.95099998 1339:0.94599998 1374:0.90799999 #
0.029733434013846166826811057148916 4:0.86309999 132:0.87120003 255:0.82620001 264:0.89279997 277:0.83700001 282:0.83249998 288:0.8973 297:0.82620001 311:0.81900001 329:0.82800001 365:0.87120003 369:0.83249998 409:0.84329998 417:0.84329998 423:0.85769999 495:0.8937 496:0.86849999 575:0.85860002 644:0.83160001 697:0.81809998 703:0.82349998 712:0.86940002 796:0.85500002 804:0.84149998 843:0.81720001 849:0.89999998 #
-0.029733434013846166826811057148916 3:0.98699999 41:0.97600001 252:0.95999998 257:0.94 264:0.99699998 288:0.97799999 306:0.93300003 329:0.93400002 365:0.96799999 369:0.93699998 379:0.926 431:0.958 439:0.912 506:0.90799999 546:0.98199999 649:0.92199999 670:0.92000002 690:0.91600001 692:0.94400001 693:0.90799999 702:0.96100003 703:0.93000001 763:0.92000002 796:0.958 821:0.995 845:0.98100001 850:0.95700002 #
0.029733434013846166826811057148916 15:0.89639997 252:0.87660003 263:0.83520001 297:0.89999998 305:0.83880001 311:0.81720001 335:0.83340001 345:0.84960002 358:0.81 370:0.83340001 378:0.84780002 420:0.85860002 458:0.86129999 496:0.86669999 499:0.89459997 503:0.85140002 505:0.83609998 508:0.85589999 546:0.8865 567:0.83160001 575:0.86129999 585:0.82260001 592:0.89999998 714:0.81989998 745:0.85860002 855:0.8775 862:0.84509999 863:0.8973 869:0.82529998 893:0.83700001 940:0.8154 958:0.88200003 996:0.8901 1081:0.8973 1082:0.89999998 1083:0.89999998 1084:0.89999998 1085:0.89999998 #
-0.019771449166217328063943625693355 69:0.903 85:1 97:0.98799998 101:0.98799998 164:0.963 326:0.98000002 369:0.94 392:0.96899998 400:0.91900003 430:0.958 499:0.98900002 614:0.96700001 669:0.94199997 688:0.93300003 702:0.95899999 718:0.98299998 729:0.949 745:0.94199997 806:0.92799997 841:0.95300001 873:0.92500001 1000:0.949 1117:0.98299998 1146:0.90899998 1336:0.935 1524:0.91399997 1526:0.93400002 1542:0.986 1579:0.90799999 1611:1 #
0.029733434013846166826811057148916 275:0.8739 301:0.8937 311:0.81720001 379:0.84420002 505:0.83880001 508:0.86940002 575:0.86129999 712:0.8757 746:0.89459997 906:0.81720001 940:0.83880001 1003:0.87660003 1090:0.84509999 #
0.026226024518575453969848609858673 206:0.84960002 303:0.8973 329:0.84329998 365:0.86849999 441:0.88739997 461:0.85500002 488:0.89459997 504:0.83429998 528:0.8919 546:0.86220002 644:0.84149998 649:0.81720001 697:0.82080001 702:0.85589999 703:0.82349998 708:0.81089997 712:0.8865 796:0.85500002 1013:0.8118 1258:0.81720001 1362:0.89999998 #
-0.029733434013846166826811057148916 17:0.99599999 50:1 62:0.92500001 82:0.99199998 90:0.97600001 168:0.98000002 233:0.98500001 305:0.96399999 379:0.95999998 508:0.95899999 554:0.90499997 692:0.94700003 699:0.95300001 757:0.94400001 762:0.91500002 944:0.90700001 1255:0.935 1259:0.954 1590:0.912 1622:0.99000001 1634:0.98500001 1639:1 1640:1 1641:1 #
-0.014398700736938621624894096839853 134:0.97500002 159:0.97500002 160:0.90499997 219:0.99199998 252:0.92299998 275:0.97000003 288:0.99400002 297:0.90899998 381:0.92400002 394:0.94300002 400:0.99400002 421:0.90200001 439:0.94999999 458:0.94999999 460:0.90799999 503:0.94300002 546:0.98199999 548:0.95700002 554:0.94800001 566:0.96499997 585:0.95999998 699:0.92000002 708:0.90700001 712:0.972 720:0.93099999 796:0.94400001 804:0.92400002 806:0.93599999 845:0.92799997 863:0.99400002 870:0.95700002 960:0.99699998 1035:0.94 1053:0.95899999 1066:0.99699998 1073:0.97299999 1074:0.995 1075:1 1076:1 #
0.029733434013846166826811057148916 3:0.8775 141:0.89279997 283:0.85860002 304:0.86129999 311:0.82529998 315:0.83609998 329:0.81720001 365:0.86309999 369:0.83789998 418:0.83700001 458:0.86220002 505:0.84960002 518:0.87660003 537:0.84420002 575:0.85860002 581:0.84869999 644:0.84420002 679:0.81269997 697:0.82889998 702:0.85589999 715:0.83789998 749:0.86309999 801:0.82169998 804:0.84149998 843:0.81720001 850:0.86400002 940:0.84689999 1036:0.86309999 1090:0.83609998 1143:0.84420002 1176:0.86220002 1186:0.83160001 1216:0.81989998 1252:0.85140002 1294:0.81 1298:0.8118 1371:0.83069998 #
-0.029733434013846166826811057148916 50:0.91100001 61:0.92900002 85:0.96799999 187:0.949 264:0.98100001 312:0.91100001 329:0.96200001 359:0.91600001 365:0.96799999 690:0.90799999 702:0.97899997 796:0.96200001 806:0.94 850:0.95999998 940:0.92799997 1022:0.93900001 1502:0.94300002 1524:0.96799999 1525:1 1526:1 #
-0.029733434013846166826811057148916 49:0.93400002 233:0.98100001 321:0.92500001 329:0.91399997 350:0.92799997 365:0.96499997 369:0.93800002 430:0.93900001 546:0.97299999 611:0.95999998 622:0.92500001 850:0.977 920:0.90100002 1252:0.935 1294:0.92799997 1524:0.995 1530:0.977 1635:0.95599997 1788:0.93699998 #
-0.021134877349890036912771762445118 81:0.99599999 92:0.98400003 324:0.935 418:0.93800002 420:0.93900001 432:0.99699998 575:0.95700002 610:0.926 700:0.99400002 712:0.98000002 857:0.94300002 929:0.92000002 940:0.93800002 1053:0.94499999 1055:0.95099998 1090:0.93800002 1130:0.94999999 1252:0.94 1315:0.93599999 1622:0.94 1634:0.92699999 #
0.029733434013846166826811057148916 16:0.88020003 36:0.89279997 122:0.82169998 246:0.87300003 252:0.8739 288:0.88020003 321:0.82440001 336:0.86669999 350:0.83969998 379:0.85680002 412:0.83609998 414:0.83789998 417:0.84329998 421:0.89999998 422:0.89999998 423:0.89999998 #
0.0043160717337750401784157716633672 3:0.89279997 4:0.88559997 6:0.84240001 8:0.82349998 13:0.84869999 14:0.86669999 15:0.89279997 20:0.89999998 23:0.84149998 26:0.8847 54:0.85320002 56:0.85320002 57:0.8775 60:0.84060001 87:0.8919 90:0.83340001 100:0.85769999 108:0.82889998 110:0.86040002 135:0.85860002 186:0.84329998 187:0.83069998 190:0.89999998 204:0.89999998 205:0.89999998 #
0.029733434013846166826811057148916 28:0.85769999 41:0.87029999 133:0.89279997 233:0.8901 237:0.82440001 243:0.8865 264:0.84420002 273:0.85229999 278:0.8955 310:0.8154 311:0.81720001 329:0.83880001 461:0.8955 462:0.81809998 468:0.89999998 #
-0.019148568077122823244407001652689 8:0.98400003 101:0.99199998 127:0.94499999 212:0.97399998 248:0.92799997 264:0.99699998 297:0.91799998 329:0.92299998 332:0.94599998 365:0.96799999 369:0.92199999 370:0.921 381:0.912 390:0.935 417:0.92900002 439:0.95899999 458:0.958 465:0.92299998 482:0.93099999 496:0.95899999 497:0.91399997 514:0.94999999 546:0.991 585:0.94599998 612:0.92000002 644:0.95999998 649:0.90499997 662:0.91100001 688:0.94599998 690:0.91000003 697:0.91900003 702:0.95099998 712:0.96600002 714:0.90100002 715:0.92199999 721:0.94999999 804:0.93199998 832:0.90799999 850:0.92400002 852:0.90600002 859:0.93199998 866:0.92400002 #
-0.029733434013846166826811057148916 5:0.972 24:0.96799999 81:0.97100002 96:0.91799998 101:1 327:0.97500002 333:0.917 346:0.935 350:0.93400002 369:0.926 525:0.95599997 537:0.96100003 712:0.91900003 733:0.935 818:0.90499997 841:0.96700001 870:0.91600001 912:0.93199998 1229:0.958 1417:0.94099998 1470:0.94099998 1471:0.93800002 1494:1 1495:1 1496:1 1497:1 1498:1 #
0.029733434013846166826811057148916 4:0.88919997 21:0.81720001 84:0.89279997 264:0.85140002 298:0.84780002 329:0.84869999 335:0.83789998 350:0.86220002 358:0.81720001 369:0.83520001 373:0.83520001 379:0.84149998 458:0.83429998 482:0.82889998 537:0.86309999 546:0.88919997 576:0.8136 669:0.85680002 703:0.82889998 796:0.86489999 832:0.84329998 837:0.8118 859:0.85769999 873:0.83520001 898:0.88020003 899:0.82709998 901:0.89999998 #
0.029733434013846166826811057148916 17:0.89639997 31:0.89279997 133:0.81269997 246:0.87120003 264:0.89459997 306:0.84060001 321:0.82800001 329:0.85409999 350:0.85949999 365:0.87120003 370:0.84420002 379:0.82800001 418:0.83340001 441:0.85949999 448:0.8973 503:0.83969998 528:0.8973 546:0.88380003 574:0.8739 575:0.84869999 608:0.83249998 622:0.82440001 632:0.86760002 644:0.85409999 662:0.82709998 688:0.86760002 690:0.81989998 697:0.82620001 702:0.85589999 763:0.82529998 796:0.86309999 845:0.88200003 850:0.86940002 859:0.85500002 964:0.81629997 1006:0.85320002 1039:0.82349998 1102:0.85229999 1121:0.86040002 1127:0.84420002 1235:0.84149998 1318:0.84240001 1324:0.81449997 1342:0.89999998 #
-0.029733434013846166826811057148916 79:0.95300001 293:0.93900001 336:0.97100002 365:0.96799999 644:0.92900002 #
-0.020440486808943988950026948714367 12:0.97600001 28:0.96499997 29:0.98299998 36:0.97899997 64:0.95200002 74:0.98299998 132:0.96200001 175:0.96700001 184:0.92799997 248:0.92500001 252:0.94199997 255:0.91000003 270:0.96799999 272:0.926 298:0.926 304:0.98100001 310:0.93199998 311:0.92199999 321:0.93300003 334:0.92199999 335:0.926 350:0.92799997 370:0.93800002 379:0.90899998 380:0.91399997 382:0.926 383:0.92799997 387:0.95599997 390:0.92400002 391:0.912 399:0.926 414:0.958 418:0.93199998 421:0.92000002 426:0.90799999 429:0.95499998 439:0.93000001 446:0.90700001 448:0.98000002 458:0.92000002 465:0.92299998 467:0.91500002 480:1 481:1 482:1 483:1 484:1 485:1 486:1 487:1 488:1 489:1 490:1 491:1 #
-0.0056059694434465907886266933246588 25:0.926 32:0.99199998 85:0.97899997 92:0.96399999 306:0.94300002 311:0.90499997 324:0.93099999 329:0.93199998 335:0.903 350:0.94400001 365:0.96499997 400:0.926 418:0.93400002 461:0.94599998 482:0.92000002 502:0.93099999 549:0.95700002 688:0.92799997 702:0.95300001 712:0.98699999 769:0.92000002 814:0.92500001 850:0.926 857:0.94300002 859:0.90399998 880:0.991 881:1 882:1 883:1 #
-0.029733434013846166826811057148916 74:0.99000001 246:0.99599999 269:0.94800001 288:0.97799999 290:0.98199999 310:0.91399997 321:0.93900001 350:0.91299999 417:0.92400002 446:0.92199999 458:0.95499998 467:0.92500001 482:0.92500001 496:0.95999998 506:0.935 514:0.958 524:0.91799998 546:0.98199999 644:0.93599999 662:0.912 690:0.903 697:0.94400001 699:0.95099998 731:0.90499997 770:0.94999999 815:0.963 859:0.95300001 887:0.93699998 893:0.93900001 930:0.935 956:0.92900002 983:0.977 1090:0.93599999 1206:0.92799997 1249:0.93199998 1285:0.90600002 1294:0.949 1332:0.92500001 1365:1 1371:0.91399997 1394:0.912 1429:0.96399999 1469:0.90700001 1488:0.97000003 1489:0.96600002 1495:0.92500001 1616:0.97799999 1650:0.92000002 1912:0.963 1963:0.92299998 1968:0.94700003 1981:1 1982:1 #
-0.029733434013846166826811057148916 81:0.98400003 252:0.95700002 255:0.91299999 288:0.99199998 321:0.91000003 334:0.92799997 402:0.92299998 414:0.93000001 418:0.93400002 419:0.95899999 420:0.94700003 423:0.94099998 424:1 #
0.029733434013846166826811057148916 3:0.89279997 4:0.8775 5:0.86760002 13:0.84869999 17:0.86760002 18:0.8775 20:0.89999998 24:0.89279997 25:0.83700001 41:0.83609998 44:0.84149998 50:0.86849999 54:0.89639997 61:0.87840003 79:0.84689999 85:0.89999998 90:0.81900001 94:0.84780002 101:0.8775 104:0.85500002 108:0.83700001 141:0.81809998 143:0.84869999 152:0.8883 153:0.85409999 168:0.86760002 187:0.86580002 201:0.84600002 206:0.84600002 215:0.85140002 245:0.82800001 248:0.84780002 252:0.82980001 254:0.82709998 257:0.83789998 264:0.8955 290:0.8154 306:0.85320002 308:0.83249998 317:0.82529998 329:0.83789998 330:0.89999998 331:0.89999998 332:0.89999998 333:0.89999998 334:0.89999998 335:0.89999998 #
-0.0044485122869349063429167401295672 3:0.954 4:0.98799998 8:0.98799998 14:0.97899997 17:0.99599999 29:0.991 36:0.99599999 50:0.96899998 68:0.93300003 88:0.90200001 108:0.97899997 189:0.93699998 207:0.99199998 211:0.921 233:0.99599999 326:0.96200001 369:0.92199999 475:0.926 490:0.96399999 496:0.93800002 546:0.98299998 644:0.90799999 680:0.92199999 729:0.95700002 735:0.91399997 763:0.977 796:0.93099999 806:0.91799998 850:0.95200002 1022:0.94199997 1134:0.954 1155:0.92900002 1189:0.90100002 1344:0.94400001 1470:0.97000003 1498:0.93400002 1555:0.90799999 1594:0.94599998 1625:0.94099998 1632:0.96100003 1635:0.98299998 1651:0.94 1698:0.921 1711:0.90600002 1736:0.92199999 1745:0.986 1753:0.90700001 1764:0.90899998 1776:0.92400002 1788:0.977 1819:0.94099998 1830:0.95200002 1858:1 1859:1 1860:1 1861:1 #
0.029733434013846166826811057148916 45:0.88919997 92:0.83160001 124:0.86760002 212:0.87660003 279:0.85320002 297:0.82889998 301:0.8937 321:0.85140002 324:0.84240001 335:0.84329998 350:0.85769999 370:0.84869999 400:0.82709998 418:0.83700001 458:0.82800001 482:0.82800001 487:0.86489999 502:0.83069998 503:0.85589999 522:0.8721 546:0.8757 554:0.81 585:0.86940002 610:0.83429998 644:0.84869999 734:0.88559997 751:0.85140002 832:0.82529998 850:0.86129999 870:0.84240001 873:0.83789998 903:0.8919 905:0.87120003 945:0.82349998 947:0.83249998 1090:0.84600002 1130:0.8739 1159:0.82440001 1178:0.84060001 1192:0.85229999 1193:0.89999998 #
0.029733434013846166826811057148916 84:0.8775 264:0.8901 265:0.8919 297:0.82080001 303:0.8973 321:0.82980001 329:0.83880001 346:0.86580002 358:0.86040002 365:0.87120003 369:0.84149998 402:0.82169998 418:0.83609998 455:0.89459997 461:0.85949999 484:0.89459997 491:0.89099997 499:0.84060001 528:0.89459997 575:0.86040002 610:0.83429998 612:0.84689999 699:0.85320002 712:0.88739997 850:0.85320002 857:0.83969998 940:0.83880001 1090:0.81269997 1220:0.82620001 1252:0.85409999 1264:0.82260001 1305:0.86669999 1360:0.83340001 1495:0.82440001 1502:0.81629997 1526:0.87120003 1527:0.82440001 1530:0.85860002 1596:0.83429998 1620:0.86129999 1622:0.84420002 1634:0.8154 1721:0.83609998 1736:0.83700001 1788:0.87840003 1809:0.81089997 #
0.029733434013846166826811057148916 88:0.89639997 134:0.8811 153:0.85409999 274:0.84329998 288:0.88919997 297:0.82620001 303:0.8973 321:0.83249998 333:0.86400002 335:0.83609998 338:0.82080001 344:0.89459997 350:0.84509999 358:0.86400002 367:0.83700001 369:0.84869999 370:0.84149998 373:0.83700001 381:0.82889998 383:0.82980001 400:0.83520001 414:0.8118 418:0.83880001 430:0.84509999 458:0.82260001 464:0.83520001 467:0.83249998 498:0.85949999 499:0.8829 502:0.84600002 528:0.89459997 537:0.8865 554:0.86040002 601:0.84780002 607:0.81089997 612:0.84060001 649:0.88200003 670:0.82080001 675:0.84509999 712:0.8793 715:0.81809998 733:0.83700001 751:0.84149998 826:0.82529998 841:0.85229999 845:0.85769999 857:0.85049999 859:0.85769999 873:0.83789998 882:0.82709998 903:0.86760002 913:0.81629997 #
0.029733434013846166826811057148916 8:0.89639997 84:0.89279997 207:0.85409999 233:0.8901 262:0.88739997 264:0.83880001 321:0.85500002 329:0.84060001 335:0.84689999 369:0.85860002 400:0.8811 402:0.86220002 439:0.85229999 459:0.82080001 464:0.83520001 485:0.82529998 528:0.8919 546:0.89459997 555:0.81089997 567:0.81449997 605:0.84420002 611:0.86129999 622:0.83609998 627:0.83340001 651:0.87480003 669:0.81629997 680:0.85769999 708:0.81089997 712:0.86940002 715:0.83249998 733:0.8739 815:0.84509999 832:0.83789998 845:0.85949999 859:0.8865 902:0.82440001 916:0.81809998 920:0.81449997 930:0.83429998 955:0.82260001 988:0.82709998 1031:0.87029999 1074:0.8136 1114:0.82169998 1122:0.82260001 1211:0.8118 1235:0.82980001 1246:0.8847 1247:0.89999998 1248:0.89999998 1249:0.89999998 1250:0.89999998 1251:0.89999998 #
0.029733434013846166826811057148916 229:0.83520001 246:0.84869999 248:0.83249998 264:0.8721 297:0.82889998 303:0.88919997 321:0.83609998 329:0.86669999 335:0.83880001 359:0.82800001 365:0.86580002 368:0.84509999 379:0.82800001 381:0.82349998 400:0.82889998 466:0.83429998 487:0.88380003 525:0.86580002 546:0.88919997 548:0.8847 603:0.8937 605:0.85860002 608:0.86669999 622:0.8154 644:0.83880001 702:0.85320002 708:0.81900001 731:0.83520001 770:0.84420002 845:0.86669999 887:0.82980001 903:0.82440001 950:0.82260001 1022:0.86129999 1038:0.82980001 1090:0.83700001 1252:0.81809998 1266:0.81989998 1295:0.81269997 1298:0.82169998 1375:0.89999998 1376:0.89999998 #
-0.01155590917726384038444198409934 7:0.97600001 25:0.912 29:0.99599999 60:0.90799999 133:0.99199998 134:0.94300002 207:0.97100002 232:0.96899998 245:0.99400002 309:0.93099999 329:0.96600002 333:0.92000002 365:0.96799999 369:0.93699998 370:0.94 371:0.903 379:0.93199998 394:0.972 401:0.90600002 440:0.92299998 446:0.91100001 447:0.92299998 461:0.949 464:0.92500001 502:0.90899998 514:0.90799999 538:0.95999998 546:0.972 551:0.99699998 556:0.94800001 566:0.991 644:0.926 680:0.94199997 688:0.95200002 697:0.99699998 699:0.93800002 726:0.99400002 731:0.903 796:0.96600002 804:0.94999999 807:0.93900001 832:0.97899997 850:0.96899998 885:0.92699999 893:0.92699999 930:0.926 1022:0.93400002 1026:0.91399997 1051:0.91900003 1060:0.917 1069:0.90600002 1103:1 1104:1 #
0.029733434013846166826811057148916 3:0.85860002 4:0.8883 57:0.86309999 79:0.8739 264:0.89279997 282:0.83520001 288:0.88559997 297:0.82620001 311:0.82709998 365:0.86940002 369:0.84060001 409:0.89459997 414:0.83069998 417:0.84329998 418:0.85049999 492:0.87120003 495:0.8883 496:0.86849999 541:0.8847 575:0.86129999 623:0.83069998 688:0.81900001 697:0.8154 703:0.81900001 796:0.86849999 #
-0.029733434013846166826811057148916 115:0.949 161:0.94999999 279:0.92900002 297:0.91799998 303:0.98900002 321:0.90799999 365:0.95899999 369:0.90799999 373:0.94800001 379:0.95700002 400:0.98500001 455:0.99699998 482:0.91600001 487:0.96600002 546:0.97500002 548:0.95899999 568:0.91900003 699:0.91399997 762:0.90700001 859:0.94 862:0.93800002 885:0.91900003 998:0.95300001 1022:0.94199997 1188:0.93400002 1274:0.99699998 1276:1 #
-0.029733434013846166826811057148916 36:0.99199998 80:0.91799998 288:0.991 350:0.92199999 373:0.93699998 390:0.92400002 414:0.96100003 421:0.94400001 458:0.94199997 464:0.92000002 482:0.92699999 488:0.94800001 496:0.96799999 546:0.98799998 554:0.93699998 601:0.93900001 697:0.92900002 832:0.903 850:0.921 893:0.91399997 1282:0.95499998 1283:0.92699999 1320:0.90499997 1371:0.96100003 1382:0.92199999 1396:0.903 1502:0.90100002 1515:0.92699999 1518:0.949 1520:1 1521:1 #
-0.029733434013846166826811057148916 85:1 264:0.98699999 304:0.92199999 365:0.96100003 644:0.95499998 680:0.94499999 692:0.91000003 702:0.97600001 796:0.97299999 806:0.92699999 850:0.99599999 940:0.93000001 1414:0.94099998 1524:0.97500002 1526:0.96600002 1527:1 1528:1 #
-0.011136315140267739193236096184592 248:0.92799997 272:0.972 304:0.926 310:0.90600002 321:0.94300002 350:0.95899999 365:0.95599997 369:0.93099999 400:0.94 414:0.92900002 417:0.93199998 421:0.92799997 458:0.95599997 480:0.91299999 482:0.93400002 496:0.96799999 503:0.94 505:0.91399997 508:0.92199999 551:0.98100001 575:0.96499997 585:0.90600002 586:0.91900003 662:0.92500001 867:0.91399997 940:0.93199998 945:0.95200002 1053:0.94199997 1075:0.94300002 1147:0.91100001 1194:0.99800003 1195:1 1196:1 1197:1 #
0.029733434013846166826811057148916 4:0.84060001 79:0.84420002 85:0.89279997 245:0.8973 264:0.89459997 310:0.86220002 335:0.81989998 365:0.87120003 368:0.83160001 379:0.83880001 382:0.84149998 429:0.83609998 458:0.85589999 464:0.82709998 490:0.87480003 502:0.83520001 514:0.82620001 537:0.8919 551:0.83789998 594:0.84149998 644:0.84149998 649:0.88919997 657:0.8901 680:0.85769999 688:0.84329998 703:0.82620001 742:0.83249998 796:0.85229999 827:0.83069998 832:0.82529998 850:0.86040002 893:0.84780002 944:0.83340001 1022:0.84509999 1027:0.82080001 1069:0.82529998 1178:0.85769999 1179:0.82800001 1249:0.8154 #
-0.029733434013846166826811057148916 1:0.98699999 55:0.972 122:0.96700001 127:0.93199998 275:0.97000003 288:0.986 334:0.949 335:0.954 350:0.94700003 389:0.958 390:0.89999998 400:0.94 414:0.95200002 421:0.90499997 490:0.99599999 496:0.96499997 502:0.93400002 537:0.95899999 550:0.93400002 575:0.95099998 632:0.99199998 751:0.93800002 806:0.91900003 820:0.92799997 825:0.93800002 890:0.92400002 989:1 #
-0.029733434013846166826811057148916 2:0.98400003 3:0.96200001 5:0.94800001 8:0.98799998 21:0.94999999 22:0.93900001 26:0.94199997 28:0.949 32:0.99599999 58:0.91000003 60:0.917 79:0.93599999 80:0.91799998 81:0.93400002 83:0.93000001 87:0.986 92:0.98400003 96:0.93400002 107:0.99599999 108:0.98799998 115:0.99199998 132:0.92500001 143:0.93099999 179:0.95300001 212:0.97399998 224:1 247:0.90600002 248:0.91399997 254:0.90899998 260:0.98000002 267:0.99400002 268:0.917 279:0.92799997 283:0.95999998 284:0.96399999 290:0.90600002 303:0.99699998 304:0.93400002 306:0.94300002 310:0.93099999 315:0.91000003 318:0.903 321:0.93099999 325:0.95599997 327:0.935 333:0.91000003 335:0.92299998 350:0.95599997 351:1 352:1 353:1 354:1 #
0.029733434013846166826811057148916 154:0.87840003 212:0.87660003 264:0.86940002 329:0.86669999 365:0.86849999 603:0.8937 644:0.84420002 903:0.82440001 #
-0.00013104188489762710542740897778913 41:0.96600002 90:0.98000002 232:0.96899998 252:0.91600001 264:0.92900002 279:0.94800001 321:0.90200001 329:0.93400002 332:0.96799999 334:0.93400002 358:0.95999998 360:0.98000002 370:0.935 373:0.92000002 429:0.90100002 458:0.94099998 459:0.91000003 461:0.97600001 464:0.90899998 475:0.91399997 537:0.92299998 544:0.91399997 546:0.97600001 551:0.99199998 649:0.92199999 662:0.90700001 680:0.94700003 763:0.90899998 815:0.93599999 825:0.92000002 832:0.903 845:0.93000001 873:0.93099999 893:0.93900001 945:0.94 955:0.917 1036:0.99400002 #
-0.0066996907190412088514697153129873 15:1 56:0.97000003 183:0.96499997 184:0.95999998 207:0.97600001 245:0.92299998 279:0.94099998 310:0.94599998 321:0.94800001 358:0.90499997 365:0.96200001 367:0.93599999 370:0.93800002 373:0.94599998 383:0.91799998 458:0.94199997 464:0.926 467:0.93199998 482:0.93699998 503:0.94599998 514:0.95899999 669:0.95200002 680:0.95300001 688:0.93400002 703:0.91000003 715:0.94499999 772:0.98199999 796:0.912 804:0.92299998 832:0.93099999 840:0.921 843:0.926 845:0.94999999 850:0.95099998 852:0.94999999 859:0.94400001 885:0.93199998 893:0.954 915:0.90499997 947:0.93199998 1022:0.95700002 1103:0.91299999 1145:1 #
0.029733434013846166826811057148916 3:0.8883 297:0.82349998 321:0.83249998 350:0.82980001 365:0.87120003 369:0.84149998 418:0.83700001 455:0.8973 487:0.8937 496:0.86400002 546:0.8919 662:0.83249998 697:0.84780002 712:0.8793 804:0.83880001 843:0.81720001 850:0.85860002 859:0.85589999 1315:0.84509999 1353:0.83249998 1489:0.86129999 1788:0.83789998 1950:0.82980001 #
0.0022357036912625939499565941304127 36:0.87029999 115:0.87300003 273:0.82080001 275:0.87300003 317:0.83609998 321:0.83969998 358:0.85320002 369:0.82980001 370:0.84600002 373:0.84780002 385:0.87120003 387:0.84060001 390:0.86129999 391:0.86309999 414:0.85949999 417:0.82709998 430:0.84509999 451:0.81269997 464:0.83789998 469:0.8118 482:0.8154 496:0.86400002 514:0.84240001 537:0.85769999 546:0.8919 586:0.8847 601:0.85049999 627:0.82800001 662:0.82260001 680:0.85500002 697:0.8973 708:0.82440001 712:0.87480003 715:0.83609998 726:0.8901 745:0.86129999 808:0.85229999 832:0.81989998 859:0.85049999 867:0.8118 868:0.81900001 870:0.8793 873:0.83789998 902:0.86940002 915:0.82800001 1031:0.81629997 1090:0.84509999 1135:0.83429998 1180:0.83340001 1282:0.85949999 1283:0.82709998 1285:0.84509999 1286:0.89999998 1287:0.89999998 #
0.029733434013846166826811057148916 133:0.83520001 224:0.89639997 303:0.89459997 321:0.83429998 329:0.86940002 335:0.81449997 365:0.87120003 369:0.84869999 399:0.83069998 402:0.82529998 418:0.85049999 487:0.87120003 528:0.89459997 644:0.85589999 669:0.85409999 670:0.81449997 697:0.8136 712:0.8721 738:0.85680002 796:0.86040002 843:0.86040002 850:0.86669999 866:0.87029999 912:0.8757 983:0.84149998 1014:0.85589999 1022:0.84509999 1090:0.84149998 1134:0.85320002 1292:0.83880001 1294:0.83789998 #
0.029733434013846166826811057148916 2:0.85229999 7:0.88919997 183:0.8757 207:0.89639997 310:0.8154 335:0.82260001 365:0.84780002 369:0.86309999 370:0.84600002 371:0.81 373:0.84060001 400:0.89459997 446:0.85680002 464:0.82529998 482:0.84509999 503:0.83249998 551:0.8973 566:0.84509999 608:0.86489999 644:0.84869999 702:0.85589999 715:0.82349998 804:0.82889998 832:0.81720001 840:0.83160001 859:0.85140002 860:0.81989998 870:0.86129999 885:0.82889998 1000:0.86669999 1031:0.86760002 1090:0.84780002 1113:0.86400002 1241:0.83069998 #
0.029733434013846166826811057148916 6:0.86400002 40:0.86040002 41:0.87840003 79:0.86760002 81:0.8811 90:0.82440001 107:0.89639997 143:0.84149998 206:0.84600002 224:0.89639997 254:0.82889998 255:0.82889998 264:0.83880001 329:0.85680002 362:0.89999998 363:0.89999998 364:0.89999998 365:0.89999998 #
-0.029733434013846166826811057148916 6:0.96499997 44:0.92699999 55:0.991 277:0.91000003 283:0.95999998 358:0.917 544:0.91399997 581:0.96700001 632:0.98299998 644:0.95700002 751:0.92400002 806:0.92900002 850:0.96200001 1000:0.97500002 1143:0.95999998 #
0.029733434013846166826811057148916 7:0.87840003 17:0.88559997 50:0.8721 153:0.84329998 179:0.87120003 290:0.8847 303:0.88200003 310:0.82260001 321:0.84780002 358:0.86129999 365:0.84509999 370:0.84149998 379:0.81809998 381:0.82889998 383:0.82980001 400:0.84329998 439:0.84420002 469:0.82889998 482:0.83160001 488:0.81900001 500:0.84960002 506:0.82260001 546:0.89459997 556:0.85320002 573:0.8919 602:0.83340001 605:0.85500002 644:0.84780002 690:0.81809998 699:0.83789998 703:0.84509999 712:0.86129999 731:0.81269997 762:0.81629997 807:0.85229999 814:0.82260001 815:0.84240001 835:0.83969998 845:0.82980001 893:0.85500002 940:0.83340001 945:0.8136 983:0.81989998 1022:0.84509999 1036:0.82709998 1090:0.84960002 1113:0.85500002 1200:0.84060001 1219:0.82260001 1252:0.85140002 1269:0.82800001 1285:0.82440001 1315:0.83700001 1331:0.82889998 1332:0.83609998 1333:0.83969998 1335:0.89999998 1336:0.89999998 1337:0.89999998 1338:0.89999998 1339:0.89999998 #
0.029733434013846166826811057148916 7:0.8154 31:0.89279997 187:0.85769999 207:0.86040002 309:0.82260001 321:0.81809998 369:0.84329998 371:0.81269997 373:0.85049999 379:0.83520001 445:0.86760002 458:0.85769999 464:0.83609998 502:0.84329998 514:0.83609998 533:0.81269997 546:0.86760002 551:0.8901 568:0.83340001 597:0.87480003 601:0.84509999 608:0.81269997 649:0.81449997 662:0.81720001 680:0.85769999 690:0.81449997 702:0.85589999 715:0.83789998 734:0.86220002 796:0.82889998 840:0.82889998 845:0.8829 859:0.85589999 869:0.81989998 893:0.84960002 899:0.85500002 1031:0.81269997 1090:0.83609998 1123:0.82529998 1272:0.83520001 1325:0.89999998 #
0.029733434013846166826811057148916 3:0.8883 90:0.84689999 133:0.8847 264:0.84149998 273:0.82709998 321:0.83249998 324:0.83520001 329:0.83880001 369:0.84329998 461:0.84689999 462:0.81629997 546:0.88919997 662:0.82709998 697:0.85680002 712:0.85589999 733:0.82800001 804:0.83880001 843:0.81720001 850:0.86940002 975:0.86129999 1022:0.84780002 1130:0.86309999 1294:0.85229999 1306:0.86760002 1318:0.83880001 1353:0.83520001 1354:0.8973 #
-0.029733434013846166826811057148916 3:0.98699999 7:0.98400003 19:0.92299998 184:0.94800001 253:0.912 279:0.94800001 303:0.93099999 335:0.91399997 350:0.93599999 369:0.93699998 370:0.91799998 373:0.95599997 439:0.94400001 458:0.98299998 490:0.94999999 503:0.94 525:0.93900001 528:0.94700003 541:0.97600001 544:0.92000002 546:0.96399999 575:0.954 597:0.90200001 601:0.93800002 605:0.94099998 607:0.96499997 662:0.91900003 680:0.94999999 814:0.91000003 815:0.93300003 832:0.93099999 845:0.96200001 850:0.963 859:0.95300001 873:0.92000002 940:0.90499997 1026:0.90600002 1031:0.94700003 1041:0.90100002 1147:0.926 1196:0.93199998 1241:0.96399999 1242:0.903 1299:0.92900002 1310:0.92500001 1382:1 1383:1 1384:1 #
0.029733434013846166826811057148916 45:0.86400002 206:0.84240001 303:0.88919997 329:0.84329998 365:0.87120003 418:0.83880001 528:0.88919997 600:0.82080001 623:0.8154 644:0.84869999 649:0.82440001 702:0.85320002 703:0.82349998 712:0.88200003 796:0.85500002 804:0.83160001 850:0.83160001 853:0.82349998 857:0.84149998 1013:0.8136 1022:0.84329998 1258:0.84060001 1269:0.89459997 1318:0.85860002 #
-0.023277973517473272979660947612501 2:0.98400003 24:0.93000001 190:0.98799998 202:0.90700001 212:0.97399998 322:0.96700001 370:0.92299998 385:0.99699998 389:0.958 394:0.99400002 402:0.96399999 439:0.92400002 443:0.92799997 458:0.92900002 464:0.92799997 465:0.92900002 499:0.97799999 502:0.92400002 503:0.94700003 533:0.91399997 546:0.96100003 554:0.96499997 566:0.91000003 580:0.986 582:0.986 605:0.926 616:0.97299999 644:0.94199997 662:0.91000003 680:0.95300001 683:0.96200001 697:0.92900002 715:0.92299998 807:0.95300001 811:0.95499998 825:0.98000002 832:0.90799999 840:0.91900003 845:0.95300001 859:0.93599999 876:0.96600002 893:0.91900003 947:0.91600001 948:1 983:0.92799997 1153:0.89999998 1158:1 1159:1 1160:1 #
0.029733434013846166826811057148916 45:0.89639997 243:0.86940002 252:0.85500002 273:0.85229999 283:0.85320002 297:0.82709998 381:0.82080001 417:0.84060001 462:0.81629997 469:0.82620001 496:0.8829 548:0.88919997 712:0.88919997 1090:0.85589999 #
0.029733434013846166826811057148916 50:0.8721 96:0.82529998 127:0.84240001 135:0.86220002 218:0.86489999 248:0.81809998 252:0.85589999 264:0.82080001 298:0.84060001 303:0.8973 321:0.85500002 329:0.85409999 365:0.87120003 369:0.84600002 439:0.85229999 482:0.84780002 491:0.8901 499:0.89459997 622:0.83340001 644:0.86400002 690:0.81809998 699:0.86849999 732:0.81449997 740:0.88919997 745:0.86580002 806:0.83789998 807:0.84509999 837:0.84060001 843:0.82169998 850:0.86669999 868:0.83249998 #
0.029733434013846166826811057148916 245:0.8973 264:0.8154 310:0.84420002 321:0.84240001 329:0.85049999 335:0.81989998 365:0.86580002 373:0.83429998 383:0.89459997 384:0.85949999 401:0.87480003 430:0.82980001 467:0.83609998 490:0.88200003 546:0.8919 622:0.83609998 649:0.81900001 680:0.85049999 688:0.82980001 692:0.82709998 708:0.83340001 815:0.83969998 837:0.81989998 850:0.85589999 873:0.84329998 897:0.84600002 902:0.82980001 1022:0.84329998 1262:0.84509999 1393:0.89999998 1394:0.89999998 #
0.029733434013846166826811057148916 6:0.87480003 50:0.86849999 153:0.84329998 246:0.8154 252:0.86669999 321:0.82080001 329:0.82529998 332:0.82529998 350:0.84060001 358:0.83520001 369:0.85860002 379:0.8919 402:0.85680002 487:0.83789998 528:0.89459997 612:0.8118 632:0.89279997 644:0.85320002 649:0.8847 688:0.85949999 745:0.86309999 843:0.81720001 850:0.87120003 975:0.82709998 983:0.82800001 1013:0.82800001 1139:0.83160001 1205:0.81629997 1211:0.87660003 1241:0.82800001 1252:0.84780002 1295:0.89999998 #
0.029733434013846166826811057148916 84:0.88559997 233:0.8757 252:0.86669999 262:0.88739997 264:0.84329998 297:0.82889998 329:0.84600002 350:0.85500002 367:0.84780002 369:0.84329998 381:0.84329998 458:0.84060001 464:0.83969998 498:0.83700001 499:0.89279997 522:0.83160001 537:0.8757 546:0.88919997 573:0.8973 611:0.82169998 622:0.83789998 680:0.85769999 692:0.83249998 703:0.8136 712:0.85409999 796:0.82080001 815:0.83700001 859:0.85409999 870:0.85589999 873:0.83789998 898:0.86220002 920:0.81449997 956:0.83700001 1022:0.84060001 1069:0.81269997 1090:0.84240001 1136:0.84689999 1211:0.84780002 1246:0.85409999 1252:0.87029999 1254:0.89999998 #
0.029733434013846166826811057148916 5:0.84960002 24:0.87840003 88:0.89639997 92:0.86760002 153:0.85409999 288:0.89999998 297:0.83069998 298:0.85049999 303:0.8973 310:0.85320002 317:0.85589999 321:0.82529998 324:0.82709998 333:0.82709998 344:0.89459997 350:0.84780002 358:0.86400002 369:0.85589999 370:0.84420002 373:0.81989998 380:0.81449997 418:0.84600002 430:0.85860002 439:0.82620001 458:0.82980001 464:0.82980001 467:0.82260001 482:0.85049999 498:0.8136 499:0.8973 502:0.83520001 507:0.83160001 528:0.8919 537:0.85769999 601:0.82980001 605:0.84689999 649:0.8847 672:0.84329998 697:0.8136 712:0.87660003 715:0.86040002 733:0.83429998 734:0.8829 751:0.82889998 829:0.85140002 837:0.81900001 845:0.81449997 873:0.84060001 893:0.83249998 913:0.88739997 945:0.89999998 #
0.029733434013846166826811057148916 38:0.8919 88:0.8901 93:0.82980001 122:0.8775 154:0.88559997 168:0.87840003 248:0.82080001 275:0.87029999 288:0.88020003 310:0.84780002 321:0.85320002 329:0.8154 332:0.84600002 365:0.86309999 369:0.84149998 373:0.83520001 379:0.81809998 381:0.82169998 390:0.81 400:0.83520001 421:0.81449997 461:0.86129999 464:0.82709998 494:0.81089997 496:0.86940002 499:0.87300003 537:0.83340001 546:0.85229999 548:0.89999998 549:0.89999998 550:0.89999998 551:0.89999998 #
-0.029733434013846166826811057148916 5:0.94 13:0.92799997 61:0.98000002 84:0.99199998 115:0.97000003 187:0.97000003 233:0.98100001 245:0.99699998 252:0.93800002 262:0.90600002 297:0.94999999 303:0.98900002 306:0.917 329:0.93699998 350:0.95499998 379:0.90899998 402:0.94599998 482:0.93000001 546:0.99400002 575:0.94999999 605:0.93099999 607:0.95499998 608:0.93599999 611:0.92000002 622:0.93099999 644:0.95200002 697:0.92699999 702:0.97799999 708:0.90700001 734:0.92799997 811:1 812:1 813:1 814:1 815:1 #
-0.029733434013846166826811057148916 3:0.99199998 4:0.99599999 26:0.97500002 28:0.94499999 32:0.99599999 143:0.91900003 242:0.96899998 264:0.972 278:1 283:0.95999998 303:0.98000002 304:0.95300001 309:0.92699999 311:0.90799999 322:0.90499997 329:0.926 365:0.96799999 368:0.92699999 414:0.92900002 425:1 426:1 427:1 428:1 #
-0.0087952699054343018436608048205017 28:0.95300001 270:0.98900002 297:0.91799998 303:0.963 311:0.90799999 321:0.93099999 350:0.93000001 400:0.92199999 408:0.99599999 412:0.92299998 487:0.95999998 502:0.93699998 508:0.92199999 567:0.90700001 575:0.95700002 602:0.96399999 608:0.93400002 699:0.91100001 711:0.90600002 712:0.972 929:1 #
-0.023796543821905786347814526493494 4:0.99599999 24:0.99599999 50:0.90700001 133:0.97899997 179:0.96399999 204:0.98299998 247:0.91900003 252:0.977 264:0.954 275:0.97000003 293:0.94800001 298:0.94199997 303:0.99699998 329:0.95099998 336:0.95700002 346:0.96200001 358:0.95899999 365:0.96799999 367:0.92699999 369:0.94300002 383:0.92799997 400:0.93000001 409:0.991 417:0.93800002 418:0.94 421:0.926 439:0.95300001 444:0.94599998 445:0.94999999 446:0.90399998 458:0.94300002 461:0.954 464:0.926 491:0.991 499:0.97600001 502:0.92799997 546:0.98799998 621:0.89999998 632:1 649:0.99699998 693:0.90200001 697:0.90600002 700:0.93099999 703:0.92400002 708:0.90700001 733:0.94400001 796:0.95899999 804:0.93800002 806:0.94199997 815:0.90499997 826:0.91600001 837:0.93099999 870:0.94599998 955:0.90200001 1022:0.95099998 1025:0.90799999 1031:0.912 1131:0.96899998 #
0.029733434013846166826811057148916 8:0.8793 248:0.83160001 283:0.86849999 321:0.86489999 350:0.83520001 365:0.87120003 369:0.84869999 382:0.82620001 482:0.83340001 535:0.84869999 546:0.8865 554:0.82620001 633:0.81 644:0.85769999 662:0.83249998 715:0.85229999 731:0.81720001 745:0.86129999 850:0.85860002 859:0.85320002 945:0.85949999 964:0.8136 972:0.82980001 1000:0.86129999 1022:0.84329998 1044:0.83700001 1176:0.86400002 1268:0.8118 1292:0.89999998 1293:0.89999998 1294:0.89999998 #
-0.0064601405804418409253853106122278 245:0.96200001 248:0.92799997 321:0.94199997 329:0.94 335:0.92299998 358:0.92299998 361:0.91600001 381:0.94599998 400:0.99400002 439:0.93000001 457:0.97600001 458:0.96899998 464:0.93099999 482:0.91100001 499:0.917 524:0.93099999 546:0.991 551:0.98100001 573:0.98199999 605:0.963 612:0.91600001 627:0.92500001 662:0.94599998 680:0.95300001 693:0.90200001 702:0.95099998 715:0.93400002 721:0.90899998 752:0.95899999 796:0.96799999 804:0.93199998 832:0.91399997 859:0.95300001 860:0.92000002 870:0.94599998 893:0.94199997 915:0.96100003 983:0.917 1022:0.93900001 1090:0.93900001 1098:0.90499997 1310:0.91600001 1318:0.93000001 1367:0.90100002 1368:1 1369:1 1370:1 1371:1 #
-0.012643951985152526024114294500578 50:1 159:0.99299997 290:0.96799999 297:0.91500002 303:0.99199998 321:0.921 326:0.93599999 332:0.94 373:0.91799998 383:0.91799998 458:0.90899998 459:0.95599997 541:0.986 567:0.89999998 571:1 632:0.98900002 644:0.94199997 646:0.991 650:0.98799998 658:0.921 690:0.91600001 697:0.96499997 699:0.96399999 702:0.97000003 784:0.93000001 804:0.93000001 807:0.95599997 808:0.98400003 835:0.917 845:0.93900001 885:0.912 905:0.95899999 983:0.99199998 984:0.94999999 1022:0.93599999 1097:0.92900002 1098:0.926 1133:0.92000002 1178:0.93400002 1244:0.93900001 1332:0.92299998 1348:0.94099998 1375:0.97899997 1470:0.93199998 1519:0.921 1651:0.94400001 1677:0.98199999 1721:0.93199998 1737:0.89999998 1912:0.954 1937:1 1938:1 1939:1 1940:1 1941:1 1942:1 1943:1 1944:1 #
0.029733434013846166826811057148916 8:0.8757 84:0.89279997 207:0.88559997 212:0.85769999 269:0.89459997 275:0.87300003 288:0.8829 350:0.81720001 369:0.83520001 370:0.84420002 381:0.82620001 400:0.84869999 402:0.81720001 410:0.8901 458:0.84960002 464:0.84149998 482:0.81449997 496:0.86669999 514:0.83969998 518:0.87660003 525:0.82980001 546:0.88919997 607:0.82080001 622:0.83069998 662:0.83249998 702:0.85589999 708:0.81629997 712:0.8847 796:0.85229999 804:0.84149998 815:0.82800001 845:0.84780002 859:0.86040002 870:0.85409999 878:0.82260001 893:0.84780002 922:0.82169998 947:0.82709998 955:0.82980001 990:0.82709998 998:0.89999998 #
-0.029733434013846166826811057148916 79:0.93599999 246:0.98100001 264:0.99699998 282:0.92199999 297:1 310:0.93599999 321:0.93900001 365:0.96799999 370:0.93800002 400:0.92500001 482:0.917 487:0.97500002 528:0.98799998 537:0.991 546:0.94999999 567:0.94199997 622:0.93199998 662:0.92199999 680:0.94800001 697:0.91799998 708:0.90399998 731:0.95200002 733:0.94400001 804:0.935 815:0.94199997 859:0.95599997 #
-0.029733434013846166826811057148916 2:0.97899997 212:0.97000003 219:0.99599999 283:0.95700002 321:0.93800002 358:0.921 365:0.95899999 369:0.92799997 443:0.977 455:0.991 459:0.903 464:0.92799997 499:0.91299999 500:0.958 546:0.90499997 568:0.90799999 580:0.986 581:0.96399999 616:0.98199999 637:0.92400002 708:0.93099999 758:0.91100001 804:0.95599997 840:0.921 876:0.96600002 935:0.90100002 972:0.972 1148:1 1149:1 1150:1 1151:1 #
-0.029733434013846166826811057148916 2:0.98799998 20:0.98699999 23:0.91299999 54:0.98799998 64:0.95999998 207:0.95599997 212:0.97000003 248:0.91399997 290:0.903 298:0.94199997 310:0.91399997 321:0.91299999 326:0.99400002 329:0.91500002 335:0.93400002 343:0.93099999 358:0.95700002 365:0.96799999 369:0.94 370:0.90799999 439:0.95899999 453:1 454:1 455:1 456:1 457:1 458:1 459:1 460:1 #
0.005152000772473477874235925355606 2:0.89279997 3:0.8919 4:0.89999998 5:0.8811 6:0.87300003 7:0.89639997 8:0.89279997 10:0.86940002 11:0.88380003 13:0.85500002 14:0.89639997 15:0.89999998 18:0.88919997 20:0.89639997 23:0.8757 26:0.89999998 28:0.89639997 32:0.89639997 34:0.86580002 40:0.83249998 41:0.87120003 44:0.84420002 51:0.81989998 54:0.8118 55:0.8883 56:0.89999998 57:0.89999998 58:0.89999998 59:0.89999998 60:0.89999998 61:0.89999998 62:0.89999998 63:0.89999998 64:0.89999998 65:0.89999998 66:0.89999998 67:0.89999998 68:0.89999998 #
0.029733434013846166826811057148916 28:0.86129999 81:0.88559997 204:0.88919997 246:0.88739997 252:0.84780002 255:0.82620001 279:0.83609998 297:0.82889998 303:0.8973 311:0.81720001 313:0.85140002 321:0.82800001 324:0.83249998 331:0.83249998 373:0.84869999 409:0.8973 417:0.83880001 418:0.83880001 426:0.83249998 429:0.81269997 440:0.83069998 487:0.86669999 505:0.84960002 522:0.85140002 528:0.8973 547:0.8757 575:0.86400002 601:0.82889998 607:0.81089997 610:0.81089997 672:0.82620001 697:0.85680002 712:0.8721 820:0.82529998 853:0.82800001 870:0.84869999 891:0.83700001 926:0.89999998 927:0.89999998 928:0.89999998 #
-0.029733434013846166826811057148916 2:0.97100002 41:0.95499998 66:0.92299998 88:0.99199998 90:0.94099998 135:0.96899998 264:0.96899998 297:0.90700001 329:0.94 458:0.93699998 461:0.95700002 496:0.96499997 571:0.99699998 611:0.92299998 622:0.93199998 649:0.977 688:0.95499998 690:0.91900003 691:0.94 703:0.93900001 732:0.903 796:0.94999999 832:0.926 840:0.90899998 843:0.91299999 850:0.95700002 920:0.90100002 944:0.91399997 #
0.029733434013846166826811057148916 41:0.8739 101:0.89639997 246:0.84869999 264:0.89459997 306:0.84600002 311:0.81720001 317:0.85589999 321:0.81809998 325:0.85049999 329:0.84869999 359:0.8955 365:0.86849999 369:0.84869999 370:0.84420002 373:0.83160001 383:0.81809998 400:0.86489999 458:0.85860002 459:0.83340001 467:0.83789998 499:0.86760002 530:0.81089997 546:0.87029999 547:0.8973 554:0.86309999 605:0.86129999 607:0.84149998 644:0.85680002 649:0.83789998 688:0.86489999 690:0.81809998 699:0.86220002 702:0.8757 769:0.81989998 796:0.85500002 826:0.82260001 850:0.86849999 859:0.85229999 940:0.82260001 1006:0.8757 1022:0.82440001 1212:0.81 1235:0.83340001 1295:0.85500002 1318:0.84509999 1343:0.89999998 #
0.029733434013846166826811057148916 4:0.88200003 88:0.89279997 90:0.83520001 133:0.8883 175:0.82080001 264:0.88739997 303:0.88200003 329:0.84060001 365:0.86849999 461:0.86129999 496:0.86669999 546:0.84689999 622:0.83880001 644:0.86940002 649:0.82709998 669:0.84689999 697:0.82080001 703:0.84780002 804:0.83340001 845:0.86760002 920:0.81269997 944:0.89999998 #
-0.020299148751466478818317185073283 5:0.96799999 24:0.99199998 50:0.99599999 84:0.99199998 88:0.96600002 94:0.99199998 101:0.99199998 246:0.98400003 264:0.98000002 344:0.93599999 369:0.94499999 418:0.917 440:0.912 551:0.99000001 633:0.90399998 692:0.926 733:0.92400002 885:0.90399998 1035:0.95200002 1391:0.90200001 1498:0.95599997 1537:0.90100002 1552:0.90100002 1622:0.97600001 1651:0.93900001 1753:0.99699998 1755:1 1756:1 1757:1 #
0.029733434013846166826811057148916 2:0.87029999 212:0.85049999 229:0.83160001 246:0.89279997 310:0.84600002 321:0.84240001 329:0.86669999 335:0.84060001 365:0.87120003 368:0.84600002 379:0.81269997 439:0.82080001 487:0.8901 546:0.88919997 603:0.8937 605:0.81089997 608:0.84869999 622:0.84329998 644:0.83609998 702:0.85320002 731:0.83249998 738:0.86760002 770:0.83340001 840:0.82889998 845:0.88200003 893:0.81629997 930:0.83340001 1022:0.8757 1211:0.81809998 1295:0.83340001 1298:0.82709998 1319:0.81089997 1374:0.84329998 1375:0.8847 1377:0.89999998 1378:0.89999998 1379:0.89999998 #
-0.029733434013846166826811057148916 204:0.97500002 247:0.972 252:0.954 264:0.963 288:0.99400002 303:0.99199998 321:0.91399997 359:0.92000002 379:0.94499999 417:0.93400002 459:0.926 487:0.963 522:0.96600002 532:0.90399998 640:0.92500001 712:0.96899998 735:0.89999998 770:0.92400002 913:0.963 920:0.90600002 940:0.94 1005:0.972 1090:0.97299999 1209:1 #
-0.026243059595068177897170258461301 84:0.99199998 255:0.91600001 264:0.99699998 288:0.99400002 298:0.92900002 311:0.90200001 365:0.93900001 369:0.93099999 379:0.99400002 400:0.99699998 413:0.94700003 418:0.93400002 496:0.96600002 505:0.96399999 508:0.92500001 575:0.95599997 644:0.95200002 649:0.98000002 686:0.92299998 702:0.95099998 703:0.92699999 732:0.92299998 799:0.96399999 821:0.912 843:0.91799998 850:0.954 927:0.90499997 940:0.94099998 969:0.963 1022:0.93699998 1044:0.94499999 1180:0.95700002 1223:1 #
0.029733434013846166826811057148916 28:0.86489999 81:0.8811 255:0.82620001 288:0.8847 291:0.8973 297:0.81809998 303:0.8973 311:0.82080001 411:0.82889998 417:0.83609998 418:0.84600002 426:0.83520001 522:0.87480003 528:0.84960002 575:0.86129999 610:0.82889998 672:0.83880001 697:0.82889998 856:0.89999998 #
-0.029733434013846166826811057148916 247:0.97799999 350:0.95599997 379:0.91500002 418:0.93000001 506:0.94999999 575:0.954 608:0.95999998 644:0.94599998 859:0.94400001 873:0.92799997 1375:0.93699998 1433:0.98400003 1436:0.91100001 #
-0.029733434013846166826811057148916 4:0.99599999 17:0.99199998 90:0.98000002 233:0.98900002 264:0.91900003 282:0.91000003 329:0.93199998 369:0.90200001 430:0.93199998 455:0.99299997 499:0.93400002 611:0.91600001 649:0.95200002 692:0.935 796:0.96799999 1022:0.92900002 1252:0.917 1255:0.94199997 1414:0.92400002 1736:0.93000001 1753:0.96600002 1788:0.958 #
-0.029733434013846166826811057148916 6:0.97399998 317:0.95700002 335:0.93400002 350:0.95899999 379:0.926 400:0.94 439:0.92400002 498:0.94300002 503:0.94300002 525:0.92500001 608:0.94999999 610:0.93000001 644:0.96600002 672:0.90499997 859:0.95099998 873:0.93400002 1117:0.97299999 1192:0.94099998 1235:0.93199998 1266:0.90100002 1294:0.912 1375:0.94199997 1433:1 #
-0.0082765509360231519220274520876046 17:0.92699999 86:0.912 90:0.98000002 133:1 154:0.963 233:0.98500001 298:0.94400001 305:0.991 329:0.93300003 365:0.94499999 383:0.90200001 440:0.917 499:1 537:0.96600002 611:0.926 622:0.92799997 690:0.91399997 692:0.93599999 693:0.90200001 699:0.94800001 741:0.99400002 850:0.921 920:0.90200001 1252:0.93099999 1255:0.96100003 1527:0.91799998 1567:0.96799999 1640:1 1649:0.99599999 1650:0.917 1651:0.96799999 1654:1 1655:1 #
-0.029733434013846166826811057148916 4:0.99199998 84:0.98299998 97:0.96700001 99:0.94099998 133:0.99599999 141:0.96700001 142:0.96399999 204:0.98299998 207:0.98000002 247:0.93900001 264:0.96200001 275:0.96700001 293:0.95200002 298:0.91799998 329:0.94300002 332:0.94 346:0.96399999 358:0.95999998 365:0.96499997 369:0.94 409:0.99400002 417:0.93400002 439:0.94400001 464:0.93699998 498:0.92000002 499:0.97500002 502:0.926 546:0.98199999 627:0.90399998 632:1 649:0.98299998 675:0.93699998 693:0.90200001 697:0.90399998 703:0.94800001 737:0.90600002 740:0.98799998 796:0.94700003 804:0.93699998 806:0.93900001 815:0.90200001 850:0.93099999 867:0.92400002 1022:0.95200002 1102:0.93199998 1131:1 1132:1 1133:1 #
0.029733434013846166826811057148916 29:0.87300003 81:0.8739 99:0.85409999 116:0.82620001 124:0.88200003 264:0.8919 303:0.89459997 321:0.8154 322:0.84689999 335:0.81269997 350:0.84420002 365:0.86849999 369:0.85589999 381:0.81900001 400:0.88919997 414:0.82980001 418:0.83700001 448:0.85500002 455:0.8973 458:0.83609998 461:0.81720001 524:0.84960002 537:0.89459997 546:0.88919997 551:0.89459997 569:0.81089997 575:0.83880001 602:0.82980001 624:0.88200003 644:0.85589999 680:0.85500002 697:0.83069998 708:0.82620001 712:0.8847 720:0.84149998 731:0.83520001 760:0.87120003 815:0.82349998 843:0.81720001 850:0.8793 859:0.85589999 888:0.81720001 897:0.82349998 929:0.81989998 1035:0.84689999 1037:0.89999998 #
0.029733434013846166826811057148916 3:0.87300003 131:0.86220002 233:0.8757 246:0.89279997 264:0.8973 297:0.82349998 321:0.82529998 322:0.84420002 350:0.83429998 365:0.87120003 369:0.84600002 400:0.89459997 418:0.83609998 455:0.89999998 458:0.82080001 467:0.81269997 488:0.8973 496:0.86669999 514:0.84780002 525:0.83969998 546:0.8865 551:0.8955 586:0.88919997 602:0.84960002 611:0.82800001 622:0.83609998 644:0.8118 662:0.82260001 712:0.8775 720:0.84240001 733:0.85769999 752:0.83160001 832:0.83069998 837:0.81449997 843:0.82440001 850:0.8793 859:0.85500002 870:0.85049999 956:0.83880001 1035:0.84689999 1038:0.84509999 1039:0.89999998 1040:0.89999998 #
0.029733434013846166826811057148916 28:0.83069998 275:0.85949999 311:0.81720001 321:0.82260001 379:0.85140002 417:0.83880001 496:0.86669999 505:0.85229999 508:0.85500002 551:0.8973 575:0.86129999 746:0.89459997 906:0.8154 940:0.83880001 1233:0.82620001 #
-0.021250449113104030729459736903664 8:0.99599999 46:0.90399998 76:0.97600001 245:0.90899998 303:0.93300003 321:0.95200002 369:0.92500001 370:0.93800002 373:0.93400002 439:0.93300003 445:0.94499999 458:0.96499997 467:0.96200001 487:0.91399997 514:0.93900001 542:0.977 546:0.98799998 576:0.90899998 594:0.90200001 601:0.92900002 605:0.94700003 608:0.91500002 662:0.91399997 680:0.94800001 699:0.91600001 715:0.94700003 733:0.95300001 807:0.94400001 815:0.93599999 832:0.926 837:0.92500001 850:0.96200001 859:0.94400001 870:0.95300001 873:0.92900002 885:0.91900003 917:0.94599998 945:0.90399998 950:0.91100001 1014:0.91799998 1027:0.912 1094:0.912 1102:0.92799997 1249:0.90700001 1305:0.91100001 1328:0.93400002 1339:0.94300002 1380:1 1381:1 #
0.029733434013846166826811057148916 8:0.86580002 36:0.8811 56:0.81 81:0.89279997 133:0.83880001 255:0.82169998 257:0.81089997 275:0.8973 304:0.8721 310:0.83429998 317:0.85860002 334:0.81629997 335:0.81989998 350:0.82440001 369:0.86400002 370:0.84149998 373:0.83609998 387:0.86040002 390:0.82980001 391:0.82080001 413:0.83520001 414:0.86489999 418:0.84329998 420:0.86309999 421:0.83520001 426:0.8118 439:0.83700001 458:0.83069998 486:0.8118 492:0.89999998 493:0.89999998 494:0.89999998 495:0.89999998 496:0.89999998 #
0.029733434013846166826811057148916 56:0.87300003 283:0.86400002 285:0.8955 311:0.81720001 575:0.86129999 581:0.87029999 644:0.82889998 809:0.81269997 859:0.86040002 #
0.012964263198914065949862717275209 229:0.86400002 252:0.8793 303:0.89999998 311:0.81720001 321:0.83609998 336:0.88380003 373:0.83789998 400:0.83249998 440:0.8118 487:0.87300003 506:0.85500002 528:0.89459997 541:0.8739 553:0.81809998 573:0.81809998 575:0.86400002 720:0.83520001 805:0.85409999 875:0.8919 929:0.8793 992:0.85409999 1003:0.89999998 1004:0.89999998 1005:0.89999998 1006:0.89999998 #
0.029733434013846166826811057148916 28:0.86489999 84:0.86129999 134:0.8811 152:0.8883 212:0.87660003 283:0.85589999 311:0.81989998 365:0.86580002 369:0.84060001 372:0.82709998 373:0.84869999 379:0.81269997 458:0.85409999 461:0.85860002 482:0.84509999 505:0.84420002 518:0.87660003 525:0.83609998 575:0.86129999 581:0.85949999 582:0.85949999 644:0.85860002 649:0.81720001 675:0.8739 688:0.85140002 697:0.83160001 702:0.86220002 712:0.88739997 734:0.81269997 804:0.84149998 850:0.86400002 940:0.84060001 1022:0.84509999 1041:0.82260001 1133:0.82529998 1176:0.86129999 1199:0.84600002 1315:0.85589999 1375:0.82709998 1386:0.89999998 1387:0.89999998 #
0.003764613140555414082938368025566 16:0.86129999 28:0.83249998 40:0.83249998 74:0.84509999 79:0.87840003 107:0.89639997 133:0.89279997 143:0.83789998 254:0.82620001 255:0.8118 260:0.8919 262:0.8919 297:0.8973 304:0.84060001 336:0.87660003 346:0.8739 #
0.029733434013846166826811057148916 3:0.89639997 4:0.89639997 32:0.89639997 79:0.86940002 85:0.86580002 87:0.86940002 89:0.89279997 97:0.89999998 168:0.88559997 264:0.85949999 281:0.83340001 306:0.84600002 329:0.83609998 350:0.84420002 365:0.86849999 369:0.84149998 376:0.88739997 379:0.8154 384:0.84960002 402:0.82440001 410:0.89279997 439:0.84689999 480:0.82529998 487:0.86220002 502:0.83520001 518:0.87660003 529:0.86220002 537:0.83609998 546:0.86940002 575:0.85860002 585:0.86400002 600:0.85409999 621:0.83789998 622:0.83609998 644:0.8721 649:0.81720001 662:0.82709998 669:0.83160001 688:0.82709998 694:0.89999998 695:0.89999998 #
-0.0057364567010364762855711973088546 113:0.954 134:0.97500002 207:0.949 246:0.99199998 248:0.90700001 288:0.98900002 310:0.93800002 321:0.92799997 350:0.917 369:0.93699998 379:0.94 382:0.91399997 414:0.92299998 417:0.92500001 439:0.94400001 446:0.92500001 448:0.98000002 458:0.94499999 464:0.91500002 465:0.94800001 496:0.96100003 514:0.90100002 528:0.991 540:0.90399998 546:0.991 567:0.91799998 608:0.96399999 662:0.92500001 680:0.94700003 697:0.96499997 699:0.90799999 712:0.99400002 715:0.926 731:0.93599999 807:0.95300001 814:0.92500001 815:0.94199997 832:0.90799999 859:0.95300001 893:0.96399999 955:0.92799997 983:0.93599999 1000:0.95700002 1090:0.93900001 1097:0.92199999 1211:0.91500002 1249:0.92299998 1265:0.99199998 1315:0.93599999 1371:0.94400001 1489:0.963 1492:0.92900002 1515:0.92900002 1519:0.91900003 1594:0.92000002 1596:0.90700001 1622:0.93800002 1632:0.91900003 1783:0.91100001 1790:0.93900001 1791:0.90799999 1819:0.94199997 1941:0.92299998 1946:0.903 1963:0.91799998 1967:1 #
-0.023685702341630185396859076263354 142:0.991 243:0.92500001 282:0.90700001 283:0.95099998 311:0.91600001 321:0.958 365:0.96499997 369:0.94 372:0.93800002 373:0.92900002 400:0.94199997 410:1 469:0.91500002 471:0.95099998 503:0.94300002 544:0.91399997 554:0.95499998 567:0.90100002 575:0.93900001 581:0.97000003 602:0.963 680:0.94999999 796:0.94700003 804:0.935 850:0.935 885:0.92000002 929:0.91900003 1022:0.93900001 1026:0.903 1027:0.917 1036:0.96200001 1038:0.921 1053:0.95700002 1133:0.93199998 1176:0.95200002 1178:0.92299998 1187:1 #
-0.027119516403618950523002339991763 8:0.95700002 17:0.935 245:0.92299998 264:0.98900002 273:0.91500002 310:0.903 329:0.926 333:0.90600002 369:0.93699998 379:0.92000002 458:0.94800001 464:0.926 465:0.94800001 514:0.94999999 533:0.93800002 546:0.98500001 554:0.98000002 576:0.91100001 644:0.94199997 662:0.92799997 675:0.90799999 680:0.94099998 702:0.95700002 703:0.921 715:0.935 731:0.90899998 832:0.91399997 840:0.921 843:0.93099999 845:0.98100001 850:0.94499999 859:0.94499999 1022:0.93900001 1027:0.92000002 1317:1 #
-0.029733434013846166826811057148916 79:0.92799997 293:0.93099999 336:0.98400003 365:0.97100002 644:0.91299999 #
-0.029733434013846166826811057148916 34:0.97500002 79:0.949 84:0.995 248:0.93000001 255:0.91799998 264:0.926 329:0.963 335:0.94 365:0.97100002 369:0.92500001 418:0.93699998 429:0.94 458:0.917 480:0.949 498:0.95700002 522:0.95999998 525:0.92900002 537:0.95300001 544:0.90499997 551:0.921 575:0.95700002 622:0.90499997 644:0.94300002 702:0.96799999 703:0.91799998 832:0.93699998 852:0.912 857:0.94499999 900:0.95200002 940:0.91900003 974:1 975:1 #
-0.029733434013846166826811057148916 28:0.95700002 293:0.93699998 311:0.91100001 336:0.98299998 575:0.95700002 672:0.90700001 #
0.029733434013846166826811057148916 61:0.86580002 66:0.82980001 245:0.83340001 264:0.81809998 290:0.8793 303:0.89459997 321:0.85500002 329:0.85140002 336:0.88380003 358:0.85680002 365:0.86849999 369:0.84060001 373:0.84869999 379:0.82080001 383:0.82529998 400:0.88919997 409:0.82800001 448:0.8973 458:0.83789998 464:0.83340001 499:0.88200003 546:0.8865 556:0.85589999 573:0.82080001 585:0.81269997 622:0.84060001 644:0.83160001 651:0.82349998 676:0.84060001 680:0.85049999 699:0.83880001 702:0.8811 703:0.82620001 796:0.85229999 806:0.84509999 814:0.84780002 815:0.84240001 850:0.88200003 859:0.85589999 952:0.86040002 964:0.86040002 983:0.83160001 1022:0.83520001 1031:0.83880001 1102:0.86580002 1178:0.83789998 1200:0.83340001 1211:0.81449997 1241:0.84689999 1264:0.81720001 1310:0.82349998 1318:0.81900001 1327:0.89999998 1328:0.89999998 #
0.029733434013846166826811057148916 17:0.89279997 153:0.84689999 243:0.84509999 247:0.81 248:0.83700001 290:0.8829 303:0.84240001 310:0.82260001 321:0.82620001 329:0.83609998 358:0.81989998 369:0.83609998 370:0.84149998 400:0.85140002 439:0.85229999 447:0.8118 482:0.84329998 495:0.81720001 500:0.84960002 503:0.85409999 528:0.89459997 532:0.84960002 541:0.81269997 546:0.89279997 571:0.8865 575:0.85769999 605:0.82440001 627:0.81269997 690:0.8154 699:0.84060001 708:0.82889998 712:0.8847 731:0.81809998 807:0.85769999 835:0.82800001 929:0.83160001 930:0.83969998 1003:0.8865 1038:0.82980001 1090:0.86669999 1113:0.86400002 1140:0.82800001 1199:0.84509999 1200:0.84329998 1285:0.81989998 1315:0.82349998 1326:0.81089997 1331:0.82349998 1332:0.89999998 1333:0.89999998 #
-0.029733434013846166826811057148916 15:0.99199998 24:0.95999998 184:0.90799999 212:0.97399998 283:0.93900001 369:0.93699998 373:0.90700001 381:0.92400002 392:0.97600001 464:0.91100001 546:0.958 575:0.92400002 581:0.95099998 679:0.91399997 686:0.935 688:0.94300002 870:0.95099998 1051:0.92299998 1090:0.94800001 1098:0.91299999 #
0.029733434013846166826811057148916 303:0.88919997 311:0.81629997 336:0.86669999 505:0.85769999 508:0.85769999 528:0.89459997 575:0.86129999 927:0.82529998 940:0.84869999 #
-0.0037483221830577578663479254572621 2:0.97899997 4:0.99599999 8:0.99199998 10:0.98699999 15:0.92400002 17:0.93099999 42:0.94700003 55:0.98699999 60:0.89999998 64:0.95200002 74:0.921 101:0.99599999 133:0.91100001 134:0.96799999 141:0.98799998 197:0.97500002 207:0.96799999 212:0.97399998 216:0.98500001 248:0.91600001 290:0.90799999 297:0.90399998 310:0.95300001 321:0.926 334:0.92199999 335:0.90600002 343:0.91100001 347:0.90799999 350:0.89999998 358:0.92199999 365:0.96499997 369:0.93699998 370:0.90200001 392:0.97100002 399:0.89999998 402:0.92299998 437:0.91600001 439:0.935 442:1 443:1 444:1 445:1 446:1 447:1 448:1 449:1 450:1 451:1 452:1 #
-0.029733434013846166826811057148916 8:0.98799998 88:0.95999998 101:0.98799998 153:0.92799997 235:0.93099999 264:0.98299998 321:0.89999998 335:0.93199998 365:0.96200001 369:0.917 402:0.90799999 464:0.93099999 482:0.92299998 503:0.93199998 547:0.97299999 549:0.92199999 601:0.94 646:0.97799999 649:0.977 763:0.95599997 831:0.93599999 832:0.917 845:0.98000002 869:0.93900001 873:0.93000001 950:0.91100001 1022:0.93400002 1031:0.90200001 1039:0.90100002 1044:0.92400002 1069:0.93400002 1117:0.94499999 1123:0.917 1192:0.94099998 1295:0.94700003 1305:0.91399997 1310:0.91299999 1311:0.93199998 #
-0.029733434013846166826811057148916 41:0.92900002 262:0.99699998 311:0.91600001 329:0.93400002 461:0.95999998 575:0.94199997 649:0.92199999 #
-0.020522895502843252479863167536678 4:0.98000002 44:0.935 153:0.94499999 264:0.99699998 329:0.92000002 358:0.94499999 365:0.96799999 369:0.94300002 439:0.95300001 458:0.921 546:0.97600001 566:0.991 571:0.96799999 632:0.98500001 690:0.90899998 703:0.921 712:0.991 745:0.95700002 796:0.94700003 815:0.90499997 845:0.94300002 850:0.95999998 859:0.94800001 885:0.92400002 968:0.95300001 1001:0.90499997 1022:0.95300001 1026:0.917 1315:0.93900001 1469:0.90700001 1530:0.95899999 1586:0.93800002 1632:0.93000001 1651:0.926 1675:1 1676:1 #
-0.029733434013846166826811057148916 15:0.98799998 283:0.91900003 297:0.90899998 343:0.95599997 365:0.95899999 381:0.94300002 464:0.91299999 467:0.93400002 556:0.93699998 575:0.95200002 675:0.89999998 712:0.96799999 821:0.99699998 870:0.954 1051:0.91399997 1090:0.96700001 1135:0.92500001 #
-0.0097841791660281379056085526713105 50:0.96499997 57:0.94199997 154:0.99000001 179:0.98799998 248:0.94999999 262:0.98299998 297:0.921 303:0.98900002 306:0.94300002 310:0.95499998 321:0.93900001 350:0.94400001 369:0.93699998 370:0.93800002 381:0.94800001 399:0.94300002 417:0.90600002 439:0.94700003 446:0.91399997 455:0.99699998 458:0.96100003 488:0.903 496:0.963 514:0.94199997 522:0.926 532:0.92799997 546:0.98799998 622:0.93699998 649:0.90499997 662:0.91100001 688:0.94599998 702:0.95300001 703:0.92699999 708:0.912 715:0.92799997 763:0.91399997 845:0.95499998 850:0.94800001 859:0.95899999 870:0.949 873:0.93400002 893:0.94199997 902:0.93599999 947:0.92900002 956:0.92500001 986:1 987:1 988:1 #
0.029733434013846166826811057148916 283:0.86400002 285:0.88380003 321:0.84509999 350:0.82169998 365:0.85409999 400:0.84329998 575:0.85860002 581:0.87300003 859:0.83880001 #
-0.011279592441251713730299144344826 159:0.97100002 168:0.98400003 219:0.99599999 275:0.96700001 288:0.99400002 290:0.92000002 292:0.912 322:0.93800002 350:0.91100001 379:0.91500002 381:0.91299999 400:0.98500001 402:0.917 417:0.93000001 442:0.90700001 458:0.95700002 500:0.958 503:0.94300002 522:0.96899998 546:0.991 548:0.986 573:0.991 575:0.94300002 605:0.94400001 608:0.96100003 699:0.94800001 712:0.98900002 720:0.92900002 804:0.93199998 845:0.92500001 863:0.98299998 869:0.90600002 870:0.94499999 940:0.917 990:0.95899999 1049:0.92299998 1053:0.94199997 1073:0.97500002 1074:0.958 1077:1 1078:1 1079:1 1080:1 #
0.029733434013846166826811057148916 293:0.84509999 336:0.8721 938:0.89999998 #
-0.01080593353392161198867071902896 36:1 245:0.91500002 288:0.99400002 350:0.93000001 373:0.93199998 383:0.912 389:0.99199998 390:0.977 414:0.95700002 421:0.94199997 430:0.93800002 482:0.93900001 488:0.99400002 496:0.97100002 538:0.95599997 546:0.95499998 554:0.96899998 575:0.95200002 585:0.94999999 680:0.93099999 688:0.94499999 715:0.94800001 804:0.93199998 859:0.92299998 871:0.91500002 944:0.95099998 1241:0.93000001 1282:0.94599998 1283:0.92400002 1320:0.90499997 1429:0.94400001 1469:0.90399998 1489:0.94 1509:0.98500001 1515:0.94099998 1516:1 1517:1 1518:1 1519:1 #
-0.012998959579419017140722303338407 3:0.97500002 79:0.95300001 84:0.98400003 88:0.99599999 135:0.96600002 245:0.92000002 246:0.93199998 264:0.99199998 329:0.926 365:0.95899999 369:0.92500001 402:0.96399999 458:0.93199998 503:0.94300002 519:0.90399998 525:0.912 541:0.98000002 546:0.96100003 551:1 567:0.90100002 573:0.99400002 644:0.926 649:0.98299998 699:0.94 732:0.91100001 796:0.96499997 815:0.90200001 832:0.903 843:0.90499997 850:0.977 1022:0.93900001 1038:0.917 1044:0.91900003 1075:0.94099998 1090:0.93199998 1094:1 #
-0.029733434013846166826811057148916 13:0.93199998 61:0.97600001 141:0.96700001 321:0.95300001 336:0.95099998 369:0.93099999 400:0.92199999 458:0.94599998 464:0.92799997 514:0.93900001 528:0.99400002 546:0.958 566:0.95300001 571:0.97100002 597:0.96700001 644:0.90799999 651:0.91100001 680:0.95300001 688:0.94 697:0.92900002 702:0.94499999 804:0.94400001 806:0.93900001 825:0.92299998 832:0.91399997 845:0.92199999 859:0.95099998 902:0.96600002 1020:0.963 1094:0.90899998 1272:0.90399998 #
-0.029733434013846166826811057148916 8:0.99599999 255:0.90399998 321:0.94099998 335:0.94199997 350:0.93300003 418:0.91399997 439:0.95300001 465:0.935 487:0.93099999 488:0.991 514:0.90799999 525:0.92199999 537:0.97299999 644:0.958 859:0.94400001 1294:0.921 1371:0.92900002 1375:0.94199997 1433:0.949 #
-0.014472182325515791506687079959192 3:0.90799999 50:0.96899998 82:0.97500002 252:0.92799997 264:0.99699998 297:0.91500002 309:0.92799997 321:0.93000001 358:0.95700002 365:0.96799999 369:0.93199998 383:0.912 392:0.98199999 458:0.958 499:0.94199997 532:0.917 575:0.94499999 622:0.92299998 644:0.94599998 662:0.90600002 704:0.97799999 715:0.92199999 751:0.96700001 796:0.96200001 840:0.912 843:0.90100002 850:0.97100002 859:0.95599997 868:0.92000002 967:0.99699998 983:0.91399997 1006:0.93699998 1012:0.99699998 1014:1 1015:1 1016:1 1017:1 1018:1 1019:1 #
-0.014865956135085836228859612617725 4:0.99199998 6:0.972 44:0.94 76:0.98000002 153:0.949 167:0.93900001 240:0.98799998 252:0.94800001 329:0.95999998 358:0.91100001 370:0.90600002 373:0.949 382:0.926 433:0.94999999 448:0.95200002 461:0.977 541:0.91000003 551:0.98100001 601:0.912 611:0.92299998 622:0.94 632:0.99699998 644:0.958 796:0.97000003 920:0.903 944:0.921 981:0.93699998 1008:0.94199997 1022:0.949 1069:0.91500002 1208:0.90600002 1252:0.93699998 1255:0.91100001 1391:0.90399998 1414:0.95099998 1620:0.95999998 1632:0.93300003 1679:0.92699999 1736:0.93599999 1738:0.94199997 1740:1 #
0.029733434013846166826811057148916 79:0.86580002 85:0.83969998 101:0.89639997 245:0.87300003 264:0.89459997 365:0.86849999 371:0.83069998 429:0.83789998 446:0.85229999 458:0.85049999 499:0.87300003 502:0.85140002 524:0.81809998 546:0.8919 551:0.84149998 556:0.82980001 607:0.8883 627:0.83789998 649:0.88919997 657:0.8955 680:0.82709998 703:0.82889998 796:0.86580002 832:0.81269997 850:0.86669999 867:0.8154 869:0.81720001 1022:0.85589999 1026:0.8154 1123:0.8118 1171:0.83880001 1178:0.83789998 1211:0.81089997 1212:0.82980001 #
0.029733434013846166826811057148916 24:0.83880001 84:0.88919997 283:0.86129999 321:0.82080001 333:0.84780002 365:0.87120003 369:0.84420002 370:0.85140002 458:0.85949999 465:0.81089997 480:0.86580002 482:0.84780002 502:0.83160001 525:0.83340001 532:0.81269997 554:0.86940002 581:0.87029999 607:0.81989998 644:0.83340001 796:0.84420002 825:0.83340001 878:0.85949999 983:0.82800001 1108:0.83789998 1125:0.88739997 1154:0.81 1176:0.85140002 1208:0.82529998 1268:0.83520001 #
0.029733434013846166826811057148916 32:0.89279997 207:0.8811 264:0.8901 283:0.86129999 321:0.83789998 335:0.83340001 365:0.8739 367:0.83249998 370:0.84689999 518:0.87660003 796:0.87120003 850:0.86669999 #
0.024725184986458065283798646305513 3:0.8739 243:0.86400002 252:0.8739 321:0.82529998 329:0.83969998 369:0.84329998 461:0.85320002 546:0.87029999 670:0.83789998 693:0.8118 697:0.85680002 796:0.85229999 804:0.83609998 815:0.82440001 843:0.81720001 850:0.86400002 855:0.81089997 859:0.85589999 912:0.85769999 975:0.86309999 1134:0.83609998 1241:0.84060001 1306:0.85949999 1318:0.82889998 1351:0.89999998 1352:0.89999998 #
0.02745574123709281291749739750685 36:0.89639997 262:0.8919 292:0.84960002 336:0.86669999 381:0.82620001 414:0.82800001 417:0.84060001 496:0.86849999 697:0.84240001 712:0.87840003 803:0.88559997 855:0.89999998 866:0.81449997 #
-0.0075320723127353071679745966093833 4:0.99199998 41:0.95499998 50:0.96899998 84:0.99199998 85:0.958 86:0.935 179:0.98400003 247:0.94400001 264:0.96899998 317:0.93199998 329:0.94599998 345:0.93800002 358:0.92500001 365:0.96499997 400:0.94300002 439:0.94400001 475:0.90899998 498:0.94 499:0.99699998 528:0.991 547:0.97000003 551:0.98100001 566:0.99699998 573:0.99400002 622:0.926 644:0.90100002 649:0.98000002 652:0.89999998 688:0.95200002 699:0.93900001 702:0.95300001 703:0.93599999 737:0.91900003 796:0.97600001 807:0.93400002 835:0.91100001 845:0.98100001 850:0.95999998 859:0.90600002 861:1 862:1 863:1 #
-0.023704964660099806655901844010259 7:0.99199998 8:0.99199998 50:1 94:0.98299998 143:0.93099999 160:0.92199999 207:0.99599999 248:0.95599997 264:0.98299998 279:0.93000001 458:0.91500002 505:0.94 617:0.97600001 699:0.96200001 1054:0.97600001 1110:0.94199997 1264:0.90499997 1295:0.926 1336:0.903 1402:0.90499997 1524:0.94300002 1530:0.95599997 1622:0.986 1623:0.92199999 1628:1 1629:1 1630:1 1631:1 1632:1 #
0.016049129256328155401778445821037 8:0.86669999 49:0.82529998 81:0.89099997 261:0.86940002 273:0.86129999 369:0.84869999 373:0.81809998 418:0.84600002 465:0.84689999 487:0.8775 506:0.84149998 524:0.85769999 546:0.8865 610:0.82889998 662:0.83249998 697:0.8136 804:0.83609998 850:0.85589999 857:0.84600002 859:0.86040002 902:0.82169998 1027:0.8154 1294:0.85500002 1353:0.83520001 1371:0.86400002 1622:0.84149998 1870:0.88200003 #
0.029733434013846166826811057148916 74:0.82529998 79:0.86849999 252:0.85229999 310:0.85140002 311:0.8118 365:0.85049999 369:0.84869999 370:0.84329998 458:0.83789998 465:0.81089997 482:0.84509999 525:0.83160001 544:0.83069998 546:0.88919997 551:0.89459997 575:0.85860002 597:0.81989998 605:0.83069998 662:0.82260001 680:0.85500002 703:0.82620001 712:0.86129999 731:0.82529998 733:0.8793 811:0.84060001 815:0.83969998 832:0.84329998 859:0.85769999 868:0.81629997 902:0.82169998 940:0.82169998 1005:0.84960002 1014:0.85769999 1027:0.81269997 1094:0.82349998 1116:0.88919997 1199:0.86760002 1211:0.81720001 1294:0.84060001 1301:0.89999998 #
0.029733434013846166826811057148916 7:0.8739 134:0.88380003 164:0.87480003 207:0.89639997 262:0.8847 321:0.81809998 335:0.81989998 358:0.85860002 370:0.84420002 430:0.83969998 464:0.83969998 482:0.83880001 487:0.83429998 514:0.84240001 528:0.89459997 546:0.8919 551:0.89279997 594:0.82260001 601:0.84780002 662:0.8136 680:0.85229999 702:0.85589999 715:0.83249998 734:0.8829 840:0.82889998 845:0.85949999 850:0.86400002 859:0.85769999 873:0.84060001 885:0.83160001 893:0.82620001 1000:0.87480003 1027:0.81 1031:0.86489999 1123:0.81989998 1201:0.8919 1241:0.82889998 1310:0.8757 1324:0.81809998 #
0.029733434013846166826811057148916 134:0.85229999 246:0.81449997 322:0.86760002 350:0.84509999 370:0.84420002 371:0.8154 373:0.84060001 400:0.88919997 439:0.84960002 464:0.84869999 546:0.8865 551:0.87029999 554:0.84689999 566:0.89459997 649:0.81720001 698:0.81989998 702:0.8757 715:0.85409999 734:0.8829 840:0.82889998 850:0.83160001 1022:0.85860002 1026:0.83069998 1294:0.83069998 1321:0.8973 1324:0.89999998 #
0.029733434013846166826811057148916 288:0.8829 336:0.8739 #
-0.029733434013846166826811057148916 #
0.029733434013846166826811057148916 20:0.8883 246:0.82440001 283:0.86580002 304:0.83609998 311:0.81989998 329:0.84060001 365:0.86580002 369:0.84060001 418:0.84329998 458:0.86220002 482:0.83789998 503:0.84329998 505:0.85229999 518:0.8757 546:0.85229999 575:0.86580002 581:0.85680002 582:0.8901 644:0.85949999 670:0.84509999 804:0.84420002 821:0.8955 832:0.84060001 843:0.81720001 850:0.85860002 902:0.82169998 940:0.84420002 964:0.8136 972:0.81720001 1002:0.87300003 1036:0.86400002 1116:0.88919997 1176:0.87660003 1186:0.81629997 1199:0.87300003 1276:0.8865 1385:0.89999998 #
0.029733434013846166826811057148916 4:0.89639997 8:0.86489999 44:0.81629997 303:0.8973 329:0.84240001 333:0.82440001 365:0.86849999 367:0.83520001 369:0.84329998 373:0.84329998 458:0.87029999 461:0.85680002 528:0.83429998 546:0.86760002 644:0.84060001 649:0.82980001 651:0.82800001 675:0.86669999 693:0.81449997 701:0.86489999 703:0.81900001 796:0.85229999 845:0.89279997 850:0.85320002 859:0.84780002 870:0.85769999 1022:0.85680002 1075:0.84420002 1318:0.81900001 #
-0.019846942572642203850286080069054 84:0.98799998 255:0.91299999 264:0.99699998 288:0.98900002 311:0.90399998 329:0.90100002 335:0.90899998 350:0.912 379:0.991 400:0.99400002 414:0.90200001 417:0.92699999 451:0.99699998 496:0.96600002 505:0.93199998 575:0.95700002 644:0.94300002 649:0.98000002 675:0.90799999 698:0.93199998 703:0.921 732:0.90499997 741:0.97100002 792:0.93400002 843:0.91900003 850:0.954 878:0.90399998 927:0.90200001 940:0.94499999 1022:0.93900001 1224:1 1225:1 1226:1 #
-0.010623914906883790212899221216958 8:0.99199998 28:0.96799999 246:0.99199998 303:0.99699998 311:0.90799999 313:0.94800001 321:0.92799997 335:0.935 350:0.93000001 379:0.903 400:0.94199997 465:0.92000002 496:0.963 498:0.91100001 502:0.94300002 503:0.926 505:0.94700003 508:0.94499999 525:0.92699999 537:0.99400002 575:0.96399999 605:0.91000003 608:0.92000002 699:0.917 853:0.95200002 859:0.95099998 924:0.90600002 940:0.94 983:0.91100001 992:0.97299999 1038:0.917 1051:0.92299998 1123:0.917 1192:0.98299998 1210:0.991 1211:0.90899998 1212:0.99599999 1215:0.93300003 1218:1 1219:1 1220:1 1221:1 #
-0.029733434013846166826811057148916 243:0.94800001 348:0.90399998 379:0.99699998 400:0.98199999 410:0.99699998 451:0.99400002 453:0.96499997 455:0.99400002 495:0.92699999 546:0.991 551:0.99400002 644:0.94599998 649:0.977 680:0.95300001 697:0.92900002 859:0.95200002 991:0.92000002 998:0.95300001 1041:0.92299998 1219:0.92199999 1262:0.94199997 1274:0.92799997 1276:0.98199999 1277:1 1278:1 #
-0.029733434013846166826811057148916 28:0.917 105:0.98500001 132:0.92000002 179:0.96399999 204:0.98799998 293:0.92299998 331:0.93400002 336:0.986 400:0.94300002 417:0.92900002 423:0.98500001 432:0.99000001 440:0.926 496:0.96600002 575:0.94599998 697:0.95300001 768:1 #
0.029733434013846166826811057148916 233:0.8865 252:0.83069998 329:0.84600002 331:0.81629997 369:0.84869999 370:0.84869999 373:0.83609998 382:0.83160001 439:0.81 455:0.89459997 464:0.83609998 503:0.84060001 541:0.81629997 546:0.85949999 551:0.8973 566:0.8865 622:0.83789998 680:0.85769999 702:0.85320002 738:0.82709998 804:0.83429998 832:0.81989998 870:0.86129999 1022:0.85500002 1044:0.85769999 1110:0.85409999 1123:0.82529998 1147:0.81720001 1357:0.89999998 #
0.029733434013846166826811057148916 107:0.89279997 260:0.8973 287:0.89099997 296:0.88919997 297:0.89999998 311:0.8118 418:0.83880001 870:0.8757 981:0.85949999 #
-0.017622093986884471844556188102615 32:0.93599999 179:0.96799999 283:0.94800001 321:0.93599999 334:0.949 335:0.91299999 358:0.95700002 361:0.91900003 365:0.96499997 368:1 369:0.93099999 370:0.94 400:0.94599998 445:0.912 458:0.903 469:0.91299999 514:0.94199997 517:0.95200002 524:0.94 554:0.98100001 597:0.98199999 602:0.93699998 607:0.94 644:0.91500002 651:0.93599999 703:0.91799998 731:0.91799998 794:0.94599998 832:0.90799999 833:0.921 839:0.91299999 850:0.96499997 859:0.94499999 945:0.96200001 972:0.92799997 1036:0.95999998 1053:0.963 1057:0.90499997 1094:0.90899998 1176:0.97500002 1178:0.92199999 #
-0.019752117237152616580075914498593 49:0.97100002 64:0.94400001 92:0.972 109:0.96600002 233:0.97299999 255:0.91299999 264:0.98900002 297:1 321:0.94999999 324:0.92799997 369:0.94 370:0.94599998 401:0.94300002 465:0.94099998 487:0.972 503:0.958 505:0.90499997 544:0.92299998 546:0.98500001 567:0.903 575:0.95099998 611:0.92299998 622:0.912 680:0.94700003 708:0.91500002 832:0.93699998 859:0.93699998 902:0.90499997 920:0.903 944:0.90200001 1027:0.917 1075:0.91500002 1090:0.93699998 1128:1 1129:0.90200001 #
-0.029733434013846166826811057148916 17:0.98799998 85:0.99199998 207:0.98000002 224:0.97899997 243:0.94 245:0.92299998 310:0.91799998 365:0.95899999 369:0.94099998 370:0.935 379:0.935 430:0.95099998 458:0.94 464:0.93699998 503:0.94 514:0.926 528:0.99400002 551:0.99199998 649:0.98000002 680:0.94999999 697:0.98199999 699:0.92900002 806:0.93599999 845:0.95300001 866:0.921 940:0.921 1090:0.94199997 1094:0.90899998 1131:0.912 1147:0.92299998 1279:0.90899998 1288:1 1289:1 1290:1 #
-0.029733434013846166826811057148916 50:0.98400003 84:0.98500001 153:0.949 264:0.986 369:0.93699998 499:0.92000002 502:0.92400002 551:0.99400002 690:0.91600001 699:0.96700001 900:0.95700002 1044:0.94499999 1215:0.96399999 1219:0.92299998 1252:0.95200002 1651:0.94700003 1753:0.98799998 1754:1 #
-0.00090042937500097873677884496856905 44:0.94800001 90:0.98500001 247:0.92199999 279:0.94499999 310:0.903 329:0.93199998 332:0.93699998 350:0.93300003 358:0.95999998 360:0.95099998 369:0.90200001 370:0.93800002 373:0.92799997 400:0.91900003 439:0.94999999 461:0.97100002 464:0.93099999 482:0.94999999 497:0.91500002 502:0.92299998 537:0.92900002 546:0.96700001 551:0.99699998 554:0.97399998 601:0.94400001 612:0.903 627:0.93300003 649:0.92199999 693:0.92500001 699:0.94300002 715:0.903 832:0.92799997 845:0.958 873:0.92500001 955:0.92000002 983:0.91600001 1013:0.903 1036:1 #
-0.029733434013846166826811057148916 168:0.98000002 252:0.963 288:0.99400002 303:0.96799999 321:0.912 329:0.92900002 379:0.90600002 381:0.91500002 383:0.91500002 417:0.935 487:0.977 488:0.991 522:0.977 541:0.90799999 612:0.90100002 622:0.92299998 644:0.94199997 693:0.90100002 712:0.96899998 796:0.94999999 850:0.95999998 897:0.95099998 913:0.958 983:0.94300002 1044:0.94199997 1090:0.97399998 1133:0.912 #
0.029733434013846166826811057148916 8:0.89279997 84:0.89279997 141:0.84960002 159:0.89639997 168:0.88200003 229:0.86580002 233:0.8829 264:0.83880001 310:0.84509999 321:0.82080001 329:0.84329998 369:0.83609998 400:0.87029999 439:0.83700001 458:0.84420002 464:0.83609998 467:0.83789998 506:0.84509999 528:0.8919 533:0.84600002 546:0.89459997 605:0.86669999 612:0.84329998 617:0.85140002 622:0.83340001 662:0.85140002 678:0.81089997 680:0.85769999 708:0.81089997 712:0.8793 815:0.84780002 832:0.83340001 859:0.86669999 893:0.83969998 930:0.84420002 947:0.81809998 983:0.82800001 1090:0.84509999 1211:0.8118 1246:0.89999998 #
0.029733434013846166826811057148916 79:0.83520001 275:0.8973 305:0.83609998 321:0.83160001 365:0.8739 409:0.89999998 417:0.83249998 441:0.88380003 455:0.8973 469:0.81269997 575:0.86309999 697:0.87029999 940:0.82980001 1039:0.81449997 1210:0.8973 #
0.020971666352337769989588878161157 4:0.89639997 5:0.8118 6:0.87300003 8:0.88919997 14:0.89279997 16:0.81 18:0.87029999 25:0.84240001 33:0.86669999 44:0.84420002 55:0.86129999 61:0.8811 68:0.86489999 79:0.8811 80:0.81900001 82:0.89279997 85:0.89999998 90:0.85049999 101:0.88559997 115:0.82349998 134:0.86129999 143:0.84509999 153:0.86580002 177:0.83340001 183:0.84600002 187:0.86940002 193:0.85320002 205:0.86040002 206:0.89999998 212:0.8919 215:0.89999998 216:0.89999998 217:0.89999998 218:0.89999998 219:0.89999998 220:0.89999998 221:0.89999998 222:0.89999998 223:0.89999998 #
-0.02491737446952054998994263712575 179:0.98400003 207:0.94 246:0.954 248:0.91500002 321:0.94099998 370:0.921 380:0.90200001 400:0.98199999 464:0.92000002 482:0.92299998 525:0.912 554:0.92900002 698:0.90499997 720:0.93900001 726:0.94199997 840:0.95300001 893:0.91900003 983:0.91600001 1035:0.94499999 1053:0.95599997 1098:0.92799997 1136:0.94099998 1141:0.93400002 1190:1 #
-0.029733434013846166826811057148916 81:1 109:0.98400003 247:0.92000002 264:0.972 269:0.98900002 290:0.986 321:0.935 329:0.92400002 400:0.92799997 426:0.98799998 445:0.94499999 461:0.97000003 528:0.991 551:0.995 622:0.92299998 644:0.949 688:0.94499999 699:0.92799997 703:0.91799998 756:0.93800002 796:0.94999999 805:0.93699998 843:0.90200001 845:0.92500001 850:0.94800001 920:0.90100002 983:0.91000003 1075:0.92699999 1211:0.91399997 1252:0.93099999 1318:0.93900001 1339:0.94300002 1431:1 #
0.029733434013846166826811057148916 97:0.84509999 153:0.85409999 261:0.85409999 275:0.86129999 288:0.89279997 290:0.84240001 297:0.82620001 303:0.89459997 321:0.83609998 365:0.86849999 369:0.84060001 373:0.83700001 414:0.83700001 417:0.83880001 418:0.83609998 448:0.87480003 491:0.8919 496:0.86940002 522:0.86940002 546:0.88919997 575:0.86129999 588:0.82080001 688:0.84600002 690:0.8154 699:0.81089997 804:0.83160001 806:0.84420002 820:0.86400002 845:0.88200003 940:0.84689999 944:0.81720001 983:0.86760002 1069:0.84329998 1075:0.82620001 1090:0.84509999 1206:0.81989998 1233:0.82080001 1258:0.85320002 1265:0.89459997 1315:0.83429998 1332:0.82529998 1392:0.81089997 1466:0.82620001 1489:0.84060001 1495:0.84240001 1505:0.85049999 1515:0.82889998 1526:0.87120003 1622:0.84420002 1623:0.85049999 1632:0.82169998 1634:0.8829 1941:0.84329998 1980:0.89999998 #
-0.00064235602231970225298174348438351 4:0.991 41:0.935 50:0.96899998 85:0.958 88:0.99599999 135:0.97500002 168:0.98000002 247:0.94499999 252:0.93900001 264:0.96899998 310:0.958 317:0.94199997 321:0.94499999 329:0.93699998 345:0.92900002 350:0.93599999 358:0.92199999 365:0.96499997 400:0.94 439:0.95899999 499:0.99699998 506:0.90600002 528:0.97399998 547:0.97000003 551:0.96899998 566:0.99699998 573:0.991 622:0.93300003 644:0.94599998 649:0.98299998 652:0.903 688:0.95200002 699:0.92799997 703:0.93599999 732:0.91100001 741:0.97399998 787:0.92199999 796:0.97299999 835:0.92000002 845:0.98299998 850:0.95700002 864:1 #
-0.029733434013846166826811057148916 248:0.93000001 252:0.95999998 297:0.91799998 324:0.93099999 350:0.91399997 381:0.926 418:0.93400002 467:0.917 487:0.98100001 528:0.99400002 575:0.954 712:0.98000002 815:0.90499997 854:1 #
-0.028946233606389371040279456792632 84:0.98799998 283:0.95700002 359:0.991 369:0.92199999 373:0.92000002 379:0.93199998 445:0.90899998 458:0.95499998 464:0.92199999 546:0.92299998 551:0.98900002 575:0.954 602:0.95200002 617:0.94800001 627:0.91600001 644:0.94300002 688:0.93000001 755:0.96700001 850:0.97000003 940:0.926 950:0.91900003 1000:0.95899999 1042:0.91600001 1045:1 #
-0.029733434013846166826811057148916 293:0.93699998 336:0.96899998 #
0.029733434013846166826811057148916 50:0.8721 207:0.89279997 306:0.81989998 370:0.84329998 373:0.84240001 439:0.83969998 445:0.85769999 446:0.81989998 458:0.85769999 464:0.83609998 482:0.84420002 498:0.82349998 503:0.85409999 514:0.84509999 524:0.84960002 528:0.8865 546:0.87029999 551:0.8901 566:0.8919 597:0.85769999 642:0.82709998 662:0.82260001 680:0.85320002 702:0.86040002 769:0.81269997 796:0.82620001 832:0.83520001 840:0.82620001 845:0.85680002 850:0.84509999 859:0.86220002 902:0.85769999 1000:0.86669999 1022:0.83160001 1094:0.82080001 1272:0.83340001 1326:0.89999998 #
-0.029733434013846166826811057148916 28:0.93300003 212:0.95300001 278:0.995 304:0.90100002 369:0.94300002 410:0.97799999 414:0.96200001 439:0.95300001 496:0.97500002 505:0.96200001 575:0.95700002 612:0.90899998 920:0.89999998 940:0.92900002 1124:1 1125:1 #
0.029733434013846166826811057148916 3:0.89639997 17:0.83789998 321:0.83069998 329:0.84600002 358:0.82440001 365:0.86849999 390:0.8757 400:0.81900001 436:0.84689999 465:0.83609998 502:0.83340001 524:0.84240001 544:0.82529998 #
-0.0087060997566610308362466952303294 2:0.97899997 245:0.92000002 246:0.99199998 248:0.92400002 283:0.91500002 303:0.92799997 321:0.93199998 329:0.93199998 350:0.93300003 369:0.93099999 400:0.96399999 458:0.93699998 464:0.926 514:0.94400001 525:0.90700001 546:0.91100001 554:0.93800002 662:0.91000003 715:0.91399997 758:0.93599999 804:0.935 840:0.921 845:0.99199998 859:0.95300001 893:0.92500001 903:0.90700001 1031:0.95599997 1038:0.92500001 1041:0.92000002 1101:1 1102:1 #
-0.018384146260094151592578981535553 124:0.98799998 246:0.91600001 321:0.92799997 381:0.912 400:0.98500001 458:0.92000002 464:0.93000001 503:0.94300002 548:0.97100002 556:0.94800001 592:0.90899998 602:0.92299998 632:0.94300002 662:0.92299998 699:0.93000001 702:0.94800001 840:0.958 983:0.93199998 1053:0.95700002 #
0.029733434013846166826811057148916 229:0.83160001 245:0.8973 248:0.82800001 310:0.87480003 329:0.84329998 365:0.86580002 369:0.84329998 373:0.83789998 400:0.84060001 506:0.83160001 546:0.89639997 605:0.84420002 644:0.83340001 662:0.82980001 688:0.84329998 699:0.81720001 708:0.81900001 741:0.84329998 815:0.84780002 859:0.85589999 873:0.84329998 902:0.83880001 956:0.8136 983:0.84060001 1022:0.84329998 1147:0.83069998 1290:0.81089997 #
-0.029733434013846166826811057148916 23:0.93900001 184:0.94800001 245:0.90600002 262:0.963 310:0.93400002 321:0.94700003 369:0.92000002 373:0.95300001 382:0.91399997 401:0.917 458:0.958 542:0.95599997 544:0.917 546:0.99400002 605:0.95700002 651:0.90399998 680:0.90899998 699:0.90799999 733:0.97100002 815:0.97000003 832:0.93400002 845:0.972 850:0.95700002 859:0.95899999 873:0.92900002 885:0.90399998 893:0.94 1027:0.89999998 1032:0.90200001 1102:0.94499999 1139:0.91399997 1147:0.90799999 1241:0.92299998 1249:0.95300001 1295:0.91000003 1310:0.926 1339:0.94300002 #
0.021989730711245360217365174548831 243:0.86489999 273:0.85229999 297:0.82620001 381:0.83160001 417:0.84329998 418:0.84329998 462:0.81629997 469:0.81900001 496:0.8829 548:0.8973 712:0.8847 1090:0.84149998 #
0.029733434013846166826811057148916 4:0.89279997 5:0.87029999 6:0.86940002 8:0.85229999 9:0.85229999 12:0.8154 14:0.88559997 26:0.85409999 40:0.83249998 41:0.88919997 49:0.81449997 60:0.85680002 61:0.86129999 64:0.81809998 79:0.86849999 81:0.89999998 82:0.89999998 83:0.89999998 84:0.89999998 85:0.89999998 86:0.89999998 87:0.89999998 88:0.89999998 89:0.89999998 90:0.89999998 91:0.89999998 92:0.89999998 93:0.89999998 94:0.89999998 95:0.89999998 96:0.89999998 97:0.89999998 98:0.89999998 99:0.89999998 #
0.0055366098091721100207807104709445 4:0.89279997 5:0.85320002 14:0.87840003 15:0.88919997 16:0.8847 20:0.89639997 21:0.84780002 23:0.87120003 26:0.8811 53:0.85589999 54:0.86040002 57:0.88919997 70:0.81089997 78:0.81449997 81:0.89999998 82:0.86220002 87:0.8919 92:0.89279997 95:0.81900001 96:0.85949999 119:0.84149998 135:0.84509999 142:0.88559997 186:0.83429998 188:0.89999998 189:0.89999998 190:0.89999998 191:0.89999998 192:0.89999998 193:0.89999998 194:0.89999998 #
-0.029733434013846166826811057148916 133:0.98699999 227:0.912 245:0.91799998 262:0.98500001 297:0.91799998 311:0.912 365:0.93400002 369:0.93699998 381:0.96499997 389:0.991 392:0.97600001 414:0.96100003 464:0.92000002 546:0.98199999 566:0.98799998 575:0.95499998 601:0.93800002 708:0.903 720:0.93199998 769:0.90899998 837:0.91900003 873:0.93300003 893:0.93800002 929:0.91900003 983:0.903 1035:0.94999999 1053:0.93099999 1090:0.95499998 1135:1 #
0.024492330811669613122028010820941 56:0.85769999 168:0.88200003 179:0.87120003 243:0.83969998 273:0.84240001 290:0.82800001 303:0.8775 358:0.81449997 370:0.84420002 379:0.82800001 381:0.82620001 383:0.82980001 400:0.84509999 401:0.85049999 437:0.88559997 439:0.86309999 459:0.86129999 469:0.82440001 482:0.8721 503:0.84869999 546:0.89459997 556:0.85320002 567:0.82080001 602:0.84149998 605:0.83069998 622:0.82709998 689:0.86489999 690:0.81809998 699:0.83340001 712:0.87480003 731:0.81089997 807:0.85769999 811:0.85769999 815:0.84780002 870:0.85680002 930:0.84149998 945:0.83700001 983:0.83249998 1000:0.86849999 1003:0.8793 1035:0.84960002 1090:0.84240001 1113:0.86400002 1136:0.84149998 1200:0.84329998 1244:0.83520001 1285:0.82529998 1310:0.84869999 1315:0.81 1332:0.8154 1333:0.83880001 1334:0.89999998 #
0.029733434013846166826811057148916 15:0.89639997 134:0.8811 240:0.82529998 252:0.87120003 297:0.89999998 305:0.84149998 311:0.81449997 335:0.83789998 345:0.84960002 350:0.82889998 365:0.87120003 369:0.83789998 373:0.84600002 379:0.81089997 458:0.86760002 482:0.84420002 496:0.87120003 546:0.88919997 556:0.85589999 575:0.85680002 592:0.8973 605:0.86040002 607:0.85409999 611:0.82800001 622:0.83520001 690:0.81809998 745:0.86400002 751:0.84960002 804:0.83160001 806:0.84060001 807:0.85140002 855:0.8775 862:0.84600002 863:0.8973 870:0.85680002 920:0.8154 940:0.84420002 944:0.87029999 996:0.88200003 1008:0.84240001 1075:0.84240001 1081:0.89999998 1086:0.89999998 1087:0.89999998 1088:0.89999998 1089:0.89999998 #
-0.003160487381787494432644480824024 8:0.99199998 85:0.99199998 134:0.95700002 159:0.97100002 235:0.95700002 269:0.98900002 273:0.92299998 279:0.92900002 290:0.949 310:0.90600002 321:0.90100002 335:0.92500001 350:0.91399997 365:0.95899999 367:0.94800001 369:0.93400002 370:0.935 373:0.93400002 439:0.93000001 446:0.91100001 458:0.94599998 464:0.94099998 465:0.93199998 467:0.92799997 482:0.90200001 546:0.991 556:0.94300002 567:0.91500002 575:0.95099998 605:0.94099998 644:0.93800002 662:0.90600002 675:0.90200001 680:0.94800001 715:0.926 751:0.92400002 804:0.93800002 815:0.93599999 832:0.93400002 850:0.94199997 859:0.94499999 893:0.93900001 902:0.92500001 927:0.93199998 940:0.90799999 983:0.92900002 1031:0.90899998 1051:0.93800002 1090:0.96100003 1178:0.93099999 1235:0.93199998 1242:1 #
-0.017175647070618325906732337671201 4:1 6:0.94499999 8:0.99199998 25:0.94300002 41:0.93099999 54:0.91600001 57:0.99199998 64:0.95200002 66:0.92199999 74:0.93000001 81:0.93800002 90:0.98799998 105:0.99599999 139:0.991 141:0.94 193:0.917 196:0.94800001 204:0.97899997 246:0.98500001 248:0.96700001 252:0.90499997 255:0.91000003 264:0.92900002 297:0.92400002 298:0.93800002 310:0.91399997 321:0.93400002 329:0.94599998 334:0.91600001 335:0.917 350:0.90700001 359:0.90399998 365:0.94199997 375:1 376:1 377:1 378:1 379:1 380:1 381:1 382:1 383:1 384:1 #
-0.029733434013846166826811057148916 4:0.99599999 86:0.97299999 90:0.96899998 233:0.98900002 400:0.98199999 455:0.98900002 611:0.93199998 1414:0.903 1539:0.93900001 1788:0.96700001 1889:0.96899998 #
0.029733434013846166826811057148916 8:0.88200003 318:0.81 321:0.83340001 365:0.86849999 369:0.84780002 370:0.84869999 445:0.84869999 458:0.86129999 465:0.84149998 503:0.86040002 514:0.84960002 524:0.86580002 535:0.81449997 546:0.85229999 566:0.8973 636:0.84600002 662:0.82980001 680:0.84509999 697:0.83880001 699:0.84960002 733:0.86580002 804:0.83880001 859:0.84689999 893:0.83160001 1014:0.86580002 1026:0.82440001 1039:0.81449997 1139:0.81809998 1147:0.83609998 1178:0.83609998 1299:0.84689999 #
0.029733434013846166826811057148916 28:0.83609998 81:0.89279997 124:0.88559997 248:0.82260001 255:0.82620001 303:0.88919997 321:0.82349998 322:0.83880001 400:0.84060001 413:0.84869999 414:0.83429998 417:0.89999998 418:0.89999998 419:0.89999998 420:0.89999998 #
0.0082364312184434809727129334078199 4:0.89279997 5:0.8811 6:0.86129999 7:0.8136 13:0.84960002 14:0.89639997 16:0.88020003 20:0.89639997 23:0.87029999 33:0.88919997 40:0.85229999 57:0.89639997 64:0.84060001 75:0.81989998 79:0.86940002 80:0.81900001 85:0.89999998 90:0.84240001 93:0.82260001 101:0.89999998 126:0.8154 127:0.84600002 134:0.86129999 143:0.84869999 153:0.84689999 154:0.89639997 155:0.82080001 183:0.86129999 187:0.86940002 206:0.89999998 212:0.87300003 233:0.89999998 234:0.89999998 #
-0.0061250267674754724916974524262514 60:0.93000001 154:0.97600001 233:0.98100001 245:0.92000002 264:0.96899998 279:0.93199998 290:0.92799997 303:0.98299998 321:0.94700003 329:0.91100001 365:0.96499997 369:0.94499999 373:0.94300002 446:0.91100001 451:0.93000001 458:0.95999998 482:0.90600002 497:0.92900002 514:0.96100003 525:0.91500002 546:0.98799998 551:0.99199998 576:0.903 605:0.96600002 622:0.93199998 627:0.917 644:0.94599998 649:0.91600001 675:0.91399997 680:0.94999999 697:0.90399998 702:0.95099998 708:0.92699999 731:0.94800001 733:0.94700003 796:0.94999999 804:0.926 807:0.94999999 811:0.93400002 815:0.93000001 832:0.93699998 840:0.92000002 850:0.95700002 859:0.93699998 873:0.90799999 893:0.94400001 920:0.903 1005:0.93800002 1014:0.935 1022:0.963 1031:0.94700003 1090:0.92400002 1094:0.912 1098:0.90600002 1117:0.954 #
0.029733434013846166826811057148916 6:0.86940002 14:0.84149998 79:0.86580002 246:0.88739997 247:0.85500002 249:0.83700001 252:0.86580002 257:0.82620001 264:0.81809998 311:0.81720001 321:0.83789998 350:0.85500002 365:0.8793 369:0.84600002 379:0.82080001 400:0.82709998 402:0.81900001 439:0.85500002 482:0.83789998 575:0.85320002 622:0.84420002 644:0.85589999 649:0.88739997 703:0.82620001 832:0.82529998 850:0.8919 853:0.83069998 857:0.84329998 893:0.81269997 920:0.86220002 #
0.029733434013846166826811057148916 28:0.8721 81:0.85589999 246:0.89639997 255:0.82349998 257:0.81809998 297:0.82620001 303:0.8973 311:0.81989998 315:0.84780002 321:0.83069998 324:0.83520001 331:0.84869999 373:0.83789998 381:0.83340001 409:0.8973 417:0.83880001 418:0.85140002 440:0.82529998 487:0.85680002 528:0.8919 547:0.8757 567:0.82349998 575:0.86400002 697:0.85229999 712:0.8721 731:0.86940002 763:0.84780002 768:0.86400002 853:0.81809998 857:0.84600002 870:0.85409999 #
0.017011120773353413659911836930405 3:0.8739 5:0.87480003 49:0.84869999 133:0.8775 243:0.84600002 273:0.85229999 321:0.83249998 329:0.84329998 369:0.84600002 400:0.85140002 461:0.85949999 487:0.8721 538:0.85680002 546:0.88919997 649:0.82709998 662:0.82980001 693:0.81449997 697:0.85680002 715:0.81089997 796:0.85229999 804:0.83880001 843:0.81720001 850:0.86400002 859:0.85769999 975:0.86129999 983:0.83609998 1022:0.84780002 1024:0.83880001 1027:0.83069998 1098:0.82349998 1134:0.83249998 1318:0.83969998 1353:0.83520001 1356:0.86220002 #
-0.011698912366636391932384064773487 10:0.98299998 13:0.92000002 25:0.92199999 34:0.97500002 88:0.99599999 143:0.93099999 190:0.93199998 245:0.95599997 247:0.94199997 248:0.93599999 252:0.93699998 264:0.99400002 275:0.96100003 283:0.95700002 290:0.92799997 310:0.94700003 321:0.94199997 329:0.93199998 345:0.91000003 358:0.95999998 365:0.97100002 379:0.94300002 411:0.90100002 458:0.958 465:0.90100002 482:0.92000002 499:0.99199998 566:0.98199999 605:0.94700003 615:0.991 688:0.92900002 699:0.98000002 702:0.97899997 715:0.92299998 745:0.95999998 758:0.93099999 804:0.93199998 811:0.93900001 850:0.92400002 969:0.96600002 979:1 980:1 #
