SVM-light Version V6.02
0 # kernel type
3 # kernel parameter -d 
1 # kernel parameter -g 
1 # kernel parameter -s 
1 # kernel parameter -r 
empty# kernel parameter -u 
6906 # highest feature index 
724 # number of training documents 
393 # number of support vectors plus 1 
-0.94207493 # threshold b, each following line is a SV (starting with alpha*y)
-0.0071719973546823610061062836962265 834:0.92199999 841:0.958 868:0.99699998 949:0.95499998 957:0.95099998 986:0.96700001 1146:0.94800001 1315:0.96700001 1324:0.92900002 1496:0.98199999 1517:0.95899999 1701:0.95899999 1725:0.96600002 2031:0.954 2102:0.94800001 2524:0.95300001 3006:0.89999998 3517:0.96899998 3732:0.99599999 4127:0.97399998 #
-0.0029660846186587807964130103499656 3:0.991 8:0.977 12:0.991 17:0.99599999 19:0.98199999 21:0.94800001 24:0.99599999 26:0.90799999 37:0.90600002 51:0.98799998 55:0.98799998 64:0.94700003 69:0.935 82:0.991 95:0.99599999 105:0.92799997 124:0.93300003 140:0.95499998 144:0.93099999 152:0.93900001 163:0.91299999 195:0.958 199:0.92000002 210:0.93900001 219:0.98799998 236:0.926 242:0.98799998 244:0.99199998 256:0.99199998 266:0.98299998 269:0.935 275:0.99599999 315:0.96799999 345:0.96399999 356:0.96200001 384:0.97600001 385:0.91799998 386:0.93400002 388:0.99599999 446:0.98100001 462:0.96399999 465:0.98299998 469:0.95899999 489:0.97500002 499:0.97799999 504:0.91399997 529:0.99199998 540:0.98799998 544:0.94499999 551:0.97000003 553:0.94499999 555:0.99199998 706:0.93400002 707:0.98500001 735:0.96399999 779:0.935 832:0.94400001 835:0.97399998 838:0.91299999 848:0.97399998 865:0.98500001 868:0.99699998 872:0.90600002 876:0.99699998 879:0.91399997 880:0.96799999 891:0.95499998 897:0.94999999 898:0.91399997 903:0.92699999 906:0.95099998 907:0.935 914:0.94700003 918:0.92400002 921:0.90499997 922:0.92000002 927:0.94 928:0.98299998 930:0.92799997 934:0.958 936:0.90799999 938:0.96499997 939:0.97100002 940:0.92799997 941:0.90499997 946:0.935 948:0.92400002 953:0.93699998 956:0.94199997 957:0.92500001 958:0.91600001 959:0.92199999 961:0.991 965:0.93400002 970:0.95200002 978:0.92900002 986:0.92000002 995:0.92199999 1000:0.94199997 1005:0.92500001 1012:0.949 1022:0.89999998 1025:0.95599997 1028:0.954 1029:0.935 1037:0.92699999 1039:0.95899999 1040:0.935 1045:0.90899998 1050:0.89999998 1057:0.912 1069:0.91799998 1070:0.991 1076:0.92199999 1080:0.991 1086:0.90799999 1091:1 1092:1 1093:1 1094:1 1095:1 1096:1 1097:1 1098:1 1099:1 1100:1 1101:1 1102:1 1103:1 1104:1 1105:1 1106:1 1107:1 1108:1 1109:1 1110:1 1111:1 1112:1 1113:1 1114:1 1115:1 1116:1 1117:1 1118:1 1119:1 1120:1 1121:1 1122:1 1123:1 1124:1 1125:1 1126:1 1127:1 1128:1 1129:1 1130:1 1131:1 1132:1 1133:1 1134:1 1135:1 1136:1 1137:1 1138:1 #
0.0071719973546823610061062836962265 9:0.87029999 10:0.89639997 24:0.86489999 256:0.88200003 314:0.89999998 363:0.8847 723:0.85949999 792:0.85589999 872:0.89999998 879:0.8901 880:0.87120003 891:0.83520001 934:0.84689999 958:0.83969998 959:0.87660003 995:0.86940002 1016:0.88020003 1018:0.82889998 1040:0.86489999 1042:0.8739 1058:0.84960002 1072:0.85140002 1076:0.84600002 1080:0.85769999 1086:0.8811 1160:0.8901 1177:0.8721 1200:0.81 1215:0.81089997 1280:0.82169998 1338:0.83249998 1386:0.85140002 1397:0.87300003 1404:0.8154 1418:0.84420002 1425:0.87480003 1432:0.86040002 1439:0.85860002 1450:0.83609998 1453:0.83160001 1458:0.82440001 1467:0.86940002 1473:0.8757 1476:0.83340001 1478:0.81449997 1507:0.83520001 1551:0.84780002 1558:0.85409999 1621:0.85409999 1631:0.82440001 1638:0.86309999 1642:0.83429998 1648:0.87120003 1652:0.86129999 1665:0.81809998 1677:0.85140002 1682:0.85860002 1684:0.87660003 1715:0.82529998 1725:0.86940002 1734:0.86309999 1737:0.84960002 1765:0.84689999 1770:0.83160001 1773:0.8118 1785:0.86760002 1829:0.86669999 1830:0.83609998 1834:0.82620001 1897:0.86220002 1909:0.82709998 1922:0.8901 1940:0.82529998 1959:0.82080001 2067:0.83880001 2142:0.83789998 2216:0.84060001 2255:0.83969998 2296:0.8154 2321:0.83429998 2337:0.83789998 2340:0.84960002 2348:0.84149998 2354:0.84780002 2355:0.85949999 2386:0.81720001 2409:0.83700001 2419:0.83789998 2438:0.8829 2459:0.89099997 2465:0.85140002 2472:0.85769999 2480:0.85049999 2486:0.82620001 2515:0.8118 2535:0.83160001 2545:0.85589999 2561:0.83609998 2602:0.81900001 2613:0.83429998 2724:0.84509999 2727:0.81629997 2732:0.86489999 2792:0.82440001 2800:0.87840003 2819:0.82169998 2889:0.84329998 2961:0.8136 2979:0.81720001 2987:0.85409999 2991:0.83429998 3021:0.86580002 3071:0.83520001 3104:0.83789998 3106:0.84509999 3108:0.86220002 3186:0.83789998 3227:0.86940002 3261:0.82800001 3374:0.87300003 3375:0.83069998 3393:0.83609998 3414:0.82529998 3422:0.83969998 3456:0.8811 3494:0.82620001 3604:0.81720001 3613:0.85949999 3614:0.86309999 3615:0.84509999 3702:0.84780002 3738:0.87300003 3743:0.85320002 3843:0.83160001 3868:0.8883 3913:0.82260001 3947:0.83340001 3983:0.83249998 4067:0.83249998 4072:0.83340001 4074:0.8775 4088:0.81269997 4099:0.87480003 4109:0.85860002 4114:0.82709998 4146:0.83969998 4156:0.8154 4184:0.84060001 4243:0.83069998 4250:0.85589999 4306:0.81089997 4326:0.83609998 4355:0.89639997 4356:0.84600002 4362:0.89999998 #
-0.0015201311052430216321645906063509 19:0.986 23:0.99199998 24:0.98799998 30:0.995 52:0.96799999 55:0.98400003 114:0.98699999 127:0.98199999 152:0.93099999 320:0.93099999 393:0.96100003 415:0.99599999 465:0.98199999 517:0.94999999 529:1 707:0.99299997 778:0.97399998 786:0.91100001 835:0.91500002 853:0.90700001 888:0.96200001 897:0.92900002 936:0.95200002 959:0.91600001 1035:0.92400002 1042:0.90499997 1057:0.91600001 1092:0.96100003 1102:0.91600001 1127:0.97000003 1165:0.95200002 1209:0.96799999 1215:0.954 1242:0.94199997 1303:0.99000001 1423:0.99599999 1482:0.97299999 1488:0.99599999 1496:0.972 1517:0.96100003 1525:0.93599999 1621:0.94199997 1631:0.99000001 1639:0.91500002 1645:0.90899998 1664:0.91399997 1715:0.95599997 1834:0.912 1872:0.94599998 1897:0.93300003 1922:0.98699999 2102:0.97399998 2103:0.93800002 2122:0.91299999 2142:0.97399998 2149:0.99199998 2200:0.977 2204:0.90799999 2216:0.95099998 2229:0.94999999 2368:0.94499999 2446:0.94 2464:0.921 2473:0.96200001 2487:0.94400001 2496:0.93099999 2501:0.94400001 2525:0.95899999 2533:0.954 2553:0.90200001 2733:0.93000001 2792:0.98199999 2805:0.94 2814:0.917 2854:0.92199999 2905:0.98900002 2979:0.90600002 2995:0.95300001 3009:0.912 3073:0.92299998 3226:0.93400002 3446:0.97600001 3453:0.949 3690:0.96700001 3702:0.95200002 3732:0.99599999 3735:0.958 3919:0.93300003 3981:0.90499997 4209:0.94599998 4236:0.95099998 4558:0.99299997 4595:0.98699999 4614:0.95099998 4695:0.991 4725:0.94599998 4726:0.995 4728:0.99599999 4729:0.98299998 4749:0.972 4761:0.91900003 4784:0.92400002 4822:0.93400002 4846:0.97100002 4889:0.90499997 4894:0.97600001 4928:0.94400001 4942:0.90499997 4950:0.99199998 4956:0.90499997 4969:0.97899997 5046:0.94499999 5048:0.99000001 5052:0.99699998 5066:0.92299998 5119:0.92900002 5167:0.96700001 5170:0.94800001 5176:0.93800002 5269:0.93900001 5370:0.93300003 5421:0.93900001 5474:0.92299998 5483:0.90200001 5497:0.935 5498:0.98299998 5501:0.90200001 5517:1 5520:0.95700002 5570:0.94700003 5580:0.97100002 5592:0.972 5593:0.91299999 5652:0.954 5803:0.95099998 5832:0.995 5833:1 5834:1 5835:1 5836:1 5837:1 5838:1 5839:1 5840:1 5841:1 5842:1 5843:1 5844:1 5845:1 5846:1 5847:1 5848:1 5849:1 #
-0.0011829358664139108612417539134753 2:0.958 3:0.97899997 18:0.98299998 68:0.96200001 196:0.98400003 252:0.99599999 275:0.963 337:1 835:0.95300001 841:0.95499998 853:0.935 872:0.986 880:0.98000002 896:0.96700001 898:0.96100003 905:0.97299999 908:0.92000002 919:0.93199998 921:0.90499997 922:0.954 927:0.93099999 943:0.903 948:0.91500002 957:0.94800001 958:0.96100003 959:0.98799998 986:0.97299999 996:0.949 1014:0.93800002 1016:0.912 1022:0.91799998 1033:0.91399997 1037:0.97399998 1041:0.93800002 1042:0.93699998 1055:0.96600002 1069:0.949 1076:0.954 1117:0.91500002 1146:0.95099998 1160:0.986 1165:0.95300001 1167:0.96799999 1201:0.93599999 1215:0.96899998 1238:0.91399997 1310:0.94 1315:0.97100002 1324:0.926 1363:0.995 1383:0.93300003 1397:0.95700002 1408:0.99299997 1418:0.90100002 1425:0.93900001 1458:0.92500001 1473:0.986 1499:0.94499999 1506:0.91600001 1514:0.96600002 1517:0.95300001 1544:0.94400001 1582:0.97000003 1600:0.90600002 1621:0.98000002 1623:0.977 1638:0.95899999 1664:0.90700001 1665:0.90600002 1668:0.92699999 1677:0.99400002 1678:0.94300002 1682:0.949 1686:0.921 1688:0.97100002 1701:0.97799999 1723:0.98199999 1747:0.912 1764:0.93400002 1770:0.91600001 1771:0.93900001 1796:0.91399997 1809:0.93599999 1830:0.94999999 1882:0.90100002 1901:0.90499997 1922:1 1929:0.96399999 1966:0.93199998 1990:0.94599998 2010:0.912 2023:0.93800002 2029:0.92799997 2031:0.95099998 2047:0.96499997 2050:0.96899998 2055:0.98799998 2057:0.91799998 2065:0.99400002 2067:0.93199998 2088:0.95200002 2104:0.917 2116:0.98000002 2132:0.935 2135:0.94800001 2178:0.93400002 2179:0.93599999 2253:0.91399997 2255:0.92900002 2259:0.91100001 2279:0.96200001 2296:0.90899998 2402:0.94300002 2407:0.90399998 2438:0.926 2448:0.94099998 2464:0.97000003 2465:0.96499997 2472:0.91900003 2480:0.954 2505:0.95499998 2524:0.94499999 2541:0.96499997 2588:0.96100003 2596:0.912 2604:0.95499998 2702:0.926 2708:0.92799997 2723:0.93099999 2744:0.94300002 2777:0.912 2792:0.95300001 2832:0.90100002 2866:0.95499998 2893:0.92799997 2910:0.917 2919:0.97799999 2964:0.986 2976:0.92799997 2995:0.93800002 3006:0.95499998 3028:0.912 3058:0.90600002 3071:0.921 3106:0.921 3108:0.94999999 3109:0.92400002 3168:0.91399997 3186:0.93099999 3198:0.89999998 3216:0.91600001 3228:0.92799997 3233:0.995 3285:0.91799998 3322:0.95999998 3414:0.917 3418:0.963 3456:0.94599998 3466:0.903 3489:0.97399998 3496:0.96100003 3597:0.958 3602:0.96200001 3615:0.93900001 3687:0.97799999 3702:0.93400002 3719:0.94700003 3732:0.94499999 3750:0.963 3752:0.91600001 3798:0.91799998 3876:0.94199997 3926:0.98900002 3947:0.91500002 3951:0.92299998 3952:0.94099998 3953:0.93300003 3958:0.91399997 4006:0.96399999 4053:0.92699999 4066:0.91100001 4067:0.95899999 4070:0.90799999 4074:0.94400001 4093:0.95999998 4127:0.99400002 4145:0.90799999 4204:0.98199999 4235:0.92699999 4268:0.93300003 4269:0.93099999 4307:0.96399999 4355:0.95099998 4386:0.92000002 4419:0.91600001 4428:0.90799999 4496:0.93599999 4520:0.926 4533:0.91600001 4541:0.95599997 4558:0.958 4560:0.92400002 4582:1 4583:1 4584:1 4585:1 4586:1 4587:1 4588:1 #
-0.0028507545092259336041995432253771 3:0.995 7:0.92400002 24:0.99599999 40:1 55:0.99199998 74:1 101:0.99199998 140:0.97100002 193:0.98799998 219:0.97899997 433:0.94199997 804:0.90499997 872:0.986 896:0.926 898:0.91600001 959:0.93099999 984:0.95899999 1000:0.95599997 1063:0.92699999 1071:0.96899998 1086:0.96399999 1095:0.91100001 1156:0.94700003 1160:0.96600002 1178:0.90799999 1209:0.93800002 1242:0.96799999 1246:0.917 1262:0.90799999 1274:0.95899999 1363:0.99299997 1425:0.90899998 1451:0.94700003 1458:0.94199997 1631:0.97000003 1638:0.95899999 1640:0.917 1694:0.92900002 1701:0.97299999 1715:0.986 1721:0.96200001 1725:0.93199998 1734:0.93199998 1875:0.98000002 1907:0.99599999 2023:0.92500001 2168:0.94700003 2243:0.99599999 2426:0.92400002 2438:0.91299999 2446:0.97600001 2459:0.93900001 2465:0.949 2496:0.91299999 2533:0.94099998 2545:0.90700001 2561:0.92500001 2620:0.93900001 2649:0.92299998 2690:0.95899999 2976:0.97000003 2995:0.99299997 3002:0.912 3003:0.89999998 3004:0.949 3021:0.96700001 3071:0.92699999 3073:0.972 3106:0.94199997 3214:0.99599999 3226:0.93199998 3481:0.97299999 3542:0.93099999 3602:0.91799998 3609:0.95700002 3613:0.991 3685:0.91600001 3732:0.93300003 3743:0.95300001 3812:0.90799999 3895:0.96200001 3919:0.95700002 3976:0.98299998 4023:0.95200002 4094:0.93800002 4099:0.93599999 4102:0.93900001 4146:0.93800002 4404:0.935 4428:0.97000003 4536:0.94999999 4548:0.94 4595:0.98000002 4614:0.93800002 4626:0.94800001 4686:0.96100003 4758:0.98900002 4781:0.98199999 4894:0.94700003 4899:0.986 4902:0.93699998 4948:0.95300001 4955:0.93400002 5046:0.935 5052:0.98000002 5055:0.94499999 5069:0.93599999 5139:0.96100003 5144:0.93000001 5172:0.93099999 5180:0.99699998 5186:0.97299999 5231:0.94499999 5233:0.95099998 5256:0.93000001 5285:0.91299999 5369:0.95999998 5388:0.986 5394:0.99599999 5414:0.94400001 5417:0.935 5422:0.99299997 5423:0.90600002 5429:0.90899998 5430:1 5431:1 5432:1 5433:1 5434:1 5435:1 #
0.0071719973546823610061062836962265 8:0.8829 15:0.88559997 30:0.88559997 40:0.8721 177:0.89279997 423:0.89999998 439:0.84689999 836:0.84780002 868:0.87029999 872:0.8973 879:0.89279997 889:0.8901 890:0.84149998 891:0.85500002 911:0.8919 928:0.85140002 934:0.84689999 947:0.84869999 953:0.83700001 959:0.85140002 970:0.83160001 990:0.89459997 995:0.83520001 1005:0.85320002 1018:0.83429998 1025:0.86580002 1040:0.83880001 1065:0.87300003 1080:0.87029999 1086:0.87480003 1095:0.83609998 1109:0.82980001 1115:0.83609998 1118:0.83340001 1122:0.83700001 1127:0.8793 1146:0.86129999 1147:0.83340001 1156:0.85229999 1160:0.8919 1165:0.8739 1166:0.86129999 1205:0.84960002 1210:0.81989998 1215:0.86309999 1225:0.86400002 1260:0.84869999 1262:0.83609998 1271:0.86400002 1278:0.83789998 1283:0.86849999 1297:0.81720001 1368:0.82440001 1375:0.82889998 1424:0.84600002 1473:0.88380003 1481:0.81449997 1500:0.86489999 1503:0.84329998 1514:0.86220002 1592:0.85229999 1600:0.84869999 1631:0.87840003 1682:0.85680002 1686:0.84149998 1701:0.85860002 1725:0.87660003 1734:0.86580002 1747:0.81269997 1766:0.83609998 1767:0.8118 1770:0.82440001 1830:0.86040002 1834:0.83700001 1837:0.82169998 1850:0.82800001 1859:0.8955 1868:0.85140002 1872:0.85860002 1877:0.8829 1879:0.8919 1907:0.8739 1909:0.82709998 1922:0.8973 1952:0.83700001 1953:0.81449997 1995:0.83160001 2002:0.81989998 2004:0.82440001 2023:0.83609998 2034:0.81809998 2073:0.86849999 2076:0.84060001 2135:0.85049999 2142:0.8739 2145:0.83880001 2184:0.81089997 2190:0.82080001 2192:0.8721 2243:0.8775 2255:0.83969998 2267:0.85049999 2293:0.81720001 2307:0.81089997 2329:0.83160001 2337:0.87120003 2339:0.84780002 2347:0.83609998 2354:0.83700001 2376:0.82620001 2409:0.83160001 2426:0.81269997 2446:0.86129999 2462:0.82440001 2465:0.8739 2496:0.85500002 2519:0.84869999 2521:0.83340001 2522:0.86309999 2524:0.8793 2525:0.86220002 2533:0.85049999 2733:0.85140002 2792:0.84240001 2805:0.84329998 2818:0.8154 2854:0.83789998 2871:0.86760002 2969:0.85049999 2976:0.89279997 3044:0.8118 3045:0.85409999 3049:0.86849999 3068:0.85229999 3105:0.83340001 3106:0.86489999 3108:0.82169998 3122:0.81089997 3137:0.85500002 3186:0.83880001 3235:0.82080001 3369:0.83429998 3374:0.86489999 3393:0.83880001 3414:0.82529998 3446:0.85589999 3472:0.84509999 3560:0.82260001 3594:0.82440001 3614:0.83700001 3665:0.83520001 3690:0.87029999 3702:0.83789998 3705:0.82800001 3789:0.8757 3969:0.83789998 3985:0.84420002 3993:0.84420002 4067:0.85589999 4074:0.87300003 4099:0.85769999 4114:0.86129999 4171:0.8973 4234:0.82080001 4307:0.86040002 4348:0.81269997 4359:0.8136 4371:0.8136 4384:0.82440001 4398:0.86669999 4403:0.84149998 4428:0.81269997 4495:0.86400002 4515:0.82349998 4547:0.89999998 4551:0.89999998 4552:0.83069998 4555:0.88200003 4560:0.89999998 4561:0.89999998 4562:0.89999998 4563:0.89999998 4564:0.89999998 4565:0.89999998 #
-0.0057220759927665053659606719804742 3:0.99599999 8:0.97100002 24:0.98400003 40:0.977 204:0.96100003 210:0.95599997 439:0.94499999 449:0.97000003 504:0.91399997 831:0.96100003 832:0.912 835:0.93900001 848:0.94999999 853:0.963 869:0.99199998 872:0.99699998 879:0.98299998 880:0.96799999 889:0.94499999 891:0.95300001 907:0.92299998 908:0.91500002 911:0.991 927:0.93699998 928:0.977 934:0.95999998 948:0.93000001 953:0.91000003 958:0.93599999 970:0.92699999 996:0.94599998 1005:0.94999999 1016:0.92000002 1030:0.94499999 1033:0.94599998 1037:0.98000002 1040:0.93000001 1043:0.92000002 1055:0.95300001 1069:0.91799998 1080:0.97299999 1086:0.96899998 1103:0.92000002 1109:0.935 1117:0.90899998 1125:0.90100002 1143:0.972 1147:0.89999998 1148:0.94099998 1166:0.95700002 1180:0.91100001 1184:0.95899999 1201:0.94599998 1202:0.90600002 1205:0.95300001 1206:0.97399998 1211:0.93199998 1215:0.97000003 1229:0.92500001 1231:0.91000003 1249:0.91100001 1272:0.93400002 1280:0.98199999 1283:0.90100002 1288:0.92699999 1289:0.93199998 1294:0.94199997 1297:0.95300001 1363:0.99699998 1368:1 1375:0.92199999 1384:0.92699999 1408:1 1432:0.93199998 1471:0.917 1473:0.93099999 1476:0.912 1478:0.92199999 1500:0.95599997 1514:0.93300003 1525:0.93900001 1526:0.93099999 1531:0.94099998 1539:0.97399998 1546:0.95899999 1552:0.94400001 1553:0.95499998 1558:0.92299998 1564:0.912 1582:0.96700001 1588:0.94300002 1600:0.96399999 1621:0.94599998 1623:0.963 1631:0.98000002 1635:0.92799997 1638:0.96399999 1645:0.95300001 1651:0.95300001 1663:0.91799998 1664:0.90499997 1667:0.90899998 1677:0.926 1682:0.96399999 1685:0.91500002 1715:0.98100001 1742:0.92000002 1751:0.94 1766:0.92000002 1770:0.93800002 1782:0.91299999 1826:0.972 1832:0.92900002 1834:0.93400002 1856:0.93000001 1859:0.98799998 1872:0.95200002 1875:0.954 1897:0.95499998 1901:0.91600001 1922:0.98900002 1952:0.92699999 1961:0.94599998 1970:0.93000001 1991:0.921 2002:0.917 2013:0.93300003 2019:0.92199999 2040:0.94199997 2049:0.93400002 2067:0.94099998 2073:0.92799997 2088:0.93300003 2135:0.94 2142:0.93699998 2145:0.94599998 2179:0.94700003 2184:0.935 2190:0.912 2193:0.93900001 2229:0.95599997 2243:0.98799998 2255:0.93300003 2272:0.91500002 2279:0.97899997 2287:1 2288:1 2289:1 2290:1 2291:1 2292:1 2293:1 2294:1 2295:1 2296:1 2297:1 2298:1 2299:1 #
0.00086138414277859122816782821985271 2:0.85860002 3:0.89999998 8:0.89279997 10:0.89639997 13:0.89639997 14:0.84509999 15:0.88919997 17:0.89279997 18:0.89639997 19:0.89999998 23:0.88559997 29:0.83880001 36:0.88559997 37:0.8739 40:0.82980001 51:0.89639997 55:0.82800001 59:0.88919997 62:0.8136 64:0.89279997 65:0.85409999 71:0.82980001 76:0.85949999 83:0.82349998 84:0.82080001 86:0.87840003 95:0.89999998 97:0.87120003 98:0.89639997 103:0.83609998 105:0.89639997 111:0.86040002 116:0.89279997 119:0.8811 124:0.89279997 126:0.86760002 128:0.8154 133:0.82889998 134:0.82349998 138:0.88559997 143:0.81629997 152:0.8793 163:0.84960002 172:0.81989998 175:0.82169998 180:0.86220002 186:0.83249998 189:0.84060001 192:0.83429998 193:0.83069998 195:0.85140002 202:0.82080001 204:0.89639997 206:0.83789998 217:0.83609998 229:0.87660003 232:0.81900001 236:0.8154 256:0.8775 257:0.81449997 274:0.86849999 278:0.82349998 286:0.87029999 297:0.84420002 298:0.86669999 304:0.81989998 313:0.82349998 319:0.81269997 324:0.86400002 340:0.8136 342:0.86220002 345:0.84509999 354:0.81089997 356:0.82980001 364:0.85860002 372:0.85680002 382:0.81720001 388:0.8829 389:0.8118 393:0.89999998 394:0.85409999 396:0.89999998 397:0.8154 400:0.81809998 401:0.81089997 403:0.87840003 405:0.89639997 406:0.88200003 407:0.83609998 410:0.8118 411:0.88919997 413:0.84780002 414:0.82800001 419:0.83429998 420:0.89999998 421:0.89999998 422:0.89999998 423:0.89999998 424:0.89999998 425:0.89999998 426:0.89999998 427:0.89999998 428:0.89999998 429:0.89999998 430:0.89999998 431:0.89999998 432:0.89999998 433:0.89999998 434:0.89999998 435:0.89999998 436:0.89999998 437:0.89999998 438:0.89999998 439:0.89999998 440:0.89999998 441:0.89999998 #
-0.0062404042586080617910360146538551 17:0.99199998 252:0.99599999 386:0.92199999 835:0.98000002 840:0.99699998 848:0.96799999 854:0.94400001 868:0.99400002 891:0.91500002 898:0.92199999 911:0.95700002 934:0.95499998 938:0.94199997 941:0.91100001 953:0.98500001 986:0.97299999 1025:0.95499998 1032:0.90899998 1037:0.97399998 1055:0.91100001 1202:0.95099998 1215:0.95300001 1220:0.92199999 1249:0.91399997 1280:0.93699998 1287:0.93599999 1288:0.94400001 1289:0.92000002 1294:0.96700001 1315:0.93000001 1335:0.92299998 1355:0.95700002 1358:0.99400002 1364:0.93000001 1394:0.93599999 1403:0.99199998 1406:0.92500001 1432:0.94700003 1525:0.90200001 1530:0.91399997 1546:0.94499999 1587:1 1600:0.95300001 1643:0.96200001 1682:0.963 1701:0.95700002 1721:0.91100001 1780:0.903 1784:0.935 1785:0.91100001 1795:0.91799998 1863:0.95300001 1875:0.93199998 2031:0.95099998 2034:0.93199998 2084:0.949 2088:0.90700001 2164:0.90700001 2179:0.92799997 2184:0.903 2193:0.92000002 2253:0.926 2260:0.90499997 2337:0.935 2349:0.93400002 2360:0.903 2465:0.94 2506:0.93300003 2517:0.92400002 2573:0.92900002 2583:0.93599999 2588:0.958 2612:0.95999998 2734:0.954 2753:0.972 2832:0.90100002 2844:0.95300001 2866:0.95599997 2914:0.93800002 2949:0.91399997 2964:0.96700001 2972:0.91399997 3016:0.90799999 3049:0.97500002 3058:0.91900003 3071:0.93099999 3181:0.90899998 3219:0.96100003 3233:0.91600001 3235:0.96200001 3294:0.95599997 3329:0.93900001 3414:0.917 3418:0.972 3419:0.90499997 3472:0.95300001 3489:0.91900003 3577:0.91299999 3727:0.92900002 4006:0.96499997 4023:0.90200001 4030:0.96799999 4038:1 4045:0.97100002 4048:0.99400002 4051:0.91799998 4052:0.95599997 4053:1 4054:1 #
-0.0071719973546823610061062836962265 3:0.991 17:0.99599999 40:1 59:0.94999999 424:0.90600002 551:0.94 613:0.91600001 872:1 879:0.92799997 880:0.98299998 891:0.91500002 919:0.91100001 922:0.95099998 927:0.93400002 928:0.977 930:0.93000001 997:0.95099998 1000:0.96600002 1005:0.93400002 1016:0.949 1037:0.94199997 1042:0.954 1070:0.991 1071:0.972 1086:0.96399999 1117:0.90499997 1122:0.93300003 1146:0.95700002 1160:0.96100003 1165:0.94800001 1262:0.93199998 1408:0.977 1425:0.92799997 1429:0.94700003 1468:0.94199997 1473:0.963 1514:0.958 1517:0.96799999 1525:0.94300002 1546:0.94199997 1621:0.93099999 1631:0.96200001 1638:0.95300001 1701:0.97399998 1734:0.95999998 1747:0.91000003 1770:0.92400002 1785:0.95700002 1813:0.91600001 1872:0.94300002 1875:0.926 1897:0.95499998 1901:0.90399998 2142:0.94 2145:0.93800002 2190:0.90200001 2243:0.94400001 2255:0.92500001 2339:0.90600002 2354:0.92400002 2384:0.92699999 2409:0.93300003 2426:0.92799997 2446:0.98699999 2480:0.963 2484:0.95899999 2506:0.95700002 2524:0.94499999 2533:0.95899999 2573:0.91500002 2695:0.90899998 2723:0.93199998 2819:0.92299998 2847:0.93000001 2939:0.92000002 2986:0.94 2991:0.91100001 2995:1 #
0.0071719973546823610061062836962265 3:0.8739 10:0.8865 17:0.8919 26:0.89279997 44:0.88919997 244:0.8883 285:0.8739 443:0.86849999 512:0.89639997 834:0.83880001 872:0.89459997 879:0.8721 880:0.87660003 891:0.82529998 898:0.82440001 908:0.82620001 924:0.83429998 927:0.83789998 949:0.87660003 958:0.83160001 959:0.8919 965:0.84600002 986:0.87840003 990:0.84960002 995:0.83789998 997:0.8973 1013:0.86940002 1069:0.83700001 1146:0.86400002 1158:0.89459997 1160:0.89279997 1165:0.86849999 1180:0.84240001 1186:0.83069998 1195:0.85769999 1197:0.85229999 1203:0.81900001 1206:0.83880001 1215:0.87480003 1225:0.86940002 1259:0.8757 1263:0.88739997 1310:0.83880001 1315:0.84689999 1324:0.83880001 1348:0.8973 1383:0.86220002 1408:0.8721 1424:0.83429998 1429:0.86669999 1432:0.81089997 1473:0.87120003 1517:0.85500002 1526:0.85500002 1541:0.84780002 1546:0.86400002 1552:0.84689999 1557:0.8721 1590:0.84869999 1621:0.85500002 1623:0.84960002 1631:0.86129999 1675:0.8757 1684:0.88739997 1688:0.87660003 1701:0.87660003 1725:0.8721 1734:0.84060001 1738:0.86849999 1743:0.85409999 1766:0.82529998 1770:0.83160001 1771:0.88559997 1781:0.84329998 1797:0.81449997 1809:0.83429998 1811:0.86489999 1812:0.8937 1834:0.82529998 1837:0.84060001 1875:0.81 1892:0.81089997 1910:0.83700001 1916:0.83429998 1929:0.82260001 1941:0.86489999 2023:0.84420002 2029:0.82980001 2031:0.85589999 2057:0.86129999 2111:0.85049999 2115:0.82529998 2145:0.83340001 2190:0.8136 2253:0.82620001 2259:0.84060001 2272:0.81269997 2296:0.8118 2311:0.85500002 2448:0.85229999 2464:0.84869999 2480:0.85320002 2483:0.84240001 2486:0.82440001 2506:0.84960002 2524:0.82709998 2536:0.86669999 2542:0.88919997 2577:0.84329998 2583:0.84149998 2609:0.83069998 2612:0.86580002 2623:0.83609998 2661:0.84600002 2686:0.85229999 2699:0.82169998 2713:0.81449997 2723:0.83429998 2733:0.85140002 2789:0.89999998 2825:0.84960002 2832:0.81089997 2842:0.82980001 2844:0.82980001 2852:0.8154 2854:0.82709998 2873:0.87300003 2905:0.83520001 2948:0.87300003 2991:0.81 3006:0.82620001 3019:0.83520001 3071:0.83520001 3104:0.85769999 3166:0.81989998 3226:0.83520001 3233:0.83429998 3235:0.84689999 3236:0.82349998 3244:0.82889998 3268:0.84149998 3289:0.83160001 3298:0.87660003 3299:0.86129999 3305:0.82889998 3393:0.84149998 3430:0.86669999 3489:0.89639997 3609:0.85409999 3614:0.84780002 3687:0.88919997 3690:0.86849999 3702:0.82349998 3712:0.85229999 3732:0.84780002 3876:0.84780002 3884:0.82980001 3900:0.86849999 3932:0.82169998 3948:0.82709998 3962:0.8136 3987:0.8154 4012:0.81449997 4023:0.83969998 4048:0.86669999 4078:0.83069998 4127:0.8775 4129:0.87300003 4204:0.8811 4216:0.8955 4307:0.82889998 4347:0.85589999 4398:0.83700001 4404:0.84149998 4451:0.83700001 4528:0.89999998 4529:0.89999998 4530:0.89999998 4531:0.89999998 4532:0.89999998 4533:0.89999998 4534:0.89999998 4535:0.89999998 #
-0.0071719973546823610061062836962265 50:1 170:0.98400003 246:0.97000003 396:0.912 522:0.97299999 531:0.93599999 558:0.99199998 572:0.92299998 598:0.92699999 834:0.96100003 840:0.96200001 855:0.921 891:0.92799997 898:0.91100001 902:0.90200001 907:0.94300002 931:0.95700002 934:0.963 946:0.94300002 953:0.91900003 976:0.98900002 1087:0.97600001 1089:0.958 1120:0.91000003 1147:0.95499998 1215:0.91500002 1220:0.97100002 1223:0.90399998 1235:0.93099999 1251:0.93900001 1273:0.92900002 1284:0.91600001 1287:0.98000002 1294:0.96499997 1297:0.926 1313:0.89999998 1315:0.97899997 1322:0.91500002 1324:1 1325:1 1326:1 1327:1 1328:1 1329:1 1330:1 1331:1 1332:1 1333:1 1334:1 1335:1 1336:1 #
-0.00081027632468973534961287352729187 24:0.99599999 42:0.96200001 68:0.96399999 74:0.991 140:0.97100002 193:0.92699999 244:0.99599999 318:0.91900003 343:0.99299997 398:0.949 817:0.98400003 832:0.94199997 841:0.94999999 868:0.99400002 872:1 879:0.96700001 889:0.91100001 891:0.958 898:0.972 907:0.926 914:0.94400001 928:0.95700002 934:0.95999998 940:0.90100002 953:0.92199999 958:0.96100003 959:0.986 986:0.96100003 990:0.99199998 1005:0.93599999 1022:0.91399997 1025:0.99000001 1029:0.94400001 1037:0.94199997 1042:0.97399998 1076:0.92799997 1086:0.96899998 1107:0.92799997 1109:0.92000002 1160:0.97500002 1180:0.92500001 1184:0.98799998 1200:0.90600002 1205:0.94099998 1211:0.94800001 1215:0.96799999 1242:1 1268:0.90399998 1274:0.94700003 1280:0.93599999 1283:0.95899999 1286:0.958 1289:0.96100003 1375:0.93699998 1386:0.92799997 1404:0.92199999 1408:0.96899998 1418:0.93199998 1425:0.96700001 1432:0.95300001 1450:0.917 1453:0.91900003 1460:0.94300002 1468:0.90799999 1473:0.97299999 1476:0.96799999 1481:0.93099999 1500:0.93900001 1506:0.93300003 1514:0.958 1515:0.95700002 1525:0.93599999 1546:0.93800002 1558:0.93400002 1564:0.90499997 1591:0.917 1600:0.92799997 1621:0.93400002 1623:0.95899999 1631:0.954 1638:0.93699998 1651:0.91100001 1669:0.92699999 1672:0.97500002 1682:0.98100001 1683:0.98000002 1684:0.96600002 1685:0.94400001 1686:0.91799998 1701:0.98000002 1721:0.91900003 1723:0.93900001 1725:0.972 1734:0.94300002 1747:0.92799997 1751:0.912 1770:0.91900003 1771:0.95099998 1775:0.94999999 1782:0.94599998 1830:0.97399998 1897:0.95999998 1901:0.92400002 1909:0.90799999 1918:0.96100003 1944:0.91900003 1953:0.90600002 1956:0.98799998 1959:0.92900002 1970:0.92799997 2023:0.94400001 2034:0.94400001 2040:0.97299999 2048:0.912 2105:0.91500002 2107:0.92799997 2116:0.95200002 2128:0.93599999 2134:0.90799999 2135:0.93900001 2142:0.94300002 2179:0.93599999 2193:0.93000001 2255:0.94999999 2267:0.95300001 2288:0.95099998 2314:0.94499999 2329:0.96799999 2337:0.93000001 2339:0.917 2340:0.935 2348:0.93300003 2349:0.94599998 2376:0.91799998 2386:0.90799999 2402:0.94499999 2419:0.92299998 2426:0.93599999 2438:0.94199997 2459:0.92900002 2463:0.91399997 2465:0.96700001 2466:0.93800002 2468:0.95300001 2472:0.92000002 2476:0.91600001 2480:0.95099998 2483:0.912 2486:0.90600002 2515:0.92199999 2525:0.94199997 2554:0.94499999 2557:0.94400001 2575:0.91900003 2612:0.954 2620:0.91399997 2690:0.96399999 2702:0.90600002 2720:0.91000003 2727:0.95999998 2771:0.91299999 2777:0.90600002 2792:0.93599999 2796:0.91100001 2819:0.93099999 2844:0.949 2852:0.91399997 2855:0.91900003 2870:0.91799998 2871:0.94999999 2872:0.903 2873:0.95300001 2878:1 2879:1 #
-0.0071719973546823610061062836962265 7:0.94300002 50:1 124:0.98299998 127:0.98699999 205:0.91600001 242:0.99599999 275:0.99199998 363:0.99199998 553:0.98799998 862:0.91000003 887:0.91399997 890:0.92400002 898:0.92500001 913:0.90499997 919:0.96899998 931:0.90799999 967:0.98900002 976:0.99400002 986:0.97100002 1015:0.91100001 1027:0.91000003 1087:1 1089:0.95300001 1131:0.99400002 1225:0.95200002 1252:0.912 1299:0.97399998 1305:0.95700002 1316:0.94 1327:0.92699999 1334:0.94999999 1356:0.93099999 1524:0.93699998 1529:0.92500001 1563:0.954 1566:0.98900002 1589:0.98000002 1701:0.96600002 1717:0.90600002 1724:0.98100001 1725:0.95999998 1809:0.92400002 1814:0.921 2157:0.91900003 2476:0.92699999 2587:1 2588:1 2589:1 2590:1 2591:1 2592:1 2593:1 2594:1 2595:1 2596:1 #
0.0071719973546823610061062836962265 7:0.86760002 124:0.89639997 219:0.8739 388:0.8829 465:0.89279997 757:0.89099997 770:0.82980001 778:0.82980001 784:0.8901 872:0.89999998 879:0.86220002 891:0.83249998 898:0.81989998 913:0.89999998 957:0.86129999 986:0.83340001 990:0.89999998 1027:0.85860002 1127:0.86129999 1146:0.85589999 1231:0.83969998 1271:0.86849999 1277:0.89999998 1312:0.82440001 1414:0.83069998 1496:0.89999998 1499:0.84780002 1507:0.82709998 1517:0.89999998 #
-0.0071719973546823610061062836962265 119:0.90100002 286:0.90600002 836:0.97799999 841:0.92299998 848:0.94700003 872:0.99699998 879:0.98799998 898:0.926 907:0.90200001 919:0.92400002 953:0.95700002 986:0.96100003 1025:0.96399999 1032:0.92799997 1037:0.97600001 1042:0.963 1165:0.97399998 1205:0.91299999 1283:0.94099998 1294:0.958 1315:0.954 1324:0.935 1377:0.93300003 1404:0.95499998 1408:0.95200002 1458:0.91299999 1529:0.92000002 1588:0.97100002 1600:0.91900003 1621:0.93400002 1623:0.94999999 1624:0.93800002 1638:0.92900002 1701:0.95999998 1764:0.93199998 1766:0.92299998 1775:0.92299998 1776:0.91799998 1809:0.92699999 1961:0.95899999 2031:0.94800001 2034:0.93199998 2049:0.903 2054:0.958 2099:0.917 2135:0.92000002 2158:0.95999998 2179:0.93199998 2190:0.93699998 2324:0.98500001 2337:0.963 2386:0.91500002 2419:0.92500001 2505:0.949 2525:0.98299998 2686:0.93199998 2727:0.93400002 2730:0.93400002 2733:0.94599998 2734:0.949 2766:0.94099998 2792:0.91600001 3045:0.954 3058:0.903 3068:0.94199997 3071:0.92000002 3106:0.92000002 3235:0.92799997 3430:0.935 3605:0.96600002 3702:0.93099999 3789:0.97500002 3831:0.97899997 3897:0.935 4006:0.94199997 4053:0.912 4114:0.90600002 4127:0.98299998 4204:0.93199998 4359:0.93300003 4403:0.926 4404:0.93800002 4504:0.921 4558:0.958 4615:0.98199999 4694:0.95899999 #
-0.0010304805832542897683912208606216 68:0.97100002 86:0.98000002 177:0.95999998 242:0.99199998 275:0.92699999 291:0.90499997 310:0.97600001 312:0.93599999 337:1 462:0.99299997 474:0.99599999 558:0.99199998 693:0.98799998 702:0.95300001 835:0.92900002 836:0.93900001 838:0.917 841:0.95200002 879:0.96100003 891:0.963 907:0.92299998 912:0.97000003 928:0.94300002 934:0.96399999 947:0.917 953:0.95700002 956:0.95599997 964:0.92400002 990:0.97899997 1005:0.917 1023:0.97799999 1025:0.95300001 1032:0.92000002 1080:0.94400001 1086:0.96100003 1092:0.977 1103:0.91100001 1109:0.90499997 1123:0.93599999 1160:0.99199998 1167:0.98500001 1180:0.91500002 1205:0.935 1206:0.954 1225:0.977 1251:0.96600002 1259:0.97899997 1283:0.98199999 1284:0.97899997 1299:0.99699998 1305:0.93900001 1330:0.96600002 1339:0.96399999 1375:0.93199998 1414:0.93599999 1424:0.95999998 1425:0.96700001 1440:0.977 1451:0.94099998 1478:0.903 1500:0.94999999 1525:0.94099998 1537:0.98799998 1546:0.94999999 1600:0.95700002 1623:0.96700001 1638:0.90399998 1640:0.95899999 1655:0.95999998 1657:0.91100001 1672:0.97299999 1682:0.99199998 1701:0.97100002 1725:0.97000003 1734:0.95099998 1740:0.91000003 1809:0.92699999 1834:0.917 1837:0.926 1858:0.903 1859:0.94199997 1882:0.90700001 1907:0.97399998 1910:0.92400002 1917:0.94999999 1918:0.93000001 1925:0.95499998 1953:0.935 1977:0.95200002 2006:0.92000002 2010:0.93599999 2023:0.94099998 2073:0.926 2132:0.96899998 2145:0.917 2157:0.99699998 2158:0.91600001 2218:0.99699998 2222:0.90100002 2243:0.94599998 2255:0.92299998 2265:0.90600002 2291:0.99699998 2311:0.94700003 2337:0.98000002 2339:0.91500002 2348:0.92699999 2366:0.91299999 2376:0.90700001 2380:0.94300002 2426:0.926 2435:0.98199999 2465:0.95899999 2469:0.93900001 2476:0.92400002 2515:0.91600001 2521:0.935 2525:0.95599997 2564:0.94499999 2569:0.935 2575:0.92000002 2589:0.91000003 2593:0.91299999 2596:0.90499997 2642:0.90799999 2706:0.90499997 2733:0.93400002 2792:0.90799999 2852:0.91100001 2870:0.91799998 2871:0.95599997 2903:0.93300003 2921:0.93400002 2948:0.97899997 2949:0.94400001 2964:0.95499998 2966:0.91600001 2986:0.90499997 2991:0.92000002 3008:0.903 3039:0.95300001 3045:0.97600001 3058:0.92199999 3070:0.91900003 3071:0.92799997 3086:0.91100001 3104:0.963 3106:0.91100001 3168:0.935 3228:0.90499997 3235:0.91500002 3239:0.912 3271:0.93000001 3272:0.93099999 3322:0.93099999 3380:0.95700002 3393:0.935 3405:0.95899999 3414:0.96100003 3433:0.92299998 3439:0.90399998 3444:0.91000003 3449:0.96100003 3456:0.95099998 3494:0.95300001 3496:0.95300001 3507:0.96100003 3533:1 3534:0.986 3537:1 3538:1 3539:0.93599999 3541:0.97899997 3544:0.99400002 3548:0.958 3549:0.97299999 3550:0.95999998 3551:0.91900003 3555:0.917 3556:1 3557:1 3558:1 3559:1 3560:1 #
0.00024156936464344108358472118514015 2:0.89639997 3:0.89999998 4:0.83249998 5:0.89639997 6:0.89999998 7:0.8775 8:0.8919 9:0.89999998 10:0.89999998 11:0.85589999 12:0.89999998 13:0.89999998 14:0.86040002 15:0.89279997 16:0.81720001 17:0.89999998 18:0.86129999 19:0.88919997 21:0.84869999 22:0.89999998 23:0.8883 24:0.89999998 25:0.82709998 26:0.89639997 28:0.85140002 29:0.85320002 30:0.89639997 32:0.89279997 33:0.82169998 34:0.89999998 35:0.84420002 36:0.89279997 37:0.8775 38:0.8883 40:0.89999998 42:0.85680002 44:0.88559997 46:0.88020003 48:0.89639997 49:0.85589999 50:0.89999998 51:0.89999998 52:0.89639997 55:0.8919 56:0.86580002 58:0.84329998 59:0.89639997 61:0.81900001 63:0.86669999 64:0.89639997 65:0.83160001 66:0.85229999 67:0.84060001 68:0.89639997 69:0.82169998 72:0.88919997 73:0.89639997 75:0.89639997 76:0.88200003 77:0.85680002 80:0.8919 82:0.82529998 83:0.8847 86:0.87840003 87:0.86940002 96:0.8847 98:0.8919 99:0.82980001 101:0.89639997 102:0.89279997 105:0.89639997 109:0.84600002 117:0.83609998 119:0.86580002 121:0.85320002 126:0.85949999 128:0.82529998 130:0.84420002 133:0.85680002 137:0.89999998 138:0.89999998 139:0.89999998 140:0.89999998 141:0.89999998 142:0.89999998 143:0.89999998 144:0.89999998 145:0.89999998 146:0.89999998 147:0.89999998 148:0.89999998 149:0.89999998 150:0.89999998 151:0.89999998 152:0.89999998 153:0.89999998 154:0.89999998 155:0.89999998 156:0.89999998 157:0.89999998 158:0.89999998 159:0.89999998 160:0.89999998 161:0.89999998 162:0.89999998 163:0.89999998 164:0.89999998 165:0.89999998 166:0.89999998 167:0.89999998 168:0.89999998 169:0.89999998 170:0.89999998 171:0.89999998 172:0.89999998 173:0.89999998 174:0.89999998 175:0.89999998 176:0.89999998 177:0.89999998 178:0.89999998 179:0.89999998 180:0.89999998 181:0.89999998 182:0.89999998 183:0.89999998 184:0.89999998 185:0.89999998 186:0.89999998 187:0.89999998 188:0.89999998 189:0.89999998 190:0.89999998 191:0.89999998 192:0.89999998 193:0.89999998 194:0.89999998 195:0.89999998 196:0.89999998 197:0.89999998 #
-0.0071719973546823610061062836962265 43:0.963 170:0.97600001 841:0.92699999 847:0.99000001 848:0.96100003 872:1 879:0.98900002 953:0.977 972:0.97899997 1022:0.94499999 1037:0.99599999 1045:0.99699998 1055:0.95999998 1089:0.92699999 1165:0.97299999 1215:0.94499999 1225:0.97100002 1234:0.935 1268:0.94099998 1294:0.93800002 1315:0.963 1324:0.93300003 1403:0.949 1408:0.95099998 1510:0.92299998 1525:0.91100001 1552:0.95599997 1590:0.99400002 1600:0.90499997 1602:0.98299998 1638:0.94499999 1701:0.98199999 1725:0.96899998 1766:0.92299998 1770:0.926 1809:0.92799997 1922:0.96399999 1929:0.93300003 1933:0.95099998 1959:0.90899998 1989:0.90799999 2031:0.95200002 2105:0.93400002 2135:0.91799998 2158:0.94800001 2179:0.92000002 2190:0.96100003 2299:0.90399998 2324:0.97600001 2483:0.91500002 2501:0.94099998 2525:0.958 2724:0.94800001 2733:0.94300002 2766:0.94099998 2905:0.90100002 2991:0.90899998 2995:0.94700003 3020:0.92500001 3058:0.93400002 3068:0.94499999 3102:0.91299999 3104:0.94199997 3216:0.92500001 3235:0.96100003 3430:0.97000003 3472:0.94300002 3615:0.93900001 3671:0.917 3976:0.95899999 4006:0.95700002 4053:0.93000001 4099:0.93300003 4153:0.93099999 4198:0.958 4271:0.92000002 4403:0.92199999 4405:0.91500002 4617:0.95700002 4680:0.94800001 4694:0.958 4702:1 4703:1 #
-0.0071719973546823610061062836962265 7:0.95999998 246:0.99599999 586:0.96499997 834:0.935 839:0.98500001 840:0.99400002 1041:0.93099999 1167:0.98199999 1172:0.949 1220:0.963 1259:0.98199999 1273:0.92900002 1315:0.97799999 1324:0.935 1668:0.94300002 1684:0.986 1694:0.95999998 1701:0.98000002 1725:0.972 1757:0.96399999 1762:0.93000001 1784:0.92400002 1916:0.92799997 1925:0.91500002 2010:0.92400002 2031:0.977 2038:0.93300003 2380:0.97399998 2521:0.92900002 2527:0.94199997 2686:0.95300001 2825:0.958 2850:0.94700003 2866:0.95899999 2919:0.94700003 2988:0.97600001 3004:0.99400002 3024:0.93400002 3037:0.935 3084:0.94300002 3145:0.926 3322:0.93900001 3430:0.90799999 3496:0.94800001 3601:0.94700003 3609:0.97500002 3725:0.96100003 3752:0.91399997 3949:0.92699999 3952:0.972 3953:0.92299998 4023:0.98500001 4053:0.93000001 4307:0.991 4388:0.99599999 4404:0.94700003 4482:0.96899998 4617:0.96799999 4717:0.98100001 5347:0.92000002 5422:0.94 5477:0.90600002 5987:0.917 6179:0.98299998 6180:0.977 6182:0.99299997 6185:1 6186:1 6187:1 6188:1 #
-0.00040923492751785556231780560665356 3:0.991 10:0.99199998 18:0.90700001 59:0.97899997 68:0.94099998 152:0.96799999 283:0.97600001 318:0.97399998 417:0.94700003 444:0.98400003 486:0.92500001 771:0.96100003 835:0.95099998 836:0.94199997 841:0.93800002 865:0.93300003 872:0.99699998 879:0.98900002 880:0.96799999 890:0.95300001 891:0.94700003 902:0.926 908:0.92799997 922:0.95099998 923:0.98299998 927:0.94300002 928:0.949 941:0.94300002 948:0.93900001 953:0.90100002 958:0.94700003 959:0.93800002 995:0.95700002 996:0.93099999 1000:0.958 1014:0.949 1028:0.93599999 1037:0.96200001 1039:0.92799997 1042:0.95099998 1045:0.93400002 1055:0.94800001 1065:0.93699998 1069:0.95599997 1086:0.94999999 1095:0.91799998 1123:0.91299999 1127:0.94499999 1146:0.98199999 1156:0.90399998 1160:0.99400002 1165:0.95599997 1177:0.96700001 1198:0.91799998 1206:0.963 1215:0.97000003 1237:0.93300003 1238:0.91399997 1242:0.977 1262:0.963 1274:0.93099999 1280:0.90600002 1284:0.95499998 1289:0.93800002 1355:0.96200001 1367:0.917 1368:0.99699998 1375:0.92900002 1408:0.972 1425:0.95499998 1432:0.92900002 1450:0.92199999 1453:0.96499997 1473:0.97600001 1478:0.91600001 1499:0.93599999 1500:0.95499998 1510:0.90700001 1514:0.93699998 1515:0.977 1525:0.92900002 1539:0.94700003 1546:0.94800001 1558:0.94800001 1582:0.91600001 1592:0.95599997 1600:0.94099998 1621:0.954 1623:0.99000001 1631:0.96499997 1638:0.93900001 1642:0.94499999 1643:0.95200002 1669:0.91799998 1677:0.93099999 1679:0.93900001 1682:0.98000002 1686:0.90399998 1725:0.95200002 1734:0.95999998 1738:0.94400001 1747:0.912 1751:0.96899998 1765:0.93900001 1771:0.90399998 1775:0.91399997 1776:0.91100001 1784:0.93800002 1796:0.92000002 1809:0.93000001 1813:0.92199999 1831:0.93199998 1832:0.90899998 1834:0.92799997 1837:0.90100002 1845:0.977 1872:0.94599998 1918:0.93900001 1922:0.98900002 1966:0.91799998 2021:0.98500001 2023:0.94099998 2040:0.93300003 2076:0.97000003 2102:0.95999998 2131:0.94599998 2135:0.96100003 2142:0.96899998 2179:0.95599997 2190:0.90899998 2198:0.93000001 2216:0.94999999 2260:0.94199997 2267:0.95300001 2272:0.95300001 2279:0.926 2282:0.90499997 2288:0.96200001 2311:0.97299999 2319:0.95499998 2325:0.97399998 2348:0.92000002 2376:0.93000001 2386:0.90799999 2426:0.93900001 2439:0.93599999 2448:0.921 2463:0.91100001 2464:0.95499998 2465:0.96799999 2469:0.94499999 2472:0.94999999 2476:0.93199998 2477:0.93300003 2480:0.963 2484:0.95300001 2486:0.92500001 2488:0.95499998 2505:0.97500002 2506:0.92199999 2524:0.977 2533:0.93400002 2541:0.95099998 2557:0.92900002 2575:0.91900003 2583:0.92500001 2608:0.92699999 2612:0.95300001 2692:0.97399998 2702:0.94599998 2705:0.95300001 2723:0.95599997 2727:0.926 2732:0.96899998 2733:0.91000003 2787:0.95300001 2792:0.93599999 2819:0.93400002 2893:0.92000002 2899:0.912 2903:0.917 2904:0.95599997 2976:0.94199997 2979:0.935 2991:0.90899998 2997:0.91100001 3019:0.93400002 3021:0.95099998 3039:0.90899998 3051:0.92799997 3054:0.92799997 3071:0.94199997 3106:0.96600002 3108:0.93300003 3109:0.95200002 3123:0.94199997 3136:0.95700002 3151:0.92199999 3168:0.93800002 3186:0.93699998 3212:0.97500002 3226:0.97399998 3268:0.91500002 3285:0.912 3294:0.92199999 3374:0.96200001 3393:0.94400001 3414:0.94700003 3456:0.935 3494:0.90899998 3560:0.90600002 3602:0.93000001 3614:0.98100001 3615:0.903 3635:0.90100002 3654:0.98100001 3661:0.94099998 3671:0.93199998 3692:0.94400001 3701:0.903 3702:0.93599999 3703:0.96399999 3705:0.926 3711:0.91900003 3716:0.91399997 3727:0.97100002 3743:0.912 3776:0.91399997 3798:0.91500002 3804:0.977 3843:0.92699999 3848:0.92799997 3876:0.93099999 3965:0.93400002 3974:1 3975:1 3976:1 #
0.0071719973546823610061062836962265 2:0.8811 37:0.85949999 64:0.82260001 65:0.83340001 127:0.8883 157:0.84509999 192:0.81089997 256:0.8775 327:0.84509999 340:0.82889998 345:0.87120003 386:0.83340001 522:0.8919 552:0.83880001 835:0.8865 838:0.82529998 846:0.8919 848:0.86849999 876:0.82080001 879:0.84149998 880:0.86849999 891:0.8154 902:0.86400002 905:0.86129999 907:0.85680002 908:0.85680002 919:0.83789998 922:0.82529998 934:0.86220002 941:0.85049999 953:0.82980001 958:0.81900001 959:0.81900001 978:0.83160001 996:0.82800001 1005:0.83069998 1014:0.83880001 1022:0.85320002 1027:0.81900001 1029:0.86400002 1030:0.8847 1031:0.83520001 1033:0.82260001 1037:0.86849999 1042:0.88739997 1045:0.84780002 1055:0.83249998 1060:0.81720001 1069:0.84960002 1076:0.86489999 1078:0.83340001 1092:0.82709998 1117:0.81629997 1129:0.84149998 1180:0.81720001 1197:0.82080001 1215:0.82529998 1225:0.83880001 1238:0.81809998 1249:0.83340001 1250:0.87029999 1252:0.85500002 1268:0.83700001 1288:0.84509999 1294:0.87029999 1330:0.81089997 1375:0.86849999 1386:0.83969998 1394:0.89999998 1395:0.89999998 1396:0.89999998 1397:0.89999998 1398:0.89999998 1399:0.89999998 1400:0.89999998 1401:0.89999998 1402:0.89999998 1403:0.89999998 1404:0.89999998 1405:0.89999998 1406:0.89999998 #
0.0071719973546823610061062836962265 13:0.89279997 50:0.8955 75:0.89279997 162:0.8829 256:0.8739 343:0.89999998 420:0.83160001 553:0.85409999 709:0.89639997 746:0.8865 835:0.8739 841:0.85680002 870:0.85409999 872:0.8847 876:0.8973 879:0.88739997 880:0.86309999 890:0.85680002 891:0.86220002 907:0.82260001 911:0.8973 914:0.84509999 919:0.81 922:0.84329998 928:0.83789998 931:0.86669999 934:0.86669999 949:0.86940002 958:0.82440001 959:0.8811 963:0.89099997 964:0.88919997 968:0.81989998 970:0.88380003 986:0.87840003 992:0.8919 994:0.84420002 1012:0.81089997 1018:0.83160001 1027:0.81089997 1050:0.84869999 1058:0.82889998 1080:0.86040002 1088:0.83969998 1092:0.87840003 1101:0.82800001 1109:0.84869999 1118:0.83340001 1120:0.81629997 1123:0.83160001 1127:0.84869999 1146:0.85589999 1160:0.8901 1165:0.86580002 1206:0.86040002 1225:0.8739 1294:0.84420002 1324:0.84149998 1368:0.82169998 1369:0.81449997 1370:0.8847 1397:0.84509999 1408:0.86849999 1432:0.85860002 1447:0.82620001 1451:0.83880001 1473:0.86400002 1500:0.86580002 1514:0.86040002 1525:0.84960002 1526:0.84780002 1527:0.8136 1546:0.85049999 1576:0.85140002 1589:0.88200003 1615:0.81449997 1621:0.85140002 1623:0.85140002 1631:0.85860002 1638:0.8136 1640:0.84960002 1643:0.85140002 1651:0.83789998 1672:0.86129999 1677:0.86760002 1682:0.85409999 1684:0.8757 1694:0.82349998 1701:0.88739997 1734:0.85500002 1735:0.86129999 1741:0.83069998 1751:0.88020003 1771:0.85769999 1809:0.83969998 1829:0.86669999 1856:0.82620001 1859:0.85229999 1884:0.8829 1901:0.83340001 1953:0.83160001 2007:0.8775 2023:0.84420002 2024:0.89099997 2028:0.83880001 2034:0.8154 2057:0.83520001 2076:0.8757 2083:0.82980001 2088:0.87029999 2145:0.84329998 2157:0.82980001 2179:0.81809998 2205:0.8739 2243:0.88739997 2255:0.83880001 2285:0.83520001 2288:0.86489999 2291:0.89999998 2337:0.85769999 2349:0.85680002 2355:0.85500002 2364:0.85680002 2376:0.81809998 2385:0.8937 2417:0.82080001 2435:0.8775 2465:0.84689999 2476:0.82709998 2506:0.83429998 2507:0.84869999 2525:0.83340001 2554:0.84240001 2583:0.81269997 2588:0.86489999 2674:0.82980001 2701:0.84600002 2720:0.82080001 2729:0.82980001 2733:0.84600002 2756:0.8154 2792:0.84420002 2819:0.83789998 2824:0.81720001 2852:0.81809998 2896:0.83609998 2949:0.85500002 2956:0.84869999 2963:0.83609998 2964:0.85680002 2986:0.84600002 2991:0.81720001 3007:0.82800001 3033:0.8811 3071:0.85769999 3104:0.85140002 3106:0.87029999 3205:0.82620001 3213:0.88380003 3219:0.85769999 3226:0.87660003 3329:0.81269997 3393:0.84960002 3404:0.86669999 3414:0.85680002 3422:0.82980001 3446:0.86400002 3454:0.87029999 3534:0.84869999 3560:0.82529998 3561:0.89999998 3562:0.89999998 3563:0.89999998 3564:0.89999998 3565:0.89999998 #
-0.0071719973546823610061062836962265 3:0.99599999 10:0.99599999 18:0.95700002 19:0.986 195:0.94199997 382:0.98799998 384:0.93400002 494:0.98799998 853:0.95999998 898:0.91000003 911:0.991 914:0.921 927:0.93099999 928:0.94 986:0.95200002 995:0.93400002 1012:0.949 1018:0.91799998 1028:0.90899998 1080:0.95300001 1095:0.926 1107:0.96799999 1112:0.93300003 1122:0.93800002 1123:0.93000001 1146:0.954 1198:0.92799997 1262:0.926 1408:0.98199999 1478:0.90799999 1546:0.95300001 1631:0.96200001 1640:0.96200001 1672:0.97899997 1701:0.90799999 1734:0.977 1834:0.917 1963:0.93300003 2084:0.94700003 2107:0.92500001 2142:0.94 2145:0.92500001 2158:0.94599998 2272:0.96399999 2354:0.91799998 2408:0.91000003 2446:0.91100001 2448:0.94099998 2473:0.94599998 2476:0.96600002 2480:0.97000003 2486:0.92900002 2496:0.93800002 2634:0.97500002 2723:0.93800002 2732:0.96399999 2949:0.96200001 3071:0.92199999 3217:0.954 3272:0.93900001 3378:0.917 3602:0.93400002 3658:0.92799997 3789:0.917 3876:0.94400001 3973:0.91900003 4086:0.93000001 4127:0.94499999 4230:0.90499997 4541:0.96600002 4662:0.94199997 4726:0.93900001 4761:0.93300003 4781:0.977 4788:0.91600001 4822:0.97000003 5040:0.99599999 5041:0.96899998 5046:0.972 5052:0.98699999 5054:1 #
0.0071719973546823610061062836962265 7:0.86489999 8:0.8865 44:0.88919997 55:0.89279997 138:0.85769999 145:0.89999998 242:0.85860002 312:0.85589999 558:0.88200003 747:0.88919997 834:0.83429998 835:0.8739 841:0.85949999 847:0.87120003 862:0.83609998 875:0.85409999 876:0.82349998 879:0.86580002 880:0.87660003 881:0.82260001 891:0.81089997 898:0.86669999 907:0.82529998 911:0.89459997 912:0.86580002 914:0.83609998 921:0.82620001 927:0.83429998 934:0.85049999 938:0.85140002 996:0.83340001 1037:0.89279997 1039:0.8847 1041:0.83789998 1042:0.86040002 1072:0.85409999 1080:0.86309999 1086:0.86040002 1097:0.85680002 1109:0.84509999 1112:0.83880001 1137:0.84149998 1160:0.86669999 1167:0.86580002 1184:0.85229999 1202:0.85769999 1205:0.8136 1215:0.86309999 1225:0.86129999 1228:0.83969998 1242:0.8847 1251:0.82169998 1271:0.86849999 1283:0.84780002 1284:0.8757 1286:0.83789998 1299:0.84780002 1305:0.84509999 1306:0.85680002 1308:0.85680002 1313:0.83789998 1324:0.83609998 1334:0.88200003 1344:0.83789998 1421:0.83340001 1425:0.83249998 1446:0.88380003 1472:0.8919 1473:0.8757 1521:0.84780002 1525:0.84509999 1589:0.88020003 1590:0.89999998 1600:0.82889998 1602:0.88919997 1621:0.84780002 1638:0.8154 1657:0.81 1672:0.8811 1682:0.85140002 1684:0.88739997 1701:0.8793 1725:0.8775 1751:0.84060001 1831:0.84689999 1834:0.82620001 1909:0.82709998 1911:0.81089997 1985:0.83969998 2010:0.83340001 2031:0.85320002 2088:0.86220002 2142:0.83609998 2145:0.84420002 2211:0.82709998 2243:0.87480003 2291:0.8901 2355:0.81720001 2380:0.86400002 2426:0.84960002 2465:0.84600002 2468:0.8118 2496:0.85769999 2567:0.84960002 2589:0.81089997 2613:0.83520001 2686:0.87660003 2720:0.85500002 2727:0.8775 2733:0.85140002 2772:0.84960002 2790:0.81449997 2855:0.82349998 2866:0.86040002 2871:0.84149998 2872:0.85589999 2873:0.83609998 2905:0.84869999 2916:0.82349998 2948:0.88020003 2949:0.86220002 2964:0.86489999 2976:0.83609998 2995:0.84960002 3010:0.84689999 3045:0.83880001 3068:0.85229999 3071:0.82800001 3086:0.82529998 3103:0.82889998 3106:0.8739 3139:0.86400002 3146:0.85140002 3217:0.85409999 3272:0.84240001 3322:0.83249998 3337:0.81 3393:0.84149998 3414:0.82260001 3445:0.81720001 3491:0.83160001 3496:0.85320002 3507:0.86580002 3544:0.8829 3613:0.81629997 3664:0.83249998 3690:0.81900001 3702:0.84509999 3789:0.81089997 3798:0.84329998 3834:0.83609998 3848:0.83969998 3919:0.83880001 3926:0.8793 3953:0.83880001 4001:0.82260001 4053:0.83700001 4114:0.83249998 4150:0.81720001 4236:0.84420002 4248:0.82529998 4305:0.85049999 4306:0.81449997 4384:0.8919 4404:0.85500002 4533:0.82709998 4554:0.84509999 4582:0.82260001 4595:0.84600002 4656:0.82980001 4726:0.85049999 4802:0.82889998 4822:0.85320002 4825:0.84869999 4894:0.84149998 4940:0.87029999 4955:0.83700001 5003:0.84600002 5035:0.85320002 5041:0.85320002 5139:0.84329998 5156:0.83700001 5186:0.86849999 5205:0.82169998 5388:0.87029999 5399:0.86400002 5422:0.85949999 5437:0.85860002 5456:0.8136 5498:0.82260001 5508:0.81989998 5532:0.82980001 5540:0.81809998 5625:0.81 5705:0.85409999 5722:0.84509999 5767:0.88380003 5782:0.82349998 5850:0.84509999 5881:0.82349998 5891:0.8811 5933:0.8865 5966:0.83880001 6027:0.84960002 6098:0.83880001 6179:0.82169998 6204:0.8883 6207:0.83429998 6222:0.83069998 6383:0.82709998 6425:0.86669999 6455:0.82440001 6460:0.83429998 6643:0.81449997 6675:0.81720001 6708:0.83609998 6768:0.84149998 6772:0.86849999 6776:0.86849999 6777:0.81629997 6780:0.83340001 6801:0.83249998 6808:0.82349998 6822:0.87029999 6824:0.85949999 6878:0.89999998 6879:0.89999998 6880:0.89999998 6881:0.89999998 6882:0.89999998 #
-0.0024719423375431080237840664182158 75:1 101:0.98799998 138:0.95700002 356:0.95300001 398:0.986 411:0.97500002 707:0.94800001 747:0.93900001 824:0.95700002 831:0.958 835:0.93900001 872:0.99699998 879:0.99699998 880:0.96200001 891:0.917 919:0.912 928:0.94599998 938:0.93400002 947:0.94199997 958:0.96399999 959:0.94300002 1012:0.94599998 1018:0.92699999 1033:0.94300002 1034:0.91600001 1037:0.96700001 1040:0.96600002 1065:0.93099999 1086:0.958 1092:0.95499998 1095:0.92000002 1109:0.90600002 1123:0.91799998 1127:0.94800001 1146:0.95700002 1160:0.972 1168:0.93800002 1242:0.99699998 1259:0.97899997 1284:0.97299999 1390:0.95300001 1397:0.93400002 1418:0.93800002 1419:0.95999998 1421:0.93900001 1424:0.972 1425:0.96600002 1445:1 1451:0.93000001 1453:0.98299998 1473:0.97100002 1478:0.91399997 1488:0.93199998 1525:0.92699999 1546:0.91799998 1551:0.94400001 1592:0.91100001 1631:0.98000002 1640:0.96200001 1651:0.95999998 1682:0.95499998 1723:0.97000003 1725:0.97000003 1734:0.93400002 1740:0.93199998 1747:0.91000003 1771:0.93900001 1834:0.92500001 1872:0.95200002 1906:0.94499999 1907:0.98799998 1909:0.917 1916:0.92500001 1922:0.98100001 2023:0.94700003 2088:0.93699998 2135:0.92000002 2145:0.92000002 2146:0.95499998 2179:0.94099998 2193:0.92299998 2205:0.92900002 2243:0.94099998 2255:0.935 2288:0.93699998 2296:0.90899998 2306:0.99699998 2326:0.92500001 2337:0.97299999 2340:0.90899998 2366:0.94700003 2386:0.91100001 2388:0.99199998 2426:0.90600002 2428:0.92299998 2465:0.917 2480:0.963 2486:0.91500002 2505:0.95999998 2506:0.91299999 2524:0.95300001 2538:0.94700003 2564:0.93099999 2777:0.89999998 2789:0.98500001 2792:0.90799999 2804:0.926 2805:0.93199998 2869:0.903 2873:0.93099999 2899:0.90499997 2904:0.92000002 2972:0.90799999 2986:0.92199999 2997:0.97000003 3021:0.949 3039:0.99699998 3061:0.90399998 3071:0.93599999 3100:0.96200001 3106:0.96700001 3108:0.90700001 3136:0.94800001 3226:0.97399998 3240:0.92900002 3268:0.92400002 3285:0.93900001 3297:0.93699998 3329:0.91500002 3414:0.912 3613:0.958 3615:0.92799997 3644:0.90700001 3690:0.98100001 3738:0.98199999 3743:0.94199997 3789:0.95599997 3831:0.977 3848:0.94300002 3913:0.91100001 3969:0.92199999 4048:0.95300001 4067:0.93199998 4089:0.977 4099:0.94300002 4114:0.93000001 4156:0.903 4250:0.94199997 4307:0.98799998 4326:0.93199998 4356:0.94 4398:0.92900002 4410:0.89999998 4486:1 4489:1 4490:1 4491:1 #
0.0071719973546823610061062836962265 3:0.8919 10:0.89279997 44:0.87480003 152:0.85500002 219:0.88919997 244:0.8739 246:0.89639997 252:0.89639997 551:0.8118 702:0.89279997 746:0.8937 817:0.87840003 841:0.8955 880:0.86849999 891:0.82980001 934:0.86220002 956:0.8883 957:0.86129999 959:0.88200003 967:0.89999998 1025:0.81629997 1028:0.84600002 1041:0.85229999 1058:0.85320002 1070:0.88559997 1080:0.86040002 1089:0.85229999 1092:0.84869999 1103:0.82620001 1146:0.86940002 1147:0.84509999 1160:0.87660003 1167:0.86580002 1172:0.82889998 1215:0.87480003 1225:0.8775 1262:0.85409999 1287:0.89459997 1294:0.82169998 1297:0.82620001 1315:0.84149998 1320:0.85680002 1324:0.83880001 1330:0.81809998 1425:0.82800001 1429:0.85949999 1517:0.86580002 1521:0.85229999 1525:0.82980001 1586:0.81809998 1602:0.8865 1608:0.89459997 1621:0.83249998 1668:0.82620001 1682:0.85680002 1684:0.88739997 1701:0.88200003 1724:0.85949999 1725:0.87480003 1734:0.85860002 1784:0.84960002 1808:0.86040002 1882:0.8154 2031:0.85680002 2083:0.83789998 2088:0.85860002 2149:0.8901 2178:0.84780002 2229:0.86309999 2243:0.8775 2253:0.83069998 2380:0.86309999 2385:0.8883 2496:0.85229999 2521:0.8118 2524:0.86309999 2598:0.86669999 2686:0.86309999 2727:0.84149998 2733:0.84780002 2824:0.88559997 2825:0.85229999 2847:0.86309999 2852:0.8154 2855:0.82980001 2866:0.86040002 2916:0.82889998 2949:0.83520001 2955:0.82260001 2975:0.89459997 3011:0.88020003 3028:0.83969998 3106:0.8154 3172:0.8937 3217:0.85140002 3264:0.85769999 3393:0.83700001 3491:0.83340001 3594:0.81629997 3605:0.86940002 3699:0.84509999 3732:0.89999998 3737:0.86040002 3789:0.82800001 3998:0.83429998 4053:0.83700001 4070:0.82440001 4115:0.87300003 4234:0.83429998 4273:0.82080001 4372:0.83700001 4404:0.82440001 4540:0.83880001 4571:0.81089997 4580:0.81449997 4594:0.82980001 4595:0.87840003 4617:0.83520001 4626:0.84060001 4662:0.8118 4686:0.86040002 4696:0.8793 4726:0.85320002 4730:0.85229999 4764:0.84149998 4781:0.85229999 4782:0.82349998 4789:0.85140002 4822:0.85949999 4894:0.83880001 4919:0.83700001 4944:0.81720001 5041:0.85589999 5046:0.83429998 5097:0.85140002 5156:0.85500002 5186:0.83160001 5188:0.82889998 5346:0.86040002 5388:0.8757 5394:0.88739997 5405:0.82889998 5534:0.84240001 5593:0.81809998 5666:0.86220002 5767:0.8811 5799:0.84869999 5913:0.87300003 5933:0.8811 6027:0.89639997 6189:0.82980001 6204:0.86580002 6205:0.85409999 6212:0.8118 6289:0.84149998 6418:0.82889998 6460:0.82349998 6487:0.89999998 6591:0.8865 6601:0.8865 6614:0.84869999 6725:0.84600002 6754:0.82889998 6776:0.83160001 6783:0.83069998 6805:0.84960002 6817:0.82529998 6823:0.8136 6834:0.86400002 6862:0.81089997 6867:0.83069998 6880:0.84420002 6888:0.89999998 6889:0.89999998 6890:0.89999998 6891:0.89999998 #
0.0071719973546823610061062836962265 7:0.83069998 19:0.88739997 865:0.87660003 928:0.85680002 967:0.83520001 984:0.8739 1087:0.89999998 1088:0.89999998 1089:0.85949999 1146:0.85860002 1408:0.8721 1546:0.85320002 1589:0.87480003 1631:0.88739997 1701:0.88739997 1724:0.88380003 1734:0.86309999 1834:0.83520001 1872:0.85409999 2142:0.84600002 2506:0.81900001 2519:0.81089997 2533:0.85949999 2583:0.81269997 2825:0.81089997 2844:0.81629997 3007:0.86040002 3073:0.82980001 3079:0.88739997 3264:0.88200003 3279:0.89999998 #
-0.00085553616772719839802391339489418 2:0.958 17:0.94199997 30:0.98400003 40:1 44:0.99199998 152:0.986 204:0.98799998 219:0.98299998 319:0.95599997 453:0.96899998 543:0.98299998 853:0.95999998 872:0.99699998 879:0.99400002 880:0.98000002 891:0.96399999 911:0.99400002 927:0.949 928:0.95999998 934:0.93400002 949:0.977 958:0.98199999 959:0.98299998 997:0.98500001 1011:0.94199997 1016:0.91500002 1018:0.93000001 1040:0.92000002 1045:0.991 1060:0.926 1069:0.92900002 1070:0.98299998 1072:0.958 1076:0.93800002 1080:0.95899999 1086:0.96700001 1091:1 1095:0.926 1117:0.94099998 1127:0.94 1146:0.94599998 1160:0.98900002 1161:0.903 1166:0.94499999 1177:0.90200001 1189:0.97600001 1198:0.92699999 1203:0.92900002 1206:0.96200001 1262:0.91299999 1271:0.963 1280:0.935 1284:0.97600001 1330:0.91000003 1338:0.92500001 1355:0.95499998 1369:0.958 1386:0.91500002 1397:0.97799999 1408:0.99199998 1424:0.96600002 1432:0.96100003 1438:0.92299998 1473:0.977 1500:0.95499998 1534:0.93199998 1544:0.90200001 1546:0.96700001 1600:0.92199999 1623:0.95499998 1631:0.96200001 1638:0.94199997 1665:0.91900003 1680:0.97100002 1682:0.98000002 1684:0.91000003 1725:0.96899998 1734:0.95499998 1737:0.91100001 1740:0.91799998 1770:0.91299999 1782:0.93400002 1803:0.96899998 1816:0.935 1831:0.91299999 1834:0.92400002 1849:0.98400003 1852:0.99400002 1872:0.95200002 1901:0.935 1909:0.90799999 1910:0.92900002 1941:0.95099998 1952:0.91799998 1966:0.94 1995:0.90700001 2023:0.94099998 2024:0.93199998 2067:0.93099999 2102:0.95099998 2105:0.93099999 2107:1 2122:0.93800002 2134:0.90200001 2135:0.92500001 2142:0.94300002 2150:0.94499999 2190:0.90499997 2200:0.986 2222:0.91900003 2229:0.95499998 2243:0.97500002 2255:0.99199998 2259:0.93599999 2260:0.92000002 2267:0.95899999 2321:0.917 2337:0.94300002 2340:0.93900001 2354:0.93000001 2376:0.91500002 2446:0.94499999 2448:0.96399999 2451:0.912 2465:0.958 2468:0.93800002 2480:0.97000003 2484:0.95899999 2506:0.94 2527:0.958 2541:0.93400002 2562:0.91100001 2583:0.921 2602:0.92400002 2661:0.958 2713:0.91600001 2718:0.91100001 2724:0.92900002 2727:0.90899998 2801:0.93000001 2805:0.917 2826:0.92000002 2873:0.93199998 2889:0.92400002 2893:0.91500002 2911:0.96399999 2971:0.96399999 2987:0.94 2988:0.912 3009:0.91399997 3051:0.949 3061:0.91399997 3071:0.94700003 3104:0.935 3106:0.991 3108:0.94999999 3109:0.93199998 3123:0.94199997 3137:0.94800001 3151:0.93199998 3172:0.95700002 3179:0.92799997 3217:0.95899999 3218:0.94499999 3226:0.97000003 3263:0.91600001 3285:0.90600002 3294:0.96600002 3295:0.96499997 3329:0.90899998 3393:0.93800002 3414:0.91500002 3422:0.93000001 3477:0.94499999 3614:0.94199997 3622:0.97600001 3643:0.93099999 3644:0.94400001 3675:0.89999998 3687:0.92000002 3702:0.93599999 3703:0.99000001 3705:0.949 3716:0.90100002 3876:0.93300003 3910:0.92000002 3953:0.91299999 3965:0.935 3975:0.90100002 3976:0.98500001 4032:0.93699998 4067:0.95700002 4068:0.94800001 4072:0.96899998 4074:0.90100002 4086:0.94499999 4090:0.921 4099:0.972 4109:0.95999998 4114:0.95200002 4216:0.92199999 4221:0.91500002 4248:0.90899998 4359:0.97000003 4423:0.912 4428:0.92500001 4480:0.93400002 4536:0.93900001 4554:0.926 4558:0.95700002 4567:0.95499998 4614:0.95300001 4626:0.972 4662:0.926 4686:0.93300003 4725:0.94999999 4761:0.93099999 4781:0.95599997 4789:0.96899998 4806:0.90100002 4820:0.89999998 4822:0.95300001 4855:0.97399998 4894:0.935 4918:0.926 4958:0.92900002 4974:0.93599999 5041:0.95099998 5045:0.958 5052:0.92900002 5065:0.91399997 5072:0.94999999 5116:0.986 5117:0.949 5136:0.93699998 5139:0.94700003 5143:0.903 5144:0.97000003 5146:0.95499998 5156:0.96700001 5172:0.94099998 5180:0.92900002 5186:0.93900001 5188:0.96499997 5230:0.93199998 5231:0.926 5233:0.912 5239:0.95300001 5272:0.958 5344:0.92799997 5346:0.95300001 5394:0.98199999 5405:0.90700001 5408:0.912 5417:0.93800002 5456:0.90100002 5532:0.93300003 5571:0.97600001 5573:0.91900003 5625:0.95999998 5704:0.90100002 5705:0.958 5767:0.99699998 5775:0.94400001 5791:0.89999998 5792:0.95300001 5795:1 5798:0.95300001 5799:1 5800:1 5801:1 5802:1 5803:1 5804:1 5805:1 5806:1 5807:1 5808:1 5809:1 #
-0.0071719973546823610061062836962265 834:0.926 841:0.96100003 967:0.93400002 983:0.97100002 1087:1 1089:0.96499997 1225:0.96600002 1524:0.94 1668:0.93300003 1724:0.977 2178:0.93599999 2588:0.95499998 2824:0.98299998 2863:0.99699998 2964:0.94599998 3125:0.91500002 3126:0.991 #
-0.0071719973546823610061062836962265 152:0.986 242:0.97899997 638:0.92799997 831:0.98500001 835:0.97100002 840:0.95700002 872:0.97100002 876:0.92400002 879:0.98100001 880:0.95700002 891:0.92199999 896:0.92199999 898:0.93099999 908:0.90499997 931:0.93400002 934:0.95700002 958:0.986 959:0.98799998 976:0.96399999 986:0.98500001 1015:0.95499998 1022:0.95700002 1027:0.90700001 1069:0.92699999 1127:0.94 1160:0.98000002 1197:0.921 1206:0.97100002 1225:0.986 1259:0.96700001 1283:0.97600001 1296:0.99599999 1299:1 1305:0.93599999 1310:0.94 1317:0.95999998 1339:0.97899997 1345:0.91399997 1368:0.958 1383:0.98699999 1408:0.97100002 1423:0.93199998 1432:0.93800002 1450:0.94199997 1500:0.97500002 1514:0.94400001 1546:0.93599999 1571:0.93699998 1589:0.98000002 1600:0.94700003 1602:0.97600001 1623:0.96899998 1638:0.958 1657:0.93800002 1682:0.94400001 1684:0.98299998 1685:0.92400002 1688:0.94099998 1694:0.95899999 1701:0.97100002 1725:0.972 1762:0.93300003 1809:0.93000001 1892:0.912 1910:0.92199999 1916:0.93599999 1922:0.97799999 2041:0.92299998 2050:0.96600002 2057:0.94499999 2135:0.94199997 2142:0.95200002 2145:0.92299998 2179:0.93599999 2288:0.96799999 2372:0.949 2376:0.90399998 2402:0.91799998 2464:0.92500001 2465:0.94300002 2480:0.95700002 2539:0.96600002 2588:0.96100003 2619:0.90200001 2727:0.972 2792:0.93800002 2825:0.92900002 2832:0.90100002 2852:0.91100001 2935:0.986 2964:0.96399999 2987:0.91799998 2991:0.912 3006:0.92199999 3010:0.94300002 3058:0.90600002 3068:0.97500002 3071:0.92500001 3073:0.96600002 3086:0.90600002 3106:0.95200002 3233:0.921 3268:0.90700001 3322:0.912 3404:0.96700001 3414:0.91399997 3489:0.986 3496:0.94800001 3504:0.90700001 3507:0.963 3560:0.93300003 3601:0.93599999 3609:0.96899998 3613:0.94700003 3664:0.92500001 3702:0.93699998 3716:0.90799999 3722:0.93699998 3752:0.90799999 3762:0.90899998 3926:0.94800001 3959:1 3960:1 3961:1 3962:1 3963:1 3964:1 #
-0.0071719973546823610061062836962265 8:0.97500002 17:0.98699999 276:1 286:0.93400002 512:0.93800002 841:0.95200002 868:0.99400002 898:0.92400002 924:0.92799997 930:0.93000001 938:0.95999998 967:0.92000002 976:0.99699998 986:0.96100003 1087:1 1089:0.95200002 1146:0.95099998 1165:0.96799999 1310:0.90399998 1492:0.91600001 1521:0.94700003 1546:0.95099998 1548:0.92199999 1565:0.995 1701:0.97100002 1724:0.977 1766:0.92500001 1863:0.95899999 1875:0.95499998 2031:0.95099998 2145:0.93699998 2158:0.95499998 2190:0.91500002 2229:0.93400002 2324:0.98199999 2506:0.958 2573:0.94199997 2583:0.94800001 2598:0.92500001 2609:0.91000003 2612:0.96899998 2733:0.94599998 2754:0.93800002 2832:0.90100002 2844:0.95099998 2854:1 2855:1 #
0.0029505596994816966904817689965057 7:0.87840003 39:0.86580002 46:0.89639997 101:0.89279997 127:0.8883 170:0.89279997 177:0.89639997 196:0.88559997 205:0.84060001 219:0.88919997 230:0.81449997 242:0.89999998 246:0.8811 276:0.89999998 309:0.82709998 321:0.89639997 363:0.89999998 553:0.88919997 558:0.89639997 660:0.85680002 702:0.85769999 746:0.89639997 759:0.84240001 761:0.88200003 782:0.84240001 834:0.84060001 839:0.88380003 840:0.82440001 841:0.86220002 848:0.86580002 854:0.82980001 855:0.83880001 860:0.8973 861:0.85769999 862:0.89279997 863:0.84420002 864:0.8919 866:0.84960002 868:0.89999998 870:0.86489999 874:0.89459997 876:0.8973 879:0.84240001 887:0.88919997 897:0.8154 898:0.83609998 899:0.84420002 919:0.83789998 927:0.83429998 946:0.81449997 947:0.8136 949:0.8154 950:0.87300003 951:0.8865 958:0.84960002 959:0.83249998 964:0.85769999 966:0.83609998 967:0.89999998 968:0.89999998 969:0.89999998 970:0.89999998 971:0.89999998 972:0.89999998 973:0.89999998 974:0.89999998 975:0.89999998 976:0.89999998 977:0.89999998 978:0.89999998 979:0.89999998 980:0.89999998 981:0.89999998 982:0.89999998 983:0.89999998 984:0.89999998 985:0.89999998 986:0.89999998 987:0.89999998 988:0.89999998 989:0.89999998 990:0.89999998 991:0.89999998 992:0.89999998 #
0.0032976436536179252502487546649945 7:0.86040002 170:0.88559997 246:0.89279997 281:0.89999998 294:0.83609998 558:0.89279997 834:0.84600002 841:0.8775 855:0.83609998 898:0.82980001 972:0.82800001 978:0.83609998 986:0.86489999 1027:0.86309999 1089:0.84960002 1225:0.86669999 1251:0.82889998 1273:0.83880001 1305:0.83969998 1315:0.8829 1324:0.84060001 1326:0.88020003 1335:0.8118 1341:0.85140002 1563:0.85049999 1586:0.84060001 1589:0.87480003 1602:0.86760002 1615:0.82349998 1621:0.82080001 1657:0.84869999 1668:0.84420002 1694:0.82620001 1701:0.88739997 1725:0.8721 1784:0.84689999 1837:0.81900001 1925:0.83609998 1928:0.83069998 2031:0.8829 2038:0.85140002 2157:0.89999998 2178:0.83969998 2253:0.83880001 2380:0.85860002 2686:0.86940002 2699:0.8136 2812:0.81089997 2825:0.81449997 2834:0.82889998 2850:0.82709998 2860:0.89999998 2861:0.89999998 2862:0.89999998 2863:0.89999998 #
0.0071719973546823610061062836962265 3:0.8919 26:0.88380003 50:0.89999998 124:0.89639997 219:0.85949999 242:0.89639997 276:0.89279997 490:0.87300003 558:0.88919997 564:0.83969998 675:0.86940002 834:0.84060001 835:0.87120003 862:0.81269997 876:0.82080001 880:0.86580002 891:0.83520001 898:0.83160001 899:0.83249998 924:0.84240001 927:0.83789998 928:0.85140002 931:0.84869999 938:0.82440001 944:0.81720001 948:0.81900001 976:0.8955 986:0.87840003 1018:0.83160001 1027:0.82440001 1041:0.83249998 1086:0.82169998 1146:0.85320002 1165:0.83249998 1223:0.83160001 1225:0.87480003 1235:0.81989998 1245:0.81269997 1251:0.82620001 1259:0.85320002 1305:0.87480003 1310:0.8775 1315:0.8757 1324:0.84060001 1326:0.81 1334:0.8973 1408:0.87480003 1414:0.83429998 1546:0.85049999 1563:0.8811 1589:0.8775 1614:0.8973 1615:0.82529998 1626:0.84240001 1631:0.85860002 1657:0.8775 1668:0.84149998 1691:0.82349998 1701:0.84509999 1706:0.81 1725:0.86220002 1734:0.86580002 1762:0.83069998 1784:0.84689999 1809:0.83700001 1834:0.82529998 1837:0.82080001 1872:0.85409999 1892:0.81809998 1925:0.85409999 2023:0.84420002 2031:0.85320002 2047:0.8154 2050:0.86220002 2057:0.84689999 2142:0.84600002 2145:0.83340001 2157:0.82440001 2272:0.85140002 2399:0.82260001 2480:0.87300003 2506:0.83249998 2533:0.83160001 2573:0.84329998 2583:0.81269997 2591:0.8136 2593:0.8136 2609:0.81900001 2723:0.84240001 2744:0.87120003 2745:0.83160001 2765:0.88020003 2801:0.8136 2805:0.81269997 2831:0.89999998 #
-0.0071719973546823610061062836962265 7:0.972 44:0.98799998 101:0.98400003 219:0.98299998 242:0.99599999 244:0.99599999 246:0.99000001 345:0.98799998 363:0.99599999 586:0.977 765:0.99000001 828:0.96899998 834:0.935 840:0.99699998 855:0.90700001 876:0.99699998 903:0.90100002 928:0.926 953:0.991 969:0.926 986:0.97000003 1041:0.94999999 1140:0.95599997 1172:0.92900002 1211:0.91100001 1215:0.95899999 1225:0.94700003 1239:0.949 1259:0.98699999 1273:0.92299998 1288:0.95300001 1305:0.98299998 1315:0.98199999 1324:0.94999999 1336:0.93699998 1563:0.954 1602:0.93199998 1668:0.94300002 1675:0.94700003 1684:0.986 1691:0.94099998 1700:0.935 1701:0.97399998 1717:0.91000003 1725:0.97500002 1740:0.91000003 1757:0.95899999 1762:0.92799997 1784:0.93800002 1837:0.94199997 1925:0.963 2031:0.98400003 2211:0.97799999 2253:0.921 2314:0.91500002 2380:0.96499997 2521:0.93199998 2525:0.90899998 2532:0.94800001 2591:0.91500002 2593:0.90799999 2686:0.95300001 2792:0.90499997 2825:0.963 2850:0.94400001 2860:0.98199999 2865:0.921 2866:0.95899999 2902:0.98799998 2919:0.94999999 2961:0.91299999 3008:0.935 3058:0.90100002 3071:0.93099999 3086:0.96600002 3091:0.96899998 3145:0.91500002 3235:0.94199997 3268:0.92900002 3304:0.97399998 3322:0.935 3504:0.90799999 3506:0.98400003 3507:0.97299999 3601:0.94999999 3609:0.92699999 3677:0.95899999 3727:0.972 3952:0.96100003 3953:0.93199998 4023:0.995 4053:0.93699998 4070:0.92199999 4102:0.95599997 4115:1 4157:0.903 4307:0.991 4310:0.95700002 4312:0.986 4388:0.94099998 4404:0.94400001 4538:0.91000003 4580:0.92199999 4612:0.93400002 4617:0.93099999 4662:0.92500001 4934:0.91000003 5069:0.91600001 5156:0.94700003 5326:0.92799997 5422:0.93300003 5463:0.93599999 5534:0.94099998 6179:0.991 6189:0.91000003 6196:0.958 6198:0.94700003 6204:0.97600001 6205:1 6207:0.97299999 6209:1 6210:1 6211:1 6212:1 6213:1 6214:1 6215:1 #
-0.0071719973546823610061062836962265 13:0.98400003 24:0.98799998 34:0.98299998 76:0.96200001 655:0.96600002 872:0.99199998 876:0.926 879:0.96799999 880:0.98000002 891:0.92199999 949:0.97100002 956:0.94400001 958:0.93000001 959:0.96600002 986:0.958 1000:0.92400002 1018:0.92400002 1037:0.97399998 1040:0.93300003 1146:0.94599998 1160:0.96700001 1184:0.97100002 1186:0.91000003 1187:0.95700002 1225:0.94400001 1242:1 1259:0.99400002 1284:0.97299999 1348:0.99400002 1375:0.93699998 1408:0.972 1421:0.93599999 1425:0.91399997 1458:0.93099999 1462:0.96499997 1478:0.91100001 1527:0.94199997 1621:0.94599998 1640:0.96200001 1654:0.96799999 1668:0.93300003 1682:0.94199997 1699:0.90799999 1725:0.972 1735:0.977 1740:0.92900002 1741:0.94199997 1749:0.94300002 1762:0.91299999 1830:0.92699999 1895:0.90799999 1897:0.95499998 1922:0.917 2023:0.95300001 2145:0.91500002 2179:0.92199999 2229:0.94499999 2247:0.93300003 2339:0.90600002 2354:0.91000003 2380:0.95499998 2399:0.92199999 2480:0.94499999 2527:0.921 2532:0.92799997 2542:0.90799999 2690:0.90899998 2785:0.96399999 2802:0.921 2814:0.90200001 2964:0.95499998 2989:0.92799997 3021:0.97799999 3049:0.972 3073:0.90700001 3108:0.91399997 3168:0.91399997 3170:0.91500002 3191:0.963 3233:0.91000003 3239:0.92500001 3268:0.903 3289:0.92699999 3374:0.95200002 3410:0.90700001 3414:0.91000003 3454:0.94999999 3626:0.91600001 3743:0.95300001 3754:1 #
0.0071719973546823610061062836962265 2:0.8847 124:0.88200003 219:0.8775 757:0.87840003 834:0.83429998 872:0.89999998 875:0.86940002 880:0.84509999 908:0.8757 935:0.83340001 953:0.87660003 967:0.83880001 990:0.8973 1027:0.86040002 1069:0.83609998 1147:0.84509999 1205:0.84689999 1215:0.87480003 1280:0.84509999 1289:0.86760002 1315:0.8721 1324:0.83969998 1335:0.83429998 1492:0.83969998 1517:0.84780002 1521:0.84509999 1621:0.85320002 1638:0.8721 1677:0.86760002 1682:0.84600002 1701:0.87660003 1725:0.86669999 1738:0.84960002 1860:0.8721 1959:0.81269997 1966:0.84509999 2023:0.83609998 2031:0.85589999 2055:0.82169998 2135:0.84420002 2179:0.82889998 2265:0.81089997 2296:0.84509999 2465:0.84600002 2554:0.84240001 2686:0.87660003 2708:0.84420002 2855:0.82800001 2866:0.86309999 3059:0.81809998 3414:0.82620001 3976:0.8811 4053:0.83429998 4067:0.82800001 4070:0.82709998 4102:0.87029999 4263:0.87120003 4326:0.81900001 4329:0.85769999 4428:0.81449997 4458:0.86489999 4465:0.81629997 4546:0.81900001 4567:0.82529998 4589:0.83609998 4626:0.84329998 4903:0.87029999 5003:0.84060001 5156:0.84240001 5346:0.89099997 5511:0.85409999 5571:0.87840003 6057:0.84420002 6204:0.83160001 6289:0.82800001 6429:0.85229999 6491:0.85229999 6638:0.83520001 #
0.0071719973546823610061062836962265 138:0.86129999 244:0.89279997 655:0.8847 737:0.83609998 835:0.87120003 838:0.83249998 841:0.85949999 872:0.89999998 876:0.81809998 879:0.8901 880:0.86849999 889:0.89459997 891:0.85769999 912:0.87300003 927:0.83789998 928:0.84869999 934:0.83969998 947:0.82800001 953:0.8793 958:0.85500002 959:0.88739997 995:0.83789998 1037:0.8739 1067:0.84329998 1086:0.86940002 1146:0.85320002 1158:0.86669999 1160:0.8775 1177:0.8721 1181:0.81269997 1225:0.87480003 1260:0.85229999 1299:0.86489999 1308:0.86760002 1313:0.83069998 1375:0.85140002 1408:0.8721 1418:0.82620001 1420:0.87120003 1425:0.86220002 1435:0.81629997 1450:0.84060001 1454:0.85500002 1462:0.85769999 1500:0.8775 1507:0.84060001 1514:0.86940002 1517:0.85049999 1525:0.81989998 1546:0.84420002 1552:0.83340001 1563:0.85320002 1570:0.82169998 1589:0.87480003 1600:0.82980001 1618:0.82169998 1631:0.86849999 1638:0.84329998 1668:0.84689999 1669:0.8154 1671:0.8136 1682:0.87029999 1684:0.8865 1685:0.83160001 1717:0.86040002 1721:0.81 1723:0.86129999 1725:0.87480003 1734:0.86400002 1738:0.84329998 1740:0.83609998 1749:0.88739997 1762:0.83609998 1770:0.82980001 1771:0.8775 1796:0.8154 1809:0.83700001 1812:0.8118 1830:0.82889998 1837:0.83429998 1841:0.86129999 1842:0.83429998 1909:0.83249998 1918:0.84780002 1922:0.82260001 1959:0.84869999 1979:0.83520001 2023:0.84420002 2040:0.86129999 2135:0.85049999 2142:0.82800001 2178:0.86220002 2179:0.85500002 2288:0.85680002 2337:0.84960002 2339:0.81 2347:0.83700001 2348:0.82080001 2352:0.81720001 2376:0.82080001 2380:0.85409999 2426:0.83609998 2459:0.8136 2465:0.86489999 2473:0.85409999 2480:0.85320002 2486:0.82529998 2505:0.85140002 2515:0.81809998 2524:0.85589999 2533:0.85589999 2577:0.85500002 2588:0.86489999 2596:0.82080001 2690:0.84869999 2692:0.87660003 2762:0.83700001 2777:0.81269997 2802:0.84420002 2819:0.83700001 2899:0.83340001 2904:0.84240001 2933:0.82889998 2948:0.88020003 2964:0.86220002 2976:0.81989998 2979:0.83249998 2987:0.85500002 2991:0.82260001 2997:0.86220002 3021:0.88739997 3058:0.8136 3063:0.84420002 3071:0.83249998 3086:0.81989998 3103:0.82980001 3105:0.81809998 3108:0.83700001 3109:0.85320002 3123:0.84689999 3132:0.83520001 3158:0.83969998 3217:0.85409999 3252:0.85140002 3261:0.83520001 3262:0.85409999 3268:0.85140002 3272:0.84240001 3285:0.82709998 3288:0.89999998 3289:0.89999998 3290:0.89999998 3291:0.89999998 #
-0.0071719973546823610061062836962265 8:0.97100002 46:0.97600001 76:0.97000003 356:0.94099998 382:0.98799998 474:1 512:0.99599999 522:0.97299999 564:0.93800002 723:0.98400003 797:0.94800001 830:0.972 841:0.95499998 846:0.96799999 847:0.99400002 872:1 879:0.95599997 880:0.954 922:0.95099998 934:0.92000002 938:0.93699998 940:0.903 946:0.91399997 953:0.98500001 958:0.912 959:0.977 990:0.99400002 1018:0.92699999 1040:0.92400002 1091:1 1092:0.972 1097:0.95499998 1101:0.92000002 1109:0.93900001 1160:0.98299998 1165:0.96799999 1167:0.96200001 1177:0.90700001 1206:0.96499997 1271:0.96499997 1284:0.98199999 1299:0.94300002 1308:0.96100003 1313:0.93099999 1364:0.90799999 1408:0.96899998 1417:0.95099998 1420:0.98799998 1421:0.92900002 1440:0.94599998 1451:0.95200002 1467:0.96700001 1473:0.97299999 1499:0.94199997 1521:0.917 1525:0.92699999 1546:0.92799997 1582:0.972 1589:0.98000002 1590:0.99400002 1614:0.92199999 1621:0.94300002 1631:0.96499997 1638:0.912 1665:0.903 1671:0.99699998 1682:0.949 1725:0.96899998 1749:0.94800001 1829:0.954 1834:0.92000002 1859:0.95300001 1874:0.98000002 1882:0.93199998 1884:0.97299999 1896:0.917 1897:0.95700002 1922:0.97799999 1961:0.92699999 2007:0.97000003 2025:0.92199999 2076:0.93099999 2083:0.93099999 2145:0.92299998 2157:0.92199999 2198:0.93599999 2229:0.94499999 2243:0.94400001 2376:0.90399998 2380:0.926 2435:0.98000002 2465:0.94300002 2476:0.926 2480:0.94499999 2588:0.96100003 2733:0.93900001 2852:0.91399997 2855:0.92299998 2964:0.96399999 2966:0.91600001 2974:0.95599997 2995:0.94400001 3011:0.97500002 3039:0.94099998 3088:0.90700001 3179:0.93099999 3217:0.93199998 3396:0.94599998 3405:0.99400002 3414:0.91900003 3517:0.96700001 3614:0.90899998 3626:0.93599999 3750:0.95700002 3969:0.917 4000:0.98299998 4032:0.94 4067:0.97100002 4105:0.93000001 4137:0.97399998 4174:1 4175:1 4176:1 4177:1 #
0.0071719973546823610061062836962265 249:0.8955 655:0.85409999 746:0.8937 841:0.84689999 865:0.85320002 958:0.82980001 1146:0.8955 1462:0.84509999 2692:0.8919 2732:0.82260001 2740:0.89999998 2741:0.89999998 2742:0.89999998 #
-0.0033555861250351578205231017903998 3:0.99599999 10:0.99599999 23:0.99199998 30:0.98000002 40:0.95499998 86:0.98000002 190:0.95899999 248:0.977 382:0.98000002 449:0.95899999 452:0.92400002 716:0.92199999 865:0.98000002 911:0.99000001 928:0.926 953:0.98100001 995:0.972 1000:0.95499998 1028:0.93000001 1080:0.972 1095:0.91100001 1109:0.90100002 1118:0.93400002 1146:0.93800002 1166:0.94400001 1262:0.91799998 1408:1 1473:0.97600001 1546:0.94300002 1631:0.95999998 1640:0.97600001 1645:0.96600002 1672:0.97600001 1694:0.95999998 1701:0.97299999 1734:0.98000002 1834:0.91100001 1869:0.93300003 1872:0.94700003 1913:0.99000001 1963:0.91399997 2142:0.93099999 2201:0.91100001 2229:0.96200001 2272:0.89999998 2448:0.95099998 2473:0.96200001 2480:0.94 2533:0.94999999 2573:0.94099998 2723:0.958 2732:0.97100002 2733:0.91900003 2844:0.90600002 2873:0.94800001 3104:0.903 3217:0.995 3482:0.926 3602:0.98100001 3732:0.98100001 3876:0.93000001 4404:0.94800001 4541:0.94300002 4595:0.98000002 4614:0.96600002 4626:0.98299998 4726:0.92699999 4730:0.977 4761:0.912 4781:0.99299997 4788:0.94700003 4797:0.912 4816:0.92000002 4822:1 4928:0.93599999 5038:0.98500001 5039:0.958 5040:0.98699999 5041:0.99199998 5045:1 5046:1 5047:1 5048:1 #
-0.0013835765731245854102265946394823 8:0.97399998 13:0.99599999 58:0.93699998 283:0.935 337:0.92799997 462:0.99599999 512:0.93400002 771:0.98699999 832:0.93099999 872:1 879:0.99199998 880:0.977 890:0.94700003 891:0.95899999 898:0.90899998 907:0.92799997 927:0.94 934:0.93199998 938:0.94199997 958:0.90899998 959:0.94099998 990:0.99699998 1005:0.95099998 1016:0.90100002 1018:0.921 1025:0.96200001 1029:0.94099998 1037:0.97399998 1042:0.93699998 1058:0.95999998 1069:0.92400002 1086:0.97500002 1122:0.92699999 1146:0.95700002 1160:0.99000001 1177:0.95200002 1184:0.97500002 1189:0.977 1206:0.96799999 1215:0.90899998 1242:0.98299998 1259:0.93300003 1268:0.91399997 1280:0.94499999 1283:0.94400001 1284:0.97600001 1289:0.95599997 1312:0.92500001 1386:0.93099999 1404:0.92000002 1408:0.977 1411:0.93800002 1418:0.92400002 1425:0.97500002 1432:0.97600001 1450:0.94 1453:0.94499999 1458:0.93699998 1468:0.917 1473:0.97899997 1476:0.92900002 1500:0.95300001 1514:0.98299998 1524:0.92500001 1527:0.95099998 1536:0.921 1542:0.94199997 1546:0.94800001 1558:0.90799999 1600:0.93599999 1621:0.94599998 1623:0.96799999 1631:0.96200001 1638:0.95899999 1659:0.93300003 1669:0.91799998 1682:0.95499998 1686:0.90700001 1694:0.93099999 1701:0.97000003 1723:0.92199999 1725:0.963 1735:0.97399998 1740:0.93199998 1741:0.92900002 1747:0.90100002 1750:0.92699999 1751:0.93400002 1768:0.91299999 1770:0.94400001 1775:0.92900002 1830:0.95999998 1850:0.90799999 1854:0.903 1959:0.93599999 1966:0.91500002 2023:0.94099998 2024:0.949 2040:0.94499999 2071:0.93699998 2132:0.93699998 2135:0.94499999 2142:0.926 2179:0.935 2193:0.92799997 2243:0.95499998 2255:0.926 2256:0.90700001 2259:0.90799999 2265:0.94300002 2267:0.93699998 2276:0.91000003 2288:0.95200002 2296:0.90799999 2321:0.96100003 2331:0.90600002 2340:0.95300001 2347:0.935 2366:0.963 2426:0.92199999 2428:0.90899998 2431:0.92500001 2438:0.94800001 2459:0.986 2464:0.93699998 2465:0.94700003 2480:0.94800001 2483:0.89999998 2515:0.97299999 2525:0.92799997 2538:0.94099998 2545:0.96200001 2546:0.92900002 2548:0.95599997 2604:0.96799999 2618:0.917 2690:0.98100001 2724:0.90399998 2733:0.94 2750:0.92199999 2775:0.93000001 2777:0.90600002 2792:0.94999999 2807:0.90200001 2871:0.94800001 2893:0.903 2903:0.93599999 2904:0.93000001 2905:0.95599997 2910:0.935 2964:0.95499998 2969:0.94499999 2986:0.94300002 2987:0.93900001 2991:0.91600001 3021:0.95200002 3045:0.90899998 3049:0.98500001 3056:0.93400002 3058:0.91000003 3068:0.95499998 3071:0.92199999 3073:0.94199997 3104:0.95300001 3105:0.92199999 3106:0.95300001 3108:0.93699998 3109:0.94599998 3112:0.91100001 3123:0.94999999 3157:0.90100002 3162:0.92900002 3166:0.94199997 3167:0.91900003 3186:0.90100002 3204:0.91399997 3205:0.90799999 3208:0.91000003 3217:0.949 3226:0.97100002 3272:0.95999998 3284:0.92000002 3285:0.90200001 3323:0.94199997 3329:0.92000002 3374:0.96399999 3414:0.94099998 3433:0.912 3449:0.958 3454:0.97600001 3477:0.91299999 3498:0.94400001 3583:0.921 3613:0.96799999 3614:0.96200001 3615:0.94700003 3629:0.921 3690:0.98199999 3702:0.94199997 3703:0.97299999 3705:0.93900001 3708:0.92799997 3711:0.91100001 3722:0.97000003 3726:0.91100001 3738:0.96799999 3743:0.94199997 3750:0.95700002 3762:0.90399998 3789:0.92299998 3897:0.90399998 3908:0.935 3913:0.91399997 3919:0.94800001 3969:0.92000002 3983:0.90100002 4056:0.91100001 4067:0.97600001 4070:0.91900003 4074:0.96700001 4079:1 4080:1 4081:1 4082:1 4083:1 4084:1 4085:1 #
0.0071719973546823610061062836962265 3:0.8955 68:0.86040002 197:0.85949999 219:0.88919997 242:0.89999998 252:0.89639997 314:0.89639997 707:0.8937 737:0.84600002 817:0.8793 835:0.8739 836:0.85769999 841:0.85949999 876:0.81809998 879:0.83249998 889:0.88020003 891:0.86400002 919:0.82349998 927:0.83429998 928:0.84600002 931:0.84329998 934:0.85409999 938:0.84240001 958:0.86849999 959:0.84960002 986:0.85140002 1023:0.85949999 1037:0.86849999 1071:0.87300003 1086:0.84509999 1095:0.83520001 1123:0.82620001 1146:0.84329998 1160:0.84240001 1184:0.8919 1206:0.84960002 1215:0.82080001 1239:0.84960002 1259:0.88739997 1260:0.85860002 1294:0.85949999 1299:0.85500002 1305:0.84509999 1355:0.82529998 1360:0.8793 1408:0.87480003 1424:0.85949999 1432:0.86309999 1492:0.8136 1499:0.84149998 1521:0.84869999 1525:0.82709998 1546:0.84780002 1563:0.86129999 1589:0.87840003 1602:0.86760002 1631:0.86849999 1640:0.8775 1645:0.85680002 1668:0.88739997 1682:0.85949999 1701:0.8739 1725:0.87029999 1740:0.81629997 1784:0.84689999 1809:0.83969998 1838:0.82080001 1872:0.85860002 1875:0.84780002 1909:0.82709998 1910:0.82529998 1916:0.84420002 1922:0.8973 1976:0.83789998 2023:0.85229999 2065:0.81809998 2102:0.86400002 2142:0.83609998 2145:0.83069998 2211:0.83429998 2216:0.84600002 2272:0.82260001 2288:0.84329998 2305:0.8154 2314:0.83340001 2348:0.83340001 2399:0.83520001 2448:0.81809998 2465:0.84329998 2480:0.86940002 2506:0.82980001 2521:0.83160001 2524:0.87660003 2588:0.86489999 2589:0.82260001 2591:0.82800001 2593:0.82169998 2612:0.85589999 2723:0.83789998 2792:0.83160001 2841:0.83069998 2844:0.84780002 2855:0.83069998 2870:0.87120003 2899:0.82349998 2905:0.81809998 2943:0.82080001 2960:0.83160001 2964:0.86489999 3070:0.86220002 3071:0.84509999 3075:0.83249998 3086:0.81989998 3091:0.83969998 3106:0.84149998 3137:0.85500002 3180:0.81269997 3235:0.85049999 3239:0.81720001 3263:0.84509999 3267:0.84060001 3268:0.82349998 3285:0.8136 3294:0.82620001 3323:0.82800001 3414:0.82529998 3504:0.81269997 3506:0.84600002 3507:0.87120003 3602:0.82620001 3609:0.83969998 3629:0.86220002 3690:0.83700001 3789:0.81720001 3798:0.82080001 3876:0.85049999 3969:0.83069998 4020:0.8136 4032:0.84060001 4067:0.83520001 4074:0.81720001 4137:0.87840003 4167:0.84329998 4236:0.81449997 4307:0.83160001 4310:0.85860002 4312:0.8793 4336:0.89999998 4337:0.89999998 4338:0.89999998 4339:0.89999998 4340:0.89999998 #
0.0071719973546823610061062836962265 2:0.87300003 15:0.8739 94:0.87120003 841:0.85949999 868:0.87300003 872:0.89999998 879:0.85860002 880:0.86580002 889:0.88919997 891:0.85589999 896:0.83789998 898:0.83520001 908:0.85140002 920:0.82709998 927:0.83789998 928:0.84780002 934:0.86669999 947:0.8136 952:0.81 953:0.87029999 957:0.84240001 958:0.86760002 959:0.8919 986:0.87300003 1034:0.83520001 1046:0.85320002 1069:0.86580002 1092:0.85140002 1117:0.82440001 1146:0.86669999 1205:0.84689999 1206:0.87120003 1209:0.87480003 1215:0.85229999 1225:0.84149998 1249:0.82889998 1262:0.84329998 1284:0.86400002 1367:0.83880001 1368:0.8973 1370:0.83880001 1408:0.87480003 1424:0.85140002 1432:0.85769999 1473:0.88739997 1480:0.85680002 1500:0.8721 1506:0.81629997 1517:0.86040002 1600:0.85500002 1602:0.8883 1623:0.87840003 1631:0.86849999 1638:0.86400002 1677:0.8811 1678:0.84329998 1682:0.85409999 1686:0.83880001 1688:0.81989998 1701:0.86669999 1738:0.85589999 1747:0.8136 1768:0.83969998 1770:0.84329998 1831:0.84420002 1860:0.8154 1875:0.82260001 1901:0.83340001 1922:0.89279997 1925:0.82349998 2023:0.83880001 2025:0.82529998 2067:0.84329998 2135:0.84329998 2142:0.84600002 2145:0.82800001 2179:0.83880001 2260:0.8136 2267:0.85769999 2295:0.83069998 2296:0.82800001 2319:0.86669999 2321:0.82440001 2343:0.85589999 2380:0.86580002 2438:0.82709998 2464:0.83249998 2465:0.89459997 2468:0.83880001 2476:0.83429998 2480:0.85320002 2483:0.83340001 2484:0.85769999 2522:0.82260001 2525:0.85680002 2588:0.86760002 2690:0.85140002 2744:0.84060001 2749:0.81720001 2787:0.83429998 2792:0.81449997 2819:0.83069998 2832:0.81089997 2893:0.82620001 2899:0.82080001 2904:0.83969998 2971:0.85949999 2976:0.83520001 2987:0.83789998 2991:0.81989998 3010:0.83520001 3051:0.82260001 3058:0.82440001 3068:0.86040002 3071:0.83249998 3103:0.83160001 3106:0.85409999 3108:0.82349998 3109:0.83160001 3123:0.85229999 3137:0.85320002 3151:0.83700001 3158:0.83969998 3186:0.83789998 3212:0.86309999 3217:0.85409999 3226:0.84420002 3235:0.84600002 3236:0.83880001 3284:0.84960002 3285:0.81449997 3329:0.83069998 3414:0.84780002 3489:0.86400002 3560:0.84869999 3583:0.81269997 3602:0.84509999 3687:0.8847 3702:0.84329998 3703:0.8721 3728:0.81449997 3729:0.85949999 3732:0.85049999 3798:0.81269997 3913:0.82800001 3976:0.87300003 3985:0.85949999 4067:0.84060001 4072:0.8811 4099:0.86489999 4114:0.84960002 4127:0.87660003 4172:0.82169998 4206:0.84149998 4254:0.89999998 4255:0.89999998 4256:0.89999998 #
-0.0071719973546823610061062836962265 1:0.98699999 12:0.94800001 102:0.963 275:0.97100002 558:0.97600001 632:0.91799998 707:0.98900002 832:0.94199997 835:0.977 862:0.97600001 898:0.92199999 911:0.98799998 912:0.97000003 914:0.93900001 928:0.94300002 931:0.94599998 934:0.958 956:0.90600002 986:0.958 996:0.935 1005:0.95499998 1022:0.949 1037:0.977 1042:0.97399998 1050:0.96399999 1055:0.917 1060:0.91600001 1065:0.94599998 1071:0.97799999 1072:0.958 1082:0.91399997 1086:0.90200001 1095:0.92799997 1107:0.93300003 1160:0.94999999 1180:0.92799997 1197:0.92400002 1234:0.926 1251:0.94999999 1284:0.94599998 1299:0.97600001 1305:0.93599999 1324:0.92299998 1334:0.91799998 1375:0.91900003 1403:0.98199999 1404:0.903 1408:0.96899998 1421:0.92500001 1423:0.986 1525:0.912 1526:0.92299998 1539:0.91500002 1552:0.95899999 1589:0.98299998 1604:0.93800002 1615:0.90600002 1621:0.94300002 1631:0.97799999 1651:0.94700003 1665:0.91100001 1672:0.95499998 1674:0.92699999 1685:0.91799998 1725:0.95499998 1734:0.93400002 1735:0.95200002 1749:0.96600002 1775:0.92000002 1841:0.92400002 1842:0.92400002 1890:0.96200001 2002:0.91399997 2031:0.94499999 2116:0.935 2142:0.93199998 2232:0.96399999 2236:0.99400002 2255:0.95700002 2366:0.96600002 2388:0.917 2441:0.991 2496:0.93199998 2505:0.949 2588:0.96100003 2732:0.93900001 2755:0.91299999 2768:0.92199999 2834:0.90700001 2852:0.91399997 2893:0.91100001 2905:0.94400001 2910:0.92799997 2914:0.93099999 2921:0.93400002 2928:0.926 2931:0.917 2933:0.921 2948:0.986 2949:0.96100003 2964:0.96700001 2971:0.93400002 2976:0.94499999 2986:0.94 2991:0.91100001 3020:0.92000002 3042:0.91399997 3058:0.92400002 3071:0.958 3086:0.91100001 3104:0.92799997 3106:0.91399997 3109:0.977 3129:0.94700003 3137:0.94499999 3219:0.90899998 3235:0.95300001 3271:1 3272:1 3273:1 3274:1 #
-0.0071719973546823610061062836962265 7:0.96700001 44:0.98799998 114:0.98299998 310:0.98699999 702:0.949 765:0.96600002 832:0.92199999 834:0.926 835:0.97399998 840:0.96200001 841:0.958 888:0.986 891:0.93400002 898:0.92400002 941:0.949 953:0.986 967:0.986 983:0.93199998 986:0.958 987:0.92500001 1022:0.90100002 1109:0.94 1205:0.93599999 1215:0.94800001 1225:0.97899997 1260:0.92400002 1307:1 1311:0.93099999 1324:0.93400002 1347:0.92199999 1524:0.96100003 1525:0.91900003 1529:0.92199999 1600:0.90600002 1602:0.98500001 1668:0.93699998 1690:0.94499999 1691:0.95200002 1701:0.97399998 1725:0.972 1740:0.90700001 1809:0.93000001 1925:0.94300002 1953:0.91100001 1977:0.90700001 2157:1 2253:0.92900002 2521:0.96499997 2587:0.96200001 2720:0.94800001 2727:0.94300002 2792:0.90799999 2825:0.96899998 2852:0.92000002 2866:0.95899999 2899:0.93400002 2914:0.95099998 2964:0.92400002 2979:0.94599998 3071:0.93099999 3073:0.92900002 3084:0.91799998 3097:0.93099999 3098:0.97299999 3099:0.90899998 3101:1 3102:1 #
0.0071719973546823610061062836962265 3:0.8919 50:0.89639997 124:0.89279997 196:0.85680002 242:0.89639997 276:0.88919997 343:0.88020003 490:0.82529998 558:0.88559997 564:0.83969998 827:0.89639997 834:0.83340001 835:0.87120003 865:0.8829 876:0.82080001 880:0.87120003 891:0.83520001 898:0.83700001 924:0.84240001 927:0.83789998 928:0.84869999 930:0.83249998 931:0.84060001 976:0.8973 986:0.87300003 1015:0.8757 1018:0.83429998 1039:0.8901 1041:0.8136 1146:0.85320002 1165:0.83969998 1225:0.85680002 1235:0.82529998 1239:0.81629997 1251:0.83160001 1262:0.83609998 1305:0.84509999 1310:0.82620001 1324:0.83880001 1326:0.85320002 1334:0.8973 1408:0.87660003 1414:0.83429998 1546:0.85320002 1563:0.85860002 1573:0.85409999 1589:0.87840003 1614:0.89999998 1615:0.82349998 1626:0.84240001 1631:0.88020003 1657:0.8775 1668:0.84149998 1691:0.82620001 1701:0.85589999 1725:0.86220002 1734:0.85860002 1762:0.83880001 1809:0.83700001 1814:0.84509999 1837:0.81809998 1872:0.85140002 1878:0.81 1892:0.82349998 1916:0.83789998 1918:0.86760002 2023:0.84420002 2031:0.87029999 2057:0.83789998 2142:0.84600002 2145:0.84689999 2190:0.81629997 2211:0.86760002 2212:0.8118 2279:0.84329998 2399:0.86309999 2480:0.86940002 2506:0.83789998 2583:0.81269997 2589:0.8136 2591:0.8136 2593:0.81720001 2598:0.81900001 2609:0.81629997 2723:0.84509999 2765:0.86849999 2832:0.89999998 2833:0.89999998 2834:0.89999998 2835:0.89999998 #
0.0071719973546823610061062836962265 3:0.8919 138:0.88559997 591:0.88919997 835:0.87120003 841:0.85680002 872:0.8973 879:0.8721 880:0.89459997 891:0.83520001 892:0.81720001 911:0.8919 927:0.84869999 928:0.86849999 934:0.85140002 948:0.83969998 957:0.85860002 958:0.83609998 959:0.87120003 986:0.85409999 1025:0.83069998 1042:0.86129999 1060:0.81720001 1069:0.84689999 1080:0.87300003 1086:0.86940002 1117:0.81089997 1146:0.85320002 1160:0.89279997 1166:0.85860002 1231:0.82440001 1259:0.88200003 1262:0.87480003 1294:0.82260001 1355:0.85320002 1404:0.82800001 1408:0.87480003 1418:0.82080001 1425:0.86040002 1432:0.85500002 1438:0.81269997 1450:0.83520001 1453:0.85049999 1458:0.85680002 1473:0.86309999 1496:0.85769999 1506:0.8136 1515:0.86669999 1517:0.86309999 1546:0.85320002 1564:0.8118 1600:0.83249998 1602:0.85500002 1621:0.85409999 1631:0.8865 1651:0.83789998 1669:0.82349998 1682:0.85769999 1689:0.82080001 1701:0.85589999 1725:0.8739 1784:0.81809998 1831:0.84960002 1832:0.82709998 1834:0.85229999 1838:0.84420002 1872:0.8721 1909:0.82800001 1959:0.83520001 1966:0.82620001 1995:0.83160001 2067:0.83609998 2074:0.8955 2135:0.82080001 2142:0.85229999 2178:0.81720001 2205:0.85949999 2236:0.83789998 2293:0.81989998 2296:0.81989998 2399:0.81720001 2419:0.83969998 2426:0.83789998 2448:0.85500002 2464:0.83249998 2480:0.86669999 2506:0.85860002 2524:0.84509999 2533:0.84869999 2538:0.82800001 2541:0.82440001 2554:0.84240001 2690:0.84240001 2720:0.83340001 2723:0.83789998 2744:0.8154 2841:0.82260001 2893:0.81449997 2905:0.88559997 2995:0.85860002 3029:0.8154 3105:0.84600002 3106:0.85680002 3123:0.84780002 3136:0.83789998 3226:0.86489999 3294:0.84689999 3414:0.85229999 3417:0.8118 3422:0.84509999 3494:0.82889998 3560:0.83069998 3602:0.83700001 3654:0.8118 3655:0.86489999 3661:0.81720001 3676:0.87120003 3703:0.89099997 3705:0.81269997 3732:0.87480003 3798:0.81720001 3876:0.84689999 3878:0.83340001 3952:0.85769999 3976:0.86580002 4048:0.84869999 4058:0.83789998 4083:0.82529998 4099:0.83609998 4114:0.86220002 4218:0.82620001 4291:0.82349998 4299:0.82620001 4451:0.84509999 4474:0.89999998 4475:0.89999998 #
0.0071719973546823610061062836962265 7:0.86760002 170:0.88559997 242:0.8847 246:0.89639997 281:0.89999998 553:0.84689999 558:0.88919997 702:0.85769999 834:0.84060001 841:0.8973 855:0.83340001 898:0.82440001 972:0.82800001 978:0.83609998 984:0.87029999 986:0.86220002 1027:0.86309999 1089:0.85949999 1131:0.8973 1172:0.84960002 1225:0.85680002 1235:0.81989998 1251:0.82889998 1273:0.83880001 1305:0.83969998 1315:0.8775 1324:0.84060001 1563:0.85589999 1589:0.87480003 1590:0.85320002 1602:0.8865 1621:0.82080001 1657:0.82800001 1668:0.84149998 1691:0.86400002 1701:0.88739997 1724:0.85229999 1725:0.8721 1784:0.84689999 1837:0.82889998 1925:0.85680002 1928:0.84329998 2031:0.87300003 2038:0.85140002 2157:0.89999998 2178:0.84420002 2253:0.84060001 2380:0.85949999 2686:0.86400002 2699:0.82080001 2822:0.81 2834:0.82620001 2860:0.89999998 2861:0.89459997 2863:0.88919997 2864:0.89999998 2865:0.89999998 2866:0.89999998 2867:0.89999998 2868:0.89999998 #
-0.0071719973546823610061062836962265 44:0.99199998 840:0.95999998 864:0.98500001 868:0.99400002 931:0.94300002 967:0.93199998 978:0.92699999 1087:0.99599999 1089:0.95499998 1146:0.93099999 1348:0.99699998 1566:0.90399998 1703:0.93000001 1724:1 #
-0.0071719973546823610061062836962265 3:0.991 449:0.97100002 876:0.95200002 927:0.93099999 967:0.92000002 1087:1 1089:0.95499998 1165:0.954 1408:0.97399998 1564:0.90200001 1569:0.97600001 1724:0.977 2048:0.90899998 2279:0.97100002 2480:0.95099998 2723:0.93900001 3238:0.92799997 3264:1 #
-0.0071719973546823610061062836962265 841:0.94700003 868:0.99400002 949:0.95499998 957:0.94499999 986:0.958 1146:0.94300002 1324:0.92699999 1496:0.99000001 1517:0.96100003 1701:0.95899999 2102:0.95099998 2462:0.917 2524:0.95099998 2686:0.97399998 3732:0.99599999 4127:0.94999999 4129:0.95099998 #
0.0071719973546823610061062836962265 44:0.88919997 63:0.89639997 75:0.89999998 196:0.89279997 198:0.8775 234:0.83160001 292:0.85229999 312:0.84960002 591:0.87840003 655:0.86940002 832:0.82080001 835:0.85049999 836:0.83249998 841:0.85500002 844:0.86040002 848:0.87660003 879:0.85949999 880:0.87660003 889:0.85049999 891:0.83880001 907:0.84869999 922:0.87120003 923:0.86849999 934:0.86220002 949:0.8847 953:0.87660003 958:0.82709998 959:0.84960002 962:0.84329998 996:0.83969998 997:0.84240001 1005:0.82800001 1014:0.86580002 1022:0.85229999 1029:0.85320002 1040:0.85680002 1041:0.85769999 1042:0.87480003 1055:0.82169998 1069:0.82349998 1071:0.87029999 1078:0.83969998 1158:0.84780002 1165:0.8793 1167:0.88380003 1177:0.8775 1215:0.86940002 1225:0.8721 1259:0.8757 1273:0.83340001 1315:0.8757 1324:0.82620001 1330:0.81629997 1335:0.82349998 1364:0.82620001 1386:0.82889998 1394:0.85320002 1403:0.89639997 1406:0.8118 1418:0.8136 1432:0.85320002 1462:0.85049999 1473:0.8811 1500:0.86040002 1514:0.8955 1527:0.81989998 1546:0.85860002 1600:0.86220002 1621:0.83969998 1623:0.8721 1658:0.82169998 1664:0.84240001 1665:0.81809998 1668:0.84869999 1669:0.82889998 1678:0.84060001 1682:0.89639997 1717:0.81900001 1725:0.8775 1734:0.84329998 1735:0.87029999 1747:0.82889998 1749:0.88380003 1784:0.84329998 1837:0.83700001 1901:0.82889998 1925:0.85680002 1979:0.82709998 2031:0.85860002 2067:0.83609998 2128:0.82980001 2158:0.82169998 2179:0.8154 2236:0.82529998 2255:0.82800001 2337:0.86669999 2340:0.84689999 2376:0.8136 2380:0.8721 2464:0.81089997 2465:0.86760002 2468:0.81449997 2483:0.84240001 2493:0.81809998 2501:0.84060001 2554:0.85229999 2557:0.85229999 2583:0.82709998 2623:0.8919 2686:0.85320002 2727:0.83069998 2733:0.84869999 2812:0.82620001 2819:0.83880001 2866:0.85860002 2914:0.85049999 2919:0.84420002 2921:0.89999998 2949:0.85140002 2986:0.85589999 2991:0.84060001 2992:0.82980001 2995:0.84689999 3016:0.85229999 3019:0.82800001 3025:0.88739997 3029:0.81809998 3037:0.8883 3051:0.82169998 3058:0.84600002 3068:0.87300003 3071:0.83249998 3084:0.83609998 3108:0.82080001 3109:0.85680002 3176:0.81449997 3186:0.83069998 3216:0.86040002 3235:0.81809998 3262:0.85680002 3289:0.84329998 3329:0.81989998 3356:0.85589999 3414:0.85229999 3453:0.85140002 3472:0.86129999 3578:0.81809998 3665:0.83700001 3690:0.86940002 3702:0.86489999 3708:0.81449997 3719:0.81449997 3722:0.87300003 3725:0.85500002 3828:0.82709998 3884:0.82709998 3900:0.87840003 3947:0.84869999 3948:0.84420002 3949:0.89459997 3951:0.89999998 3952:0.87029999 3953:0.85320002 3955:0.89999998 3956:0.89999998 3957:0.89999998 3958:0.89999998 #
0.0071719973546823610061062836962265 3:0.8919 8:0.8865 10:0.89639997 17:0.8883 36:0.8757 492:0.82709998 814:0.8739 841:0.83609998 847:0.86849999 865:0.8757 872:0.8973 879:0.89279997 880:0.86580002 891:0.85949999 895:0.83609998 907:0.82260001 919:0.83520001 927:0.83429998 928:0.86940002 930:0.85589999 934:0.82349998 938:0.86400002 946:0.82260001 957:0.85320002 958:0.86129999 959:0.85049999 995:0.8847 1005:0.81269997 1012:0.84600002 1020:0.84509999 1022:0.81449997 1028:0.84600002 1037:0.8793 1040:0.8973 1045:0.89279997 1048:0.85049999 1055:0.84869999 1065:0.86760002 1069:0.84149998 1071:0.87480003 1076:0.86489999 1086:0.85500002 1109:0.82529998 1117:0.82529998 1118:0.83880001 1121:0.83789998 1123:0.83429998 1127:0.84869999 1146:0.86940002 1160:0.8919 1165:0.86309999 1166:0.83969998 1205:0.83520001 1209:0.87480003 1215:0.87120003 1242:0.8919 1284:0.87300003 1290:0.83069998 1305:0.83969998 1345:0.82440001 1368:0.8955 1369:0.83880001 1375:0.84149998 1397:0.83880001 1408:0.8919 1421:0.83340001 1423:0.8811 1429:0.86220002 1432:0.86220002 1478:0.84420002 1484:0.82709998 1500:0.85769999 1514:0.85680002 1517:0.85049999 1546:0.85589999 1548:0.83340001 1564:0.82529998 1592:0.83069998 1600:0.83880001 1602:0.8739 1621:0.83609998 1631:0.86580002 1632:0.8775 1636:0.85320002 1638:0.85320002 1643:0.86760002 1645:0.87480003 1651:0.82980001 1680:0.85409999 1694:0.8865 1701:0.8739 1715:0.88739997 1734:0.8919 1738:0.81900001 1751:0.83880001 1766:0.82260001 1770:0.85500002 1784:0.84060001 1809:0.83429998 1829:0.8739 1834:0.82349998 1852:0.8919 1856:0.84149998 1872:0.86400002 1875:0.8739 1897:0.85949999 1961:0.84420002 2023:0.84420002 2076:0.8757 2116:0.85409999 2124:0.82440001 2126:0.83520001 2134:0.83880001 2142:0.85860002 2145:0.85229999 2178:0.84600002 2179:0.83520001 2184:0.82889998 2190:0.83160001 2243:0.87840003 2272:0.86940002 2296:0.82080001 2324:0.8829 2337:0.84960002 2340:0.84869999 2376:0.82529998 2399:0.82980001 2426:0.83609998 2448:0.83069998 2465:0.86040002 2473:0.88919997 2480:0.87300003 2483:0.84329998 2486:0.85140002 2496:0.83609998 2506:0.84420002 2517:0.82980001 2524:0.84780002 2525:0.85049999 2533:0.83340001 2541:0.82260001 2557:0.8847 2564:0.85320002 2573:0.83880001 2583:0.83789998 2596:0.81809998 2666:0.86669999 2689:0.84329998 2723:0.85500002 2732:0.8883 2733:0.87300003 2737:0.83880001 2813:0.86940002 2848:0.83249998 2854:0.82709998 2916:0.82620001 2971:0.85680002 2986:0.81449997 2987:0.85500002 2991:0.81809998 2995:0.84960002 3055:0.82980001 3059:0.82529998 3061:0.82169998 3068:0.86309999 3071:0.85229999 3104:0.84060001 3106:0.86220002 3172:0.84240001 3235:0.86309999 3285:0.83789998 3356:0.84240001 3414:0.82080001 3422:0.83700001 3443:0.8811 3560:0.82260001 3594:0.81269997 3602:0.83340001 3605:0.86669999 3702:0.84960002 3705:0.82980001 3716:0.84869999 3732:0.87840003 3750:0.85500002 3789:0.81809998 3876:0.85049999 3976:0.85949999 3994:0.83340001 4067:0.86220002 4070:0.81989998 4074:0.84780002 4086:0.81989998 4094:0.87029999 4099:0.8775 4102:0.83969998 4109:0.85589999 4114:0.82529998 4117:0.82349998 4153:0.83340001 4172:0.82709998 4204:0.87480003 4236:0.83880001 4338:0.82800001 4372:0.82889998 4398:0.85769999 4403:0.84149998 4404:0.8973 4405:0.82620001 4406:0.89999998 4412:0.89999998 4413:0.89999998 4414:0.89999998 #
