SVM-light Version V6.02
0 # kernel type
3 # kernel parameter -d 
1 # kernel parameter -g 
1 # kernel parameter -s 
1 # kernel parameter -r 
empty# kernel parameter -u 
6484 # highest feature index 
724 # number of training documents 
504 # number of support vectors plus 1 
0.34294126 # threshold b, each following line is a SV (starting with alpha*y)
-0.03486039774697927140501008125284 93:0.92299998 390:0.98400003 875:0.954 1061:0.94599998 1150:0.96499997 1614:0.94300002 1666:0.96899998 1704:0.917 1769:0.92000002 2568:0.91600001 2902:1 2903:1 2904:1 #
0.070032764408648820464442508182401 2:0.89999998 17:0.86400002 29:0.83789998 390:0.88200003 441:0.89279997 462:0.8757 487:0.86580002 496:0.86400002 811:0.89999998 812:0.89999998 813:0.89999998 814:0.89999998 815:0.89999998 816:0.89999998 817:0.89999998 818:0.89999998 819:0.89999998 820:0.89999998 821:0.89999998 822:0.89999998 823:0.89999998 824:0.89999998 825:0.89999998 826:0.89999998 827:0.89999998 #
-0.073360899685332603414877894465462 951:0.90799999 1438:0.95700002 1652:0.94400001 1718:0.935 1887:0.94 3121:0.90200001 3428:0.97299999 #
-0.042615485143703064896403276407 241:0.98100001 832:0.91299999 875:0.92500001 921:0.93099999 922:0.94 960:0.93599999 1010:0.90600002 1151:0.94999999 1374:0.95999998 1389:0.97899997 1582:0.95999998 1741:0.93000001 1996:0.92900002 3535:1 3536:1 3537:1 3538:1 3539:1 3540:1 3541:1 3542:1 #
-0.0045240789019204835641474460317113 274:0.98400003 885:0.91100001 942:0.98900002 951:0.91000003 1066:0.91399997 1438:0.926 1442:0.90100002 1506:0.954 1573:0.92799997 2164:1 2165:1 2166:1 2167:1 2168:1 2169:1 2170:1 2171:1 2172:1 2173:1 2174:1 2175:1 #
0.051773920392411527935383475096387 12:0.89639997 58:0.84960002 203:0.89279997 249:0.83069998 389:0.89999998 390:0.89999998 391:0.89999998 392:0.89999998 393:0.89999998 394:0.89999998 395:0.89999998 396:0.89999998 397:0.89999998 398:0.89999998 399:0.89999998 400:0.89999998 401:0.89999998 402:0.89999998 403:0.89999998 404:0.89999998 405:0.89999998 406:0.89999998 407:0.89999998 408:0.89999998 409:0.89999998 410:0.89999998 411:0.89999998 412:0.89999998 413:0.89999998 414:0.89999998 415:0.89999998 416:0.89999998 #
0.073360899685332603414877894465462 1114:0.84509999 1150:0.86580002 1438:0.87660003 1582:0.85860002 1675:0.84329998 2257:0.83700001 2838:0.84780002 2986:0.82620001 3245:0.82529998 3269:0.8973 4078:0.86040002 4313:0.89999998 4314:0.89999998 4315:0.89999998 4316:0.89999998 4317:0.89999998 4318:0.89999998 #
0.073360899685332603414877894465462 1019:0.85589999 1642:0.8793 1718:0.84689999 1955:0.85320002 2162:0.83340001 2727:0.89999998 2728:0.89999998 2729:0.89999998 2730:0.89999998 #
-0.044981395855379316395250555160601 871:0.99699998 987:0.98299998 1145:0.963 1391:0.91900003 1604:0.95999998 1947:0.92900002 2139:0.95899999 2827:0.96100003 2880:0.949 2910:0.93099999 4047:0.93800002 4297:0.92199999 5796:0.90700001 6453:1 6454:1 6455:1 6456:1 6457:1 #
0.073360899685332603414877894465462 838:0.86220002 851:0.81269997 875:0.8973 1010:0.84240001 1059:0.84689999 1068:0.86400002 1104:0.86940002 1247:0.86400002 1573:0.82709998 1769:0.82080001 2812:0.8793 2985:0.89999998 2986:0.89999998 2987:0.89999998 2988:0.89999998 2989:0.89999998 #
-0.061707722971346655460589403219274 262:0.98799998 1197:0.94400001 1503:0.93699998 1542:0.99000001 2396:0.91000003 2733:0.95599997 2904:0.90799999 3826:0.99299997 3836:0.963 3844:1 #
-0.046575694752710249113558660383205 896:0.93000001 921:0.90499997 942:0.99400002 1364:0.98199999 1592:0.93599999 2142:0.97100002 4982:1 4983:1 4984:1 4985:1 4986:1 #
-0.073360899685332603414877894465462 960:0.91900003 1074:0.98699999 1076:0.95200002 1642:0.96799999 1665:0.97000003 #
-0.073360899685332603414877894465462 1487:0.912 1666:0.96899998 1676:0.94599998 3556:1 #
-0.0076577300137358741624615809939769 2:0.98699999 181:0.96499997 1423:0.96700001 1503:0.92699999 1582:0.92699999 1652:0.98299998 3029:0.912 3144:0.92000002 4470:0.99299997 4554:0.96499997 4671:1 4672:1 4673:1 4674:1 4675:1 4676:1 4677:1 4678:1 4679:1 4680:1 4681:1 #
0.073360899685332603414877894465462 916:0.84600002 921:0.83160001 950:0.85860002 1131:0.82529998 1145:0.82169998 1374:0.86400002 1478:0.84780002 1573:0.84960002 1582:0.85860002 1652:0.86040002 2412:0.84240001 3284:0.81989998 3537:0.86669999 #
0.048334441624932666936587111194967 928:0.85409999 1019:0.85409999 1079:0.85769999 1325:0.85409999 1503:0.85500002 1590:0.86760002 1593:0.81 1996:0.87300003 2008:0.83249998 2072:0.89999998 2073:0.89999998 2074:0.89999998 2075:0.89999998 2076:0.89999998 2077:0.89999998 2078:0.89999998 2079:0.89999998 2080:0.89999998 2081:0.89999998 #
0.073360899685332603414877894465462 942:0.87480003 1010:0.82349998 1145:0.83700001 1374:0.8739 1652:0.8865 2185:0.8811 2583:0.82800001 2772:0.8775 3989:0.89999998 3990:0.89999998 #
0.073360899685332603414877894465462 875:0.86040002 1114:0.84240001 1145:0.8721 1438:0.87120003 1652:0.8973 1763:0.8118 2052:0.81629997 2243:0.84060001 2688:0.83340001 3089:0.85949999 3245:0.82260001 3246:0.82529998 3884:0.89999998 3885:0.89999998 3886:0.89999998 3887:0.89999998 3888:0.89999998 3889:0.89999998 3890:0.89999998 3891:0.89999998 #
0.073360899685332603414877894465462 831:0.85769999 875:0.85769999 1374:0.8739 1652:0.8919 1839:0.82709998 1947:0.84149998 3011:0.81269997 4020:0.89999998 4021:0.89999998 #
-0.028461404669937975797644469366787 874:0.95999998 1145:0.96100003 1438:0.926 1503:0.93699998 1652:0.93599999 2492:0.90899998 3245:0.903 4266:1 4267:1 4268:1 4269:1 4270:1 4271:1 4272:1 4273:1 #
0.073360899685332603414877894465462 754:0.87840003 875:0.83880001 1019:0.85680002 1652:0.8919 1989:0.84060001 2733:0.86040002 5242:0.85049999 #
-0.01889236340419352469521818704834 2:0.991 942:0.99199998 952:0.95700002 1012:0.94800001 1162:0.90399998 1678:0.90499997 1869:0.954 3908:0.926 4529:0.90899998 4826:0.97399998 4827:0.96899998 4992:1 4993:1 4994:1 4995:1 4996:1 4997:1 4998:1 4999:1 5000:1 5001:1 5002:1 5003:1 5004:1 5005:1 5006:1 5007:1 5008:1 5009:1 5010:1 #
-0.048522596782920139613093368780028 243:0.972 875:0.95899999 1010:0.91799998 1622:0.94 1627:0.98000002 1675:0.94199997 5543:0.93099999 5581:1 5582:1 5583:1 #
-0.073360899685332603414877894465462 1652:1 2243:0.97600001 3953:1 3954:1 3955:1 3956:1 #
-0.011551632193553646246741983816264 8:0.97899997 13:0.935 829:0.94999999 885:0.91900003 1438:0.95099998 1556:0.912 1652:0.912 1690:0.91100001 1703:0.93199998 1958:0.926 2011:0.96600002 2660:0.90799999 3001:1 3002:1 3003:1 #
-0.067961844577170554826395232339564 875:0.94700003 1442:0.90799999 2034:0.91500002 2167:0.92000002 4654:0.90399998 4662:1 4663:1 4664:1 #
0.073360899685332603414877894465462 1076:0.85229999 2998:0.89999998 #
-0.010681992111828221558855744888206 2:0.991 47:0.91799998 332:0.99199998 420:0.99199998 652:0.95300001 744:0.99199998 2338:0.954 2368:0.90399998 2674:0.90200001 2854:0.94999999 3131:0.921 4585:0.958 4759:0.97600001 4771:0.95599997 5310:1 5311:1 5312:1 5313:1 5314:1 5315:1 5316:1 5317:1 5318:1 5319:1 5320:1 5321:1 5322:1 5323:1 5324:1 5325:1 5326:1 5327:1 5328:1 5329:1 5330:1 5331:1 5332:1 5333:1 5334:1 5335:1 5336:1 5337:1 #
0.037574206246117118623839559177213 38:0.85409999 176:0.88559997 245:0.84689999 320:0.89279997 831:0.83340001 874:0.82260001 892:0.82260001 913:0.83249998 960:0.89999998 961:0.89999998 962:0.89999998 963:0.89999998 964:0.89999998 965:0.89999998 966:0.89999998 967:0.89999998 968:0.89999998 969:0.89999998 970:0.89999998 971:0.89999998 972:0.89999998 973:0.89999998 974:0.89999998 975:0.89999998 976:0.89999998 977:0.89999998 978:0.89999998 979:0.89999998 980:0.89999998 981:0.89999998 982:0.89999998 983:0.89999998 984:0.89999998 985:0.89999998 #
0.013551592092756369750672362783916 2:0.89999998 36:0.84060001 42:0.86940002 100:0.81089997 130:0.82709998 243:0.89999998 244:0.89999998 245:0.89999998 246:0.89999998 247:0.89999998 248:0.89999998 249:0.89999998 250:0.89999998 251:0.89999998 252:0.89999998 253:0.89999998 254:0.89999998 255:0.89999998 256:0.89999998 257:0.89999998 258:0.89999998 259:0.89999998 260:0.89999998 261:0.89999998 262:0.89999998 263:0.89999998 264:0.89999998 265:0.89999998 266:0.89999998 267:0.89999998 268:0.89999998 269:0.89999998 270:0.89999998 271:0.89999998 272:0.89999998 273:0.89999998 274:0.89999998 275:0.89999998 276:0.89999998 277:0.89999998 278:0.89999998 279:0.89999998 280:0.89999998 281:0.89999998 282:0.89999998 283:0.89999998 284:0.89999998 285:0.89999998 286:0.89999998 287:0.89999998 288:0.89999998 289:0.89999998 290:0.89999998 291:0.89999998 292:0.89999998 293:0.89999998 294:0.89999998 295:0.89999998 296:0.89999998 #
0.073360899685332603414877894465462 925:0.84329998 1304:0.82620001 1479:0.89999998 1480:0.89999998 1481:0.89999998 1482:0.89999998 1483:0.89999998 1484:0.89999998 #
-0.05820460024693499545556107932498 858:0.99199998 951:0.91399997 1014:0.90100002 1304:0.98000002 1544:0.99699998 1949:0.90600002 2812:0.977 4723:0.93900001 4734:0.97500002 4735:1 4736:1 4737:1 4738:1 4739:1 4740:1 4741:1 #
-0.073360899685332603414877894465462 979:0.94199997 1666:0.96899998 1676:0.95499998 3557:1 #
0.073360899685332603414877894465462 829:0.82709998 858:0.8973 1391:0.83520001 1652:0.83609998 1666:0.87120003 2910:0.82980001 2960:0.83340001 3245:0.84420002 3439:0.83520001 3976:0.89999998 3977:0.89999998 3978:0.89999998 3979:0.89999998 #
-0.073360899685332603414877894465462 861:0.98100001 871:0.99400002 1114:0.93699998 1622:0.92500001 1652:0.99400002 1675:0.93199998 1989:0.92799997 3532:1 3533:1 #
0.073360899685332603414877894465462 875:0.8811 942:0.8847 951:0.82260001 952:0.8811 1170:0.82349998 1374:0.8721 1675:0.83340001 3991:0.89999998 3992:0.89999998 3993:0.89999998 #
0.073360899685332603414877894465462 874:0.88739997 875:0.85860002 1145:0.85140002 1370:0.83069998 1391:0.86760002 1438:0.83520001 1777:0.82800001 2856:0.82260001 3290:0.81089997 4224:0.89999998 4225:0.89999998 4226:0.89999998 #
0.073360899685332603414877894465462 874:0.86760002 921:0.83160001 922:0.85140002 1131:0.84600002 1181:0.83969998 1374:0.89279997 1478:0.86040002 1614:0.81449997 1675:0.82529998 2281:0.83700001 2479:0.81269997 4235:0.89999998 4236:0.89999998 #
-0.062806077145286465235329842471401 838:0.95200002 1197:0.92400002 1642:0.96799999 1652:0.96799999 3790:1 3791:1 3792:1 3793:1 3794:1 3795:1 3796:1 3797:1 3798:1 3799:1 3800:1 3801:1 3802:1 3803:1 #
0.073360899685332603414877894465462 1168:0.85320002 1275:0.83969998 1519:0.84780002 1652:0.84420002 1666:0.84780002 2812:0.87660003 2910:0.83520001 2941:0.81 3331:0.85769999 3333:0.89999998 3334:0.89999998 #
-0.030666541668371859880037888501647 928:0.93800002 1217:1 1427:0.93099999 1469:0.91100001 1629:0.91399997 1970:0.89999998 2502:0.98799998 2546:0.93300003 3126:0.92199999 3672:1 3673:1 3674:1 3675:1 3676:1 3677:1 3678:1 3679:1 3680:1 3681:1 3682:1 3683:1 3684:1 3685:1 3686:1 3687:1 3688:1 3689:1 #
0.073360899685332603414877894465462 921:0.81809998 960:0.8136 969:0.89459997 1076:0.86940002 1374:0.8901 1518:0.89999998 1519:0.89999998 1520:0.89999998 1521:0.89999998 1522:0.89999998 1523:0.89999998 1524:0.89999998 1525:0.89999998 #
-0.073360899685332603414877894465462 63:0.93000001 983:0.97299999 988:0.92500001 998:0.92299998 1438:0.917 1629:0.921 1666:0.95999998 1947:0.935 2851:0.93199998 3405:1 3406:1 #
0.073360899685332603414877894465462 833:0.84149998 838:0.86220002 979:0.85320002 1076:0.83880001 1297:0.86760002 1642:0.87120003 1665:0.86940002 3146:0.89999998 3147:0.89999998 3148:0.89999998 3149:0.89999998 3150:0.89999998 3151:0.89999998 3152:0.89999998 3153:0.89999998 3154:0.89999998 3155:0.89999998 3156:0.89999998 #
-0.033308752546637517000238659647948 875:0.97399998 1145:0.96399999 1374:0.954 2025:0.92799997 2185:0.97899997 2395:0.95999998 3300:0.91000003 3640:0.93199998 6263:1 6264:1 6265:1 #
0.073360899685332603414877894465462 832:0.86849999 928:0.83160001 1150:0.86760002 1325:0.85320002 1389:0.8847 1503:0.84780002 1704:0.81989998 1949:0.82800001 2061:0.82980001 2396:0.81629997 3836:0.8847 4007:0.89999998 4008:0.89999998 4009:0.89999998 #
0.073360899685332603414877894465462 885:0.81269997 921:0.81449997 1239:0.83880001 1247:0.8739 1374:0.86489999 1582:0.86580002 3059:0.85409999 3122:0.81809998 4038:0.89999998 4039:0.89999998 #
0.073360899685332603414877894465462 336:0.89999998 875:0.84509999 921:0.83789998 1374:0.86669999 1503:0.84509999 2243:0.88380003 3157:0.83789998 3267:0.89999998 3268:0.89999998 3269:0.89999998 3270:0.89999998 3271:0.89999998 3272:0.89999998 3273:0.89999998 3274:0.89999998 #
0.073360899685332603414877894465462 921:0.83429998 949:0.83249998 1064:0.84420002 1247:0.87660003 1374:0.87120003 1503:0.85049999 1582:0.85589999 1652:0.84960002 1675:0.83880001 2061:0.82889998 2099:0.8739 2102:0.81720001 2269:0.85229999 2449:0.83609998 2583:0.82260001 4040:0.89999998 4041:0.89999998 4042:0.89999998 4043:0.89999998 4044:0.89999998 #
-0.019417427249644569897668588964734 828:0.91600001 892:0.91900003 979:0.958 1008:0.95300001 1114:0.93900001 1132:0.93599999 1374:0.95999998 1391:0.92199999 1438:0.95099998 1618:0.963 2838:0.93400002 2867:0.93300003 2938:1 #
-0.073360899685332603414877894465462 1478:0.94999999 3537:0.94199997 #
-0.010509884594379289429744162021052 682:0.89999998 875:0.96200001 922:0.91399997 1109:0.935 1374:0.97100002 1582:0.96200001 1592:0.95300001 1675:0.949 1766:0.92799997 2072:0.92199999 3014:0.912 3245:0.90600002 3399:1 3400:1 3401:1 3402:1 3403:1 3404:1 #
-0.03434945844791804231421750159825 875:0.97299999 1374:0.96899998 1485:0.98699999 1652:0.99699998 1829:0.90899998 3245:0.903 3744:0.91600001 4367:0.93400002 4622:0.92000002 6391:1 6392:1 6393:1 6394:1 6395:1 6396:1 6397:1 6398:1 #
-0.0020778210234368679927563494658216 832:0.97100002 980:0.92199999 1281:0.90899998 1642:0.96499997 1666:0.96899998 2243:0.91900003 2694:0.94700003 2955:1 2956:1 #
0.073360899685332603414877894465462 922:0.84600002 1114:0.85320002 1150:0.86309999 1478:0.84780002 1675:0.82349998 1704:0.82529998 2412:0.86040002 2568:0.83249998 #
0.073360899685332603414877894465462 282:0.84060001 828:0.8919 885:0.83789998 1374:0.86849999 2194:0.87120003 2660:0.82980001 2854:0.86220002 3245:0.82080001 #
0.073360899685332603414877894465462 875:0.86309999 885:0.84240001 1114:0.84869999 1131:0.84869999 1442:0.81089997 1666:0.86400002 2098:0.82529998 2915:0.81089997 3245:0.81809998 3899:0.89999998 3900:0.89999998 3901:0.89999998 3902:0.89999998 #
0.073360899685332603414877894465462 545:0.85500002 921:0.83429998 942:0.88200003 951:0.83249998 1374:0.87120003 1989:0.84060001 2325:0.81989998 3288:0.81269997 3994:0.89999998 3995:0.89999998 3996:0.89999998 3997:0.89999998 #
0.073360899685332603414877894465462 885:0.82529998 952:0.85049999 1145:0.86760002 1652:0.88919997 1695:0.81900001 4133:0.89999998 4134:0.89999998 4135:0.89999998 #
-0.042589922259304829887938126375957 892:0.92500001 928:0.93199998 1114:0.93699998 1438:0.97399998 1652:0.99400002 1675:0.93699998 2878:0.92500001 3534:1 #
-0.00041690991654438089384498988820837 49:0.96600002 192:0.96799999 849:0.93199998 858:0.96600002 874:0.917 885:0.92000002 892:0.92000002 925:0.92000002 952:0.95899999 979:0.96399999 998:0.90600002 1029:0.977 1079:0.89999998 1475:0.958 1526:1 1527:1 1528:1 1529:1 1530:1 1531:1 1532:1 1533:1 1534:1 1535:1 1536:1 1537:1 1538:1 1539:1 1540:1 1541:1 1542:1 1543:1 1544:1 1545:1 1546:1 1547:1 1548:1 1549:1 1550:1 1551:1 1552:1 1553:1 1554:1 1555:1 1556:1 1557:1 1558:1 1559:1 1560:1 1561:1 1562:1 1563:1 1564:1 1565:1 1566:1 #
-0.063212746969183594702990092173422 1627:0.98400003 1675:0.94300002 1862:0.954 5543:0.93099999 5560:0.95499998 5564:1 #
-0.073360899685332603414877894465462 932:0.93400002 969:0.986 1076:0.91000003 1150:0.96499997 1503:0.93900001 1704:0.91399997 2061:0.93400002 2073:0.95499998 2721:1 2722:1 #
0.073360899685332603414877894465462 858:0.8883 874:0.85229999 1145:0.8739 1275:0.81449997 1391:0.82800001 1652:0.88919997 1666:0.85049999 1675:0.84600002 2910:0.83700001 3439:0.83249998 3673:0.81269997 3959:0.89999998 3960:0.89999998 3961:0.89999998 3962:0.89999998 3963:0.89999998 3964:0.89999998 3965:0.89999998 3966:0.89999998 3967:0.89999998 3968:0.89999998 #
0.073360899685332603414877894465462 875:0.88200003 1010:0.83429998 1145:0.86220002 1230:0.8136 1247:0.86489999 1612:0.81 1839:0.81269997 2286:0.83429998 2812:0.87300003 2847:0.85860002 2986:0.85769999 2990:0.89999998 2991:0.89999998 2992:0.89999998 2993:0.89999998 2994:0.89999998 2995:0.89999998 2996:0.89999998 2997:0.89999998 #
-0.018985111642120206659756220801683 2:0.98299998 550:0.98400003 874:0.93000001 885:0.90799999 922:0.92900002 932:0.90499997 969:0.99400002 1076:0.91000003 1131:0.94599998 1150:0.91600001 1181:0.93300003 1275:0.91900003 1294:0.91900003 1478:0.94700003 1582:0.954 1595:0.92000002 1802:0.94700003 1947:0.935 2061:0.92699999 2072:0.90700001 2567:1 2568:1 2569:1 2570:1 2571:1 2572:1 2573:1 2574:1 2575:1 #
0.073360899685332603414877894465462 864:0.88380003 925:0.84329998 1019:0.81900001 1075:0.8937 1275:0.83700001 2826:0.89999998 #
0.073360899685332603414877894465462 932:0.84329998 1145:0.8775 1374:0.86489999 2061:0.83340001 2227:0.84600002 2377:0.82080001 2396:0.82709998 3872:0.8118 4170:0.89999998 4171:0.89999998 4172:0.89999998 #
0.073360899685332603414877894465462 928:0.82349998 998:0.81269997 1131:0.85320002 1374:0.86940002 1503:0.85049999 1582:0.85049999 1652:0.8865 1675:0.84689999 1761:0.86400002 2061:0.83160001 2102:0.82080001 2344:0.83969998 2377:0.83069998 4173:0.89999998 4174:0.89999998 4175:0.89999998 #
-0.053798213911586720281654550035455 871:0.91500002 946:0.94499999 1055:0.94300002 1666:0.96700001 2721:0.93699998 2812:0.98000002 2838:0.96399999 3780:1 3781:1 3782:1 3783:1 3784:1 3785:1 #
0.073360899685332603414877894465462 901:0.83340001 942:0.8793 #
-0.073360899685332603414877894465462 2:0.995 243:0.98799998 1374:0.903 2412:0.958 6202:0.98900002 #
0.034093924738730477241865912674257 831:0.83789998 838:0.85949999 969:0.8955 979:0.85049999 1014:0.81629997 1519:0.8865 1642:0.8739 1718:0.84420002 2910:0.8136 2941:0.82260001 2944:0.89999998 2945:0.89999998 2946:0.89999998 2947:0.89999998 2948:0.89999998 #
-0.024877056638782882314053779282403 1082:0.926 1114:0.93699998 1131:0.94599998 1150:0.95700002 1582:0.95099998 1718:0.93400002 2102:0.92199999 2412:0.94499999 4162:0.90100002 4428:1 4429:1 #
0.073360899685332603414877894465462 41:0.84149998 885:0.8136 922:0.84329998 983:0.87480003 1061:0.81089997 1374:0.8865 1582:0.86400002 1652:0.86580002 2365:0.83340001 3230:0.89999998 3231:0.89999998 3232:0.89999998 3233:0.89999998 3234:0.89999998 3235:0.89999998 3236:0.89999998 #
0.073360899685332603414877894465462 885:0.84780002 951:0.84420002 1391:0.82980001 1427:0.84960002 1652:0.86040002 1666:0.86669999 1675:0.86400002 2960:0.85320002 3125:0.89999998 3126:0.89999998 3127:0.89999998 3128:0.89999998 #
0.073360899685332603414877894465462 885:0.82260001 1391:0.81809998 1476:0.86129999 1666:0.86669999 1768:0.89999998 1769:0.89999998 1770:0.89999998 1771:0.89999998 1772:0.89999998 1773:0.89999998 1774:0.89999998 1775:0.89999998 1776:0.89999998 #
0.073360899685332603414877894465462 885:0.83249998 916:0.82529998 1048:0.81809998 1438:0.86400002 1627:0.8793 1666:0.86940002 1802:0.82800001 1893:0.84329998 2831:0.86760002 3089:0.84869999 3245:0.81269997 3892:0.89999998 3893:0.89999998 3894:0.89999998 3895:0.89999998 #
0.073360899685332603414877894465462 874:0.86400002 952:0.88020003 979:0.87300003 1438:0.86669999 1462:0.8721 1652:0.83340001 1989:0.83340001 2688:0.82529998 2838:0.81629997 3269:0.8973 4028:0.89999998 4029:0.89999998 4030:0.89999998 #
-0.073360899685332603414877894465462 831:0.93400002 928:0.963 1096:0.92199999 1642:0.95999998 1666:0.96600002 1769:0.91600001 2717:1 2718:1 2719:1 #
-0.052876360566732880097440272493259 1150:0.97100002 1652:0.96499997 1955:0.93900001 2102:0.90899998 4446:1 4447:1 #
-0.073360899685332603414877894465462 1652:0.94999999 2185:0.96499997 5090:1 5091:1 5092:1 #
-0.024114841730047211626475345269682 2:0.986 58:0.94 875:0.95700002 1110:0.91799998 1239:0.92699999 1374:0.96499997 1690:0.94199997 2344:0.92699999 2446:0.90799999 2663:0.97600001 3269:0.986 4394:0.90899998 4622:0.92299998 5581:0.94099998 5953:1 5954:1 #
0.073360899685332603414877894465462 6:0.82080001 871:0.82889998 875:0.86309999 892:0.82260001 928:0.82440001 979:0.83069998 1630:0.89999998 1631:0.89999998 1632:0.89999998 1633:0.89999998 1634:0.89999998 1635:0.89999998 1636:0.89999998 1637:0.89999998 1638:0.89999998 1639:0.89999998 1640:0.89999998 1641:0.89999998 1642:0.89999998 1643:0.89999998 1644:0.89999998 1645:0.89999998 1646:0.89999998 1647:0.89999998 1648:0.89999998 1649:0.89999998 #
0.073360899685332603414877894465462 838:0.84600002 875:0.84689999 922:0.84329998 1145:0.8847 1478:0.85320002 1766:0.82529998 4233:0.89999998 4234:0.89999998 #
-0.027528118615523927692478878270776 203:0.917 875:0.977 1185:0.94800001 1244:0.93300003 1247:0.94499999 1374:0.98699999 1503:0.93800002 2125:0.995 2378:0.95300001 2772:0.94199997 2986:0.94199997 4759:0.94499999 5242:0.95099998 5905:1 5906:1 5907:1 5908:1 #
0.073360899685332603414877894465462 875:0.85320002 942:0.87480003 952:0.87660003 979:0.86489999 1143:0.86669999 1318:0.8973 1395:0.84869999 1503:0.84329998 1642:0.87300003 1744:0.86040002 2102:0.81809998 3836:0.86669999 3908:0.82980001 4291:0.89999998 4292:0.89999998 4293:0.89999998 #
0.073360899685332603414877894465462 875:0.84149998 921:0.83429998 922:0.84869999 946:0.83249998 1059:0.82620001 1125:0.85320002 1131:0.86129999 1197:0.87480003 1374:0.8721 1989:0.83069998 2185:0.86849999 #
0.073360899685332603414877894465462 875:0.84509999 942:0.8739 1143:0.86580002 1503:0.84240001 1642:0.8739 4277:0.89999998 4278:0.89999998 4279:0.89999998 4280:0.89999998 4281:0.89999998 4282:0.89999998 #
-0.073360899685332603414877894465462 922:0.94300002 942:0.958 1104:0.93199998 1391:0.94300002 1675:0.94300002 3059:0.94599998 3709:1 #
-0.073360899685332603414877894465462 921:0.93099999 942:0.991 1374:0.972 1831:0.90399998 3589:1 3590:1 3591:1 3592:1 #
0.073360899685332603414877894465462 2:0.89999998 9:0.86309999 21:0.84149998 29:0.89279997 247:0.87300003 652:0.89999998 653:0.89999998 654:0.89999998 655:0.89999998 656:0.89999998 657:0.89999998 658:0.89999998 659:0.89999998 660:0.89999998 #
-0.073360899685332603414877894465462 942:0.96600002 1145:0.96100003 1766:0.917 5039:0.98400003 #
-0.017561998689318774474754647485497 2:0.98299998 8:0.98400003 42:0.98799998 652:0.96200001 874:0.97100002 942:0.99299997 1037:0.93699998 1372:0.93400002 2856:0.958 3135:0.917 4826:0.93199998 4827:0.96200001 4879:0.90200001 4934:1 4935:1 4936:1 4937:1 4938:1 4939:1 4940:1 4941:1 4942:1 4943:1 4944:1 4945:1 4946:1 4947:1 4948:1 4949:1 4950:1 4951:1 4952:1 4953:1 #
0.073360899685332603414877894465462 849:0.83609998 885:0.83340001 1064:0.82440001 1145:0.85229999 1152:0.86669999 1391:0.83249998 1438:0.85589999 1629:0.82349998 2286:0.84420002 2880:0.82980001 3245:0.82080001 3269:0.8973 3429:0.83160001 4229:0.89999998 4230:0.89999998 #
0.073360899685332603414877894465462 1353:0.84240001 1438:0.86669999 1652:0.8865 2125:0.85409999 2377:0.8154 3269:0.85949999 4127:0.89999998 4128:0.89999998 4129:0.89999998 4130:0.89999998 4131:0.89999998 #
-0.04541548272986175444065892747858 336:0.98799998 875:0.96499997 885:0.92199999 2286:0.91799998 3551:1 3552:1 #
0.073360899685332603414877894465462 874:0.86400002 885:0.83429998 946:0.86849999 1374:0.86669999 1442:0.81269997 1476:0.86129999 1839:0.82709998 2073:0.82440001 2125:0.87300003 2178:0.82080001 2413:0.84240001 4260:0.81720001 4262:0.89999998 4263:0.89999998 #
-0.015642106257554008741372797430813 436:0.93300003 874:0.958 921:0.90600002 924:0.92500001 1003:0.949 1014:0.90100002 1374:0.963 1438:0.94800001 1582:0.96200001 1675:0.94 1755:1 1756:1 1757:1 1758:1 1759:1 1760:1 1761:1 1762:1 1763:1 1764:1 1765:1 1766:1 1767:1 #
-0.0018839225300263701297354135277828 858:0.98900002 951:0.91600001 988:0.94300002 1125:0.95300001 1145:0.986 1374:0.96899998 1438:0.92799997 1475:0.89999998 2020:0.91000003 2395:0.949 2472:0.90700001 2660:0.93300003 2773:1 2774:1 #
-0.073360899685332603414877894465462 950:0.93900001 1478:0.93900001 2412:0.93900001 3537:0.94199997 #
-0.023218247705431259431119173086699 2:0.97399998 176:0.94199997 1076:0.91600001 1642:0.92699999 1662:0.917 1665:0.96399999 1675:0.92000002 2344:0.96399999 2738:0.95599997 4188:0.98000002 4613:1 4614:1 4615:1 4616:1 4617:1 4618:1 4619:1 4620:1 4621:1 4622:1 4623:1 4624:1 4625:1 4626:1 4627:1 4628:1 4629:1 4630:1 4631:1 4632:1 #
-0.031533451779916926716040848077682 828:0.91900003 1642:0.96799999 1854:0.95700002 1955:0.94800001 1961:0.93800002 2281:0.954 2881:1 2882:1 2883:1 2884:1 2885:1 2886:1 2887:1 2888:1 2889:1 2890:1 2891:1 2892:1 2893:1 2894:1 #
-0.019537100664496584445650739780831 336:0.99199998 875:0.98299998 922:0.92900002 1064:0.912 1239:0.92900002 1247:0.94199997 1374:0.96799999 1582:0.94199997 1805:0.94400001 2395:0.94300002 2722:0.917 5304:1 5305:1 5306:1 5307:1 5308:1 5309:1 #
0.073360899685332603414877894465462 922:0.84600002 925:0.84329998 1114:0.84329998 1131:0.85140002 1478:0.84780002 1675:0.84780002 1704:0.81989998 1741:0.83700001 2412:0.86040002 2692:0.88919997 2721:0.85049999 2982:0.89999998 2983:0.89999998 2984:0.89999998 #
-0.016169223504445814909580292351166 137:0.94 875:0.954 892:0.91299999 901:0.93800002 979:0.958 1168:0.97100002 1194:0.89999998 1374:0.96899998 1438:0.94800001 1573:0.94599998 1582:0.954 1642:0.977 2961:1 2962:1 2963:1 2964:1 #
-0.073360899685332603414877894465462 875:0.97399998 2614:0.935 4659:1 4660:1 4661:1 #
0.073360899685332603414877894465462 389:0.8739 837:0.82980001 921:0.83429998 928:0.83880001 1114:0.85860002 1374:0.86849999 1593:0.84509999 1675:0.84149998 1934:0.83340001 2396:0.81900001 2471:0.85949999 2827:0.85049999 3157:0.83340001 3275:0.89999998 3276:0.89999998 #
0.073360899685332603414877894465462 241:0.89279997 925:0.83789998 1519:0.85049999 1666:0.86669999 1727:0.82080001 1741:0.83429998 2722:0.83069998 2823:0.82709998 3331:0.86940002 4107:0.89999998 4108:0.89999998 4109:0.89999998 4110:0.89999998 #
-0.02210003902788845037141740590414 2:0.991 916:0.96799999 942:0.99400002 952:0.98799998 1145:0.95999998 1761:0.96499997 1931:0.96700001 2722:0.91600001 3245:0.90600002 4723:0.926 6352:0.94099998 6428:1 6429:1 6430:1 6431:1 6432:1 6433:1 6434:1 6435:1 6436:1 6437:1 #
-0.015876308494730616283074908778872 875:0.96499997 1059:0.921 1145:0.958 1839:0.912 1937:0.92199999 1947:0.917 2288:0.986 2307:0.91000003 2986:0.94499999 3872:0.91100001 4796:0.92900002 5661:0.94700003 5946:1 5947:1 5948:1 5949:1 5950:1 5951:1 5952:1 #
0.073360899685332603414877894465462 549:0.83880001 875:0.84780002 989:0.82529998 1014:0.8154 1361:0.89999998 1362:0.89999998 1363:0.89999998 1364:0.89999998 1365:0.89999998 1366:0.89999998 1367:0.89999998 1368:0.89999998 1369:0.89999998 1370:0.89999998 1371:0.89999998 1372:0.89999998 #
-0.00040868621914687914761787901340995 2:0.98699999 130:0.92500001 255:0.98799998 439:0.99199998 875:0.91299999 916:0.94800001 1024:0.926 1037:0.90700001 1061:0.92799997 1225:0.926 1374:0.954 1391:0.90799999 1475:0.92900002 1485:0.96700001 1492:0.90399998 1499:0.95599997 1503:0.92799997 1573:0.93400002 1673:0.97500002 1891:0.93599999 2088:0.97000003 2156:0.94499999 2243:0.98199999 2284:1 2285:1 2286:1 2287:1 2288:1 2289:1 2290:1 2291:1 2292:1 2293:1 2294:1 2295:1 2296:1 2297:1 2298:1 2299:1 2300:1 2301:1 2302:1 2303:1 2304:1 2305:1 2306:1 2307:1 2308:1 2309:1 2310:1 2311:1 2312:1 2313:1 2314:1 2315:1 2316:1 2317:1 2318:1 2319:1 2320:1 2321:1 2322:1 2323:1 2324:1 2325:1 2326:1 2327:1 2328:1 2329:1 2330:1 2331:1 2332:1 2333:1 2334:1 #
-0.073360899685332603414877894465462 838:0.95499998 1076:0.96499997 1665:0.977 2730:0.991 2975:0.97299999 #
-0.0435747732501112830516554197402 9:0.99599999 828:0.96700001 838:0.93300003 864:0.98799998 874:0.93599999 892:0.90499997 946:0.96899998 1020:0.94300002 1131:0.91500002 1150:0.95999998 1197:0.93099999 1627:0.958 1675:0.95200002 1889:0.90700001 2102:0.91600001 2377:0.91100001 2598:1 2599:1 2600:1 2601:1 2602:1 2603:1 2604:1 #
-0.0028297041215382384010679217567485 942:0.991 952:0.94700003 1389:0.98199999 1438:0.95099998 1863:1 1864:1 1865:1 1866:1 1867:1 1868:1 1869:1 1870:1 1871:1 #
0.073360899685332603414877894465462 1145:0.86129999 1652:0.83340001 1848:0.84780002 2061:0.83160001 3640:0.82440001 #
-0.073360899685332603414877894465462 49:0.99199998 925:0.926 979:0.97000003 1280:0.93199998 1642:0.95599997 3245:0.912 3760:1 3761:1 3762:1 3763:1 3764:1 #
0.073360899685332603414877894465462 874:0.85409999 1020:0.81989998 1145:0.86760002 2377:0.81269997 4132:0.89999998 #
-0.073360899685332603414877894465462 1582:0.95099998 2722:0.91500002 6037:0.912 6124:0.92000002 6128:1 #
-0.073360899685332603414877894465462 2:0.97899997 25:0.99199998 284:0.94199997 320:0.99199998 875:0.98299998 918:0.92799997 921:0.92699999 928:0.921 942:0.958 952:0.90100002 971:0.92900002 1134:1 1135:1 1136:1 1137:1 1138:1 1139:1 1140:1 1141:1 1142:1 1143:1 #
0.054476176517791186082462218109868 2:0.89999998 9:0.85949999 17:0.85589999 21:0.8919 100:0.88200003 247:0.86940002 462:0.8829 754:0.89999998 755:0.89999998 756:0.89999998 757:0.89999998 758:0.89999998 759:0.89999998 760:0.89999998 761:0.89999998 762:0.89999998 763:0.89999998 764:0.89999998 765:0.89999998 766:0.89999998 #
0.073360899685332603414877894465462 838:0.84960002 951:0.83520001 1008:0.84780002 1374:0.87480003 2061:0.84600002 2784:0.89999998 #
-0.073360899685332603414877894465462 273:0.94300002 1029:0.96200001 1150:0.97100002 2073:0.94300002 2915:0.90200001 4444:1 #
0.073360899685332603414877894465462 2:0.8919 1374:0.87480003 #
0.073360899685332603414877894465462 2:0.8883 906:0.8973 1374:0.8739 1642:0.84869999 2722:0.82260001 3597:0.82800001 4294:0.89999998 4295:0.89999998 #
-0.073360899685332603414877894465462 828:0.90600002 875:0.96499997 1145:0.95700002 1462:0.95200002 1503:0.93599999 2251:0.92799997 3245:0.917 4264:1 4265:1 #
0.073360899685332603414877894465462 885:0.82349998 1114:0.84600002 1374:0.86400002 1476:0.86669999 #
0.073360899685332603414877894465462 884:0.84780002 998:0.84060001 1062:0.81720001 1309:0.86489999 1666:0.86400002 1996:0.87300003 2176:0.82620001 2660:0.83249998 2851:0.81809998 3508:0.82169998 4143:0.89999998 4144:0.89999998 4145:0.89999998 4146:0.89999998 4147:0.89999998 4148:0.89999998 4149:0.89999998 4150:0.89999998 4151:0.89999998 #
0.073360899685332603414877894465462 925:0.84329998 928:0.84960002 946:0.83969998 1076:0.85680002 1269:0.8955 1288:0.89999998 1289:0.89999998 1290:0.89999998 1291:0.89999998 1292:0.89999998 1293:0.89999998 #
-0.0075906844285509814801438110976051 2:0.991 62:0.91600001 408:0.954 905:0.977 2740:0.94 3000:0.94599998 4172:0.90499997 4470:0.954 4769:0.97600001 4956:0.93699998 5342:0.92000002 5581:0.97600001 5731:1 5732:1 5733:1 5734:1 5735:1 #
-0.06752983354607453025941765645257 1068:0.93900001 1131:0.94800001 1415:0.92299998 1478:0.94800001 2176:0.91500002 2412:0.96799999 2479:0.91600001 3246:1 3247:1 3248:1 3249:1 3250:1 #
-0.012114890981883088411086291102947 875:0.94999999 921:0.921 1114:0.977 1230:0.91500002 1374:0.96600002 1503:0.94400001 1652:0.99699998 1666:0.96899998 1805:0.94800001 2404:0.92199999 3872:0.93300003 4346:0.935 4454:1 4455:1 4456:1 4457:1 4458:1 4459:1 #
0.073360899685332603414877894465462 1197:0.84329998 1438:0.85860002 1555:0.87120003 1652:0.8919 2281:0.82349998 2365:0.84600002 2838:0.81989998 2972:0.84509999 3245:0.8154 4031:0.89999998 4032:0.89999998 4033:0.89999998 #
0.073360899685332603414877894465462 1041:0.83160001 1374:0.86940002 1442:0.82980001 1652:0.89999998 1676:0.86669999 2344:0.81269997 4026:0.89999998 4027:0.89999998 #
-0.06675109726533842713358524179057 1247:0.963 1374:0.96700001 1438:0.96799999 1520:0.90799999 3269:0.995 3410:1 3411:1 3412:1 #
0.073360899685332603414877894465462 921:0.83429998 1131:0.84600002 1150:0.86580002 1374:0.87300003 1476:0.86400002 2123:0.89999998 2124:0.89999998 2125:0.89999998 2126:0.89999998 #
0.073360899685332603414877894465462 932:0.83789998 942:0.8721 1374:0.83880001 1982:0.89999998 1983:0.89999998 1984:0.89999998 1985:0.89999998 1986:0.89999998 1987:0.89999998 1988:0.89999998 1989:0.89999998 #
-0.0057756623193879700478570171640058 875:0.95099998 885:0.90600002 1582:0.94700003 1666:0.96700001 2024:0.91600001 2420:0.93400002 2812:0.97299999 3930:0.90499997 3945:1 3946:1 3947:1 3948:1 3949:1 #
-0.0062686823955053067036757852292794 875:0.95599997 1642:0.977 1652:0.991 1666:0.972 2440:0.93900001 2958:0.92900002 3983:1 3984:1 3985:1 #
-0.06212800949719467225040858693319 858:0.99699998 906:0.96700001 925:0.94300002 1110:0.91299999 1308:0.92199999 1374:0.963 1391:0.93300003 1395:0.91399997 1462:0.92500001 1652:0.96499997 1763:0.903 1947:0.93800002 1992:0.91600001 2546:0.92799997 2794:1 2795:1 2796:1 2797:1 2798:1 2799:1 2800:1 2801:1 2802:1 2803:1 #
-0.01434971337638686096627171906448 123:0.98299998 262:0.99199998 952:0.98000002 1150:0.96799999 1161:0.93000001 1269:0.94499999 1285:0.97799999 1304:0.91299999 1461:0.93300003 1567:0.99199998 1666:0.96899998 1675:0.954 1704:0.92900002 1741:0.92400002 2072:0.91000003 2631:1 2632:1 2633:1 2634:1 2635:1 2636:1 2637:1 2638:1 2639:1 #
0.019202995972772942540052198978628 2:0.89999998 5:0.8919 6:0.86040002 7:0.86580002 8:0.89639997 9:0.8775 18:0.88919997 100:0.8811 197:0.89999998 198:0.89999998 199:0.89999998 200:0.89999998 201:0.89999998 202:0.89999998 203:0.89999998 204:0.89999998 205:0.89999998 206:0.89999998 207:0.89999998 208:0.89999998 209:0.89999998 210:0.89999998 211:0.89999998 212:0.89999998 213:0.89999998 214:0.89999998 215:0.89999998 216:0.89999998 217:0.89999998 218:0.89999998 219:0.89999998 220:0.89999998 221:0.89999998 222:0.89999998 223:0.89999998 224:0.89999998 225:0.89999998 226:0.89999998 227:0.89999998 228:0.89999998 229:0.89999998 230:0.89999998 231:0.89999998 232:0.89999998 233:0.89999998 234:0.89999998 235:0.89999998 236:0.89999998 237:0.89999998 238:0.89999998 239:0.89999998 240:0.89999998 241:0.89999998 242:0.89999998 #
0.073360899685332603414877894465462 875:0.84509999 942:0.8721 979:0.86400002 1143:0.88739997 1164:0.84240001 1582:0.85049999 1642:0.87120003 1704:0.8136 4283:0.89999998 4284:0.89999998 4285:0.89999998 4286:0.89999998 4287:0.89999998 4288:0.89999998 4289:0.89999998 4290:0.89999998 #
0.073360899685332603414877894465462 971:0.82440001 1297:0.8757 2243:0.81989998 2787:0.89999998 2788:0.89999998 2789:0.89999998 #
0.073360899685332603414877894465462 875:0.83880001 946:0.8739 1019:0.85680002 1197:0.85769999 1458:0.82889998 1478:0.85769999 1503:0.84509999 1802:0.83609998 1947:0.81720001 1989:0.83789998 2396:0.81900001 2412:0.84780002 4218:0.89999998 4219:0.89999998 4220:0.89999998 #
0.073360899685332603414877894465462 874:0.86489999 983:0.88020003 1021:0.8136 1118:0.81 1315:0.82620001 1642:0.87120003 2213:0.8136 2243:0.84060001 2851:0.82260001 3245:0.82529998 4152:0.89999998 4153:0.89999998 4154:0.89999998 4155:0.89999998 4156:0.89999998 4157:0.89999998 #
0.073360899685332603414877894465462 555:0.86849999 979:0.85409999 1230:0.83160001 1275:0.83700001 1304:0.82620001 1374:0.87480003 1666:0.85680002 1741:0.83429998 2701:0.89999998 2702:0.89999998 2703:0.89999998 2704:0.89999998 #
-0.03236549110471396983879088793401 908:0.93900001 1247:0.96499997 1374:0.963 1503:0.94800001 1642:0.96499997 1675:0.95200002 2708:1 2709:1 #
-0.010941296906702341340533735092322 874:0.94999999 885:0.91399997 952:0.94199997 1114:0.917 1131:0.954 1145:0.94599998 1374:0.98000002 1387:0.92500001 1404:0.91399997 1442:0.90499997 1582:0.95599997 1766:0.92000002 2082:1 2083:1 2084:1 2085:1 2086:1 2087:1 2088:1 2089:1 2090:1 2091:1 2092:1 2093:1 2094:1 2095:1 2096:1 2097:1 2098:1 #
0.056024140758526345951207048301512 2:0.89999998 12:0.89639997 14:0.81809998 36:0.84509999 285:0.84329998 390:0.89279997 417:0.89999998 418:0.89999998 419:0.89999998 420:0.89999998 421:0.89999998 422:0.89999998 423:0.89999998 424:0.89999998 425:0.89999998 426:0.89999998 427:0.89999998 428:0.89999998 429:0.89999998 430:0.89999998 431:0.89999998 432:0.89999998 433:0.89999998 434:0.89999998 435:0.89999998 436:0.89999998 437:0.89999998 438:0.89999998 #
0.073360899685332603414877894465462 1110:0.82620001 1131:0.84329998 1374:0.85949999 1652:0.86580002 2023:0.89999998 2024:0.89999998 #
0.073360899685332603414877894465462 874:0.85500002 885:0.82800001 1374:0.87029999 2061:0.82440001 3245:0.82260001 4320:0.86129999 4326:0.89999998 4327:0.89999998 #
0.073360899685332603414877894465462 320:0.85049999 858:0.89279997 2820:0.89999998 #
0.073360899685332603414877894465462 828:0.83249998 1374:0.86940002 2412:0.84240001 3245:0.82620001 3856:0.86760002 4319:0.89999998 4320:0.89999998 4321:0.89999998 4322:0.89999998 4323:0.89999998 4324:0.89999998 4325:0.89999998 #
-0.06156671903486941183070157990187 952:0.90700001 1048:0.954 1105:0.93300003 1427:0.94999999 1666:0.96899998 3126:0.92500001 3269:1 3739:0.93199998 4017:1 4018:1 4019:1 #
0.03497293465583516114403295205193 2:0.8919 7:0.8883 29:0.89639997 100:0.89279997 149:0.83340001 151:0.84329998 217:0.82080001 245:0.89999998 391:0.84240001 441:0.88559997 462:0.8757 487:0.86940002 577:0.81089997 794:0.89999998 795:0.89999998 796:0.89999998 797:0.89999998 798:0.89999998 799:0.89999998 800:0.89999998 801:0.89999998 802:0.89999998 803:0.89999998 804:0.89999998 805:0.89999998 806:0.89999998 807:0.89999998 808:0.89999998 809:0.89999998 810:0.89999998 #
-0.018735381045747387385169702156418 16:0.96200001 875:0.954 942:0.96899998 979:0.958 1061:0.93000001 1150:0.96799999 1945:0.98500001 2838:0.94199997 2915:0.90200001 3130:1 3131:1 3132:1 3133:1 3134:1 3135:1 3136:1 3137:1 3138:1 #
-0.050588780020647844404280135677254 942:0.95999998 1145:0.95499998 1374:0.96499997 1462:0.90799999 1582:0.95700002 2194:0.95499998 2483:0.912 3723:1 3724:1 #
-0.0084268102257088299544829368414867 2:0.991 54:0.93900001 466:0.926 498:0.94300002 711:0.93900001 942:0.96200001 1374:0.90399998 1438:0.96600002 1676:0.94499999 1681:0.90399998 4519:1 4520:1 4521:1 4522:1 4523:1 4524:1 4525:1 4526:1 4527:1 4528:1 4529:1 4530:1 4531:1 4532:1 #
-0.016650310630167114434030395386799 62:0.92000002 1395:0.958 1438:0.93800002 1607:0.99400002 1947:0.935 2177:0.995 2546:0.93900001 3126:0.92400002 3626:0.91000003 3640:0.92699999 3658:1 3659:1 3660:1 3661:1 3662:1 3663:1 3664:1 3665:1 3666:1 3667:1 3668:1 3669:1 3670:1 3671:1 #
-0.073360899685332603414877894465462 979:0.96100003 1275:0.92799997 1374:0.963 2344:0.93000001 2657:0.991 2701:0.90100002 3908:0.94499999 3911:1 #
-0.073360899685332603414877894465462 939:0.91299999 1150:0.95700002 1567:0.92699999 3957:1 3958:1 #
-0.073360899685332603414877894465462 989:0.93699998 1145:0.94300002 3626:0.91299999 3679:0.91900003 4014:1 4015:1 4016:1 #
-0.015592525630431666380792954385015 993:0.94 1642:0.95200002 4470:0.949 5097:0.94 5110:1 5111:1 5112:1 5113:1 5114:1 5115:1 #
-0.0049614059059414523933373430963911 29:0.98400003 62:0.99599999 875:0.977 922:0.93400002 1029:0.96799999 1389:0.98199999 1503:0.95499998 1582:0.94199997 1675:0.94 1940:0.91100001 2051:0.90200001 2061:0.917 2253:1 2254:1 2255:1 2256:1 2257:1 2258:1 2259:1 2260:1 2261:1 2262:1 2263:1 2264:1 2265:1 2266:1 2267:1 2268:1 2269:1 2270:1 2271:1 2272:1 2273:1 2274:1 2275:1 2276:1 2277:1 2278:1 2279:1 #
-0.035180961208127435602133203929043 885:0.91900003 921:0.92699999 922:0.94 1076:0.921 1145:0.94700003 1151:0.95099998 1269:0.97600001 1391:0.91500002 1478:0.94999999 1582:0.95999998 1675:0.95099998 2008:0.972 2185:0.97899997 2827:0.90700001 3543:1 3544:1 3545:1 3546:1 #
-0.073360899685332603414877894465462 922:0.92000002 1114:0.91799998 1131:0.954 2412:0.96799999 5176:0.94800001 #
-0.036426726758265047523277502250494 9:0.98799998 814:0.98000002 983:0.91900003 1239:0.93800002 1374:0.963 1476:0.95999998 1675:0.93900001 2377:0.90600002 2722:0.917 2782:0.92000002 4470:0.92199999 5796:0.90499997 6106:1 6107:1 6108:1 #
-0.073360899685332603414877894465462 487:0.94599998 871:0.99699998 885:0.917 918:0.93000001 1374:0.96899998 1675:0.93699998 2185:0.94 2413:0.91399997 2792:1 2793:1 #
0.073360899685332603414877894465462 922:0.85320002 1076:0.85409999 1582:0.85320002 1642:0.8793 1665:0.84509999 3102:0.84780002 3117:0.89999998 #
0.073360899685332603414877894465462 1074:0.89639997 1076:0.85680002 1503:0.85320002 1582:0.85860002 1642:0.8793 1675:0.83880001 3102:0.83789998 3116:0.89999998 #
-0.023467690893147603869994810565913 185:0.97600001 885:0.95300001 1068:0.95599997 1374:0.96600002 1476:0.95700002 1675:0.93699998 2377:0.89999998 2880:0.93900001 3081:0.96799999 3083:1 3084:1 3085:1 #
0.073360899685332603414877894465462 1076:0.85409999 1665:0.86669999 3102:0.84509999 4078:0.85860002 4759:0.83429998 #
0.015649579704351872233569764603089 2:0.89639997 5:0.8847 12:0.89639997 14:0.84509999 18:0.8775 130:0.81989998 136:0.89999998 137:0.89999998 138:0.89999998 139:0.89999998 140:0.89999998 141:0.89999998 142:0.89999998 143:0.89999998 144:0.89999998 145:0.89999998 146:0.89999998 147:0.89999998 148:0.89999998 149:0.89999998 150:0.89999998 151:0.89999998 152:0.89999998 153:0.89999998 154:0.89999998 155:0.89999998 156:0.89999998 157:0.89999998 158:0.89999998 159:0.89999998 160:0.89999998 161:0.89999998 162:0.89999998 163:0.89999998 164:0.89999998 165:0.89999998 166:0.89999998 167:0.89999998 168:0.89999998 169:0.89999998 170:0.89999998 171:0.89999998 172:0.89999998 173:0.89999998 174:0.89999998 175:0.89999998 176:0.89999998 177:0.89999998 178:0.89999998 179:0.89999998 180:0.89999998 181:0.89999998 182:0.89999998 183:0.89999998 184:0.89999998 185:0.89999998 186:0.89999998 187:0.89999998 188:0.89999998 189:0.89999998 190:0.89999998 191:0.89999998 192:0.89999998 193:0.89999998 194:0.89999998 195:0.89999998 196:0.89999998 #
-0.02273714396718487518178619666287 14:0.94400001 385:0.99199998 885:0.92799997 1247:0.963 1374:0.96700001 1503:0.93900001 1582:0.96200001 2194:0.95300001 3269:0.99400002 3413:1 3414:1 3415:1 3416:1 #
0.073360899685332603414877894465462 885:0.82980001 1143:0.85140002 1145:0.87029999 1614:0.84689999 1652:0.8919 1662:0.84689999 1947:0.84149998 2797:0.82709998 2827:0.84600002 3126:0.82349998 3129:0.89999998 #
0.073360899685332603414877894465462 896:0.85769999 921:0.83429998 922:0.82080001 1114:0.84600002 1150:0.84509999 1197:0.82980001 1374:0.87480003 1503:0.84060001 2915:0.82260001 #
0.073360899685332603414877894465462 921:0.82080001 1114:0.85680002 1131:0.84329998 1197:0.83340001 1374:0.86129999 1666:0.86309999 1881:0.82260001 2073:0.82440001 2125:0.85949999 2681:0.81629997 3077:0.82169998 3126:0.82980001 4188:0.8154 4258:0.89999998 4259:0.89999998 4260:0.89999998 4261:0.89999998 #
-0.012633971836325072479745301734511 921:0.92699999 1029:0.96799999 1059:0.935 1374:0.95999998 1391:0.90600002 2102:0.90200001 3059:0.94300002 6167:0.935 6414:1 6415:1 6416:1 6417:1 6418:1 #
-0.0023927561858172988369652944840027 324:0.91900003 942:0.97500002 1364:0.91399997 1438:0.95099998 1508:0.94199997 1727:0.94700003 2146:0.99199998 2512:0.98199999 2719:0.90600002 4313:0.93199998 4608:0.92199999 4987:1 4988:1 4989:1 4990:1 4991:1 #
0.073360899685332603414877894465462 2:0.8811 1374:0.88200003 2185:0.87660003 2377:0.82260001 4235:0.86220002 4237:0.89999998 4238:0.89999998 4239:0.89999998 4240:0.89999998 #
0.073360899685332603414877894465462 652:0.86580002 1374:0.87480003 2073:0.82169998 2377:0.81 3103:0.89999998 #
0.073360899685332603414877894465462 1068:0.86040002 1374:0.86940002 1478:0.85500002 1503:0.84509999 1766:0.82800001 2008:0.81809998 4231:0.89999998 4232:0.89999998 #
-0.073360899685332603414877894465462 6:0.972 946:0.92500001 1014:0.92500001 1475:0.94199997 1642:0.96799999 3331:0.96799999 3808:1 3809:1 3810:1 3811:1 3812:1 3813:1 3814:1 #
-0.073360899685332603414877894465462 2:0.98699999 988:0.92799997 1029:0.97600001 1374:0.972 2412:0.97100002 2568:0.977 3077:1 #
0.073360899685332603414877894465462 871:0.89459997 885:0.82260001 925:0.83340001 928:0.81269997 1145:0.8721 1462:0.85769999 1532:0.84509999 1642:0.8793 1666:0.87480003 3225:0.84689999 3391:0.89999998 3392:0.89999998 3393:0.89999998 3394:0.89999998 3395:0.89999998 3396:0.89999998 3397:0.89999998 3398:0.89999998 #
-0.0088910971567024675576984549252302 137:0.90700001 243:0.99199998 349:0.92900002 832:0.90700001 875:0.93900001 1181:0.90600002 1582:0.94499999 1619:1 1620:1 1621:1 1622:1 1623:1 1624:1 1625:1 1626:1 1627:1 1628:1 1629:1 #
-0.027608124672970822677253721622037 408:0.98299998 441:0.98400003 2295:0.90700001 4425:0.935 4472:0.98199999 4878:0.91299999 6112:0.93300003 6199:1 6200:1 6201:1 6202:1 6203:1 6204:1 6205:1 6206:1 6207:1 #
0.073360899685332603414877894465462 1469:0.82260001 1627:0.8829 1827:0.86220002 2243:0.87840003 2851:0.81720001 3225:0.83880001 3245:0.82260001 3269:0.88559997 4122:0.89999998 4123:0.89999998 4124:0.89999998 #
-0.012711334464153697595967251743332 29:0.96700001 348:0.917 922:0.92299998 942:0.97299999 1061:0.90700001 1068:0.96399999 2583:0.91100001 2772:0.97600001 3135:0.94199997 4470:0.99599999 4472:0.95300001 4487:1 4488:1 4489:1 4490:1 4491:1 4492:1 4493:1 4494:1 4495:1 4496:1 4497:1 4498:1 4499:1 4500:1 4501:1 4502:1 4503:1 #
-0.073360899685332603414877894465462 946:0.96799999 1029:0.97100002 1150:0.95899999 1614:0.93800002 1718:0.93699998 1769:0.912 4078:0.954 6257:1 6258:1 6259:1 6260:1 6261:1 6262:1 #
-0.030235817720970545319225664115947 946:0.986 1145:0.94800001 2232:0.90600002 2243:0.93800002 2847:0.92500001 3245:0.91399997 4376:0.93599999 6480:1 6481:1 #
-0.02304651991950558767574541718659 875:0.96799999 998:0.93599999 1036:0.99400002 1131:0.95099998 1374:0.963 1427:0.93900001 1666:0.93800002 1947:0.926 2269:0.96600002 2344:0.94 2676:1 2677:1 2678:1 2679:1 2680:1 2681:1 2682:1 2683:1 2684:1 2685:1 #
-0.067953140625708757793788095113996 874:0.96200001 875:0.954 1141:0.92799997 1145:0.96899998 1374:0.96600002 1391:0.92799997 1614:0.94099998 1741:0.935 2362:0.91600001 2847:0.92500001 3122:0.917 3245:0.903 3284:1 3285:1 3286:1 3287:1 3288:1 3289:1 3290:1 #
0.073360899685332603414877894465462 907:0.8955 979:0.83340001 983:0.8865 1114:0.84600002 1131:0.85140002 1478:0.89999998 #
0.073360899685332603414877894465462 921:0.83429998 1487:0.81720001 #
0.073360899685332603414877894465462 341:0.83969998 875:0.85320002 901:0.83069998 1143:0.86669999 1438:0.87300003 1652:0.8973 1666:0.86669999 1741:0.89999998 1742:0.89999998 1743:0.89999998 1744:0.89999998 1745:0.89999998 1746:0.89999998 1747:0.89999998 1748:0.89999998 1749:0.89999998 1750:0.89999998 1751:0.89999998 1752:0.89999998 1753:0.89999998 1754:0.89999998 #
-0.073360899685332603414877894465462 1642:0.96399999 3105:0.92500001 4154:0.98199999 5102:0.958 5822:1 5823:1 5824:1 #
-0.056458092286525159153587338778379 922:0.94 950:0.93400002 1114:0.94700003 1478:0.94199997 1582:0.95999998 1675:0.92900002 2412:0.963 #
-0.057019308352696716768459594959495 262:0.98799998 928:0.935 1017:0.95499998 1503:0.93599999 1542:1 2362:0.91100001 2396:0.91900003 3012:0.93300003 3836:0.98000002 3841:1 3842:1 3843:1 #
-0.073360899685332603414877894465462 907:0.995 925:0.91100001 1642:0.97100002 3498:1 3499:1 3500:1 3501:1 #
-0.059186825036595343274559155588577 768:0.97000003 942:0.97100002 951:0.91900003 952:0.972 1010:0.90399998 1161:0.93699998 1374:0.95999998 1503:0.95999998 2162:0.94999999 2243:0.92799997 3593:1 3594:1 #
-0.036512355238585883498991790929722 885:0.91399997 1614:0.93000001 1666:0.972 5838:0.94800001 6448:1 6449:1 6450:1 6451:1 6452:1 #
-0.038494730588302966678426741964358 932:0.91600001 942:0.95999998 1499:0.95899999 1642:0.954 2489:0.90399998 3288:0.93300003 3728:1 3729:1 #
-0.073360899685332603414877894465462 814:0.977 1114:0.93199998 4769:0.98000002 6037:0.92000002 6124:0.96499997 #
-0.0059740225444790025222108198477144 905:0.99400002 908:0.92299998 921:0.92699999 1374:0.96499997 1590:0.95899999 1675:0.94599998 4759:0.92699999 #
-0.040426934947093651206984077361994 49:1 885:0.903 969:0.96399999 979:0.958 1374:0.96899998 1642:0.96499997 3750:1 3751:1 3752:1 3753:1 3754:1 3755:1 #
-0.0049600191865441867547503740354387 8:0.97899997 626:0.98799998 875:0.95300001 1145:0.972 1374:0.96799999 1438:0.97399998 1555:0.98799998 1996:0.97000003 3581:1 3582:1 3583:1 3584:1 3585:1 3586:1 3587:1 3588:1 #
0.073360899685332603414877894465462 43:0.88919997 983:0.8973 1614:0.84689999 1666:0.85949999 3331:0.86669999 4093:0.89999998 #
-0.073360899685332603414877894465462 925:0.93099999 1269:0.95300001 1304:0.90399998 1904:0.92500001 2286:0.90799999 3112:1 3113:1 3114:1 3115:1 #
-0.064193527781593762160383676018682 2:0.98699999 922:0.89999998 932:0.93400002 950:0.93900001 1181:0.90399998 1374:0.97000003 1573:0.93400002 1802:0.954 2235:0.912 2692:0.949 2847:0.90600002 2960:0.94300002 3059:0.94 3245:0.89999998 5738:1 #
-0.073360899685332603414877894465462 921:0.90600002 1374:0.97000003 1618:0.97299999 4759:0.94199997 4771:1 #
-0.073360899685332603414877894465462 1294:0.921 1642:0.97100002 1955:0.94700003 3841:0.93300003 5830:1 5831:1 #
0.073360899685332603414877894465462 2:0.8919 45:0.8919 871:0.82620001 892:0.82260001 921:0.83789998 941:0.82349998 971:0.82800001 1060:0.8919 1076:0.85409999 1124:0.89999998 1125:0.89999998 1126:0.89999998 1127:0.89999998 1128:0.89999998 #
-0.038189432926140423618655006521294 874:0.95599997 885:0.91100001 951:0.93000001 952:0.94999999 983:0.958 1145:0.92199999 1374:0.96600002 1652:0.98799998 1690:0.93599999 1763:0.91600001 1947:0.93199998 2766:0.91900003 #
-0.043434079370417967569384387616083 942:0.97299999 979:0.958 1150:0.96799999 1973:0.97500002 3269:1 3293:1 3294:1 #
-0.011401779889715926707971505038586 875:0.93599999 1114:0.93699998 1239:0.94300002 1438:0.963 1652:0.99400002 3245:0.89999998 3527:0.93199998 3530:1 3531:1 #
-0.073360899685332603414877894465462 905:0.96799999 1197:0.97000003 3429:0.92900002 4188:0.926 4430:1 4431:1 #
-0.073360899685332603414877894465462 555:0.98799998 1114:0.926 1275:0.93000001 2812:0.97500002 3778:1 3779:1 #
-0.039197944736207211702261332675334 39:1 921:0.93099999 922:0.94300002 977:0.96600002 998:0.935 1060:0.991 1374:0.963 1642:0.97100002 2257:0.90399998 2342:0.977 5106:1 5107:1 5108:1 #
-0.073360899685332603414877894465462 833:0.93800002 1131:0.95700002 1519:0.94800001 1666:0.95999998 2102:0.91500002 2812:0.97600001 3537:0.94499999 3786:1 3787:1 3788:1 3789:1 #
0.024121059669835021033179600635776 2:0.89999998 9:0.83609998 18:0.89279997 36:0.83340001 58:0.81 243:0.83160001 247:0.8883 250:0.8154 272:0.86220002 284:0.87660003 285:0.83880001 325:0.83249998 330:0.89999998 331:0.89999998 332:0.89999998 333:0.89999998 334:0.89999998 335:0.89999998 336:0.89999998 337:0.89999998 338:0.89999998 339:0.89999998 340:0.89999998 341:0.89999998 342:0.89999998 343:0.89999998 344:0.89999998 345:0.89999998 346:0.89999998 347:0.89999998 348:0.89999998 349:0.89999998 350:0.89999998 351:0.89999998 352:0.89999998 353:0.89999998 354:0.89999998 355:0.89999998 356:0.89999998 357:0.89999998 358:0.89999998 359:0.89999998 #
-0.0014954166424250721866007207694338 922:0.977 949:0.94700003 979:0.95200002 1145:0.94999999 1217:0.98799998 1652:0.97100002 1666:0.958 1807:1 1808:1 1809:1 1810:1 1811:1 1812:1 1813:1 1814:1 1815:1 1816:1 1817:1 1818:1 1819:1 1820:1 1821:1 1822:1 1823:1 1824:1 1825:1 1826:1 1827:1 1828:1 1829:1 1830:1 1831:1 1832:1 1833:1 1834:1 1835:1 1836:1 1837:1 1838:1 1839:1 1840:1 1841:1 1842:1 1843:1 1844:1 1845:1 1846:1 1847:1 1848:1 1849:1 1850:1 1851:1 #
-0.065616403026516931240585961404577 1612:0.903 3067:0.958 4759:0.92500001 5085:1 5086:1 5087:1 5088:1 5089:1 #
-0.073360899685332603414877894465462 2:0.98299998 887:0.977 928:0.90100002 5076:1 5077:1 5078:1 5079:1 5080:1 5081:1 5082:1 5083:1 5084:1 #
-0.023967747831642866734869201650326 832:0.96799999 885:0.93099999 946:0.97100002 980:0.90799999 1281:0.89999998 1294:0.926 1555:0.90799999 1633:0.92900002 1642:0.96799999 1741:0.92199999 2243:0.91000003 2952:1 2953:1 2954:1 #
-0.058785344444439724398421276418958 1131:0.95700002 1486:0.92000002 1582:0.95999998 1666:0.95999998 1802:0.94599998 3067:0.97399998 4242:1 4243:1 #
0.073360899685332603414877894465462 969:0.8901 1076:0.85409999 1294:0.84060001 1642:0.85589999 #
0.073360899685332603414877894465462 1642:0.8739 #
0.073360899685332603414877894465462 699:0.82260001 1642:0.87120003 3912:0.89999998 3913:0.89999998 3914:0.89999998 #
0.073360899685332603414877894465462 988:0.83520001 1041:0.81 1145:0.85500002 1222:0.89999998 1391:0.85140002 1582:0.84240001 2493:0.83340001 3237:0.89999998 3238:0.89999998 3239:0.89999998 3240:0.89999998 3241:0.89999998 3242:0.89999998 3243:0.89999998 3244:0.89999998 3245:0.89999998 #
-0.016663636513078641104845800668954 329:0.935 527:0.93900001 874:0.93900001 885:0.90700001 1010:0.92699999 1062:0.90799999 1180:0.90399998 1374:0.96600002 1428:1 1429:1 1430:1 1431:1 1432:1 1433:1 1434:1 1435:1 1436:1 1437:1 1438:1 1439:1 1440:1 1441:1 1442:1 1443:1 1444:1 1445:1 1446:1 1447:1 1448:1 1449:1 1450:1 1451:1 1452:1 1453:1 #
0.073360899685332603414877894465462 1582:0.85589999 #
-0.039591283418226451418231448542429 875:0.96200001 922:0.94300002 952:0.90100002 1059:0.93800002 1374:0.963 1503:0.92000002 1652:0.91399997 1777:1 1778:1 1779:1 1780:1 1781:1 1782:1 1783:1 1784:1 1785:1 1786:1 1787:1 1788:1 1789:1 1790:1 #
0.073360899685332603414877894465462 1374:0.8721 2061:0.83160001 #
0.073360899685332603414877894465462 1642:0.86940002 1718:0.84689999 2694:0.85229999 3505:0.89999998 #
0.073360899685332603414877894465462 951:0.82080001 1592:0.82620001 2471:0.86220002 2663:0.8757 2673:0.81 4125:0.89999998 4126:0.89999998 #
0.011828127547682712461529774827795 5:0.8811 21:0.85680002 45:0.87660003 100:0.8883 195:0.87840003 217:0.8136 245:0.8847 284:0.87660003 325:0.83249998 564:0.83069998 567:0.89999998 568:0.89999998 569:0.89999998 570:0.89999998 571:0.89999998 572:0.89999998 573:0.89999998 574:0.89999998 575:0.89999998 576:0.89999998 577:0.89999998 578:0.89999998 579:0.89999998 580:0.89999998 581:0.89999998 582:0.89999998 583:0.89999998 584:0.89999998 585:0.89999998 586:0.89999998 587:0.89999998 588:0.89999998 589:0.89999998 590:0.89999998 591:0.89999998 592:0.89999998 593:0.89999998 594:0.89999998 595:0.89999998 596:0.89999998 597:0.89999998 598:0.89999998 599:0.89999998 #
0.073360899685332603414877894465462 2:0.8919 470:0.89279997 831:0.83789998 921:0.84869999 941:0.83160001 950:0.84060001 1131:0.84780002 1150:0.84960002 1156:0.89999998 1157:0.89999998 1158:0.89999998 1159:0.89999998 1160:0.89999998 #
-0.014249719466423022701251355215391 871:0.99400002 885:0.91399997 901:0.93099999 921:0.93699998 1438:0.954 5661:0.96200001 6365:1 6366:1 6367:1 6368:1 6369:1 6370:1 6371:1 6372:1 6373:1 6374:1 6375:1 6376:1 6377:1 6378:1 6379:1 #
-0.036959021291807912790172707673264 1105:0.93400002 1110:0.91799998 1114:0.94 1590:0.96200001 2125:0.96799999 2387:0.90799999 3015:1 4771:0.97500002 5167:1 5168:1 5169:1 5170:1 #
-0.073360899685332603414877894465462 262:0.98799998 874:0.95599997 1197:0.97000003 1677:0.917 2034:0.91500002 2849:1 #
-0.035790346233468890713158572225439 382:0.95499998 950:0.93400002 1131:0.94599998 1279:0.98400003 1478:0.95300001 1652:1 2335:0.91000003 2412:0.97399998 2605:1 2606:1 2607:1 2608:1 #
0.073360899685332603414877894465462 275:0.89999998 971:0.83429998 1666:0.86940002 3087:0.89999998 3088:0.89999998 3089:0.89999998 #
-0.073360899685332603414877894465462 979:0.96100003 1150:0.96799999 1652:0.99699998 2102:0.912 #
0.073360899685332603414877894465462 585:0.86489999 906:0.86400002 1304:0.82889998 1642:0.87660003 #
0.030519082420439519465205080450687 2:0.8847 7:0.8775 16:0.85860002 18:0.86400002 192:0.83789998 487:0.84420002 614:0.84600002 906:0.89999998 907:0.89999998 908:0.89999998 909:0.89999998 910:0.89999998 911:0.89999998 912:0.89999998 913:0.89999998 914:0.89999998 915:0.89999998 916:0.89999998 917:0.89999998 918:0.89999998 919:0.89999998 920:0.89999998 921:0.89999998 922:0.89999998 923:0.89999998 924:0.89999998 925:0.89999998 926:0.89999998 927:0.89999998 928:0.89999998 929:0.89999998 930:0.89999998 931:0.89999998 932:0.89999998 933:0.89999998 934:0.89999998 935:0.89999998 936:0.89999998 937:0.89999998 938:0.89999998 939:0.89999998 940:0.89999998 941:0.89999998 #
0.073360899685332603414877894465462 1131:0.86669999 1374:0.8721 #
0.073360899685332603414877894465462 16:0.89279997 62:0.89639997 125:0.85680002 195:0.87120003 206:0.85320002 243:0.88919997 248:0.83429998 320:0.89279997 440:0.88020003 875:0.87120003 897:0.8136 918:0.83340001 921:0.83429998 928:0.83160001 932:0.82980001 942:0.89999998 943:0.89999998 944:0.89999998 945:0.89999998 946:0.89999998 947:0.89999998 948:0.89999998 949:0.89999998 950:0.89999998 951:0.89999998 952:0.89999998 953:0.89999998 954:0.89999998 955:0.89999998 956:0.89999998 957:0.89999998 958:0.89999998 959:0.89999998 #
-0.027954707274197233141110885412672 885:0.93099999 1250:0.91299999 1374:0.96899998 1652:0.96200001 2202:0.903 2851:0.90600002 3428:0.95599997 3879:1 3880:1 3881:1 3882:1 3883:1 #
0.073360899685332603414877894465462 942:0.8847 #
0.073360899685332603414877894465462 874:0.86129999 1079:0.85680002 1532:0.84960002 1642:0.86760002 2285:0.8937 2892:0.83880001 3385:0.89999998 3386:0.89999998 3387:0.89999998 3388:0.89999998 3389:0.89999998 3390:0.89999998 #
0.073360899685332603414877894465462 925:0.84060001 1304:0.82889998 2616:0.89999998 2617:0.89999998 #
0.073360899685332603414877894465462 1076:0.85680002 1665:0.86129999 #
0.073360899685332603414877894465462 838:0.85500002 875:0.84780002 921:0.83789998 946:0.86580002 1125:0.85769999 1131:0.85860002 1374:0.86940002 1503:0.84509999 1582:0.86580002 1622:0.83789998 2093:0.83969998 2856:0.86220002 3998:0.89999998 3999:0.89999998 4000:0.89999998 #
-0.073360899685332603414877894465462 921:0.93099999 1076:0.95200002 1374:0.972 3102:1 #
0.03284125629242568011889602530573 2:0.89999998 5:0.83969998 18:0.86400002 42:0.84149998 62:0.89639997 203:0.88919997 245:0.89639997 248:0.89639997 250:0.82529998 265:0.8775 284:0.87660003 325:0.83249998 360:0.89999998 361:0.89999998 362:0.89999998 363:0.89999998 364:0.89999998 365:0.89999998 366:0.89999998 367:0.89999998 368:0.89999998 369:0.89999998 370:0.89999998 371:0.89999998 372:0.89999998 373:0.89999998 374:0.89999998 375:0.89999998 376:0.89999998 377:0.89999998 378:0.89999998 379:0.89999998 380:0.89999998 381:0.89999998 382:0.89999998 383:0.89999998 384:0.89999998 385:0.89999998 386:0.89999998 387:0.89999998 388:0.89999998 #
-0.033280075293402405778309116612945 979:0.949 1079:0.89999998 1374:0.96899998 1438:0.96600002 1582:0.954 2125:0.97000003 2412:0.977 2479:0.963 2948:0.90200001 3073:1 3074:1 3075:1 #
-0.045945254119545787807599168672823 1031:0.95099998 1050:0.917 1247:0.95700002 1374:0.96799999 2125:0.97000003 3059:0.949 4313:0.91799998 4759:0.94199997 5366:0.92900002 5919:1 #
-0.025791578906488320938050762265448 690:0.99199998 988:0.92500001 1061:0.95200002 1108:0.93400002 1145:0.926 1188:0.91000003 1309:0.96100003 2854:0.921 6322:1 6323:1 6324:1 6325:1 6326:1 6327:1 6328:1 6329:1 6330:1 6331:1 6332:1 6333:1 6334:1 6335:1 #
-0.01113640218815169745381066235268 45:0.93900001 100:0.963 218:0.92900002 282:0.93000001 871:0.90899998 885:0.90399998 922:0.98000002 924:0.90100002 932:0.94599998 946:0.94199997 950:0.92199999 952:0.91600001 1131:0.92799997 1150:0.96799999 1188:1 1189:1 1190:1 1191:1 1192:1 1193:1 1194:1 1195:1 1196:1 1197:1 1198:1 1199:1 1200:1 1201:1 1202:1 1203:1 1204:1 1205:1 1206:1 1207:1 1208:1 1209:1 1210:1 1211:1 1212:1 1213:1 #
0.023404929348356206392223199941327 241:0.89279997 864:0.8919 925:0.84329998 1019:0.8136 1075:0.8937 1275:0.83700001 1304:0.82620001 2821:0.89999998 2822:0.89999998 2823:0.89999998 2824:0.89999998 2825:0.89999998 #
-0.03412985736077196047277837465117 18:0.963 203:0.99599999 336:0.98400003 833:0.94499999 844:0.991 922:0.94599998 941:0.94199997 950:0.91500002 1131:0.963 1239:0.91500002 1374:0.96899998 1503:0.93699998 1582:0.954 1766:0.92000002 1996:0.91799998 2061:0.926 2257:0.91299999 2377:0.90600002 2756:1 2757:1 2758:1 2759:1 #
-0.073360899685332603414877894465462 332:0.98799998 1222:0.98900002 1416:0.93000001 1666:0.963 2212:0.94199997 4246:1 4247:1 4248:1 #
-0.028445153740173482331821119828419 274:0.90600002 907:0.995 921:0.90499997 922:0.92900002 932:0.92500001 1307:1 1308:1 1309:1 1310:1 1311:1 1312:1 1313:1 1314:1 1315:1 1316:1 1317:1 1318:1 1319:1 1320:1 1321:1 1322:1 1323:1 1324:1 1325:1 1326:1 #
0.073360899685332603414877894465462 858:0.84689999 906:0.86580002 925:0.83520001 1275:0.84509999 1519:0.82529998 1666:0.85409999 2223:0.82889998 2476:0.82169998 2797:0.8136 2812:0.8757 3328:0.89999998 3329:0.89999998 3330:0.89999998 3331:0.89999998 3332:0.89999998 #
-0.046311380837153061362787553889575 389:0.921 832:0.93000001 874:0.93699998 1691:0.917 1902:0.95599997 1934:0.92900002 2243:0.97600001 2812:0.972 2856:0.92299998 3321:0.92799997 3331:0.91799998 3367:1 3368:1 3369:1 3370:1 3371:1 3372:1 3373:1 3374:1 3375:1 #
-0.073360899685332603414877894465462 885:0.94700003 928:0.95999998 1294:0.93199998 1318:0.99400002 1614:0.94099998 1642:0.96499997 2720:1 #
-0.016082036165834541485697428697677 2:0.991 838:0.95200002 858:0.98699999 875:0.96200001 892:0.935 921:0.93099999 922:0.93400002 925:0.93099999 951:0.91100001 979:0.96700001 1131:0.954 1150:0.954 1247:0.91600001 1294:0.926 1374:0.98699999 1592:0.92699999 1614:0.94099998 1652:0.99699998 1666:0.96600002 1675:0.93199998 2415:0.91799998 2489:0.92299998 2733:0.954 3060:0.92500001 4346:0.92000002 4364:0.91600001 4382:1 4383:1 4384:1 4385:1 4386:1 4387:1 4388:1 4389:1 #
-0.034493167351816789167884280686849 1079:0.94 1110:0.91799998 1114:0.95099998 1590:0.95899999 2125:0.96100003 2412:0.97100002 3015:0.98799998 4771:0.93400002 5171:1 5172:1 #
-0.063801564116401185411397989355464 2:0.991 9:0.98400003 17:0.98799998 1374:0.94599998 1595:0.93800002 1802:0.93900001 4554:0.954 4759:0.95599997 4763:1 4764:1 4765:1 #
-0.025907072404079807548260561134157 875:0.954 922:0.93099999 1032:0.90100002 1064:0.94599998 1503:0.94199997 1618:0.95999998 1791:1 1792:1 1793:1 1794:1 1795:1 1796:1 1797:1 1798:1 1799:1 1800:1 1801:1 1802:1 1803:1 1804:1 1805:1 1806:1 #
-0.073360899685332603414877894465462 1048:0.96700001 1391:0.92500001 3014:0.912 3602:1 3603:1 3604:1 3605:1 3606:1 #
0.073360899685332603414877894465462 871:0.8973 925:0.84329998 928:0.86669999 1114:0.84329998 1642:0.87120003 3245:0.8154 3380:0.89999998 3381:0.89999998 3382:0.89999998 3383:0.89999998 3384:0.89999998 #
0.073360899685332603414877894465462 906:0.89279997 921:0.83429998 1374:0.86940002 4047:0.85409999 4297:0.89999998 4298:0.89999998 #
0.073360899685332603414877894465462 858:0.89279997 2818:0.89999998 2819:0.89999998 #
0.073360899685332603414877894465462 925:0.82260001 983:0.89459997 1614:0.84240001 1666:0.86040002 4091:0.89999998 #
-0.010488157985756264498067302781692 690:0.99199998 875:0.977 921:0.91799998 928:0.92699999 1374:0.963 1438:0.97100002 1610:0.96399999 1675:0.95599997 1769:0.90899998 2061:0.91900003 2185:0.954 2387:0.93599999 4078:0.96399999 5015:0.90100002 5282:1 5283:1 5284:1 5285:1 #
-0.045351589407664774644679539505887 243:0.991 837:0.95499998 1125:0.95099998 1294:0.92299998 1627:0.98000002 1642:0.95899999 1666:0.96600002 2733:0.95899999 3331:0.958 5838:0.97100002 5842:1 5843:1 5844:1 5845:1 5846:1 5847:1 5848:1 #
-0.073360899685332603414877894465462 385:0.98500001 950:0.93099999 1247:0.96499997 1374:0.96899998 1642:0.95700002 #
-0.03219641977867913201771798981099 1391:0.90399998 1438:0.972 1582:0.95099998 1666:0.972 3245:0.903 4297:0.92199999 5242:0.926 6266:1 6267:1 6268:1 6269:1 6270:1 6271:1 6272:1 #
-0.073360899685332603414877894465462 1131:0.95099998 1247:0.96799999 1304:0.921 1478:0.94199997 1503:0.92799997 2061:0.926 2412:0.94199997 3120:1 #
0.073360899685332603414877894465462 2999:0.89999998 #
0.073360899685332603414877894465462 3056:0.89999998 #
0.073360899685332603414877894465462 1131:0.85860002 1391:0.81900001 2851:0.81989998 3245:0.82169998 #
-0.056836468916126578476699648945214 12:0.99199998 942:0.95499998 1161:0.96499997 2848:0.903 3701:1 3702:1 3703:1 #
0.073360899685332603414877894465462 243:0.8847 922:0.84869999 1014:0.81809998 1131:0.84060001 1582:0.88200003 1627:0.8793 1652:0.88919997 2760:0.81269997 2871:0.8154 2873:0.89999998 2874:0.89999998 2875:0.89999998 2876:0.89999998 2877:0.89999998 #
0.073360899685332603414877894465462 952:0.8811 1096:0.84240001 1188:0.83249998 1391:0.82800001 1805:0.84420002 2368:0.82169998 3222:0.89999998 3223:0.89999998 3224:0.89999998 3225:0.89999998 3226:0.89999998 3227:0.89999998 3228:0.89999998 3229:0.89999998 #
-0.0032725295907031332585945815338846 379:0.90700001 828:0.98500001 874:0.97000003 979:0.95499998 1145:0.96100003 1469:0.89999998 1652:0.98199999 1675:0.93400002 1798:0.92299998 1926:0.90499997 2719:0.89999998 2813:0.95099998 3297:1 3298:1 3299:1 3300:1 3301:1 3302:1 3303:1 3304:1 3305:1 3306:1 3307:1 3308:1 3309:1 #
-0.073360899685332603414877894465462 1150:0.97100002 1704:0.91100001 #
0.073360899685332603414877894465462 7:0.84689999 952:0.82800001 1110:0.83160001 1198:0.8118 1309:0.86760002 1666:0.8721 1788:0.81089997 2813:0.82980001 2827:0.85949999 2838:0.81269997 3473:0.82980001 4158:0.89999998 4159:0.89999998 4160:0.89999998 4161:0.89999998 4162:0.89999998 #
-0.010732304369313458089485457946921 2:0.991 25:0.99599999 100:0.986 874:0.94800001 875:0.92900002 1374:0.90499997 1486:0.94800001 1583:0.96399999 2246:0.90899998 4346:0.97399998 4364:0.90499997 4380:0.912 4654:0.93400002 4769:0.90700001 4879:0.92900002 5670:1 5671:1 5672:1 5673:1 5674:1 5675:1 5676:1 5677:1 5678:1 5679:1 5680:1 5681:1 5682:1 5683:1 5684:1 5685:1 5686:1 5687:1 5688:1 5689:1 5690:1 5691:1 #
-0.064377802000361264433969665788027 921:0.93400002 928:0.958 952:0.954 1131:0.94300002 1181:0.912 1239:0.94 1374:0.96899998 1642:0.96799999 1675:0.93699998 2344:0.92500001 2846:1 #
-0.073360899685332603414877894465462 1074:0.97000003 1076:0.95200002 1665:1 #
-0.035876102513634204604908717328726 1590:0.96200001 1627:0.95999998 1675:0.94199997 5488:0.93300003 5543:0.93099999 5560:0.93900001 5565:1 5566:1 #
-0.0019362761266311231348608012936552 875:0.95099998 922:0.94300002 951:0.91399997 1131:0.94300002 1391:0.92900002 1438:0.97100002 1652:0.98799998 1675:0.94199997 2377:0.91399997 2972:0.93800002 2978:0.90600002 4094:1 4095:1 4096:1 4097:1 4098:1 4099:1 4100:1 #
-0.067898836172865670302023488602572 6:0.92799997 998:0.92699999 1475:0.958 1487:0.90899998 1652:0.99699998 1676:0.96499997 3245:0.90600002 3862:1 3863:1 3864:1 3865:1 #
-0.030640427179715851169206075610418 5:0.93000001 875:0.94499999 921:0.92699999 922:0.94 942:0.96899998 1143:0.93199998 1308:0.93099999 1374:0.96899998 1582:0.95700002 1798:0.926 1940:0.91299999 1947:0.93800002 1998:0.90100002 2061:0.93800002 2288:0.935 2710:0.91900003 3067:0.97100002 3077:0.90600002 3450:1 3451:1 3452:1 3453:1 3454:1 3455:1 3456:1 #
-0.073360899685332603414877894465462 1145:0.96799999 1666:0.97500002 1704:0.91399997 3106:1 3107:1 #
-0.028956963266561171199686697264042 921:0.92400002 979:0.96100003 1114:0.94 1145:0.96100003 1197:0.94499999 1374:0.96899998 1462:0.94400001 1704:0.92299998 2933:1 2934:1 2935:1 2936:1 2937:1 #
-0.0023087480151260161148618621496098 652:0.98299998 875:0.96200001 885:0.917 1036:0.90899998 1041:0.903 1070:0.903 1374:0.96600002 1378:1 1379:1 1380:1 1381:1 1382:1 1383:1 1384:1 1385:1 1386:1 1387:1 1388:1 1389:1 1390:1 1391:1 1392:1 1393:1 1394:1 1395:1 1396:1 1397:1 1398:1 1399:1 1400:1 1401:1 1402:1 1403:1 1404:1 1405:1 1406:1 1407:1 1408:1 1409:1 1410:1 1411:1 1412:1 1413:1 1414:1 1415:1 1416:1 1417:1 1418:1 1419:1 1420:1 1421:1 1422:1 1423:1 1424:1 1425:1 1426:1 1427:1 #
-0.073360899685332603414877894465462 2:0.97399998 921:0.93099999 1076:0.949 1374:0.972 3102:0.96899998 #
0.073360899685332603414877894465462 49:0.89639997 831:0.83880001 925:0.84329998 1249:0.83340001 1285:0.89999998 1286:0.89999998 1287:0.89999998 #
-0.073360899685332603414877894465462 1391:0.91100001 1438:0.93099999 1629:0.91299999 2061:0.91900003 2286:0.93599999 2740:0.92799997 2851:0.91100001 3986:1 #
-0.073360899685332603414877894465462 864:1 1294:0.92699999 3355:1 3356:1 #
0.073360899685332603414877894465462 942:0.88739997 1143:0.84869999 1374:0.8721 1503:0.84509999 2750:0.89999998 #
0.073360899685332603414877894465462 247:0.84240001 1003:0.85409999 1374:0.89099997 #
0.073360899685332603414877894465462 49:0.8793 925:0.84060001 1269:0.83249998 1304:0.82889998 2613:0.89999998 2614:0.89999998 2615:0.89999998 #
-0.058412668394608152633296072053781 2:0.991 441:0.97600001 1652:0.94800001 4308:0.93800002 4346:0.99299997 4367:0.96799999 4878:0.93400002 6112:1 6113:1 6114:1 #
-0.019980858798084394356564530426112 942:0.97100002 1573:0.92500001 1652:0.98199999 1666:0.972 4608:0.92500001 5292:0.94700003 5581:0.94800001 6426:1 6427:1 #
-0.01857640308702190184986235976794 892:0.91500002 979:0.96100003 1374:0.97100002 1391:0.912 1438:0.97100002 1652:0.95899999 3157:0.92500001 3249:0.954 4333:1 4334:1 4335:1 4336:1 4337:1 4338:1 4339:1 #
-0.020010218479201778707388115208232 875:0.91299999 885:0.91100001 902:0.90799999 921:0.92400002 979:0.958 1131:0.95999998 1374:0.972 1438:0.98000002 1478:0.94499999 1582:0.92199999 1695:0.91000003 1880:0.903 2880:1 #
0.073360899685332603414877894465462 1076:0.85409999 1642:0.8739 1718:0.84420002 3503:0.89999998 3504:0.89999998 #
0.073360899685332603414877894465462 838:0.83789998 874:0.85769999 989:0.81 1033:0.83609998 1285:0.8757 1831:0.82889998 1955:0.84960002 2361:0.81449997 2851:0.81989998 2896:0.87660003 3694:0.8757 3744:0.82440001 3746:0.89999998 3747:0.89999998 3748:0.89999998 3749:0.89999998 #
0.073360899685332603414877894465462 838:0.85680002 952:0.81720001 969:0.8901 1033:0.83789998 1294:0.83069998 1642:0.8739 1666:0.84149998 2910:0.81629997 2939:0.89999998 2940:0.89999998 2941:0.89999998 2942:0.89999998 2943:0.89999998 #
0.053593965645998054014853551052511 5:0.87660003 22:0.89279997 284:0.87660003 285:0.83340001 325:0.83249998 564:0.83069998 567:0.86129999 633:0.89999998 634:0.89999998 635:0.89999998 636:0.89999998 637:0.89999998 638:0.89999998 639:0.89999998 640:0.89999998 641:0.89999998 642:0.89999998 643:0.89999998 644:0.89999998 645:0.89999998 646:0.89999998 647:0.89999998 648:0.89999998 649:0.89999998 650:0.89999998 651:0.89999998 #
-0.073360899685332603414877894465462 #
0.073360899685332603414877894465462 218:0.8847 838:0.85500002 928:0.84960002 1197:0.84329998 1627:0.86849999 1675:0.84869999 1718:0.84780002 1740:0.86040002 2092:0.83789998 2412:0.84780002 3537:0.84780002 5670:0.84329998 5837:0.82529998 6468:0.89999998 6469:0.89999998 6470:0.89999998 6471:0.89999998 #
-0.0057301246281442645355563847431313 390:0.972 461:0.90399998 576:0.89999998 832:0.96200001 922:0.94199997 1003:0.94300002 1017:0.91600001 1036:0.92500001 1104:0.90499997 1239:0.94 1374:0.963 1582:0.954 1675:0.954 1764:0.90499997 1802:0.93199998 2099:1 2100:1 2101:1 2102:1 2103:1 2104:1 2105:1 2106:1 2107:1 2108:1 2109:1 2110:1 2111:1 2112:1 2113:1 2114:1 2115:1 2116:1 2117:1 2118:1 2119:1 2120:1 #
-0.070459772280846141856436304351519 1114:0.93900001 1197:0.93699998 2243:0.97899997 2827:0.94599998 3640:0.91900003 3733:1 3734:1 3735:1 #
-0.073360899685332603414877894465462 858:0.97600001 1269:0.95300001 1389:0.986 1926:0.917 2851:0.91100001 3108:1 3109:1 3110:1 3111:1 #
-0.041025177890986336270984224938729 2:0.94 908:0.93599999 921:0.91799998 1094:0.935 1374:0.96899998 1642:0.96399999 2185:0.95899999 2377:0.912 3240:0.90700001 3418:1 #
-0.073360899685332603414877894465462 67:0.93400002 875:0.96799999 907:0.99400002 925:0.94 1642:0.96499997 3502:1 #
-0.073360899685332603414877894465462 858:0.99199998 921:0.921 925:0.94300002 1508:0.94599998 1741:0.91600001 2102:0.91000003 2377:0.912 2848:0.96200001 4723:0.94199997 4752:1 4753:1 4754:1 4755:1 #
-0.031095937771396194027051507191572 2:0.98699999 7:0.97100002 875:0.917 1582:0.95899999 3645:0.93900001 4188:0.97299999 4470:0.97299999 4554:0.96399999 4665:1 4666:1 4667:1 4668:1 #
0.073360899685332603414877894465462 838:0.85949999 1374:0.87480003 2316:0.81989998 2781:0.89999998 2782:0.89999998 2783:0.89999998 #
0.073360899685332603414877894465462 9:0.88200003 151:0.85409999 922:0.84869999 1076:0.83609998 1374:0.86849999 1475:0.85769999 1675:0.84869999 2972:0.81629997 3856:0.85680002 4136:0.89999998 4137:0.89999998 4138:0.89999998 4139:0.89999998 4140:0.89999998 #
0.073360899685332603414877894465462 1131:0.86400002 2568:0.8793 2609:0.89999998 #
-0.00094444441147279790428614720809719 2:0.991 921:0.91799998 922:0.92900002 940:0.94800001 1003:0.949 1131:0.93099999 1374:0.97000003 1438:0.95999998 1478:0.949 1666:0.96899998 1675:0.93699998 1707:0.91000003 2369:0.93099999 2412:0.94499999 2949:1 2950:1 #
-0.0017073089297182781048228816800361 332:0.98400003 942:0.98000002 1592:0.93300003 1679:0.93099999 2546:0.93400002 2554:0.91100001 3081:0.94199997 3613:1 3614:1 3615:1 3616:1 3617:1 3618:1 3619:1 3620:1 3621:1 3622:1 3623:1 3624:1 3625:1 3626:1 3627:1 3628:1 3629:1 3630:1 3631:1 #
-0.015949309940763600756952200754313 875:0.96499997 949:0.92799997 1010:0.91500002 1475:0.95499998 1503:0.94499999 1546:0.917 1704:0.91399997 1766:0.91500002 2142:0.95499998 2426:0.90799999 2851:0.91100001 2960:0.93000001 3034:1 3035:1 3036:1 3037:1 3038:1 3039:1 3040:1 3041:1 3042:1 3043:1 3044:1 #
-0.0072441900018096741162287877102699 1029:0.91399997 1666:0.96100003 4367:0.97500002 4648:1 4649:1 4650:1 4651:1 4652:1 4653:1 4654:1 4655:1 4656:1 4657:1 4658:1 #
-0.020323467413323723779194907024248 874:0.95700002 952:0.97399998 1131:0.954 1145:0.91900003 1239:0.93400002 1361:0.93099999 1475:0.94300002 1476:0.95700002 1703:0.93199998 2146:0.98299998 2377:0.91100001 2851:0.903 3521:0.926 3599:1 3600:1 3601:1 #
0.073360899685332603414877894465462 1076:0.85680002 #
-0.073360899685332603414877894465462 946:0.91600001 1503:0.93599999 1542:1 1805:0.912 3826:0.99800003 3836:0.977 #
0.073360899685332603414877894465462 1131:0.86669999 2568:0.8793 2610:0.89999998 2611:0.89999998 2612:0.89999998 #
-0.042796851715839981378231016151403 875:0.95899999 942:0.99299997 1370:0.89999998 1374:0.96600002 1485:0.96399999 1652:0.97299999 2377:0.90899998 3071:1 3072:1 #
-0.073360899685332603414877894465462 921:0.92699999 983:0.94400001 1503:0.92799997 1582:0.954 1590:0.96200001 1652:0.97299999 2177:0.99199998 2178:0.91000003 2413:0.94700003 2719:0.90899998 3211:0.90200001 3245:0.91100001 3856:0.90899998 3926:1 3927:1 3928:1 3929:1 #
-0.0069617943157974093715267827064963 12:0.99199998 21:0.97399998 50:0.94199997 875:0.94800001 942:0.96399999 979:0.949 1033:0.91600001 1079:0.90499997 2158:0.90899998 2502:1 2503:1 2504:1 2505:1 2506:1 2507:1 2508:1 2509:1 2510:1 2511:1 2512:1 2513:1 2514:1 2515:1 2516:1 2517:1 2518:1 2519:1 2520:1 2521:1 2522:1 2523:1 2524:1 2525:1 2526:1 2527:1 2528:1 2529:1 2530:1 2531:1 2532:1 2533:1 2534:1 2535:1 2536:1 2537:1 2538:1 2539:1 2540:1 2541:1 2542:1 2543:1 2544:1 2545:1 2546:1 2547:1 2548:1 2549:1 2550:1 2551:1 2552:1 2553:1 2554:1 2555:1 2556:1 2557:1 2558:1 2559:1 2560:1 2561:1 2562:1 #
-0.0069434593273939903060321121586185 2:0.98299998 195:0.94800001 462:0.94800001 921:0.90600002 922:0.94 928:0.94700003 1114:0.97399998 1247:0.95300001 1374:0.96600002 1582:0.94199997 1642:0.95700002 1675:0.93300003 1955:0.93699998 2295:0.92199999 2299:0.912 2344:0.92400002 2594:1 2595:1 2596:1 2597:1 #
0.073360899685332603414877894465462 838:0.85949999 960:0.86760002 1262:0.88739997 1275:0.83249998 1311:0.85949999 1461:0.84780002 1642:0.86129999 1652:0.86309999 2395:0.86220002 2771:0.8118 4045:0.89999998 4046:0.89999998 4047:0.89999998 4048:0.89999998 4049:0.89999998 4050:0.89999998 4051:0.89999998 #
-0.025686742029126706510222533097476 39:0.96100003 942:0.977 952:0.97399998 1068:0.95999998 1438:0.93099999 2829:0.90100002 3707:1 3708:1 #
-0.073360899685332603414877894465462 1008:0.917 1192:0.90200001 1652:0.94700003 2034:0.926 2105:0.94999999 2986:0.94999999 4076:1 #
-0.0049353144691128385257439248334776 875:0.958 1652:0.99400002 1947:0.93199998 2489:0.92299998 2546:0.97399998 3621:1 3624:0.96799999 3640:0.93000001 4599:1 4600:1 4601:1 4602:1 4603:1 4604:1 4605:1 4606:1 4607:1 4608:1 4609:1 4610:1 4611:1 4612:1 #
-0.046773299165758855377994507307449 874:0.96100003 921:0.92699999 924:0.954 1374:0.954 1503:0.93699998 1582:0.954 2342:0.94400001 3189:1 3190:1 3191:1 3192:1 3193:1 3194:1 3195:1 3196:1 3197:1 3198:1 #
-0.0032437172810271877598786716134782 921:0.90899998 1374:0.96499997 1458:0.97399998 1503:0.92799997 1628:0.917 1805:0.92299998 2061:0.91600001 2093:0.926 2325:0.93300003 2344:0.93300003 2387:0.92900002 2471:0.90799999 3269:0.99400002 3872:0.91399997 4346:0.92000002 4376:0.91500002 4543:1 4544:1 4545:1 4546:1 4547:1 #
0.073360899685332603414877894465462 892:0.83160001 971:0.83429998 979:0.83880001 1076:0.85949999 1144:0.89999998 #
-0.0086832826433844659957950185003028 2:0.98000002 16:0.954 162:0.935 194:0.89999998 265:0.98299998 385:0.98100001 462:0.96899998 496:0.96100003 855:0.91000003 861:0.98100001 908:0.93900001 921:0.92699999 922:0.935 924:0.92799997 928:0.94400001 932:0.95899999 946:0.90100002 1060:0.98500001 1078:1 1079:1 1080:1 1081:1 1082:1 1083:1 1084:1 1085:1 1086:1 1087:1 1088:1 1089:1 1090:1 1091:1 1092:1 1093:1 1094:1 1095:1 1096:1 1097:1 1098:1 1099:1 1100:1 1101:1 1102:1 1103:1 1104:1 1105:1 1106:1 1107:1 1108:1 1109:1 1110:1 1111:1 1112:1 1113:1 1114:1 1115:1 1116:1 1117:1 1118:1 1119:1 1120:1 1121:1 1122:1 1123:1 #
-0.0098391906184257752615573977550412 885:0.91100001 998:0.93900001 1145:0.94400001 1391:0.92799997 1478:0.94800001 1652:0.99699998 2052:0.92900002 2325:0.92500001 2342:0.97100002 2854:0.96799999 2858:1 2859:1 2860:1 #
0.015892931855523255435524987433382 2:0.89639997 9:0.8883 11:0.8955 14:0.87480003 18:0.88919997 29:0.86669999 50:0.87660003 104:0.8136 247:0.86940002 248:0.81989998 439:0.88559997 488:0.82260001 636:0.8919 720:0.89999998 721:0.89999998 722:0.89999998 723:0.89999998 724:0.89999998 725:0.89999998 726:0.89999998 727:0.89999998 728:0.89999998 729:0.89999998 730:0.89999998 731:0.89999998 732:0.89999998 733:0.89999998 734:0.89999998 735:0.89999998 736:0.89999998 737:0.89999998 738:0.89999998 739:0.89999998 740:0.89999998 741:0.89999998 742:0.89999998 743:0.89999998 744:0.89999998 745:0.89999998 746:0.89999998 747:0.89999998 748:0.89999998 749:0.89999998 750:0.89999998 751:0.89999998 752:0.89999998 753:0.89999998 #
0.073360899685332603414877894465462 921:0.83789998 1374:0.86400002 1945:0.88919997 2073:0.82440001 3099:0.83340001 3103:0.84149998 3597:0.8136 3640:0.82440001 4254:0.89999998 4255:0.89999998 4256:0.89999998 4257:0.89999998 #
-0.054921716972865304573492295503456 1666:0.96899998 2034:0.92900002 3269:0.99199998 4010:1 4011:1 4012:1 4013:1 #
-0.028094327985335336428374120032458 2:0.991 875:0.94800001 952:0.92500001 1059:0.94400001 1114:0.94199997 1145:0.96899998 1197:0.917 1261:0.91799998 1374:0.963 1391:0.93900001 1418:0.97000003 1475:0.93599999 1989:0.917 2176:0.95499998 2242:0.926 2413:0.935 2760:0.93099999 2840:0.91799998 2851:0.91000003 3245:0.912 3277:1 3278:1 3279:1 3280:1 3281:1 3282:1 3283:1 #
-0.073360899685332603414877894465462 2:0.991 248:0.93099999 832:0.94199997 892:0.90799999 921:0.92699999 922:0.90899998 932:0.92799997 941:0.90700001 979:0.92000002 1020:0.89999998 1129:1 1130:1 1131:1 1132:1 1133:1 #
-0.073360899685332603414877894465462 892:0.91100001 979:0.97299999 1666:0.97000003 3910:1 #
-0.011982665540413725904778097230974 885:0.94800001 952:0.94800001 1079:0.935 2132:0.90100002 2142:0.95700002 2325:0.91100001 3936:0.91100001 4188:0.92799997 4376:0.93300003 5242:0.96200001 6306:1 6307:1 6308:1 6309:1 6310:1 6311:1 6312:1 6313:1 6314:1 6315:1 6316:1 6317:1 6318:1 #
-0.015869656227366132211775706650769 2:0.99599999 7:0.97100002 39:0.99599999 915:0.92799997 922:0.97299999 1374:0.94800001 1582:0.95599997 1642:0.96600002 1675:0.903 2342:0.96499997 5100:1 5101:1 5102:1 5103:1 5104:1 5105:1 #
-0.032802930038926592093417866635718 921:0.93099999 1374:0.96700001 2185:0.96499997 2377:0.90600002 2694:0.90899998 3872:0.91100001 4759:0.94199997 4767:1 4768:1 #
-0.048398610147675345805051705383448 309:0.963 336:0.99199998 1592:0.93900001 2471:0.96100003 2827:0.95200002 3321:0.96100003 3736:1 3737:1 3738:1 #
0.073360899685332603414877894465462 2:0.8883 921:0.83429998 1019:0.81900001 1374:0.86669999 4296:0.89999998 #
-0.035055355320949291297871752703941 1438:0.91399997 1627:0.98000002 1652:0.99400002 1812:0.93199998 2377:0.91399997 3980:1 3981:1 #
-0.073360899685332603414877894465462 1690:0.90499997 2243:0.94 2471:0.96100003 2780:0.94099998 2880:0.954 3732:1 #
0.073360899685332603414877894465462 921:0.83160001 925:0.83069998 1110:0.82349998 1275:0.83969998 1374:0.86940002 1590:0.82349998 1666:0.85949999 3331:0.86220002 4111:0.89999998 4112:0.89999998 4113:0.89999998 #
-0.0066969326189270919277851668027779 885:0.94400001 921:0.93099999 1131:0.94800001 1145:0.97799999 1168:0.97100002 1304:0.90100002 1374:0.96799999 1478:0.94800001 1627:0.94599998 1766:0.91100001 2049:0.95499998 2289:0.91000003 2466:0.903 3640:0.93900001 3760:0.95300001 4329:1 4330:1 #
-0.01513657725340470001917925202406 922:0.94 942:0.991 979:0.95499998 1150:0.96799999 1391:0.92400002 2061:0.92199999 3269:0.99699998 3295:1 3296:1 #
-0.0062775241793187556288424744366239 1145:0.98900002 1652:0.97899997 1666:0.96499997 1675:0.92900002 2194:0.96499997 2213:0.90399998 2776:0.91100001 4188:0.93699998 5186:0.92799997 5207:0.93900001 6404:0.93900001 6463:1 6464:1 6465:1 6466:1 6467:1 #
-0.0011083222358853467553324589900399 875:0.95599997 1010:0.92400002 1374:0.96799999 1438:0.95700002 1666:0.95700002 2374:0.91399997 2377:0.92900002 2972:0.92000002 3077:0.903 4083:1 4084:1 4085:1 4086:1 4087:1 #
-0.012288945084866623180808176130085 1145:0.972 1374:0.97100002 1478:0.93400002 1503:0.91900003 1582:0.94999999 1666:0.95999998 1766:0.92299998 2185:0.96499997 2344:0.95599997 2396:0.91299999 3537:0.97600001 4328:1 #
-0.021164616511247336810841446208542 94:0.89999998 861:0.98000002 875:0.97600001 922:0.94300002 1010:0.92400002 1374:0.95599997 1675:0.95899999 2337:0.96200001 2344:0.93000001 2868:0.91299999 5274:1 5275:1 5276:1 5277:1 5278:1 5279:1 5280:1 5281:1 #
-0.043599560060807167338747802887156 1048:0.95700002 1703:0.921 1829:0.91399997 2243:0.93400002 2827:1 2828:1 2829:1 2830:1 2831:1 #
-0.032986391195385732222344898900701 390:0.98000002 471:1 875:0.95700002 1391:0.926 1582:0.954 1652:1 1666:0.96899998 1827:0.958 3199:1 3200:1 3201:1 3202:1 3203:1 3204:1 3205:1 #
-0.019452638150241410852636647632607 169:0.97600001 864:0.99400002 1666:0.96499997 1854:0.95200002 3335:1 3336:1 3337:1 3338:1 3339:1 3340:1 3341:1 3342:1 3343:1 3344:1 3345:1 3346:1 3347:1 3348:1 #
-0.051501063939315465389778836424739 100:0.97500002 874:0.95599997 1652:0.991 1666:0.972 1681:0.91500002 2318:0.93099999 2412:0.94199997 3105:1 #
-0.01748264407213961230125320867046 849:0.93000001 1239:0.93800002 1374:0.96899998 1503:0.93800002 1642:0.95899999 1675:0.90700001 4723:0.93400002 5262:0.92400002 6387:1 6388:1 6389:1 6390:1 #
0.066980334955042061806373965282546 875:0.84509999 922:0.86849999 1019:0.84869999 1478:0.85769999 1503:0.85049999 1741:0.82980001 1793:0.83789998 1947:0.83609998 1989:0.83609998 2202:0.82349998 2396:0.81900001 3517:0.83789998 4215:0.89999998 4216:0.89999998 4217:0.89999998 #
-0.04831132952616359887976216214156 921:0.92699999 942:0.99400002 952:0.95599997 1374:0.96799999 1503:0.92799997 1614:0.93000001 1666:0.963 2387:0.94400001 3592:0.93900001 3595:1 3596:1 3597:1 3598:1 #
-0.02604094373884406274366476452542 875:0.96499997 921:0.92699999 922:0.94 1164:0.91100001 1374:0.98000002 1690:0.94 2193:1 2194:1 2195:1 2196:1 2197:1 2198:1 2199:1 2200:1 2201:1 2202:1 2203:1 2204:1 2205:1 #
-0.011492108847046583058881807914986 2:0.991 441:0.98400003 814:0.977 1476:0.99199998 2419:0.96700001 3253:0.90100002 4470:0.99299997 4554:0.96600002 5838:0.954 #
-0.073360899685332603414877894465462 942:0.963 1642:0.96499997 2848:1 #
-0.010385426494603899189028695104753 874:0.958 908:0.93599999 1145:0.96700001 1391:0.912 1666:0.96899998 1762:0.98500001 1884:1 2251:0.926 2325:0.92900002 2354:0.90700001 2880:0.95200002 4072:1 #
-0.0034892584805206968735780126422696 921:0.93699998 942:0.99699998 1060:0.98500001 1131:0.94499999 1374:0.991 1675:0.93599999 2025:1 2026:1 2027:1 2028:1 2029:1 2030:1 2031:1 2032:1 2033:1 2034:1 2035:1 2036:1 2037:1 2038:1 2039:1 #
0.038403363020975786468191870426381 16:0.8739 537:0.88200003 928:0.83069998 932:0.84509999 951:0.81989998 1066:0.82260001 1079:0.85860002 1090:0.81 1294:0.83609998 1327:0.89999998 1328:0.89999998 1329:0.89999998 1330:0.89999998 1331:0.89999998 1332:0.89999998 1333:0.89999998 1334:0.89999998 1335:0.89999998 1336:0.89999998 1337:0.89999998 1338:0.89999998 1339:0.89999998 1340:0.89999998 1341:0.89999998 1342:0.89999998 1343:0.89999998 1344:0.89999998 1345:0.89999998 1346:0.89999998 1347:0.89999998 1348:0.89999998 1349:0.89999998 1350:0.89999998 1351:0.89999998 1352:0.89999998 1353:0.89999998 1354:0.89999998 1355:0.89999998 1356:0.89999998 1357:0.89999998 1358:0.89999998 1359:0.89999998 1360:0.89999998 #
0.065841142270625610533052451955882 62:0.87840003 698:0.82080001 885:0.82800001 916:0.84869999 951:0.83160001 1029:0.81809998 1036:0.82080001 1143:0.86400002 1150:0.86849999 1210:0.82080001 1267:0.81 1294:0.82620001 1438:0.8739 1444:0.84420002 1573:0.82709998 1652:0.8793 1666:0.89999998 1667:0.89999998 1668:0.89999998 1669:0.89999998 1670:0.89999998 1671:0.89999998 1672:0.89999998 1673:0.89999998 1674:0.89999998 1675:0.89999998 1676:0.89999998 1677:0.89999998 1678:0.89999998 1679:0.89999998 1680:0.89999998 1681:0.89999998 1682:0.89999998 1683:0.89999998 1684:0.89999998 1685:0.89999998 1686:0.89999998 1687:0.89999998 1688:0.89999998 1689:0.89999998 1690:0.89999998 1691:0.89999998 1692:0.89999998 1693:0.89999998 1694:0.89999998 1695:0.89999998 1696:0.89999998 1697:0.89999998 1698:0.89999998 1699:0.89999998 1700:0.89999998 1701:0.89999998 1702:0.89999998 1703:0.89999998 1704:0.89999998 1705:0.89999998 1706:0.89999998 1707:0.89999998 1708:0.89999998 1709:0.89999998 1710:0.89999998 #
-0.013508759343721424978079781453744 928:0.94499999 1152:0.977 1247:0.96200001 1475:0.97500002 1544:0.94400001 1614:0.921 1666:0.96899998 1704:0.91399997 2812:0.96700001 2941:0.91299999 3269:0.93400002 3937:1 3938:1 3939:1 3940:1 3941:1 3942:1 3943:1 3944:1 #
-0.073360899685332603414877894465462 9:0.90600002 768:0.991 874:0.958 875:0.94800001 885:0.89999998 1374:0.972 1687:0.90899998 2061:0.90600002 2396:0.91600001 2915:0.90600002 2968:1 2969:1 2970:1 2971:1 #
0.057997243290969467677253845749874 838:0.85680002 1019:0.85589999 1230:0.82169998 1294:0.82800001 1642:0.87660003 1955:0.85500002 1961:0.84149998 2162:0.83069998 2731:0.89999998 2732:0.89999998 2733:0.89999998 2734:0.89999998 2735:0.89999998 #
-0.067808710919303072373054419585969 892:0.91600001 979:0.96100003 1304:0.921 1652:0.90700001 1666:0.95999998 3756:1 3757:1 3758:1 3759:1 #
0.050609096607507494947064685675286 2:0.85409999 9:0.8883 21:0.86489999 54:0.88559997 104:0.84509999 440:0.88020003 470:0.8739 829:0.83520001 874:0.84060001 875:0.87660003 921:0.83429998 922:0.84600002 941:0.82349998 950:0.84060001 951:0.84509999 958:0.84600002 988:0.84060001 998:0.84600002 1003:0.85680002 1020:0.83520001 1051:0.89999998 1052:0.89999998 1053:0.89999998 1054:0.89999998 1055:0.89999998 1056:0.89999998 1057:0.89999998 1058:0.89999998 1059:0.89999998 1060:0.89999998 1061:0.89999998 1062:0.89999998 1063:0.89999998 1064:0.89999998 1065:0.89999998 1066:0.89999998 1067:0.89999998 1068:0.89999998 1069:0.89999998 1070:0.89999998 1071:0.89999998 1072:0.89999998 1073:0.89999998 #
-0.0146984177317436084941881802024 921:0.90499997 1114:0.917 1374:0.96799999 3269:0.99400002 4376:0.91900003 4474:0.92400002 4536:0.92000002 6202:0.91799998 6212:0.94 6255:1 6256:1 #
-0.017204318478761568278478932825237 1438:0.963 1607:0.95200002 1652:0.963 1947:0.92400002 4550:0.90899998 4851:0.99299997 5660:0.91900003 5715:1 5716:1 5717:1 5718:1 5719:1 5720:1 5721:1 5722:1 5723:1 5724:1 5725:1 #
0.027173929846145708499882687192439 671:0.82080001 838:0.85949999 928:0.85949999 1076:0.85680002 1297:0.8757 1642:0.85500002 1718:0.84420002 1812:0.83880001 2838:0.82260001 3157:0.89999998 3158:0.89999998 3159:0.89999998 3160:0.89999998 3161:0.89999998 3162:0.89999998 3163:0.89999998 3164:0.89999998 3165:0.89999998 #
0.065142154383863407063337547242554 875:0.83340001 983:0.8865 1019:0.82709998 1269:0.85949999 1478:0.84780002 1503:0.84689999 1582:0.84509999 1652:0.8919 1741:0.83069998 1947:0.83340001 1989:0.83520001 2396:0.82440001 2412:0.83429998 2466:0.81269997 4215:0.83880001 4221:0.89999998 4222:0.89999998 4223:0.89999998 #
0.061142918074829549768267611398187 6:0.87480003 40:0.83880001 100:0.89279997 295:0.83069998 729:0.85769999 747:0.85500002 871:0.81629997 875:0.81089997 901:0.82620001 942:0.86940002 952:0.85049999 1114:0.84329998 1150:0.82440001 1214:0.89999998 1215:0.89999998 1216:0.89999998 1217:0.89999998 1218:0.89999998 1219:0.89999998 1220:0.89999998 1221:0.89999998 1222:0.89999998 1223:0.89999998 1224:0.89999998 1225:0.89999998 1226:0.89999998 1227:0.89999998 1228:0.89999998 1229:0.89999998 1230:0.89999998 1231:0.89999998 1232:0.89999998 1233:0.89999998 1234:0.89999998 1235:0.89999998 1236:0.89999998 1237:0.89999998 1238:0.89999998 1239:0.89999998 1240:0.89999998 1241:0.89999998 1242:0.89999998 1243:0.89999998 1244:0.89999998 1245:0.89999998 1246:0.89999998 1247:0.89999998 1248:0.89999998 #
-0.073360899685332603414877894465462 1131:0.94300002 1374:0.96899998 1476:0.95700002 1704:0.90499997 4470:0.93599999 5796:0.912 6115:1 #
-0.073360899685332603414877894465462 126:0.98199999 241:0.98299998 274:0.94300002 550:0.98000002 913:0.917 1076:0.935 1275:0.91900003 1519:0.94199997 1642:0.94099998 1665:0.97100002 2072:0.90700001 2243:0.94 2470:1 2471:1 2472:1 2473:1 2474:1 2475:1 2476:1 2477:1 #
-0.068551236216727901018330726401473 885:0.92199999 921:0.93400002 941:0.95700002 1020:0.91600001 1373:1 1374:1 1375:1 1376:1 1377:1 #
0.036871330155450292298535686086325 2:0.89639997 9:0.89999998 16:0.89279997 29:0.8847 247:0.87660003 265:0.8847 441:0.89639997 497:0.89999998 498:0.89999998 499:0.89999998 500:0.89999998 501:0.89999998 502:0.89999998 503:0.89999998 504:0.89999998 505:0.89999998 506:0.89999998 507:0.89999998 508:0.89999998 509:0.89999998 510:0.89999998 511:0.89999998 512:0.89999998 513:0.89999998 514:0.89999998 515:0.89999998 516:0.89999998 517:0.89999998 518:0.89999998 #
-0.058626224603123111567271052990691 462:0.91500002 1114:0.92799997 1582:0.95099998 1675:0.93900001 3054:0.97399998 3533:0.93400002 6124:0.91000003 6126:1 6127:1 #
-0.055629455036652793176177311806896 885:0.91900003 951:0.926 1652:0.98799998 2412:0.94499999 2838:0.91799998 4101:1 4102:1 4103:1 #
-0.073360899685332603414877894465462 858:0.98699999 875:0.96499997 885:0.91100001 925:0.94300002 1125:0.95300001 1145:0.98900002 1275:0.903 1652:0.95599997 1761:0.96799999 2766:1 2767:1 2768:1 2769:1 2770:1 2771:1 2772:1 #
-0.0087830056421716977410607540832643 2:0.991 42:0.963 875:0.96499997 921:0.92699999 950:0.954 1374:0.972 1475:0.95499998 1831:0.90700001 2878:1 2879:1 #
-0.0025401293403631980405421586510784 1110:0.92400002 1114:0.93400002 1438:0.97100002 1642:0.96499997 1657:0.94 1837:0.94300002 1996:0.97299999 3015:0.93699998 5149:1 5150:1 #
-0.0087071048332415558468344585207888 62:0.92000002 462:0.92199999 471:0.99599999 642:0.95899999 1104:0.90499997 1642:0.90499997 1703:0.92699999 1982:0.95999998 2099:0.977 2243:0.90499997 2546:0.98100001 4562:1 4563:1 4564:1 4565:1 4566:1 4567:1 4568:1 4569:1 4570:1 4571:1 4572:1 4573:1 4574:1 4575:1 4576:1 4577:1 4578:1 4579:1 4580:1 4581:1 4582:1 4583:1 4584:1 4585:1 4586:1 4587:1 4588:1 4589:1 4590:1 4591:1 #
0.073360899685332603414877894465462 528:0.84960002 875:0.83700001 1019:0.85680002 1197:0.86040002 1478:0.85769999 1503:0.84509999 1593:0.83340001 1614:0.83249998 1947:0.83340001 2396:0.82980001 2466:0.81269997 4188:0.83880001 4205:0.89999998 4206:0.89999998 4207:0.89999998 4208:0.89999998 #
0.073360899685332603414877894465462 922:0.84600002 1019:0.85769999 1582:0.85860002 2139:0.85320002 2725:0.89999998 2726:0.89999998 #
-0.01315012303764589822463459967139 39:0.96100003 175:0.90399998 905:0.97100002 916:0.91399997 949:0.94700003 993:0.95499998 1366:0.92400002 1374:0.96600002 1387:0.93300003 1410:0.991 1573:0.93400002 2257:0.91500002 2682:0.96399999 3253:0.93300003 3996:0.90899998 4405:0.91299999 4470:0.91900003 4585:0.92699999 5205:0.92199999 5242:0.94800001 5338:1 5339:1 5340:1 5341:1 5342:1 5343:1 5344:1 5345:1 5346:1 5347:1 5348:1 5349:1 5350:1 5351:1 5352:1 5353:1 5354:1 5355:1 5356:1 #
-0.021139055971979823361772687917437 555:0.98400003 814:0.97299999 983:0.97399998 1374:0.96499997 1666:0.958 2197:0.99699998 2471:0.96399999 2722:0.91900003 2827:0.949 3739:0.95300001 5796:0.92400002 6054:1 6055:1 6056:1 6057:1 6058:1 6059:1 #
-0.073360899685332603414877894465462 1061:0.958 1582:0.95700002 1627:0.98500001 2856:0.90399998 3000:0.94999999 3006:0.921 4001:0.94 4930:1 4931:1 4932:1 #
0.059945278067397592125509220295498 6:0.86760002 36:0.85589999 191:0.83609998 549:0.83880001 832:0.83429998 835:0.82529998 892:0.83249998 946:0.83520001 979:0.83609998 1011:0.89999998 1012:0.89999998 1013:0.89999998 1014:0.89999998 1015:0.89999998 1016:0.89999998 1017:0.89999998 1018:0.89999998 1019:0.89999998 #
-0.01236626522905081085323963918654 885:0.92900002 1145:0.972 1384:0.92699999 1652:0.92000002 2413:0.96399999 2856:0.91100001 2960:0.90200001 3012:0.91100001 3225:0.93199998 4188:0.91299999 4257:0.903 4851:0.90499997 4863:0.92299998 5205:0.91900003 6411:1 6412:1 6413:1 #
0.073360899685332603414877894465462 25:0.8847 922:0.85589999 952:0.8793 1003:0.85409999 1143:0.86129999 1374:0.86669999 1391:0.82980001 1503:0.84960002 1582:0.84509999 1652:0.81269997 1675:0.82800001 1744:0.86040002 2223:0.89999998 2224:0.89999998 2225:0.89999998 2226:0.89999998 2227:0.89999998 2228:0.89999998 2229:0.89999998 2230:0.89999998 #
0.073360899685332603414877894465462 925:0.85320002 983:0.8973 1275:0.83969998 1614:0.84509999 4078:0.82889998 4092:0.89999998 #
0.073360899685332603414877894465462 918:0.83700001 921:0.83789998 979:0.86220002 1230:0.82349998 1275:0.82260001 1374:0.87480003 1519:0.85049999 1567:0.8901 1741:0.83700001 2700:0.89999998 #
0.073360899685332603414877894465462 243:0.89279997 1010:0.82889998 1014:0.81089997 1131:0.86400002 1582:0.85860002 1627:0.88200003 2838:0.81269997 2871:0.89999998 2872:0.89999998 #
-0.061172749325718728252709865955694 390:0.98799998 1145:0.96700001 1275:0.90499997 1391:0.92799997 1802:0.93199998 2156:0.94499999 2466:0.921 2795:0.92500001 2856:0.92900002 2941:0.91100001 3090:1 3091:1 3092:1 3093:1 3094:1 3095:1 3096:1 3097:1 #
-0.0031780189720019514851290232115844 22:0.972 441:0.995 2375:0.92000002 4470:0.99599999 4654:0.92000002 4878:0.93900001 5262:0.92699999 6093:0.977 6112:0.90899998 6187:1 6188:1 6189:1 6190:1 6191:1 6192:1 6193:1 #
0.019971253053104501273828930152376 2:0.89639997 9:0.88919997 18:0.89279997 29:0.8847 206:0.86040002 247:0.8883 255:0.86309999 285:0.82440001 668:0.85229999 691:0.89999998 692:0.89999998 693:0.89999998 694:0.89999998 695:0.89999998 696:0.89999998 697:0.89999998 698:0.89999998 699:0.89999998 700:0.89999998 701:0.89999998 702:0.89999998 703:0.89999998 704:0.89999998 705:0.89999998 706:0.89999998 707:0.89999998 708:0.89999998 709:0.89999998 710:0.89999998 711:0.89999998 712:0.89999998 713:0.89999998 714:0.89999998 715:0.89999998 716:0.89999998 717:0.89999998 718:0.89999998 719:0.89999998 #
-0.031260882361399608408980554941081 950:0.95700002 1114:0.93699998 1131:0.94599998 1478:0.94499999 1582:0.93900001 1766:0.917 2061:0.926 2412:0.93599999 3118:1 3119:1 #
0.073360899685332603414877894465462 1618:0.86669999 1642:0.87120003 1971:0.83789998 2812:0.8775 4308:0.8154 4723:0.83520001 6404:0.84600002 6458:0.89999998 6459:0.89999998 6460:0.89999998 6461:0.89999998 6462:0.89999998 #
-0.022127796257696272230752754239802 203:0.99599999 921:0.903 928:0.94300002 1247:0.963 1374:0.96600002 1627:0.96899998 2168:0.90499997 2344:0.91799998 2412:0.92699999 2972:0.93900001 3269:0.995 3417:1 #
-0.073360899685332603414877894465462 1145:0.95200002 1642:0.977 2061:0.90399998 5116:1 5117:1 #
-0.073360899685332603414877894465462 885:0.92199999 1076:0.93800002 1096:0.92500001 1374:0.96600002 1642:0.96499997 1652:0.99699998 1947:0.93800002 2743:1 2744:1 #
-0.014291366701101530789497218165707 1114:0.91600001 1247:0.986 1955:0.95499998 3277:0.92699999 4346:0.98500001 5176:0.921 6116:1 6117:1 #
-0.0073031740431065755511652604070605 2:0.94400001 9:0.99599999 14:0.96399999 18:0.963 23:0.99599999 36:0.93900001 42:0.972 58:0.94400001 131:0.92400002 832:0.91299999 875:0.93300003 885:0.90600002 921:0.93099999 932:0.92199999 988:0.94 1014:0.90600002 1020:1 1021:1 1022:1 1023:1 1024:1 1025:1 1026:1 1027:1 1028:1 1029:1 1030:1 1031:1 1032:1 1033:1 1034:1 1035:1 1036:1 1037:1 1038:1 1039:1 1040:1 1041:1 1042:1 1043:1 1044:1 1045:1 1046:1 1047:1 1048:1 1049:1 1050:1 #
-0.024346553033055728237910031452884 43:0.98799998 875:0.94700003 1096:0.90100002 1145:0.94300002 1487:0.90700001 1499:0.95899999 1503:0.92900002 1573:0.94400001 2061:0.921 2235:0.917 2851:0.91399997 2972:0.93300003 3245:0.912 3428:0.95200002 3517:1 3518:1 3519:1 3520:1 3521:1 #
-0.037780734520476803861566139630668 922:0.93099999 1247:0.96499997 1294:0.921 1642:0.96700001 1675:0.93400002 1949:0.91900003 2396:0.91900003 2760:0.91399997 3815:1 3816:1 3817:1 3818:1 3819:1 #
-0.061646203247084502274688588840945 875:0.954 1342:0.935 1438:0.95700002 1582:0.95099998 1603:0.98299998 4847:0.93099999 6419:1 6420:1 6421:1 #
0.073360899685332603414877894465462 2:0.8883 1374:0.87120003 1934:0.82980001 2466:0.81269997 2710:0.81 2722:0.82440001 2851:0.82260001 3157:0.83069998 3258:0.89999998 3259:0.89999998 3260:0.89999998 3261:0.89999998 3262:0.89999998 3263:0.89999998 3264:0.89999998 3265:0.89999998 3266:0.89999998 #
-0.0073868966054841493640292782174583 704:0.903 922:0.94 1082:0.92000002 1168:0.977 1283:0.90499997 1357:0.935 1391:0.90899998 1438:0.96799999 1508:0.95200002 1582:0.954 2269:0.95200002 2458:0.92000002 2847:0.90799999 3858:0.90399998 4608:0.93300003 5097:0.93300003 5468:0.94999999 6296:1 6297:1 6298:1 6299:1 6300:1 6301:1 6302:1 6303:1 6304:1 6305:1 #
-0.062695803498806670916998484699434 864:0.99400002 874:0.94700003 949:0.91399997 1152:0.90200001 1666:0.95999998 2259:0.93199998 3349:1 3350:1 3351:1 3352:1 3353:1 3354:1 #
-0.0064560965192216063918140278587998 255:0.98000002 1627:0.98500001 4654:0.94199997 4878:0.917 5543:0.91500002 5560:0.96600002 5567:1 5568:1 5569:1 5570:1 5571:1 5572:1 5573:1 5574:1 5575:1 5576:1 #
-0.047084701951156937571596472480451 1145:0.96399999 1438:0.98000002 1718:0.935 2242:0.90799999 2431:1 3527:0.94099998 4070:1 4071:1 #
-0.069860268082970897185468572843092 874:0.935 1029:0.977 1041:0.917 1150:0.96799999 1642:0.972 2073:0.94199997 4448:1 #
-0.0079429845506046523051502106227417 875:0.96499997 916:0.93699998 1145:0.96700001 1374:0.95200002 1391:0.96600002 1573:0.92900002 1666:0.97000003 1769:0.921 2365:0.949 2377:0.90600002 2568:0.95999998 2660:0.89999998 2848:0.94 3146:0.903 3476:1 3477:1 3478:1 3479:1 3480:1 3481:1 3482:1 3483:1 #
-0.032374062427090760651893219801423 942:0.95999998 983:0.95899999 1161:0.95099998 1438:0.97100002 1513:0.94 2588:0.90399998 3527:0.96100003 3725:1 3726:1 3727:1 #
0.056359086952143547244453714029078 2:0.8955 195:0.88559997 828:0.89999998 829:0.89999998 830:0.89999998 831:0.89999998 832:0.89999998 833:0.89999998 834:0.89999998 835:0.89999998 836:0.89999998 837:0.89999998 838:0.89999998 839:0.89999998 840:0.89999998 841:0.89999998 842:0.89999998 843:0.89999998 #
0.073360899685332603414877894465462 390:0.87840003 942:0.88739997 1014:0.82800001 1143:0.8721 1374:0.86129999 1582:0.84780002 2489:0.81629997 2751:0.89999998 #
-0.0083862353745703631380248310733805 874:0.991 939:0.90200001 1145:0.99199998 1247:0.963 1546:0.926 1573:0.93000001 1666:0.97000003 1754:0.91299999 1947:0.92900002 2660:0.92900002 3457:1 3458:1 3459:1 3460:1 3461:1 3462:1 3463:1 #
-0.018585137462402298580421700080478 874:0.972 885:0.93099999 1222:0.98299998 1374:0.96799999 1391:0.91399997 1652:1 1676:0.95999998 2851:0.90600002 3288:0.93300003 3510:0.89999998 3866:1 3867:1 3868:1 3869:1 3870:1 3871:1 #
-0.073360899685332603414877894465462 875:0.94199997 1033:0.93699998 1772:0.94 2377:0.903 2814:1 2815:1 2816:1 #
