SVM-light Version V6.02
0 # kernel type
3 # kernel parameter -d 
1 # kernel parameter -g 
1 # kernel parameter -s 
1 # kernel parameter -r 
empty# kernel parameter -u 
6891 # highest feature index 
244 # number of training documents 
128 # number of support vectors plus 1 
-1.3397281 # threshold b, each following line is a SV (starting with alpha*y)
0.00067469156869861038848534828815673 219:0.88919997 242:0.89279997 421:0.82800001 553:0.81 832:0.84960002 841:0.85949999 872:0.89999998 876:0.8973 891:0.84600002 894:0.83340001 898:0.8136 912:0.89999998 919:0.83520001 959:0.84780002 967:0.8973 976:0.8955 984:0.83609998 986:0.83340001 992:0.89639997 1007:0.82709998 1022:0.81989998 1037:0.85500002 1041:0.84960002 1050:0.84600002 1058:0.87840003 1076:0.85229999 1089:0.85949999 1177:0.86669999 1206:0.84420002 1212:0.84060001 1222:0.82800001 1230:0.87029999 1241:0.84060001 1252:0.84240001 1280:0.85589999 1291:0.88919997 1295:0.85769999 1305:0.8901 1312:0.81629997 1324:0.83340001 1341:0.86940002 1375:0.84060001 1397:0.8847 1432:0.88200003 1478:0.84149998 1499:0.85140002 1520:0.84509999 1525:0.83249998 1545:0.81449997 1563:0.87480003 1566:0.8829 1581:0.81989998 1588:0.86489999 1600:0.85769999 1608:0.8901 1638:0.88020003 1650:0.85140002 1651:0.84060001 1664:0.8847 1673:0.81089997 1682:0.85949999 1685:0.86220002 1701:0.8793 1703:0.8136 1717:0.82169998 1784:0.84689999 1796:0.83520001 1814:0.81720001 1929:0.81809998 1953:0.82529998 1966:0.82080001 2031:0.84869999 2135:0.84780002 2157:0.82800001 2178:0.84420002 2179:0.84060001 2255:0.83520001 2288:0.85320002 2321:0.83700001 2465:0.86040002 2505:0.86220002 2515:0.81720001 2525:0.8757 2593:0.82080001 2689:0.85409999 2690:0.84869999 2728:0.82800001 2754:0.81900001 2756:0.85049999 2796:0.82620001 2824:0.85229999 2852:0.81809998 2904:0.84780002 2910:0.86129999 2975:0.8919 2976:0.82529998 2989:0.83700001 2997:0.85409999 3010:0.85229999 3028:0.81809998 3064:0.8154 3071:0.83520001 3086:0.85229999 3087:0.8865 3090:0.85589999 3097:0.8154 3106:0.86220002 3252:0.83160001 3262:0.83069998 3264:0.86040002 3361:0.83880001 3374:0.87300003 3414:0.82529998 3458:0.85140002 3473:0.85680002 3477:0.82889998 3504:0.81629997 3505:0.85320002 3507:0.87300003 3525:0.86849999 3601:0.8829 3609:0.85049999 3615:0.82800001 3620:0.83340001 3665:0.84509999 3671:0.85769999 3724:0.85860002 3737:0.83969998 3976:0.8865 3984:0.81449997 4067:0.87840003 4072:0.81629997 4082:0.81809998 4093:0.85769999 4146:0.84329998 4198:0.8847 4223:0.8118 4272:0.85320002 4273:0.81269997 4274:0.86040002 4275:0.89999998 4277:0.89999998 4279:0.89999998 4280:0.89999998 4281:0.89999998 4282:0.89999998 4283:0.89999998 4284:0.89999998 4285:0.89999998 4286:0.89999998 4287:0.89999998 #
-0.0064061358785899198686752953335599 3:0.991 10:0.99199998 23:0.99599999 29:0.97000003 30:0.99599999 40:1 42:0.958 49:0.89999998 63:0.99599999 117:0.94700003 186:0.972 204:0.99599999 224:0.93400002 248:0.96600002 298:0.91100001 314:0.99599999 333:0.99199998 452:0.94499999 461:0.94300002 546:0.972 585:0.98299998 667:0.91900003 708:0.99199998 762:0.94999999 771:0.99599999 831:0.92500001 832:0.94700003 848:0.95300001 853:0.95499998 869:0.92500001 872:0.99400002 879:0.972 880:1 890:0.95599997 891:0.94999999 902:0.92400002 907:0.926 908:0.95200002 911:0.97399998 927:0.93699998 928:0.97399998 930:0.92500001 934:0.92699999 938:0.94 940:0.90600002 941:0.92799997 942:0.91399997 947:0.94599998 948:0.92400002 958:0.958 959:0.98799998 968:0.91100001 995:0.98299998 996:0.95700002 997:0.98100001 999:0.986 1000:0.96100003 1005:0.93599999 1011:0.95700002 1012:0.91000003 1016:0.91799998 1018:0.92699999 1022:0.90499997 1025:0.94499999 1028:0.93699998 1029:0.90399998 1030:0.98299998 1037:0.96200001 1040:0.921 1042:0.97100002 1050:0.912 1053:0.963 1055:0.93000001 1065:0.92799997 1069:0.96600002 1071:0.91100001 1076:0.92299998 1078:0.89999998 1085:0.93400002 1086:0.98000002 1091:0.91500002 1097:0.90100002 1109:0.91000003 1118:0.92000002 1123:0.90700001 1127:0.91900003 1160:0.98199999 1165:0.94800001 1166:0.90600002 1180:0.96499997 1184:0.96200001 1197:0.90600002 1206:0.95300001 1215:0.912 1224:0.926 1225:0.95499998 1234:0.94199997 1242:0.99699998 1246:0.903 1249:0.92000002 1258:0.91000003 1259:0.97399998 1260:0.93599999 1272:0.93000001 1280:0.97600001 1288:0.90799999 1289:0.94099998 1345:0.91900003 1375:0.93800002 1386:0.912 1397:0.92799997 1404:0.90799999 1408:0.98900002 1418:0.94099998 1422:0.90200001 1425:0.97500002 1432:0.98500001 1439:0.90899998 1450:0.94099998 1453:0.96499997 1454:0.93400002 1458:0.949 1466:0.912 1468:0.91900003 1473:0.97899997 1478:0.95499998 1495:0.91000003 1497:0.91900003 1500:0.972 1514:0.96399999 1517:0.97000003 1520:0.94400001 1525:0.912 1526:0.92400002 1531:0.921 1539:0.91900003 1546:0.95899999 1552:0.95300001 1558:0.93699998 1600:0.93900001 1621:0.963 1623:0.96100003 1631:0.97799999 1635:0.935 1638:0.96200001 1640:0.95899999 1645:0.96200001 1651:0.91399997 1659:0.94400001 1663:0.90100002 1665:0.912 1672:0.98799998 1677:0.96100003 1678:0.95200002 1682:0.94999999 1685:0.95999998 1686:0.93199998 1696:0.91900003 1706:0.91799998 1710:0.91900003 1715:0.96899998 1721:0.91500002 1725:0.972 1726:0.95300001 1730:0.935 1734:0.98299998 1737:0.92000002 1747:0.92000002 1749:0.97299999 1751:0.96899998 1752:0.92799997 1770:0.92699999 1771:0.95300001 1775:0.90600002 1786:0.95999998 1791:0.94400001 1794:0.92299998 1803:0.949 1809:0.90399998 1813:0.90200001 1814:0.92900002 1820:0.93599999 1821:0.91000003 1830:0.97899997 1832:0.90200001 1834:0.92799997 1837:0.91500002 1846:0.926 1849:0.963 1856:0.90700001 1872:0.95200002 1878:0.90899998 1882:0.94300002 1890:0.91299999 1899:0.90600002 1901:0.90700001 1912:0.949 1922:0.98299998 1931:0.94700003 1953:0.917 1959:0.94199997 1963:0.92900002 1964:0.94400001 1966:0.90399998 1979:0.93300003 1989:0.926 1991:0.92400002 2008:0.903 2023:0.935 2067:0.93400002 2102:0.92199999 2104:0.94199997 2105:0.94099998 2116:0.95200002 2122:1 2123:1 2124:1 2125:1 2126:1 2127:1 2128:1 2129:1 2130:1 2131:1 2132:1 2133:1 2134:1 2135:1 2136:1 #
-0.010661533235384212936480707867304 7:0.972 17:0.99199998 18:0.95999998 28:0.92500001 42:0.94300002 101:0.98799998 177:0.99599999 219:0.98799998 275:0.93900001 283:0.95499998 337:0.99199998 345:0.98799998 393:0.98799998 553:0.95700002 685:0.92900002 757:0.98500001 832:0.91500002 835:0.92699999 836:0.95599997 841:0.95499998 848:0.93800002 854:0.912 872:0.90799999 876:0.912 879:0.96399999 891:0.95499998 896:0.94 898:0.93099999 928:0.93400002 934:0.95499998 938:0.93400002 946:0.91299999 947:0.90399998 953:0.98000002 958:0.954 959:0.94300002 984:0.95599997 986:0.94599998 990:1 1007:0.90899998 1020:0.96899998 1022:0.917 1023:0.90899998 1024:0.90100002 1025:0.92299998 1027:0.90700001 1037:0.93699998 1045:0.92000002 1046:0.96700001 1086:0.94099998 1089:0.90399998 1109:0.92699999 1127:0.93400002 1147:0.94199997 1156:0.94300002 1180:0.92000002 1197:0.95300001 1202:0.91000003 1205:0.96600002 1206:0.97899997 1211:0.95599997 1212:0.89999998 1215:0.97600001 1224:0.90399998 1228:0.95999998 1259:0.95200002 1260:0.903 1272:0.95300001 1273:1 1274:1 1275:1 1276:1 1277:1 1278:1 1279:1 1280:1 1281:1 1282:1 1283:1 1284:1 1285:1 1286:1 1287:1 1288:1 1289:1 1290:1 #
0.004542994776482112834203874740524 50:0.87480003 52:0.86040002 68:0.86220002 124:0.89639997 242:0.88739997 266:0.8757 790:0.88380003 832:0.82709998 862:0.8973 872:0.8901 879:0.88739997 880:0.8973 890:0.85049999 891:0.85949999 892:0.83069998 911:0.8973 912:0.87300003 922:0.84600002 931:0.84329998 953:0.81900001 958:0.85500002 959:0.88200003 990:0.8901 1018:0.8154 1022:0.83520001 1027:0.81900001 1037:0.81269997 1042:0.87660003 1050:0.82889998 1069:0.83880001 1071:0.87029999 1080:0.86040002 1086:0.86489999 1092:0.85949999 1095:0.83789998 1118:0.83609998 1160:0.87480003 1215:0.8721 1225:0.86220002 1236:0.87120003 1239:0.87660003 1241:0.84060001 1245:0.8757 1271:0.86849999 1280:0.85320002 1299:0.8973 1308:0.86489999 1324:0.82980001 1342:0.86129999 1368:0.82980001 1404:0.83789998 1408:0.86940002 1418:0.83429998 1425:0.8847 1432:0.85860002 1442:0.8154 1450:0.82529998 1453:0.84780002 1458:0.83249998 1468:0.82709998 1473:0.87840003 1476:0.86580002 1478:0.81989998 1499:0.84240001 1500:0.8775 1514:0.86489999 1521:0.83880001 1524:0.89459997 1525:0.8118 1552:0.85229999 1558:0.82800001 1570:0.8757 1589:0.88200003 1593:0.89279997 1615:0.86400002 1621:0.85769999 1623:0.83160001 1626:0.83069998 1638:0.8901 1648:0.84600002 1651:0.85769999 1659:0.82889998 1668:0.84240001 1672:0.87840003 1682:0.89279997 1685:0.83069998 1721:0.83340001 1723:0.88380003 1725:0.8775 1734:0.84060001 1747:0.82620001 1770:0.83340001 1809:0.83969998 1814:0.8136 1830:0.89459997 1880:0.82349998 1897:0.86220002 1909:0.84420002 1922:0.8901 1959:0.83340001 1995:0.81900001 2023:0.84149998 2088:0.81449997 2107:0.81989998 2132:0.83249998 2145:0.83880001 2157:0.82440001 2179:0.85589999 2205:0.85049999 2288:0.84869999 2300:0.8973 2310:0.85140002 2337:0.86760002 2339:0.85500002 2340:0.83609998 2353:0.88380003 2363:0.89459997 2372:0.84869999 2376:0.81809998 2386:0.85320002 2406:0.84689999 2409:0.81900001 2419:0.83789998 2438:0.84509999 2446:0.82440001 2459:0.82169998 2465:0.85140002 2476:0.84149998 2486:0.82440001 2515:0.83789998 2532:0.83700001 2541:0.85320002 2555:0.86940002 2564:0.8955 2572:0.89459997 2589:0.81089997 2604:0.86220002 2620:0.83429998 2819:0.83249998 2852:0.83249998 2855:0.85140002 2873:0.86489999 2921:0.84060001 2931:0.85860002 2946:0.81809998 2964:0.86220002 2976:0.83160001 2987:0.86489999 2991:0.81989998 3021:0.88919997 3049:0.8739 3052:0.84780002 3071:0.84509999 3104:0.81809998 3106:0.87480003 3108:0.82980001 3109:0.83340001 3132:0.83520001 3186:0.82529998 3204:0.84329998 3252:0.85140002 3261:0.83880001 3268:0.83609998 3285:0.82260001 3414:0.84420002 3456:0.85140002 3500:0.89999998 3501:0.89459997 3534:0.8757 3555:0.86220002 3560:0.86309999 3575:0.82800001 3613:0.8865 3614:0.86040002 3615:0.85140002 3626:0.8829 3665:0.81989998 3702:0.86489999 3712:0.8775 3743:0.86129999 3750:0.86129999 3762:0.81809998 3831:0.8793 3848:0.82980001 3876:0.84689999 3947:0.81809998 3969:0.83520001 4027:0.81449997 4067:0.85949999 4074:0.85769999 4099:0.8847 4109:0.86849999 4114:0.84420002 4146:0.84240001 4156:0.82260001 4180:0.89999998 4184:0.89999998 4189:0.89999998 4190:0.83880001 4191:0.86400002 4192:0.87480003 4198:0.86400002 4199:0.89999998 4200:0.89999998 4201:0.89999998 4202:0.89999998 #
-0.0026439213848966718577171430837325 24:0.98799998 55:0.97000003 95:1 141:0.91500002 835:0.96200001 841:0.95499998 872:0.986 879:0.99400002 880:0.977 891:0.94499999 923:0.99699998 928:0.91299999 940:0.90899998 946:0.91500002 949:0.991 956:0.94400001 958:0.93199998 959:0.98000002 990:0.98900002 1018:0.921 1037:0.98400003 1042:0.96600002 1045:0.94499999 1050:0.98900002 1055:0.92000002 1058:0.95700002 1065:0.94 1076:0.90600002 1086:0.972 1112:0.94300002 1117:0.917 1123:0.91399997 1146:0.92000002 1147:0.949 1160:0.972 1180:0.97799999 1186:0.963 1201:0.92900002 1225:0.95499998 1259:0.95099998 1284:0.97299999 1342:0.97799999 1375:0.94999999 1421:0.92799997 1423:0.98900002 1425:0.93000001 1429:0.958 1451:0.94199997 1453:0.92500001 1473:0.97600001 1478:0.954 1500:0.94199997 1521:0.93800002 1525:0.921 1590:0.99699998 1621:0.95999998 1638:0.96899998 1663:0.92400002 1668:0.903 1682:0.949 1725:0.97500002 1740:0.91799998 1749:0.96600002 1751:0.96100003 1770:0.912 1829:0.96499997 1845:0.93099999 1868:0.94800001 1882:0.91000003 1925:0.95099998 1935:0.98100001 1959:0.92799997 1976:0.94599998 2023:0.93199998 2071:0.90700001 2079:0.91399997 2126:0.93900001 2145:0.93199998 2179:0.92799997 2190:0.94 2205:0.93900001 2241:0.92400002 2247:0.95300001 2255:0.91299999 2259:0.91100001 2337:0.977 2340:0.94499999 2380:0.954 2386:0.90200001 2402:0.93000001 2419:0.93599999 2426:0.92500001 2465:0.95300001 2466:0.90399998 2476:0.92699999 2496:0.94099998 2505:0.958 2521:0.94700003 2527:0.92699999 2532:0.96799999 2548:0.954 2555:0.94300002 2574:0.92500001 2674:0.95300001 2713:0.91299999 2777:0.96100003 2792:0.92799997 2813:0.93300003 2819:0.926 2843:0.92799997 2855:0.91900003 2905:0.93099999 2949:0.926 2964:0.94300002 2971:0.949 2979:0.92199999 3021:0.96399999 3048:0.92000002 3054:0.92500001 3058:0.92000002 3071:0.92400002 3104:0.96700001 3105:0.94800001 3106:0.98299998 3108:0.92000002 3136:0.95700002 3166:0.90899998 3191:0.94800001 3226:0.97399998 3228:0.926 3268:0.93599999 3289:0.92799997 3374:0.95999998 3393:0.94400001 3414:0.90899998 3487:0.93800002 3560:0.92199999 3613:0.97000003 3690:0.97799999 3702:0.94099998 3716:0.95099998 3795:0.91799998 3814:0.94099998 3826:0.95599997 3842:0.90600002 3858:0.90899998 3933:0.93300003 4070:0.91600001 4072:0.935 4074:0.94999999 4099:0.972 4176:0.90799999 4216:0.94499999 4243:0.91399997 4250:0.95899999 4268:0.94099998 4302:0.93000001 4306:0.90700001 4307:0.94 4312:0.98100001 4326:0.93000001 4333:0.91100001 4348:0.91600001 4384:0.991 4494:0.935 4495:0.95999998 4560:0.90899998 4567:0.91100001 4595:0.917 4617:0.92699999 4722:0.90899998 4745:0.94300002 4749:0.93000001 4764:0.95200002 4791:0.95200002 4856:0.91000003 4880:0.93099999 4894:0.92900002 4974:0.95899999 5012:0.91399997 5116:1 5143:0.95099998 5144:0.98900002 5156:0.93599999 5172:0.90899998 5180:0.991 5265:0.93800002 5269:0.90600002 5270:0.926 5271:0.95899999 5321:0.912 5388:0.99199998 5552:0.91900003 5625:0.94700003 5666:0.96100003 5767:0.96700001 5891:0.97899997 5933:0.94800001 6075:0.94300002 6111:0.97000003 6126:0.93599999 6138:0.903 6147:0.96200001 6162:0.91100001 6205:0.98400003 6207:0.92400002 6439:0.92900002 6450:0.90799999 6489:0.958 6553:0.949 6570:0.93199998 6666:0.96499997 6768:0.94999999 6805:0.93800002 6822:0.95700002 6843:0.90799999 6846:1 6847:1 #
-0.010661533235384212936480707867304 3:0.991 15:0.97899997 19:0.95200002 41:0.98699999 46:0.991 49:0.963 101:0.99199998 152:0.93099999 162:0.96899998 219:0.98799998 246:0.99599999 248:0.97399998 275:0.97600001 332:0.97500002 345:0.99599999 353:0.92000002 356:0.935 382:0.98799998 384:0.98100001 385:0.94300002 494:0.91900003 503:0.95099998 546:0.96200001 553:0.972 578:0.96600002 586:0.98000002 588:0.96499997 680:0.92299998 685:0.958 701:0.98699999 702:0.98799998 753:0.93199998 832:0.91900003 834:0.97500002 835:0.96700001 836:0.93099999 840:0.963 841:0.94599998 865:0.98900002 876:0.90399998 879:0.99400002 889:0.97799999 891:0.96100003 907:0.91799998 919:0.91100001 924:0.92000002 927:0.93099999 928:0.95700002 934:0.958 939:0.93000001 946:0.917 947:0.94800001 948:0.91500002 953:0.98100001 957:0.94800001 959:0.91000003 960:0.90700001 969:0.99199998 970:0.921 1007:0.95300001 1011:0.95099998 1022:0.90600002 1032:0.91100001 1037:0.91500002 1041:0.92900002 1045:0.93099999 1092:0.958 1109:0.93400002 1115:0.912 1146:0.954 1147:0.94400001 1165:0.92799997 1167:0.95599997 1177:0.954 1180:0.92199999 1199:0.912 1202:0.95200002 1211:0.958 1215:0.958 1225:0.963 1231:0.95999998 1259:0.94700003 1260:0.935 1262:0.93800002 1280:0.94400001 1284:0.92799997 1288:0.926 1294:0.94199997 1299:0.95499998 1309:0.98699999 1313:0.93099999 1315:0.97500002 1323:0.90600002 1324:0.93199998 1335:0.90100002 1336:0.935 1351:0.91900003 1356:0.93099999 1364:0.921 1375:0.91500002 1408:0.96799999 1468:0.93099999 1473:0.98000002 1481:0.92500001 1485:0.93099999 1496:0.95499998 1517:1 1524:0.93699998 1525:0.94099998 1529:0.90200001 1538:0.90200001 1549:0.958 1582:0.91399997 1588:0.95499998 1602:0.97799999 1621:0.90499997 1631:0.986 1651:0.94199997 1659:0.94599998 1668:0.94300002 1682:0.99299997 1686:0.91299999 1701:0.972 1717:0.91600001 1725:0.972 1734:0.963 1740:0.90100002 1747:0.921 1751:0.92799997 1752:0.90399998 1757:0.94499999 1762:0.93900001 1770:0.93099999 1775:0.95499998 1781:0.903 1782:0.94300002 1784:0.94199997 1785:0.90799999 1796:0.90399998 1808:0.95200002 1809:0.93300003 1830:0.93099999 1831:0.958 1834:0.91100001 1837:0.92400002 1845:0.92299998 1872:0.963 1882:0.89999998 1901:0.94099998 1916:0.93199998 1925:0.94499999 1944:0.92299998 1953:0.91100001 1963:0.954 2021:0.99400002 2023:0.94099998 2031:0.97799999 2088:0.96600002 2102:0.90100002 2128:0.91000003 2142:0.94300002 2179:0.912 2253:0.92400002 2255:0.94099998 2256:0.96799999 2267:0.95899999 2272:0.92900002 2279:0.97500002 2314:0.92699999 2319:0.903 2329:0.90899998 2340:0.93699998 2347:0.92000002 2348:0.91399997 2349:0.93099999 2365:0.90100002 2376:0.921 2380:0.94499999 2395:0.90399998 2399:0.91900003 2426:0.903 2438:0.94499999 2448:0.95300001 2465:0.972 2472:0.93599999 2473:0.95700002 2480:0.96600002 2493:0.91900003 2501:0.90600002 2505:0.92799997 2518:1 2519:1 2520:1 2521:1 2522:1 2523:1 2524:1 2525:1 2526:1 2527:1 2528:1 2529:1 2530:1 2531:1 2532:1 2533:1 #
0.0049507196399697665431527404678036 2:0.8883 3:0.8919 7:0.87480003 8:0.83969998 13:0.89999998 17:0.89639997 18:0.82080001 24:0.88919997 26:0.89279997 34:0.8919 37:0.82620001 40:0.85500002 43:0.87029999 48:0.89999998 50:0.8775 52:0.87120003 69:0.82980001 86:0.88559997 91:0.86760002 97:0.82889998 101:0.89639997 256:0.88200003 348:0.84240001 382:0.89279997 388:0.85589999 398:0.81989998 400:0.83609998 407:0.84329998 423:0.88559997 444:0.88559997 465:0.8919 501:0.84869999 540:0.8739 558:0.88919997 635:0.87480003 735:0.85949999 747:0.89639997 765:0.87840003 778:0.85680002 783:0.85140002 801:0.83249998 832:0.83340001 835:0.87120003 841:0.85949999 848:0.84960002 862:0.89999998 865:0.86309999 872:0.8973 876:0.82349998 879:0.8847 880:0.87120003 890:0.84869999 891:0.84509999 897:0.83520001 898:0.81809998 902:0.85049999 907:0.84149998 908:0.85409999 912:0.87300003 914:0.84509999 919:0.8118 921:0.84149998 922:0.8739 927:0.84060001 930:0.83520001 931:0.86129999 938:0.84329998 941:0.82800001 947:0.82080001 948:0.8136 949:0.89459997 953:0.8154 957:0.84240001 958:0.84329998 959:0.8847 986:0.83340001 995:0.82709998 996:0.82620001 997:0.84240001 1005:0.83520001 1022:0.86849999 1025:0.81809998 1029:0.82440001 1033:0.82349998 1034:0.8136 1037:0.85949999 1038:0.82349998 1039:0.8793 1040:0.85229999 1041:0.83520001 1042:0.82800001 1043:0.81989998 1044:0.82709998 1045:0.81269997 1050:0.83160001 1058:0.87480003 1067:0.82709998 1069:0.84689999 1072:0.85140002 1076:0.84240001 1078:0.81989998 1086:0.8721 1091:0.8973 1092:0.82440001 1098:0.81449997 1099:0.81629997 1112:0.83969998 1121:0.83789998 1127:0.88200003 1129:0.82260001 1146:0.85860002 1160:0.8829 1165:0.83429998 1166:0.81449997 1176:0.84420002 1180:0.81720001 1181:0.81269997 1206:0.84420002 1210:0.82980001 1215:0.82440001 1224:0.8847 1225:0.8775 1233:0.89999998 1234:0.89999998 1235:0.89999998 1236:0.89999998 1237:0.89999998 1238:0.89999998 1239:0.89999998 1240:0.89999998 1241:0.89999998 1242:0.89999998 1243:0.89999998 1244:0.89999998 1245:0.89999998 1246:0.89999998 1247:0.89999998 1248:0.89999998 1249:0.89999998 1250:0.89999998 1251:0.89999998 1252:0.89999998 1253:0.89999998 1254:0.89999998 1255:0.89999998 1256:0.89999998 1257:0.89999998 1258:0.89999998 1259:0.89999998 1260:0.89999998 1261:0.89999998 1262:0.89999998 1263:0.89999998 1264:0.89999998 1265:0.89999998 1266:0.89999998 1267:0.89999998 1268:0.89999998 1269:0.89999998 1270:0.89999998 1271:0.89999998 1272:0.89999998 #
0.0032562200145125315756122752475221 8:0.88380003 44:0.87480003 55:0.89279997 101:0.89279997 242:0.89999998 333:0.89279997 363:0.8811 558:0.89279997 801:0.85769999 862:0.8955 868:0.89459997 872:0.8901 875:0.82349998 879:0.8829 880:0.86580002 912:0.87840003 931:0.84600002 949:0.86940002 990:0.8793 1040:0.83340001 1042:0.86129999 1140:0.86040002 1160:0.87029999 1184:0.85320002 1225:0.84869999 1230:0.84600002 1251:0.85320002 1259:0.8811 1299:0.89459997 1305:0.84780002 1308:0.86129999 1342:0.88739997 1344:0.84509999 1360:0.88559997 1425:0.83429998 1432:0.85769999 1442:0.84149998 1473:0.8793 1500:0.85769999 1563:0.85860002 1571:0.83429998 1583:0.8721 1589:0.88200003 1614:0.89459997 1657:0.82529998 1671:0.8973 1682:0.84960002 1723:0.82980001 1725:0.87480003 1734:0.84329998 1738:0.85229999 1814:0.8118 1830:0.83429998 1841:0.81269997 1842:0.84780002 1897:0.86220002 1916:0.86220002 1922:0.8829 1979:0.83249998 2023:0.84420002 2132:0.83069998 2136:0.83340001 2145:0.83609998 2157:0.82440001 2340:0.83340001 2386:0.81989998 2419:0.83969998 2465:0.84600002 2589:0.82349998 2593:0.82440001 2762:0.81629997 2834:0.82349998 2933:0.8757 2948:0.8829 2964:0.85589999 3021:0.84869999 3022:0.86309999 3052:0.83609998 3071:0.8154 3076:0.82169998 3086:0.82260001 3106:0.86309999 3191:0.85500002 3252:0.85589999 3320:0.81720001 3362:0.86309999 3414:0.81269997 3500:0.89999998 3504:0.85409999 3506:0.83700001 3507:0.8739 3508:0.84869999 3509:0.89999998 3510:0.89999998 #
0.0027879036439750672776716200473857 94:0.86940002 836:0.82529998 841:0.84869999 853:0.86940002 872:0.88200003 879:0.89999998 880:0.8739 889:0.85589999 891:0.85769999 908:0.87660003 921:0.83340001 922:0.85589999 927:0.83429998 934:0.85860002 958:0.86220002 959:0.8136 963:0.88200003 995:0.82709998 996:0.82800001 1016:0.83249998 1027:0.83160001 1037:0.86309999 1042:0.88739997 1086:0.85949999 1092:0.84240001 1121:0.83160001 1146:0.85860002 1160:0.87029999 1177:0.85680002 1184:0.8847 1197:0.82889998 1205:0.86129999 1206:0.86849999 1208:0.8847 1215:0.87029999 1225:0.87480003 1242:0.8973 1280:0.83520001 1283:0.8811 1294:0.85500002 1297:0.82889998 1306:0.83069998 1368:0.86040002 1386:0.83340001 1404:0.83069998 1408:0.86669999 1417:0.84329998 1418:0.83160001 1424:0.81629997 1425:0.88739997 1451:0.84960002 1453:0.87660003 1473:0.88380003 1480:0.86669999 1500:0.8847 1506:0.86309999 1514:0.8973 1521:0.83520001 1525:0.82169998 1526:0.84060001 1558:0.85140002 1578:0.82349998 1582:0.86220002 1600:0.85229999 1621:0.85409999 1623:0.8739 1659:0.81449997 1668:0.84869999 1682:0.85140002 1683:0.8757 1685:0.86400002 1686:0.81629997 1705:0.82529998 1721:0.82980001 1723:0.83609998 1725:0.87029999 1738:0.8775 1740:0.82169998 1751:0.85049999 1770:0.82980001 1784:0.84420002 1794:0.8847 1797:0.82260001 1830:0.88919997 1831:0.86040002 1922:0.89459997 1925:0.86129999 1959:0.83609998 2003:0.83520001 2023:0.84420002 2040:0.85409999 2073:0.83520001 2136:0.86849999 2193:0.81989998 2222:0.83880001 2243:0.88559997 2255:0.83880001 2267:0.82529998 2282:0.83160001 2311:0.83700001 2319:0.85769999 2339:0.82260001 2376:0.83609998 2386:0.85320002 2409:0.83969998 2419:0.84240001 2438:0.8829 2459:0.84689999 2464:0.84600002 2465:0.86040002 2472:0.85229999 2515:0.81449997 2525:0.84420002 2539:0.83520001 2541:0.84780002 2744:0.8154 2903:0.81449997 2976:0.89279997 2986:0.85320002 2987:0.86489999 2991:0.82620001 2995:0.86040002 3019:0.82169998 3021:0.86220002 3043:0.81809998 3045:0.84780002 3052:0.84509999 3058:0.82260001 3068:0.8118 3071:0.83249998 3106:0.85500002 3108:0.84240001 3109:0.81900001 3132:0.81 3136:0.84329998 3166:0.82620001 3186:0.84060001 3261:0.84869999 3266:0.81269997 3323:0.81809998 3374:0.87029999 3378:0.83880001 3414:0.84420002 3461:0.87029999 3497:0.87120003 3555:0.83069998 3560:0.82260001 3605:0.85320002 3613:0.8811 3614:0.8811 3661:0.81809998 3690:0.83969998 3702:0.87029999 3716:0.84600002 3722:0.84060001 3743:0.87480003 3848:0.84509999 3913:0.82080001 3976:0.8811 4067:0.86849999 4072:0.83880001 4074:0.84509999 4090:0.82889998 4099:0.8793 4114:0.85409999 4137:0.8919 4156:0.8154 4268:0.83429998 4282:0.82260001 4291:0.81089997 4295:0.82800001 4306:0.84780002 4352:0.81809998 4355:0.8955 4386:0.84600002 4428:0.88739997 4435:0.82620001 4465:0.84149998 4467:0.83160001 4469:0.83700001 4470:0.89999998 4471:0.89999998 #
0.0071119757527809742553293048672458 2:0.89639997 3:0.8883 8:0.8739 9:0.8775 10:0.89279997 17:0.8136 18:0.87120003 26:0.89639997 30:0.88559997 48:0.89999998 52:0.87120003 68:0.84060001 74:0.8955 86:0.86849999 97:0.85409999 126:0.88919997 170:0.88200003 179:0.82529998 364:0.83609998 382:0.88919997 459:0.87120003 507:0.89639997 512:0.84060001 546:0.87480003 613:0.83160001 709:0.89639997 771:0.88380003 793:0.82529998 801:0.83969998 831:0.82980001 835:0.86849999 841:0.84960002 853:0.83160001 872:0.8973 879:0.8901 880:0.86580002 889:0.85589999 890:0.85769999 891:0.83969998 892:0.81720001 919:0.82800001 922:0.85860002 927:0.85140002 930:0.83520001 934:0.85680002 938:0.85589999 948:0.83429998 949:0.87480003 953:0.82620001 956:0.83069998 957:0.8739 958:0.82980001 959:0.8865 995:0.84329998 996:0.84149998 1012:0.84869999 1016:0.82080001 1018:0.83429998 1028:0.81449997 1037:0.84509999 1045:0.82800001 1069:0.86580002 1080:0.89459997 1104:0.85589999 1112:0.84420002 1116:0.82169998 1117:0.86940002 1118:0.84780002 1121:0.83700001 1122:0.84960002 1123:0.84509999 1131:0.89459997 1134:0.8136 1146:0.84600002 1160:0.87480003 1165:0.86220002 1166:0.84329998 1176:0.83609998 1184:0.87120003 1205:0.84420002 1231:0.82889998 1264:0.82709998 1284:0.82709998 1294:0.8793 1299:0.85320002 1303:0.8865 1305:0.84240001 1341:0.81989998 1345:0.82440001 1355:0.85949999 1356:0.83160001 1390:0.83520001 1401:0.8775 1408:0.89459997 1418:0.81269997 1425:0.88739997 1450:0.85049999 1453:0.84509999 1458:0.83249998 1466:0.8937 1473:0.81720001 1478:0.82260001 1495:0.81900001 1496:0.8919 1510:0.81989998 1514:0.8901 1515:0.86129999 1517:0.85949999 1525:0.82440001 1526:0.81089997 1546:0.84780002 1547:0.85949999 1548:0.82889998 1549:0.83969998 1552:0.83160001 1558:0.81449997 1583:0.85769999 1600:0.81809998 1602:0.8865 1621:0.82260001 1625:0.81900001 1638:0.81089997 1640:0.85769999 1642:0.86849999 1643:0.85049999 1651:0.84509999 1654:0.82889998 1665:0.81989998 1677:0.85140002 1682:0.84689999 1684:0.81989998 1721:0.82980001 1723:0.84420002 1734:0.85589999 1738:0.84329998 1749:0.84869999 1765:0.85409999 1770:0.81449997 1771:0.84869999 1774:0.82080001 1784:0.84689999 1809:0.84509999 1814:0.84420002 1822:0.82889998 1828:0.81900001 1830:0.86309999 1840:0.85140002 1846:0.81 1849:0.8739 1868:0.81720001 1869:0.82980001 1872:0.83609998 1875:0.8829 1882:0.84420002 1887:0.87660003 1914:0.86849999 2023:0.83609998 2061:0.89999998 2063:0.89999998 2066:0.84869999 2068:0.89999998 2069:0.89999998 2070:0.89999998 2071:0.89999998 2072:0.89999998 2073:0.89999998 2074:0.89999998 2075:0.89999998 2076:0.89999998 2077:0.89999998 2078:0.89999998 2079:0.89999998 2080:0.89999998 2081:0.89999998 2082:0.89999998 2083:0.89999998 2084:0.89999998 2085:0.89999998 2086:0.89999998 2087:0.89999998 2088:0.89999998 2089:0.89999998 2090:0.89999998 2091:0.89999998 2092:0.89999998 2093:0.89999998 2094:0.89999998 #
-0.010661533235384212936480707867304 3:0.991 9:0.98799998 15:0.98000002 19:0.98000002 22:0.98299998 24:0.99599999 28:0.935 30:0.98000002 68:0.94099998 69:0.92900002 86:0.98400003 89:0.98699999 124:0.99599999 132:0.97000003 138:0.98400003 174:0.91100001 212:0.97100002 314:0.95099998 621:0.94599998 629:0.98799998 655:0.96200001 691:0.926 753:0.91500002 817:0.98000002 832:0.93800002 848:0.935 868:0.96499997 869:0.92799997 872:1 879:0.972 880:0.97399998 891:0.94499999 907:0.92900002 908:0.903 911:0.91000003 922:0.93099999 927:0.958 928:0.94 934:0.94 956:0.92500001 958:0.93199998 959:0.93300003 994:0.92400002 1000:0.92500001 1005:0.91399997 1006:0.90200001 1012:0.94 1018:0.92699999 1027:0.91299999 1029:0.93800002 1034:0.92500001 1037:0.972 1042:0.97399998 1045:0.91399997 1055:0.95099998 1065:0.94300002 1069:0.921 1076:0.93300003 1077:0.92000002 1080:0.95599997 1086:0.96600002 1091:0.91500002 1092:0.94400001 1097:0.91100001 1117:0.93599999 1118:0.935 1122:0.935 1127:0.93599999 1129:0.91799998 1132:0.90799999 1146:0.92799997 1160:0.98900002 1170:0.92199999 1180:0.92799997 1189:0.97399998 1197:0.90600002 1205:0.93199998 1206:0.94700003 1215:0.95300001 1249:0.92299998 1262:0.94599998 1264:0.91900003 1280:0.95099998 1287:0.90700001 1368:0.92500001 1386:0.91399997 1390:0.91000003 1394:0.90700001 1397:0.94 1403:0.96600002 1404:0.921 1408:0.99199998 1417:0.94499999 1418:0.90200001 1425:0.93800002 1429:0.963 1432:0.95599997 1436:0.96499997 1440:0.95599997 1442:0.92400002 1446:0.90499997 1453:0.91600001 1458:0.958 1462:0.94499999 1463:1 1464:1 1465:1 1466:1 1467:1 1468:1 1469:1 1470:1 1471:1 1472:1 1473:1 1474:1 1475:1 1476:1 1477:1 1478:1 1479:1 1480:1 1481:1 1482:1 1483:1 1484:1 1485:1 1486:1 1487:1 1488:1 1489:1 1490:1 1491:1 #
-0.010661533235384212936480707867304 19:0.96799999 841:0.92000002 879:0.991 880:0.97100002 891:0.92000002 913:1 922:0.93400002 931:0.93699998 934:0.92799997 956:0.98299998 958:0.94099998 959:0.94300002 963:0.99000001 986:0.96100003 1005:0.935 1022:0.95099998 1025:0.986 1042:0.97399998 1065:0.93400002 1072:0.94300002 1092:0.95499998 1118:0.90100002 1127:0.94300002 1147:0.93099999 1242:0.991 1310:0.97500002 1312:0.94300002 1330:0.91000003 1337:0.93900001 1347:0.91100001 1370:0.94499999 1408:0.95599997 1420:0.91000003 1427:0.92400002 1451:0.93300003 1478:0.91600001 1589:0.986 1590:1 1592:0.90799999 1602:0.98699999 1615:0.91500002 1621:0.93099999 1631:0.93400002 1691:0.94499999 1701:0.977 1725:0.96700001 1832:0.926 1922:1 1990:0.92299998 2023:0.93000001 2142:0.95999998 2158:0.90100002 2189:0.991 2272:0.92699999 2386:0.94199997 2465:0.94599998 2554:0.94499999 2613:0.90799999 2708:0.903 2723:0.94700003 2792:0.94099998 2825:0.96100003 2949:0.93800002 2976:0.98100001 2995:0.96200001 3045:0.93099999 3051:0.93099999 3071:0.91799998 3090:0.92699999 3123:0.935 3127:0.93000001 3129:0.917 3226:0.94800001 3289:0.92500001 3322:0.92699999 3414:0.91399997 3445:0.90200001 3446:0.977 3609:0.92699999 #
0.0053362326913305316647417875230985 19:0.8721 30:0.88559997 40:0.8757 92:0.86760002 204:0.88020003 388:0.88919997 417:0.83069998 439:0.84689999 547:0.85949999 835:0.8739 868:0.87029999 872:0.89279997 879:0.8973 890:0.84689999 891:0.82260001 911:0.89459997 919:0.83520001 928:0.86580002 934:0.85769999 947:0.85320002 953:0.82709998 990:0.89459997 995:0.84329998 1000:0.86849999 1012:0.85409999 1018:0.85049999 1023:0.85680002 1025:0.86580002 1040:0.84689999 1080:0.87029999 1086:0.87480003 1095:0.83700001 1118:0.83520001 1122:0.83969998 1127:0.87660003 1146:0.86129999 1160:0.89279997 1165:0.8739 1166:0.86040002 1197:0.8883 1215:0.87300003 1225:0.86669999 1262:0.83880001 1271:0.86849999 1283:0.87120003 1368:0.82620001 1375:0.82260001 1397:0.86580002 1408:0.84420002 1424:0.83609998 1450:0.84060001 1451:0.83340001 1473:0.88380003 1500:0.85500002 1514:0.82440001 1525:0.83969998 1588:0.84060001 1631:0.8829 1668:0.84869999 1682:0.85409999 1684:0.81720001 1686:0.83429998 1725:0.87480003 1734:0.87120003 1766:0.84329998 1828:0.8775 1830:0.83880001 1834:0.83520001 1856:0.83700001 1859:0.8793 1868:0.85589999 1872:0.87660003 1875:0.85409999 1879:0.89459997 1889:0.84869999 1901:0.82349998 1907:0.8739 1916:0.82800001 1922:0.89279997 1952:0.83700001 1964:0.82889998 2002:0.81989998 2023:0.84149998 2076:0.84060001 2088:0.83429998 2102:0.83069998 2122:0.84149998 2128:0.81449997 2142:0.87660003 2145:0.83880001 2146:0.83249998 2190:0.82169998 2192:0.8829 2243:0.8811 2255:0.85229999 2288:0.85409999 2293:0.8154 2326:0.82080001 2339:0.84960002 2348:0.82709998 2354:0.82349998 2372:0.85140002 2376:0.81900001 2409:0.83969998 2446:0.84780002 2462:0.82260001 2465:0.84869999 2468:0.8118 2473:0.86220002 2476:0.82709998 2486:0.81720001 2496:0.83880001 2524:0.8811 2525:0.86220002 2533:0.85949999 2733:0.85140002 2792:0.85500002 2805:0.8154 2819:0.83069998 2830:0.84600002 2852:0.83520001 2854:0.84329998 2857:0.82169998 2871:0.85769999 2949:0.86489999 2969:0.84420002 2976:0.89279997 2979:0.84509999 2986:0.85860002 3008:0.82080001 3045:0.84689999 3049:0.86129999 3061:0.81 3071:0.84780002 3105:0.83249998 3106:0.86400002 3108:0.83249998 3137:0.85320002 3186:0.83069998 3235:0.84240001 3393:0.84509999 3414:0.82260001 3422:0.81720001 3443:0.83429998 3446:0.86760002 3456:0.85949999 3526:0.87480003 3560:0.84149998 3583:0.83429998 3602:0.82169998 3605:0.82529998 3611:0.83249998 3690:0.8811 3702:0.83520001 3728:0.82260001 3732:0.82440001 3789:0.87840003 3823:0.81449997 3919:0.88200003 3981:0.82169998 3993:0.86309999 4067:0.84960002 4074:0.87480003 4099:0.84780002 4114:0.86040002 4137:0.84509999 4161:0.83789998 4171:0.8973 4285:0.82529998 4307:0.85860002 4371:0.8136 4398:0.84149998 4403:0.84420002 4520:0.86220002 4553:0.89999998 4554:0.89999998 4555:0.89999998 4556:0.89999998 4557:0.89999998 4558:0.89999998 4559:0.89999998 #
-0.0057599230663352984915803745025187 3:0.977 30:0.98400003 40:0.96100003 314:0.99599999 771:0.991 832:0.93300003 847:0.98100001 848:0.94700003 868:0.99699998 872:0.98900002 879:0.97000003 880:1 891:0.94700003 908:0.95200002 927:0.94599998 934:0.949 953:0.92299998 958:0.96100003 959:0.98199999 1011:0.93599999 1016:0.91500002 1037:0.98000002 1039:0.98900002 1042:0.99400002 1045:0.92799997 1065:0.93699998 1069:0.93699998 1076:0.94300002 1080:0.94999999 1086:0.94999999 1095:0.91500002 1116:0.95599997 1119:0.903 1127:0.912 1156:0.93599999 1160:0.96700001 1202:0.93599999 1206:0.972 1215:0.92299998 1242:0.98000002 1260:0.92299998 1262:0.95099998 1271:0.95700002 1284:0.97000003 1355:0.94800001 1394:0.93400002 1397:0.98000002 1406:0.921 1408:0.97299999 1425:0.98299998 1429:0.91799998 1432:0.97799999 1450:0.95499998 1453:0.98199999 1473:0.90799999 1476:0.92000002 1478:0.91600001 1515:0.96799999 1520:0.93699998 1524:0.97000003 1546:0.94499999 1558:0.917 1621:0.93099999 1631:0.95999998 1638:0.92900002 1644:0.94099998 1663:0.93199998 1664:0.912 1669:0.912 1677:0.90399998 1721:0.93099999 1723:0.954 1725:0.96600002 1734:0.94499999 1751:0.991 1756:0.92900002 1770:0.93800002 1771:0.97399998 1787:0.90399998 1830:0.92699999 1834:0.92500001 1836:0.90899998 1840:0.93099999 1845:0.95499998 1855:0.90200001 1872:0.917 1882:0.935 1897:0.95999998 1909:0.93099999 1959:0.93099999 1976:0.91399997 1995:0.921 2088:0.97299999 2107:0.90700001 2116:0.963 2132:0.96399999 2133:0.90200001 2135:0.92000002 2142:0.954 2179:0.97500002 2255:0.97500002 2267:0.90399998 2337:0.912 2339:0.958 2366:0.94599998 2386:0.92000002 2407:0.94 2419:0.93400002 2426:0.92299998 2446:0.92799997 2464:0.92500001 2480:0.963 2487:0.95700002 2505:0.94599998 2577:0.92299998 2602:0.90600002 2619:0.91600001 2690:0.96899998 2702:0.94599998 2723:0.94 2777:0.90499997 2805:0.89999998 2871:0.94999999 2910:0.93099999 2950:0.94300002 2951:0.92299998 2952:0.94199997 2991:0.90600002 3016:0.917 3021:0.96200001 3045:0.94700003 3075:0.94999999 3104:0.94199997 3109:0.92799997 3123:0.94400001 3136:0.93599999 3137:0.94800001 3151:0.94499999 3217:0.949 3226:0.97100002 3285:0.917 3393:0.93199998 3414:0.903 3544:1 3555:0.91900003 3602:0.94599998 3605:0.96399999 3613:0.96799999 3615:0.92799997 3618:0.93900001 3703:0.97600001 3732:0.94199997 3738:0.977 3743:0.95899999 3776:0.92199999 3785:0.93099999 3798:0.94300002 3913:0.90799999 3919:0.94199997 4048:0.95700002 4067:0.92299998 4072:0.93199998 4074:0.92500001 4082:0.90600002 4090:0.917 4099:0.93699998 4114:0.94999999 4121:0.98000002 4153:0.97399998 4301:1 4302:1 4303:1 4304:1 #
0.007209241969091868297569991597129 10:0.89279997 15:0.84600002 24:0.82620001 31:0.8136 94:0.85320002 219:0.8811 256:0.8739 363:0.8847 393:0.86309999 442:0.89639997 848:0.85500002 872:0.89999998 879:0.8901 880:0.87660003 891:0.85409999 922:0.83609998 923:0.89999998 927:0.83789998 928:0.83160001 958:0.8775 959:0.86849999 995:0.84060001 996:0.83520001 1016:0.88020003 1018:0.82620001 1040:0.86220002 1042:0.87660003 1058:0.86400002 1060:0.83520001 1080:0.86040002 1086:0.8775 1112:0.83520001 1140:0.83609998 1160:0.8901 1177:0.85229999 1180:0.84780002 1184:0.87660003 1271:0.86669999 1280:0.85229999 1338:0.82980001 1408:0.85680002 1418:0.83160001 1425:0.86400002 1432:0.86309999 1450:0.84509999 1453:0.84329998 1458:0.82169998 1467:0.87029999 1473:0.87660003 1476:0.84149998 1478:0.82440001 1500:0.85229999 1507:0.82800001 1514:0.87029999 1525:0.83160001 1546:0.85049999 1552:0.82620001 1558:0.82529998 1621:0.85409999 1631:0.84240001 1638:0.86309999 1642:0.83429998 1645:0.84509999 1665:0.81269997 1669:0.8154 1682:0.8955 1686:0.83789998 1721:0.84960002 1725:0.8721 1734:0.85769999 1756:0.81900001 1765:0.85140002 1770:0.83429998 1771:0.88020003 1785:0.86760002 1794:0.81989998 1829:0.86400002 1830:0.8865 1834:0.82709998 1897:0.86400002 1909:0.82709998 1917:0.83969998 1922:0.8901 1959:0.83249998 2040:0.8136 2076:0.83789998 2088:0.87300003 2091:0.87029999 2135:0.84060001 2142:0.84060001 2145:0.83069998 2179:0.85589999 2205:0.8847 2255:0.85949999 2260:0.83520001 2267:0.85140002 2288:0.84329998 2339:0.81720001 2340:0.84420002 2354:0.82349998 2355:0.85320002 2419:0.81809998 2438:0.8829 2446:0.85049999 2465:0.86400002 2473:0.83340001 2486:0.82709998 2515:0.8136 2613:0.83609998 2717:0.86669999 2718:0.82800001 2727:0.8136 2732:0.86400002 2792:0.81720001 2805:0.81449997 2855:0.83069998 2873:0.82709998 2889:0.83609998 2904:0.85049999 2976:0.83429998 2991:0.82349998 2997:0.84420002 3021:0.85680002 3055:0.82980001 3068:0.84420002 3071:0.84509999 3104:0.83340001 3106:0.86940002 3108:0.86489999 3109:0.86040002 3166:0.83069998 3186:0.82080001 3208:0.81 3227:0.86940002 3235:0.86849999 3374:0.86760002 3414:0.82260001 3494:0.81809998 3560:0.81 3580:0.84420002 3597:0.84869999 3605:0.81720001 3613:0.8811 3615:0.86489999 3627:0.81809998 3687:0.85320002 3702:0.84329998 3716:0.84060001 3732:0.83700001 3743:0.87120003 3811:0.82169998 3831:0.81269997 3843:0.83160001 3848:0.82260001 3868:0.8883 3947:0.84329998 3965:0.84600002 4074:0.84509999 4094:0.86940002 4099:0.86849999 4117:0.8136 4198:0.8721 4218:0.82080001 4243:0.82800001 4248:0.82620001 4250:0.85769999 4306:0.85589999 4326:0.83880001 4355:0.82080001 4356:0.85140002 4363:0.89999998 4364:0.89999998 4365:0.89999998 #
0.0038930814791755473901202488917761 9:0.88559997 170:0.88200003 655:0.86940002 746:0.89639997 866:0.89999998 875:0.83969998 922:0.84600002 931:0.81449997 959:0.84420002 1375:0.84780002 1408:0.86940002 1462:0.84780002 1589:0.87480003 1621:0.85409999 1631:0.86129999 1701:0.87660003 2023:0.83340001 2255:0.83969998 2288:0.82709998 2809:0.85769999 3108:0.81989998 3170:0.81809998 3214:0.89639997 #
0.0012902230151490368201955272198234 15:0.8811 94:0.82440001 218:0.85049999 382:0.88919997 522:0.8883 831:0.81629997 832:0.83789998 836:0.85229999 841:0.84960002 853:0.84420002 868:0.89459997 872:0.8847 879:0.8973 880:0.8847 890:0.85769999 891:0.87840003 919:0.83609998 921:0.82980001 922:0.84329998 934:0.82800001 946:0.82440001 953:0.84420002 958:0.82800001 963:0.8847 1005:0.81989998 1016:0.82349998 1037:0.8739 1042:0.8775 1057:0.81809998 1069:0.82080001 1086:0.86489999 1092:0.83249998 1121:0.83249998 1156:0.84869999 1160:0.8721 1177:0.87029999 1184:0.88200003 1197:0.82889998 1205:0.83880001 1206:0.85949999 1215:0.8721 1225:0.86220002 1242:0.8973 1280:0.85680002 1283:0.8901 1289:0.85769999 1368:0.89999998 1401:0.8847 1404:0.84149998 1418:0.84420002 1424:0.84420002 1425:0.88739997 1450:0.84149998 1451:0.84780002 1453:0.8847 1458:0.83520001 1473:0.8847 1476:0.81269997 1500:0.88200003 1506:0.87120003 1510:0.86400002 1514:0.89459997 1515:0.86400002 1525:0.82980001 1526:0.82529998 1558:0.84869999 1582:0.86580002 1600:0.86760002 1621:0.85409999 1623:0.85409999 1638:0.8136 1651:0.84240001 1664:0.81809998 1682:0.88200003 1683:0.86309999 1685:0.83609998 1686:0.83160001 1705:0.87300003 1721:0.82709998 1723:0.88380003 1725:0.86940002 1738:0.85140002 1756:0.86940002 1770:0.81809998 1775:0.85500002 1797:0.83069998 1803:0.83429998 1809:0.83700001 1814:0.88020003 1830:0.8919 1845:0.87660003 1882:0.83880001 1922:0.89279997 1990:0.86220002 1991:0.83609998 2023:0.84689999 2040:0.85049999 2073:0.83249998 2132:0.87480003 2142:0.84509999 2178:0.83520001 2255:0.86040002 2267:0.84329998 2282:0.83160001 2288:0.87120003 2306:0.82529998 2339:0.83700001 2376:0.83429998 2409:0.83969998 2438:0.8829 2459:0.8955 2464:0.84869999 2465:0.86400002 2469:0.83340001 2472:0.85229999 2483:0.83429998 2545:0.83700001 2548:0.83969998 2702:0.83969998 2737:0.81989998 2792:0.82080001 2841:0.8154 2852:0.8154 2903:0.8154 2976:0.86220002 2986:0.85320002 2987:0.86760002 2991:0.82709998 2995:0.83880001 3021:0.88380003 3045:0.84420002 3054:0.83249998 3058:0.82260001 3061:0.81089997 3071:0.83069998 3106:0.83609998 3108:0.83969998 3109:0.85409999 3136:0.84869999 3166:0.84780002 3168:0.82080001 3177:0.85500002 3186:0.84060001 3212:0.85680002 3235:0.84509999 3266:0.81629997 3374:0.87300003 3414:0.85680002 3434:0.85409999 3443:0.81989998 3456:0.85589999 3494:0.82349998 3560:0.82529998 3605:0.84060001 3613:0.8955 3702:0.84600002 3711:0.81900001 3722:0.86309999 3727:0.86489999 3738:0.87300003 3740:0.82169998 3743:0.86580002 3848:0.86580002 3919:0.8118 3947:0.85320002 3985:0.83880001 4067:0.85049999 4070:0.8118 4072:0.84869999 4074:0.85409999 4099:0.87480003 4114:0.84060001 4121:0.81629997 4137:0.87660003 4204:0.83340001 4268:0.83429998 4295:0.82800001 4298:0.83160001 4307:0.88919997 4352:0.83160001 4355:0.88739997 4386:0.85589999 4407:0.82529998 4428:0.85229999 4465:0.83520001 4466:0.89999998 4467:0.89999998 4468:0.89999998 4469:0.89999998 #
0.006842292126247227768143233106457 2:0.89279997 94:0.83429998 140:0.8721 152:0.8721 219:0.88919997 244:0.89279997 462:0.89639997 465:0.87480003 815:0.86129999 834:0.83340001 868:0.88919997 872:0.89999998 879:0.89279997 880:0.88200003 891:0.85500002 922:0.82529998 928:0.84600002 947:0.86849999 958:0.88020003 959:0.83969998 996:0.82620001 1022:0.8154 1025:0.87120003 1037:0.87660003 1042:0.8721 1046:0.86309999 1065:0.84329998 1069:0.83429998 1071:0.83520001 1086:0.87120003 1106:0.82349998 1127:0.85860002 1146:0.86669999 1160:0.8775 1167:0.88919997 1180:0.82260001 1198:0.83969998 1206:0.88380003 1210:0.81089997 1215:0.87480003 1224:0.81 1225:0.86669999 1259:0.84960002 1272:0.82800001 1280:0.85229999 1284:0.89459997 1289:0.86760002 1339:0.85680002 1397:0.85140002 1418:0.82620001 1425:0.86040002 1438:0.82529998 1454:0.87660003 1473:0.8847 1500:0.86489999 1525:0.8136 1590:0.83069998 1591:0.83789998 1592:0.82800001 1602:0.8883 1631:0.86580002 1638:0.85589999 1668:0.84149998 1669:0.83160001 1674:0.84509999 1677:0.85949999 1678:0.84060001 1679:0.84240001 1680:0.82260001 1682:0.86040002 1683:0.87840003 1684:0.88739997 1686:0.82529998 1718:0.81269997 1721:0.81809998 1723:0.88919997 1725:0.87480003 1726:0.83429998 1734:0.84329998 1736:0.83520001 1737:0.83340001 1740:0.81629997 1749:0.86400002 1770:0.82169998 1776:0.83340001 1784:0.84689999 1791:0.85229999 1808:0.83789998 1809:0.84240001 1830:0.8919 1831:0.86580002 1838:0.82980001 1872:0.83069998 1901:0.84420002 1909:0.82529998 1959:0.82800001 1966:0.84329998 1979:0.82889998 1995:0.85409999 2006:0.84149998 2040:0.85049999 2074:0.87300003 2102:0.84780002 2105:0.84600002 2128:0.81449997 2132:0.83340001 2135:0.8757 2142:0.86129999 2164:0.84329998 2179:0.81269997 2193:0.85229999 2255:0.88020003 2259:0.82260001 2267:0.85680002 2282:0.82620001 2288:0.81089997 2296:0.82349998 2319:0.8739 2321:0.82709998 2340:0.83880001 2363:0.86580002 2376:0.82349998 2383:0.84960002 2426:0.83520001 2438:0.8154 2463:0.82800001 2465:0.87660003 2466:0.81809998 2469:0.8775 2472:0.82440001 2484:0.85500002 2505:0.85140002 2515:0.81900001 2521:0.82080001 2538:0.86040002 2545:0.8883 2554:0.84960002 2602:0.82080001 2690:0.86849999 2727:0.8154 2792:0.86580002 2819:0.83969998 2867:0.82349998 2904:0.87120003 2910:0.84240001 2921:0.84869999 2971:0.85949999 2976:0.83609998 2997:0.87029999 3019:0.81989998 3021:0.88020003 3028:0.82080001 3043:0.82260001 3058:0.86760002 3061:0.81089997 3071:0.84869999 3103:0.83160001 3106:0.86669999 3108:0.84240001 3109:0.83609998 3123:0.84060001 3146:0.81809998 3162:0.83969998 3169:0.83340001 3172:0.81989998 3186:0.84329998 3226:0.87029999 3250:0.86760002 3268:0.83429998 3284:0.84060001 3374:0.86760002 3414:0.86669999 3426:0.85500002 3446:0.87840003 3456:0.86400002 3477:0.82709998 3490:0.84509999 3494:0.8136 3563:0.84060001 3613:0.87300003 3614:0.85680002 3615:0.83340001 3616:0.81449997 3664:0.82980001 3690:0.86669999 3711:0.82980001 3723:0.84600002 3743:0.87660003 3788:0.82349998 3789:0.81269997 3791:0.84600002 3795:0.88200003 3804:0.8154 3811:0.81900001 3848:0.84869999 3913:0.82620001 3947:0.83340001 3976:0.8811 4006:0.86849999 4067:0.8811 4070:0.8118 4082:0.82529998 4094:0.86940002 4100:0.82889998 4102:0.87300003 4105:0.87840003 4107:0.89999998 4109:0.89999998 4110:0.89999998 4111:0.89999998 4112:0.89999998 4113:0.89999998 #
-0.0044459700179224235713770774225395 8:0.97100002 9:0.98799998 17:0.97399998 30:0.98400003 86:0.98400003 188:0.98100001 256:0.94700003 275:0.963 400:0.97500002 433:0.91299999 456:0.94300002 489:0.96200001 629:0.98799998 693:0.98400003 847:0.99400002 848:0.926 868:0.99400002 872:0.99699998 879:0.991 880:0.97100002 891:0.95200002 908:0.94599998 911:0.99400002 922:0.93699998 927:0.93400002 928:0.94300002 930:0.92799997 947:0.95899999 958:0.95300001 959:0.92199999 995:0.93400002 1005:0.95300001 1018:0.92699999 1032:0.92699999 1033:0.94400001 1037:0.97399998 1045:0.99199998 1069:0.95999998 1071:0.96100003 1072:0.94599998 1076:0.94400001 1080:0.96200001 1109:0.90899998 1117:0.90399998 1123:0.921 1127:0.93400002 1131:0.92199999 1160:0.991 1165:0.94199997 1184:0.98299998 1189:0.97100002 1205:0.91600001 1225:0.98299998 1262:0.93599999 1283:0.91500002 1284:0.95599997 1368:0.93099999 1386:0.92500001 1394:0.93900001 1408:0.98799998 1429:0.94099998 1432:0.95899999 1440:0.94 1442:0.94400001 1450:0.921 1462:0.92299998 1469:0.99699998 1472:0.991 1473:0.986 1475:0.94999999 1476:0.99699998 1479:0.99400002 1492:0.93400002 1500:0.94599998 1514:0.95200002 1521:0.94 1524:0.991 1525:0.91799998 1532:0.93400002 1546:0.94999999 1551:0.94999999 1552:0.93800002 1558:0.926 1582:0.96100003 1600:0.94499999 1602:0.98799998 1621:0.94300002 1631:0.954 1632:0.98799998 1638:0.94300002 1640:0.91799998 1642:0.95599997 1667:0.91900003 1682:0.95200002 1713:0.90600002 1725:0.963 1732:0.903 1734:0.95599997 1747:0.91799998 1749:0.95999998 1759:0.89999998 1765:0.935 1775:0.91900003 1782:0.91900003 1809:0.92699999 1816:0.92500001 1834:0.91799998 1861:0.95999998 1872:0.96200001 1875:0.90899998 1897:0.958 1901:0.90899998 1905:0.90499997 1909:0.90899998 1959:0.92299998 1966:0.94700003 2013:0.93300003 2023:0.93800002 2073:0.91500002 2076:0.97000003 2122:0.92500001 2135:0.90700001 2142:0.95200002 2145:0.926 2179:0.90600002 2184:0.92500001 2198:0.93599999 2230:0.90799999 2232:0.96399999 2243:0.94999999 2255:0.92199999 2264:0.94199997 2265:0.94700003 2288:0.954 2329:0.958 2330:0.96200001 2340:0.95899999 2348:0.93900001 2354:0.90700001 2366:0.91299999 2376:0.90399998 2399:0.92199999 2404:0.90100002 2408:0.91000003 2419:0.93300003 2435:0.98000002 2438:0.96100003 2441:0.991 2446:0.93800002 2465:0.96399999 2466:0.912 2472:0.95300001 2473:0.94 2480:0.963 2484:0.94400001 2486:0.92000002 2505:0.95499998 2506:0.91900003 2524:0.92699999 2533:0.95499998 2535:0.93000001 2538:0.92900002 2561:0.90799999 2564:0.94499999 2588:0.96499997 2613:0.92400002 2702:0.95200002 2705:0.95899999 2723:0.93800002 2732:0.97799999 2733:0.91600001 2805:0.93400002 2852:0.921 2855:0.917 2905:0.977 2964:0.95499998 2971:0.96399999 2973:0.98100001 2976:0.96100003 2987:0.926 2997:0.94099998 3049:0.93599999 3058:0.90499997 3071:0.93099999 3106:0.94700003 3108:0.92699999 3109:0.94099998 3137:0.90700001 3151:0.926 3168:0.92699999 3170:0.93599999 3171:0.94300002 3173:0.98500001 3186:0.93199998 3205:0.94300002 3226:0.97100002 3238:0.903 3268:0.93599999 3285:0.917 3289:0.926 3374:0.96700001 3396:0.94599998 3414:0.958 3422:0.93599999 3443:0.94199997 3456:0.93900001 3555:0.926 3602:0.921 3661:0.93900001 3665:0.94099998 3702:0.93900001 3705:0.917 3750:0.95099998 3761:1 3762:0.90100002 3763:0.98299998 3770:0.99699998 3772:1 3778:0.94 3780:1 3781:1 3782:1 3783:1 3784:1 3785:1 3786:1 3787:1 #
0.0042246161490147341940892822265141 3:0.89639997 7:0.86760002 114:0.8847 141:0.83069998 345:0.88739997 449:0.8739 465:0.86849999 552:0.86129999 579:0.84869999 832:0.84240001 834:0.82889998 835:0.85049999 836:0.85500002 848:0.87660003 859:0.8136 879:0.87480003 880:0.86129999 891:0.84780002 902:0.85860002 927:0.84329998 928:0.84600002 934:0.85949999 948:0.84780002 953:0.83700001 958:0.82260001 1018:0.83160001 1020:0.88919997 1022:0.82800001 1025:0.8739 1029:0.85229999 1041:0.83520001 1060:0.83160001 1086:0.84960002 1109:0.82980001 1123:0.83160001 1127:0.88200003 1147:0.84240001 1165:0.84780002 1215:0.88020003 1225:0.86129999 1271:0.87660003 1288:0.85049999 1324:0.82620001 1330:0.81629997 1332:0.82260001 1394:0.84509999 1396:0.81989998 1402:0.84960002 1403:0.8793 1406:0.83249998 1408:0.8793 1454:0.85320002 1524:0.86489999 1529:0.82980001 1546:0.85140002 1564:0.8154 1582:0.85049999 1631:0.85589999 1640:0.84060001 1651:0.83789998 1668:0.83160001 1674:0.84420002 1688:0.8154 1701:0.8739 1721:0.82260001 1725:0.87480003 1770:0.8154 1859:0.82260001 1872:0.84600002 2031:0.84869999 2038:0.84149998 2048:0.81809998 2076:0.87029999 2088:0.8757 2142:0.8793 2179:0.82260001 2243:0.81720001 2259:0.81720001 2272:0.82800001 2279:0.84060001 2343:0.86489999 2349:0.82709998 2399:0.82440001 2426:0.82709998 2448:0.84149998 2480:0.8811 2501:0.8901 2506:0.81629997 2527:0.84420002 2533:0.83520001 2547:0.83789998 2573:0.81720001 2588:0.86220002 2612:0.82260001 2721:0.82800001 2723:0.84600002 2790:0.81269997 2792:0.83700001 2825:0.86489999 2852:0.81629997 2866:0.86309999 2949:0.84060001 2964:0.86760002 2976:0.89279997 2986:0.82800001 3008:0.81720001 3016:0.82709998 3058:0.83429998 3059:0.84600002 3068:0.84780002 3071:0.84780002 3073:0.82440001 3102:0.81269997 #
-0.0024032791795798634851277775226208 8:0.97399998 13:0.99599999 58:0.93699998 283:0.935 337:0.92799997 462:0.99599999 512:0.93400002 771:0.98699999 832:0.93099999 872:1 879:0.99199998 880:0.977 890:0.94700003 891:0.95899999 898:0.90899998 907:0.92799997 927:0.94 934:0.93199998 938:0.94199997 958:0.90899998 959:0.94099998 990:0.99699998 1005:0.95099998 1016:0.90100002 1018:0.921 1025:0.96200001 1029:0.94099998 1037:0.97399998 1042:0.93699998 1058:0.95999998 1069:0.92400002 1086:0.97500002 1122:0.92699999 1146:0.95700002 1160:0.99000001 1177:0.95200002 1184:0.97500002 1189:0.977 1206:0.96799999 1215:0.90899998 1242:0.98299998 1259:0.93300003 1268:0.91399997 1280:0.94499999 1283:0.94400001 1284:0.97600001 1289:0.95599997 1312:0.92500001 1386:0.93099999 1404:0.92000002 1408:0.977 1411:0.93800002 1418:0.92400002 1425:0.97500002 1432:0.97600001 1450:0.94 1453:0.94499999 1458:0.93699998 1468:0.917 1473:0.97899997 1476:0.92900002 1500:0.95300001 1514:0.98299998 1524:0.92500001 1527:0.95099998 1536:0.921 1542:0.94199997 1546:0.94800001 1558:0.90799999 1600:0.93599999 1621:0.94599998 1623:0.96799999 1631:0.96200001 1638:0.95899999 1659:0.93300003 1669:0.91799998 1682:0.95499998 1686:0.90700001 1694:0.93099999 1701:0.97000003 1723:0.92199999 1725:0.963 1735:0.97399998 1740:0.93199998 1741:0.92900002 1747:0.90100002 1750:0.92699999 1751:0.93400002 1768:0.91299999 1770:0.94400001 1775:0.92900002 1830:0.95999998 1850:0.90799999 1854:0.903 1959:0.93599999 1966:0.91500002 2023:0.94099998 2024:0.949 2040:0.94499999 2071:0.93699998 2132:0.93699998 2135:0.94499999 2142:0.926 2179:0.935 2193:0.92799997 2243:0.95499998 2255:0.926 2256:0.90700001 2259:0.90799999 2265:0.94300002 2267:0.93699998 2276:0.91000003 2288:0.95200002 2296:0.90799999 2321:0.96100003 2331:0.90600002 2340:0.95300001 2347:0.935 2366:0.963 2426:0.92199999 2428:0.90899998 2431:0.92500001 2438:0.94800001 2459:0.986 2464:0.93699998 2465:0.94700003 2480:0.94800001 2483:0.89999998 2515:0.97299999 2525:0.92799997 2538:0.94099998 2545:0.96200001 2546:0.92900002 2548:0.95599997 2604:0.96799999 2618:0.917 2690:0.98100001 2724:0.90399998 2733:0.94 2750:0.92199999 2775:0.93000001 2777:0.90600002 2792:0.94999999 2807:0.90200001 2871:0.94800001 2893:0.903 2903:0.93599999 2904:0.93000001 2905:0.95599997 2910:0.935 2964:0.95499998 2969:0.94499999 2986:0.94300002 2987:0.93900001 2991:0.91600001 3021:0.95200002 3045:0.90899998 3049:0.98500001 3056:0.93400002 3058:0.91000003 3068:0.95499998 3071:0.92199999 3073:0.94199997 3104:0.95300001 3105:0.92199999 3106:0.95300001 3108:0.93699998 3109:0.94599998 3112:0.91100001 3123:0.94999999 3157:0.90100002 3162:0.92900002 3166:0.94199997 3167:0.91900003 3186:0.90100002 3204:0.91399997 3205:0.90799999 3208:0.91000003 3217:0.949 3226:0.97100002 3272:0.95999998 3284:0.92000002 3285:0.90200001 3323:0.94199997 3329:0.92000002 3374:0.96399999 3414:0.94099998 3433:0.912 3449:0.958 3454:0.97600001 3477:0.91299999 3498:0.94400001 3583:0.921 3613:0.96799999 3614:0.96200001 3615:0.94700003 3629:0.921 3690:0.98199999 3702:0.94199997 3703:0.97299999 3705:0.93900001 3708:0.92799997 3711:0.91100001 3722:0.97000003 3726:0.91100001 3738:0.96799999 3743:0.94199997 3750:0.95700002 3762:0.90399998 3789:0.92299998 3897:0.90399998 3908:0.935 3913:0.91399997 3919:0.94800001 3969:0.92000002 3983:0.90100002 4056:0.91100001 4067:0.97600001 4070:0.91900003 4074:0.96700001 4079:1 4080:1 4081:1 4082:1 4083:1 4084:1 4085:1 #
-0.010661533235384212936480707867304 9:0.97899997 68:0.96100003 138:0.94999999 157:0.94199997 239:0.90399998 337:1 462:0.99299997 771:0.94599998 832:0.91900003 841:0.95499998 848:0.949 853:0.958 872:0.99699998 879:0.991 880:0.95300001 891:0.94 907:0.92900002 949:0.98900002 953:0.92299998 958:0.96399999 959:0.98400003 963:0.97000003 1016:0.91500002 1022:0.90200001 1086:0.96399999 1109:0.91500002 1123:0.91000003 1146:0.95999998 1147:0.93300003 1160:0.96899998 1177:0.93300003 1206:0.93800002 1215:0.97399998 1225:0.94999999 1274:0.95599997 1283:0.94599998 1284:0.97299999 1289:0.94300002 1404:0.90600002 1418:0.93800002 1425:0.96700001 1432:0.97600001 1438:0.91399997 1450:0.97299999 1454:0.93800002 1466:0.91900003 1510:0.91900003 1514:0.949 1524:0.95999998 1525:0.93199998 1527:0.90100002 1582:0.92400002 1600:0.94700003 1623:0.95200002 1638:0.95599997 1642:0.94099998 1668:0.93300003 1669:0.92699999 1682:0.94599998 1701:0.96799999 1723:0.96700001 1751:0.91000003 1765:0.94599998 1773:0.95700002 1803:0.90600002 1830:0.93199998 1838:0.912 1849:0.96799999 1909:0.91399997 1918:0.96200001 1959:0.92000002 1995:0.949 2023:0.93800002 2091:0.963 2116:0.92699999 2135:0.912 2158:0.92500001 2161:0.92900002 2178:0.91900003 2179:0.90899998 2243:0.95999998 2255:0.917 2288:0.96200001 2343:0.94599998 2348:0.94400001 2402:0.94999999 2407:0.91000003 2426:0.93300003 2465:0.94300002 2468:0.917 2480:0.94499999 2554:0.94199997 2819:0.926 2852:0.89999998 2870:0.921 2872:0.91399997 2930:0.90600002 2964:0.95099998 2967:0.94499999 2971:0.96399999 2976:0.96200001 2987:0.90600002 2991:0.917 3021:0.958 3058:0.91399997 3068:0.935 3071:0.935 3104:0.90600002 3106:0.935 3115:0.95499998 3123:0.94199997 3132:0.903 3168:0.91399997 3170:0.91500002 3235:0.92000002 3242:0.96499997 3265:0.986 3284:0.958 3301:0.96700001 3409:0.926 3414:0.917 3426:0.93199998 3477:0.90799999 3492:0.91799998 3494:0.91100001 3552:0.96600002 3560:0.917 3612:1 3613:1 3614:1 3615:1 #
-0.0018708643474740350824692125542015 3:0.98699999 9:0.97899997 10:0.97799999 13:1 30:0.986 75:0.97500002 244:0.98799998 398:0.96200001 444:0.99199998 476:0.96499997 501:0.99199998 629:0.99599999 700:0.98000002 753:0.92299998 829:0.94999999 831:0.95200002 872:0.99699998 879:0.96399999 880:0.98799998 890:0.94700003 891:0.949 907:0.92000002 908:0.94300002 911:0.991 921:0.93400002 922:0.95099998 927:0.92400002 928:0.94300002 930:0.95099998 934:0.917 953:0.92500001 957:0.94499999 958:0.972 959:0.98699999 995:0.92199999 1016:0.96100003 1018:0.92400002 1025:0.93300003 1028:0.926 1040:0.949 1050:0.94 1057:0.97000003 1065:0.90700001 1072:0.94300002 1086:0.972 1146:0.954 1150:0.98100001 1160:0.99400002 1189:0.96100003 1197:0.912 1206:0.93099999 1210:0.90499997 1215:0.93099999 1262:0.977 1271:0.97399998 1284:0.95599997 1338:0.92799997 1375:0.94199997 1394:0.93099999 1397:0.96499997 1408:0.972 1425:0.986 1432:0.96799999 1450:0.972 1454:0.92400002 1458:0.92799997 1469:0.99699998 1473:0.977 1478:0.91600001 1500:0.95300001 1514:0.96399999 1515:0.97600001 1517:0.95599997 1527:0.90899998 1544:0.94700003 1546:0.94800001 1552:0.926 1558:0.917 1561:0.91299999 1592:0.90799999 1600:0.94700003 1621:0.949 1623:0.97600001 1631:0.95999998 1638:0.98400003 1640:0.95899999 1642:0.93900001 1643:0.93599999 1682:0.95499998 1684:0.95200002 1685:0.935 1686:0.91299999 1715:0.92199999 1721:0.91100001 1723:0.95499998 1725:0.963 1734:0.95899999 1737:0.921 1765:0.94499999 1771:0.97500002 1795:0.94300002 1829:0.97100002 1830:0.98799998 1831:0.93199998 1832:0.93699998 1872:0.954 1878:0.97399998 1897:0.912 1922:0.92199999 1959:0.92199999 1995:0.921 2023:0.94099998 2091:0.95999998 2122:0.91799998 2132:0.93400002 2135:0.92199999 2142:0.95700002 2145:0.93000001 2150:0.93900001 2179:0.95200002 2186:1 2193:0.90200001 2205:0.98400003 2236:1 2247:0.93900001 2255:0.92699999 2282:0.90499997 2288:0.91799998 2296:0.912 2319:0.95899999 2337:0.92299998 2348:0.94300002 2354:0.91799998 2355:0.91900003 2356:0.94 2372:0.95599997 2376:0.93300003 2380:0.91799998 2408:0.91000003 2446:0.94199997 2465:0.96100003 2466:0.91799998 2468:0.92000002 2469:0.95499998 2473:0.949 2480:0.95999998 2483:0.94599998 2486:0.92799997 2505:0.95499998 2506:0.91299999 2515:0.91900003 2519:0.91100001 2524:0.95099998 2533:0.96200001 2545:0.97100002 2548:0.92400002 2602:0.97000003 2613:0.92199999 2690:0.94999999 2695:0.91799998 2702:0.95300001 2703:0.99699998 2723:0.95700002 2724:0.95099998 2732:0.90799999 2792:0.94999999 2805:0.94400001 2810:0.91000003 2819:0.92799997 2852:0.903 2903:0.90200001 2905:0.94099998 2977:0.93300003 2987:0.96399999 2991:0.92299998 2997:0.96200001 3004:0.98900002 3021:0.98100001 3068:0.94999999 3071:0.93099999 3106:0.97100002 3108:0.92699999 3109:0.93300003 3123:0.94199997 3151:0.91299999 3166:0.92799997 3170:0.91500002 3186:0.90399998 3204:0.93400002 3218:0.94999999 3263:0.90899998 3284:0.92000002 3285:0.90899998 3393:0.935 3396:0.95200002 3414:0.917 3422:0.93000001 3560:0.93300003 3563:0.95999998 3583:0.95200002 3602:0.92400002 3604:0.92900002 3605:0.94300002 3611:0.921 3613:0.97299999 3614:0.93599999 3626:0.90499997 3665:0.94199997 3671:0.94700003 3690:0.96799999 3702:0.93400002 3703:0.98500001 3707:0.98299998 3711:0.93400002 3722:0.93699998 3732:0.94199997 3743:0.95899999 3785:0.93000001 3800:1 3801:1 3802:1 #
-0.0031509922560252587482587660616673 3:0.991 13:1 68:0.96200001 398:0.949 462:0.97799999 771:0.97799999 872:1 879:0.991 880:0.977 889:0.98900002 890:0.94999999 891:0.95899999 896:0.94 898:0.95700002 907:0.935 911:0.98799998 923:0.92400002 927:0.93400002 934:0.94 938:0.94199997 947:0.91500002 958:0.95999998 959:0.94400001 963:0.99000001 990:0.99400002 997:0.95700002 1011:0.921 1029:0.94400001 1033:0.90899998 1037:0.977 1042:0.96799999 1050:0.91500002 1058:0.977 1069:0.92400002 1086:0.97500002 1122:0.935 1158:0.963 1160:0.98799998 1165:0.96499997 1184:0.99400002 1189:0.97600001 1205:0.90700001 1215:0.972 1242:0.98299998 1244:0.935 1259:0.958 1280:0.94700003 1283:0.94300002 1284:0.97299999 1386:0.921 1397:0.92799997 1408:0.96899998 1418:0.90399998 1425:0.954 1432:0.97000003 1450:0.94 1453:0.97399998 1473:0.986 1480:0.95200002 1500:0.98199999 1514:0.96899998 1524:0.98199999 1525:0.91900003 1527:0.95099998 1531:0.91900003 1546:0.94999999 1558:0.94 1591:0.91399997 1600:0.94700003 1621:0.963 1623:0.94300002 1631:0.954 1638:0.96399999 1659:0.93800002 1663:0.92500001 1668:0.94099998 1672:0.97299999 1682:0.949 1686:0.91799998 1696:0.93599999 1701:0.97399998 1723:0.98799998 1725:0.96600002 1735:0.963 1737:0.92400002 1740:0.92699999 1741:0.92900002 1766:0.90799999 1770:0.94099998 1782:0.98100001 1797:0.90799999 1813:0.91399997 1830:0.949 1831:0.97000003 1850:0.93400002 1859:0.91299999 1868:0.92299998 1875:0.94300002 1897:0.95999998 1925:0.92900002 1959:0.93900001 1991:0.91500002 2023:0.94099998 2135:0.94199997 2179:0.91399997 2193:0.903 2205:0.94499999 2243:0.95300001 2259:0.91600001 2260:0.91399997 2267:0.95599997 2288:0.95499998 2294:0.986 2296:0.93099999 2307:0.90700001 2337:0.94499999 2339:0.90600002 2340:0.96200001 2347:0.93099999 2348:0.94700003 2349:0.91900003 2355:0.91799998 2366:0.94099998 2376:0.91500002 2380:0.93599999 2407:0.93099999 2426:0.92500001 2459:0.97000003 2465:0.96499997 2466:0.94199997 2468:0.91399997 2472:0.95300001 2476:0.92699999 2480:0.94499999 2483:0.91799998 2506:0.90399998 2521:0.97100002 2524:0.93900001 2538:0.95599997 2541:0.90799999 2545:0.90499997 2546:0.912 2555:0.94499999 2604:0.97399998 2618:0.92500001 2690:0.96499997 2723:0.90499997 2724:0.949 2766:0.912 2792:0.94999999 2814:0.912 2841:0.91000003 2852:0.89999998 2871:0.921 2904:0.94199997 2905:0.93900001 2910:0.93199998 2931:0.92000002 2964:0.954 2969:0.95899999 2971:0.958 2972:0.92299998 2976:0.92500001 2986:0.93699998 2991:0.917 3021:0.94800001 3049:0.972 3058:0.90200001 3068:0.93900001 3071:0.93900001 3073:0.94999999 3104:0.93599999 3106:0.95700002 3108:0.92799997 3109:0.94400001 3115:0.95899999 3123:0.94700003 3166:0.91900003 3167:0.94700003 3172:0.95599997 3186:0.92900002 3217:0.949 3226:0.954 3228:0.92500001 3253:0.91399997 3268:0.92799997 3272:0.92799997 3285:0.92000002 3329:0.90399998 3414:0.949 3423:0.93000001 3456:0.96499997 3464:0.95200002 3477:0.91799998 3487:0.93800002 3583:0.95999998 3609:0.92400002 3613:0.96499997 3614:0.96600002 3615:0.95899999 3627:0.89999998 3644:0.90399998 3690:0.98299998 3702:0.94199997 3703:0.95200002 3705:0.91600001 3707:0.90600002 3716:0.94599998 3722:0.94700003 3728:0.92799997 3732:0.94199997 3743:0.94199997 3750:0.95099998 3788:0.90899998 3812:0.91900003 3848:0.954 3926:0.94700003 3945:0.91399997 3963:0.92000002 3969:0.95599997 3976:0.97899997 3985:0.93800002 4067:0.95099998 4074:0.94599998 4075:1 4086:1 4087:1 4088:1 4089:1 #
0.010087167095248896625525603099049 3:0.8883 270:0.87120003 283:0.85860002 831:0.89459997 853:0.84420002 872:0.8973 879:0.87029999 880:0.87120003 891:0.83789998 897:0.82529998 927:0.84060001 928:0.8739 938:0.82980001 956:0.82800001 958:0.85409999 959:0.84240001 996:0.84600002 1011:0.83969998 1012:0.84329998 1016:0.82349998 1043:0.81269997 1045:0.84060001 1055:0.85500002 1069:0.84960002 1076:0.84420002 1078:0.84600002 1086:0.86400002 1095:0.83160001 1118:0.83249998 1146:0.85860002 1160:0.87480003 1177:0.8721 1209:0.87480003 1262:0.83880001 1271:0.87660003 1308:0.84509999 1313:0.83789998 1368:0.89999998 1397:0.86849999 1404:0.81900001 1408:0.8919 1409:0.86580002 1425:0.83520001 1432:0.87029999 1445:0.89459997 1473:0.87840003 1476:0.84869999 1485:0.83880001 1489:0.84060001 1527:0.82080001 1532:0.82169998 1539:0.86309999 1546:0.85320002 1551:0.81989998 1552:0.86040002 1558:0.84869999 1621:0.85409999 1631:0.86849999 1632:0.82349998 1638:0.86040002 1643:0.86669999 1645:0.83249998 1648:0.82169998 1651:0.85500002 1659:0.86489999 1665:0.85589999 1680:0.82440001 1682:0.84780002 1734:0.87120003 1735:0.86400002 1736:0.82080001 1749:0.86940002 1751:0.83160001 1830:0.86220002 1834:0.83520001 1872:0.86400002 1875:0.86400002 1897:0.86400002 1966:0.81809998 1979:0.81089997 1992:0.83609998 2023:0.84420002 2067:0.84149998 2105:0.85320002 2132:0.81269997 2135:0.83340001 2142:0.84869999 2145:0.84420002 2166:0.81 2186:0.8847 2236:0.82260001 2253:0.84149998 2255:0.85229999 2265:0.83340001 2272:0.81269997 2279:0.8757 2296:0.8154 2319:0.86220002 2337:0.82889998 2339:0.84060001 2366:0.8721 2369:0.81989998 2399:0.83880001 2431:0.86400002 2448:0.83969998 2465:0.85860002 2466:0.83789998 2470:0.84780002 2473:0.84869999 2476:0.83160001 2480:0.86669999 2482:0.85320002 2487:0.86309999 2501:0.85229999 2533:0.86669999 2548:0.81269997 2555:0.87480003 2574:0.81720001 2609:0.82800001 2692:0.81 2723:0.83789998 2787:0.85769999 2792:0.84509999 2887:0.82080001 3071:0.81989998 3108:0.84060001 3181:0.86669999 3186:0.8154 3212:0.81089997 3217:0.85680002 3285:0.81809998 3414:0.82529998 3449:0.85229999 3456:0.84869999 3599:0.83880001 3602:0.84420002 3613:0.87120003 3614:0.83160001 3618:0.84420002 3678:0.8154 3710:0.82529998 3716:0.84960002 3826:0.83249998 3876:0.84960002 3878:0.81269997 3897:0.83069998 3976:0.87840003 4001:0.83069998 4067:0.83069998 4114:0.85769999 4121:0.82169998 4233:0.84060001 4243:0.83160001 4253:0.82709998 4262:0.82889998 4263:0.81449997 4264:0.8721 4265:0.89999998 4266:0.89999998 #
-0.010661533235384212936480707867304 101:0.98299998 836:0.94499999 872:0.95300001 879:0.96399999 880:0.977 891:0.94499999 897:0.93599999 898:0.92199999 940:0.91399997 949:0.97000003 958:0.93000001 959:0.977 986:0.95499998 1037:0.97399998 1040:0.935 1046:0.94400001 1160:0.94700003 1186:0.91799998 1206:0.94400001 1225:0.972 1242:0.99699998 1259:0.977 1266:0.90499997 1284:0.96700001 1348:0.99400002 1355:0.93199998 1375:0.90100002 1397:0.94499999 1408:0.96799999 1421:0.92199999 1425:0.92799997 1450:0.91500002 1462:0.93699998 1473:0.963 1514:0.98299998 1527:0.912 1621:0.93699998 1632:0.98900002 1640:0.96200001 1642:0.93300003 1654:0.98799998 1665:0.91900003 1668:0.926 1682:0.92900002 1706:0.92299998 1725:0.97299999 1735:0.977 1740:0.926 1741:0.935 1762:0.92199999 1921:0.92900002 1991:0.90700001 2023:0.95599997 2145:0.91600001 2193:0.93300003 2247:0.94199997 2255:0.95300001 2354:0.91500002 2376:0.89999998 2380:0.949 2465:0.90600002 2527:0.91500002 2819:0.92900002 2905:0.977 2964:0.954 2969:0.91000003 2971:0.958 3049:0.977 3058:0.90799999 3084:0.94300002 3191:0.94999999 3289:0.91900003 3374:0.96700001 3414:0.917 3552:0.98000002 3690:0.97100002 3750:0.954 3754:0.98799998 3755:1 #
0.0072963824503680914726477801934834 2:0.85860002 10:0.86040002 15:0.84509999 57:0.82349998 177:0.8847 337:0.89999998 392:0.8847 446:0.89639997 462:0.8775 831:0.82440001 836:0.85229999 841:0.85949999 868:0.8973 872:0.89279997 876:0.81629997 879:0.86129999 880:0.87660003 891:0.84960002 907:0.82080001 908:0.83069998 911:0.8973 923:0.8973 927:0.84060001 928:0.86400002 949:0.89279997 953:0.82169998 958:0.85680002 959:0.88919997 961:0.89459997 990:0.8847 995:0.83789998 1012:0.85140002 1018:0.83429998 1032:0.84689999 1037:0.84509999 1045:0.87480003 1069:0.86400002 1071:0.8775 1072:0.86220002 1076:0.83520001 1086:0.83340001 1092:0.82709998 1103:0.82440001 1109:0.82440001 1118:0.83969998 1122:0.82709998 1123:0.83160001 1147:0.83880001 1160:0.87480003 1184:0.86849999 1205:0.82889998 1209:0.86309999 1215:0.85320002 1225:0.86669999 1228:0.86760002 1242:0.89999998 1278:0.85409999 1283:0.86580002 1284:0.85409999 1332:0.8154 1391:0.87480003 1408:0.86669999 1417:0.85860002 1418:0.82080001 1424:0.84869999 1425:0.85769999 1438:0.82080001 1447:0.82529998 1450:0.85320002 1473:0.88200003 1478:0.81989998 1488:0.89459997 1492:0.85229999 1500:0.8775 1510:0.81989998 1514:0.84780002 1521:0.84869999 1524:0.83249998 1525:0.81449997 1582:0.86849999 1592:0.86040002 1600:0.85860002 1623:0.86760002 1631:0.86400002 1638:0.84869999 1658:0.89999998 1659:0.83069998 1682:0.85409999 1684:0.86129999 1721:0.84600002 1723:0.8919 1725:0.87300003 1734:0.84869999 1770:0.83429998 1771:0.88020003 1784:0.84600002 1809:0.83160001 1829:0.88200003 1830:0.83880001 1831:0.83609998 1834:0.82349998 1856:0.84689999 1859:0.88919997 1872:0.85860002 1886:0.8118 1922:0.83520001 1959:0.82260001 1966:0.82440001 1998:0.82529998 2040:0.85320002 2048:0.83249998 2073:0.8118 2076:0.85409999 2078:0.82529998 2132:0.85229999 2133:0.81449997 2135:0.84149998 2142:0.85680002 2145:0.84689999 2179:0.8829 2192:0.89459997 2193:0.84509999 2200:0.88559997 2255:0.84960002 2259:0.82980001 2265:0.8136 2267:0.82800001 2288:0.86849999 2337:0.83429998 2340:0.84600002 2376:0.82800001 2399:0.83520001 2404:0.81089997 2465:0.86849999 2469:0.85860002 2476:0.84149998 2480:0.87300003 2483:0.83069998 2505:0.85140002 2515:0.86760002 2518:0.8118 2525:0.86220002 2533:0.86760002 2541:0.84329998 2554:0.83969998 2577:0.87840003 2588:0.86489999 2596:0.81449997 2613:0.83609998 2724:0.81269997 2777:0.84869999 2805:0.81449997 2819:0.81 2841:0.85500002 2852:0.81989998 2855:0.82800001 2870:0.83069998 2871:0.86040002 2889:0.84869999 2903:0.81629997 2905:0.84960002 2910:0.85229999 2943:0.82349998 2948:0.87029999 2964:0.85949999 2971:0.84329998 2976:0.85589999 2986:0.8118 2987:0.82980001 2991:0.81989998 2997:0.84869999 3021:0.8721 3045:0.87029999 3058:0.81629997 3071:0.82260001 3088:0.81900001 3104:0.81 3106:0.82260001 3108:0.86489999 3109:0.82889998 3115:0.84869999 3123:0.84509999 3162:0.82889998 3166:0.82800001 3167:0.82440001 3168:0.82440001 3186:0.83340001 3213:0.88919997 3261:0.83069998 3295:0.85769999 3297:0.84960002 3329:0.83609998 3380:0.86129999 3382:0.82800001 3392:0.81449997 3393:0.84960002 3395:0.8973 3396:0.87840003 3402:0.84960002 3404:0.86940002 3405:0.89999998 3406:0.89999998 3407:0.89999998 3408:0.89999998 3409:0.89999998 3410:0.89999998 3411:0.89999998 3412:0.89999998 3413:0.89999998 3414:0.89999998 #
0.0018585222817835618004667086466952 3:0.8955 10:0.86309999 13:0.89639997 24:0.88559997 50:0.89999998 63:0.89639997 68:0.83789998 80:0.82529998 413:0.86400002 419:0.85589999 423:0.88200003 534:0.86129999 553:0.85769999 558:0.89279997 651:0.82709998 841:0.82440001 872:0.89459997 876:0.81629997 879:0.89279997 880:0.86580002 890:0.84960002 893:0.8793 908:0.81449997 919:0.82800001 927:0.84329998 928:0.81 930:0.83249998 931:0.86129999 938:0.83520001 940:0.8154 959:0.85500002 970:0.81 995:0.84600002 996:0.83069998 997:0.8118 1018:0.83429998 1027:0.85860002 1028:0.8721 1033:0.85140002 1040:0.81900001 1045:0.81269997 1109:0.84149998 1127:0.83609998 1142:0.81269997 1146:0.84060001 1158:0.84329998 1160:0.89279997 1165:0.82980001 1210:0.82980001 1212:0.81809998 1234:0.83429998 1235:0.83789998 1251:0.84420002 1259:0.86940002 1274:0.85769999 1326:0.81269997 1334:0.8973 1408:0.88200003 1468:0.83249998 1473:0.87120003 1478:0.81989998 1520:0.82709998 1521:0.83249998 1527:0.82349998 1535:0.81809998 1546:0.85320002 1548:0.82349998 1564:0.82440001 1582:0.84060001 1588:0.87840003 1589:0.88020003 1602:0.84149998 1615:0.86940002 1621:0.82620001 1631:0.86400002 1638:0.85049999 1645:0.84869999 1653:0.89999998 1654:0.89999998 1655:0.89999998 1656:0.89999998 1657:0.89999998 1658:0.89999998 1659:0.89999998 1660:0.89999998 1661:0.89999998 1662:0.89999998 1663:0.89999998 1664:0.89999998 1665:0.89999998 #
0.0038469351983755166457523699818921 13:0.89279997 50:0.8955 75:0.89279997 162:0.8829 256:0.8739 343:0.89999998 420:0.83160001 553:0.85409999 709:0.89639997 746:0.8865 835:0.8739 841:0.85680002 870:0.85409999 872:0.8847 876:0.8973 879:0.88739997 880:0.86309999 890:0.85680002 891:0.86220002 907:0.82260001 911:0.8973 914:0.84509999 919:0.81 922:0.84329998 928:0.83789998 931:0.86669999 934:0.86669999 949:0.86940002 958:0.82440001 959:0.8811 963:0.89099997 964:0.88919997 968:0.81989998 970:0.88380003 986:0.87840003 992:0.8919 994:0.84420002 1012:0.81089997 1018:0.83160001 1027:0.81089997 1050:0.84869999 1058:0.82889998 1080:0.86040002 1088:0.83969998 1092:0.87840003 1101:0.82800001 1109:0.84869999 1118:0.83340001 1120:0.81629997 1123:0.83160001 1127:0.84869999 1146:0.85589999 1160:0.8901 1165:0.86580002 1206:0.86040002 1225:0.8739 1294:0.84420002 1324:0.84149998 1368:0.82169998 1369:0.81449997 1370:0.8847 1397:0.84509999 1408:0.86849999 1432:0.85860002 1447:0.82620001 1451:0.83880001 1473:0.86400002 1500:0.86580002 1514:0.86040002 1525:0.84960002 1526:0.84780002 1527:0.8136 1546:0.85049999 1576:0.85140002 1589:0.88200003 1615:0.81449997 1621:0.85140002 1623:0.85140002 1631:0.85860002 1638:0.8136 1640:0.84960002 1643:0.85140002 1651:0.83789998 1672:0.86129999 1677:0.86760002 1682:0.85409999 1684:0.8757 1694:0.82349998 1701:0.88739997 1734:0.85500002 1735:0.86129999 1741:0.83069998 1751:0.88020003 1771:0.85769999 1809:0.83969998 1829:0.86669999 1856:0.82620001 1859:0.85229999 1884:0.8829 1901:0.83340001 1953:0.83160001 2007:0.8775 2023:0.84420002 2024:0.89099997 2028:0.83880001 2034:0.8154 2057:0.83520001 2076:0.8757 2083:0.82980001 2088:0.87029999 2145:0.84329998 2157:0.82980001 2179:0.81809998 2205:0.8739 2243:0.88739997 2255:0.83880001 2285:0.83520001 2288:0.86489999 2291:0.89999998 2337:0.85769999 2349:0.85680002 2355:0.85500002 2364:0.85680002 2376:0.81809998 2385:0.8937 2417:0.82080001 2435:0.8775 2465:0.84689999 2476:0.82709998 2506:0.83429998 2507:0.84869999 2525:0.83340001 2554:0.84240001 2583:0.81269997 2588:0.86489999 2674:0.82980001 2701:0.84600002 2720:0.82080001 2729:0.82980001 2733:0.84600002 2756:0.8154 2792:0.84420002 2819:0.83789998 2824:0.81720001 2852:0.81809998 2896:0.83609998 2949:0.85500002 2956:0.84869999 2963:0.83609998 2964:0.85680002 2986:0.84600002 2991:0.81720001 3007:0.82800001 3033:0.8811 3071:0.85769999 3104:0.85140002 3106:0.87029999 3205:0.82620001 3213:0.88380003 3219:0.85769999 3226:0.87660003 3329:0.81269997 3393:0.84960002 3404:0.86669999 3414:0.85680002 3422:0.82980001 3446:0.86400002 3454:0.87029999 3534:0.84869999 3560:0.82529998 3561:0.89999998 3562:0.89999998 3563:0.89999998 3564:0.89999998 3565:0.89999998 #
0.0024237233384531322970267819272294 13:0.89639997 170:0.88559997 841:0.85500002 875:0.8739 911:0.89459997 967:0.84149998 990:0.89279997 1087:0.89639997 1089:0.85680002 1092:0.85949999 1123:0.82620001 1127:0.83789998 1131:0.8973 1160:0.89279997 1225:0.83429998 1324:0.82889998 1338:0.82980001 1514:0.86220002 1527:0.81720001 1640:0.86580002 1682:0.85769999 1684:0.88200003 1701:0.87120003 1724:0.87660003 1734:0.86040002 1735:0.86400002 1741:0.83069998 1834:0.82529998 1884:0.8775 2021:0.8919 2023:0.84689999 2031:0.85140002 2158:0.82709998 2243:0.8739 2255:0.83249998 2337:0.85680002 2348:0.82889998 2380:0.85589999 2465:0.84869999 2525:0.85949999 2686:0.85769999 2741:0.81809998 2823:0.8865 2871:0.84420002 2955:0.82529998 3024:0.8901 3217:0.85409999 3264:0.88380003 3272:0.84149998 3280:0.83700001 3414:0.82800001 3537:0.8973 3737:0.8775 3788:0.83160001 4307:0.85860002 4504:0.82260001 4567:0.85409999 4626:0.83249998 4726:0.85320002 5041:0.85049999 5052:0.87840003 5156:0.84689999 5188:0.82889998 5571:0.85320002 6601:0.84600002 6708:0.83880001 #
0.00039566543603189235564498993369398 3:0.8955 19:0.8883 24:0.82620001 127:0.88380003 270:0.86040002 388:0.85049999 453:0.85229999 752:0.81629997 831:0.89459997 872:0.8973 879:0.87029999 880:0.86849999 891:0.83969998 927:0.83789998 928:0.8739 930:0.82709998 938:0.82980001 958:0.81269997 959:0.85049999 996:0.83429998 997:0.82620001 1005:0.82080001 1011:0.83969998 1012:0.84600002 1016:0.81809998 1037:0.87120003 1043:0.81269997 1045:0.83969998 1055:0.85500002 1058:0.86760002 1069:0.82800001 1076:0.84420002 1086:0.86760002 1095:0.83520001 1118:0.83789998 1146:0.86940002 1160:0.87480003 1176:0.81629997 1177:0.8721 1209:0.85049999 1238:0.8136 1262:0.83789998 1271:0.87660003 1294:0.8154 1308:0.84329998 1355:0.85049999 1368:0.89999998 1397:0.8865 1408:0.89279997 1424:0.81809998 1425:0.86760002 1432:0.86669999 1436:0.83700001 1438:0.83520001 1445:0.8973 1473:0.87660003 1476:0.82080001 1500:0.86760002 1525:0.82800001 1527:0.82080001 1539:0.86669999 1544:0.81900001 1546:0.85860002 1552:0.83069998 1583:0.82620001 1621:0.85589999 1631:0.8955 1638:0.85769999 1645:0.84329998 1665:0.81269997 1677:0.83520001 1682:0.85140002 1685:0.83609998 1686:0.81629997 1723:0.85320002 1734:0.87120003 1735:0.86489999 1741:0.84060001 1749:0.88200003 1751:0.83429998 1775:0.82800001 1793:0.87300003 1834:0.84689999 1845:0.83609998 1872:0.86669999 1875:0.8847 1897:0.86400002 1901:0.82620001 1922:0.82709998 1957:0.84240001 1963:0.86309999 1979:0.82980001 1992:0.8811 2023:0.84420002 2048:0.81809998 2067:0.81989998 2142:0.85049999 2145:0.84869999 2186:0.8847 2230:0.81449997 2236:0.81989998 2253:0.83609998 2255:0.83609998 2265:0.81809998 2272:0.81809998 2279:0.83429998 2288:0.84869999 2310:0.82889998 2339:0.86760002 2366:0.8721 2399:0.83880001 2409:0.82980001 2428:0.82800001 2432:0.82709998 2438:0.86760002 2448:0.83880001 2465:0.84960002 2466:0.82620001 2473:0.84869999 2480:0.87120003 2486:0.85140002 2487:0.86129999 2506:0.82169998 2533:0.85680002 2548:0.83880001 2561:0.8118 2577:0.84509999 2609:0.81900001 2670:0.84869999 2723:0.84149998 2727:0.85680002 2787:0.85769999 2792:0.8118 2804:0.82080001 2807:0.81720001 2813:0.81089997 2830:0.84060001 2844:0.83700001 2969:0.82169998 2997:0.85409999 3106:0.84420002 3108:0.81989998 3186:0.84780002 3217:0.85860002 3219:0.83969998 3235:0.81089997 3356:0.85320002 3378:0.85769999 3414:0.82260001 3490:0.83429998 3642:0.82349998 3653:0.82260001 3705:0.82260001 3743:0.84240001 3792:0.84509999 3798:0.82709998 3826:0.83880001 3834:0.83880001 3848:0.84420002 3876:0.84420002 3963:0.82620001 3976:0.83700001 3981:0.82440001 4001:0.82800001 4030:0.8847 4067:0.82800001 4086:0.86129999 4093:0.86129999 4099:0.84509999 4117:0.82620001 4243:0.83160001 4253:0.82440001 4261:0.89999998 4262:0.89999998 4263:0.89999998 4264:0.89999998 #
0.00092632896321560636784808728805274 3:0.88739997 64:0.81449997 68:0.81629997 270:0.87840003 831:0.89459997 834:0.85769999 872:0.8973 879:0.85769999 880:0.8739 891:0.85229999 908:0.82080001 927:0.83789998 958:0.8775 959:0.84149998 976:0.8955 1005:0.8118 1027:0.85409999 1037:0.84600002 1045:0.84240001 1050:0.85949999 1069:0.85949999 1086:0.86940002 1160:0.8847 1176:0.81989998 1177:0.87480003 1184:0.8775 1308:0.87029999 1375:0.85500002 1408:0.87480003 1424:0.85680002 1425:0.85769999 1450:0.83429998 1473:0.88380003 1476:0.81720001 1478:0.82980001 1514:0.86400002 1527:0.82080001 1552:0.86040002 1621:0.85409999 1623:0.86940002 1638:0.86400002 1677:0.83789998 1685:0.84149998 1717:0.81720001 1725:0.87120003 1735:0.86489999 1737:0.82260001 1741:0.85049999 1747:0.82349998 1750:0.85769999 1770:0.8136 1776:0.85680002 1794:0.81449997 1845:0.83340001 1857:0.8118 1909:0.82709998 1922:0.82980001 1959:0.84149998 1966:0.86489999 1991:0.82800001 1992:0.87480003 2002:0.82529998 2023:0.84689999 2031:0.85140002 2128:0.82260001 2135:0.82080001 2179:0.85500002 2253:0.82889998 2255:0.83789998 2279:0.86849999 2282:0.81809998 2296:0.83880001 2321:0.85500002 2328:0.82440001 2348:0.81720001 2448:0.83160001 2465:0.84149998 2480:0.86129999 2505:0.87660003 2538:0.85500002 2602:0.82889998 2609:0.82800001 2702:0.83429998 2723:0.83789998 2789:0.82980001 2792:0.84240001 2873:0.83609998 2893:0.82349998 2908:0.86400002 2976:0.8154 2987:0.83249998 2991:0.82080001 3019:0.83249998 3051:0.84329998 3068:0.83609998 3106:0.84149998 3151:0.86220002 3180:0.81629997 3181:0.86849999 3204:0.84960002 3217:0.84869999 3235:0.84780002 3238:0.82800001 3285:0.81629997 3299:0.81989998 3374:0.83429998 3375:0.82440001 3393:0.83609998 3414:0.82260001 3456:0.82620001 3602:0.86220002 3635:0.81720001 3643:0.81269997 3671:0.83609998 3702:0.84689999 3722:0.83429998 3798:0.84689999 3876:0.84509999 3913:0.82800001 3983:0.84960002 3985:0.86669999 4067:0.85229999 4072:0.83880001 4074:0.81989998 4093:0.85409999 4099:0.85769999 4114:0.85769999 4172:0.82889998 4198:0.8919 4204:0.87840003 4243:0.82529998 4246:0.89999998 4247:0.89999998 #
-0.010661533235384212936480707867304 8:0.97100002 193:0.96499997 219:0.98299998 841:0.958 872:1 879:0.96100003 880:0.96799999 891:0.94199997 927:0.93099999 928:0.94300002 930:0.93000001 953:0.91299999 958:0.95499998 1005:0.94499999 1023:0.95999998 1037:0.94999999 1058:0.96600002 1072:0.949 1080:0.95599997 1086:0.96899998 1122:0.912 1146:0.94700003 1160:0.97799999 1162:0.96700001 1177:0.96899998 1178:0.921 1184:0.98299998 1215:0.97299999 1284:0.96399999 1324:0.92699999 1386:0.94 1408:0.96899998 1425:0.986 1432:0.958 1451:0.94400001 1473:0.97299999 1500:0.91399997 1525:0.91100001 1546:0.95099998 1558:0.92000002 1602:0.92799997 1631:0.96200001 1638:0.97600001 1645:0.94499999 1651:0.94999999 1672:0.986 1677:0.96700001 1682:0.94700003 1684:0.986 1734:0.949 1747:0.917 1784:0.94 1785:0.90200001 1808:0.93000001 1827:0.92199999 1829:0.96499997 1830:0.93199998 1834:0.91900003 1875:0.94199997 1878:0.991 1880:0.94 1882:0.935 1907:0.97399998 1918:0.96100003 1959:0.93599999 1966:0.93800002 2023:0.93800002 2048:0.92000002 2067:0.93699998 2132:0.90600002 2133:0.97299999 2135:0.93699998 2142:0.94 2145:0.92199999 2179:0.954 2193:0.90100002 2243:0.93000001 2255:0.93599999 2272:0.912 2296:0.91000003 2340:0.94999999 2348:0.93099999 2426:0.92199999 2465:0.93599999 2472:0.958 2473:0.95499998 2480:0.96600002 2486:0.92500001 2596:0.90899998 2613:0.91299999 2690:0.94599998 2692:0.94 2732:0.98000002 2733:0.93400002 2792:0.94400001 2872:0.93400002 2904:0.93000001 2931:0.92500001 2964:0.94800001 2979:0.90899998 3008:0.91399997 3021:0.949 3028:0.90899998 3051:0.93800002 3061:0.92699999 3068:0.93900001 3071:0.91100001 3083:0.94999999 3103:0.92400002 3106:0.96200001 3108:0.93000001 3109:0.91399997 3122:0.94199997 3186:0.92799997 3217:0.94599998 3226:0.96399999 3228:0.96499997 3284:0.91900003 3285:0.91399997 3295:0.91399997 3414:0.91100001 3422:0.93099999 3461:0.93400002 3477:0.91799998 3602:0.92699999 3613:0.96799999 3614:0.91500002 3658:0.92400002 3702:0.90600002 3743:0.97500002 3858:0.92500001 3876:0.92699999 3965:0.93099999 4069:0.90100002 4074:0.96700001 4099:0.93900001 4196:0.92699999 4198:0.97500002 4203:1 4204:1 #
0.00072882752658829166869658422456268 40:0.89639997 64:0.86849999 74:0.8829 337:0.89639997 353:0.85500002 693:0.88919997 753:0.82709998 757:0.86849999 835:0.86849999 841:0.84689999 872:0.81269997 879:0.8973 880:0.88739997 890:0.85500002 891:0.85049999 907:0.81989998 934:0.84689999 946:0.82440001 949:0.8847 956:0.86040002 958:0.8739 959:0.88739997 968:0.81809998 983:0.82529998 986:0.85140002 990:0.8901 1005:0.84149998 1018:0.83160001 1025:0.85229999 1065:0.84060001 1071:0.87029999 1072:0.85409999 1074:0.82349998 1092:0.85769999 1109:0.82260001 1123:0.83160001 1127:0.83880001 1146:0.86129999 1147:0.84509999 1160:0.84960002 1167:0.86580002 1178:0.8136 1184:0.88200003 1189:0.87660003 1205:0.82709998 1206:0.85589999 1208:0.83160001 1210:0.82529998 1215:0.85049999 1225:0.8775 1228:0.84869999 1242:0.88739997 1259:0.88380003 1260:0.84509999 1280:0.86669999 1283:0.88919997 1284:0.82349998 1289:0.82889998 1338:0.84780002 1339:0.8901 1341:0.89459997 1345:0.83700001 1368:0.89999998 1370:0.8118 1375:0.84329998 1377:0.85680002 1390:0.81900001 1401:0.88380003 1408:0.87480003 1417:0.8775 1429:0.85320002 1438:0.88919997 1472:0.87480003 1496:0.84689999 1500:0.87840003 1514:0.84780002 1517:0.85049999 1525:0.8136 1546:0.84509999 1582:0.87300003 1592:0.82800001 1600:0.87029999 1602:0.88559997 1613:0.84509999 1614:0.8973 1623:0.8739 1631:0.85589999 1640:0.84600002 1655:0.86400002 1665:0.8154 1668:0.84689999 1678:0.85680002 1679:0.83700001 1682:0.85229999 1684:0.86940002 1691:0.85049999 1701:0.8757 1725:0.87660003 1749:0.83340001 1756:0.82620001 1771:0.8793 1784:0.84689999 1797:0.85229999 1834:0.81989998 1837:0.83340001 1868:0.85140002 1874:0.8919 1880:0.82620001 1882:0.81269997 1884:0.82889998 1890:0.82889998 1904:0.8775 1907:0.87660003 1909:0.82980001 1970:0.84420002 1976:0.82260001 2049:0.82980001 2076:0.87300003 2092:0.86489999 2142:0.85049999 2178:0.84329998 2243:0.89639997 2255:0.84509999 2307:0.81720001 2370:0.84600002 2376:0.83429998 2446:0.84780002 2465:0.86220002 2476:0.83609998 2480:0.84509999 2486:0.81269997 2487:0.86129999 2521:0.84060001 2541:0.86129999 2564:0.85049999 2588:0.86760002 2594:0.82529998 2596:0.83880001 2717:0.85769999 2723:0.83700001 2733:0.85140002 2775:0.83789998 2792:0.82709998 2802:0.84149998 2816:0.86220002 2841:0.85769999 2848:0.86489999 2852:0.81809998 2871:0.84689999 2872:0.82709998 2889:0.84060001 2896:0.82800001 2917:0.8118 2921:0.83520001 2964:0.86760002 2976:0.8154 2983:0.81720001 2987:0.83700001 2991:0.82080001 3009:0.84600002 3041:0.88919997 3056:0.8136 3068:0.86040002 3071:0.81809998 3104:0.8136 3106:0.82080001 3109:0.81989998 3126:0.87300003 3168:0.81629997 3208:0.86669999 3261:0.82260001 3268:0.85680002 3309:0.82709998 3313:0.8973 3322:0.81720001 3329:0.8154 3405:0.8973 3408:0.85680002 3414:0.82529998 3433:0.84240001 3434:0.85680002 3456:0.83340001 3473:0.86220002 3478:0.82529998 3490:0.85140002 3540:0.84869999 3560:0.82260001 3563:0.8739 3575:0.82620001 3583:0.84600002 3601:0.81089997 3605:0.81809998 3618:0.82980001 3653:0.8919 3664:0.83520001 3665:0.88020003 3702:0.84600002 3705:0.83249998 3711:0.84689999 3722:0.84689999 3795:0.85140002 3810:0.81269997 3823:0.83160001 3826:0.84509999 3846:0.82800001 3858:0.82260001 3876:0.83429998 3961:0.84329998 3969:0.82080001 3998:0.82620001 4029:0.85140002 4037:0.84060001 4067:0.8793 4074:0.83789998 4088:0.8154 4099:0.85500002 4114:0.84509999 4146:0.85409999 4149:0.81809998 4160:0.81089997 4176:0.8865 4230:0.81 4234:0.81809998 4307:0.87029999 4355:0.81449997 4375:0.89999998 4376:0.89999998 4377:0.89999998 4378:0.89999998 4379:0.89999998 4380:0.89999998 4381:0.89999998 4382:0.89999998 4383:0.89999998 4384:0.89999998 4385:0.89999998 #
0.0056727203434611163379575060616844 10:0.89999998 13:0.89639997 55:0.89279997 114:0.8883 177:0.88919997 256:0.8775 427:0.8919 841:0.85949999 872:0.89999998 879:0.86129999 880:0.87660003 891:0.84149998 908:0.83160001 921:0.81269997 922:0.85860002 927:0.83789998 928:0.86580002 930:0.83700001 934:0.86220002 938:0.84060001 940:0.82080001 958:0.83520001 959:0.8829 963:0.8829 967:0.83880001 976:0.88739997 995:0.85589999 1005:0.83609998 1006:0.84960002 1018:0.83429998 1028:0.84869999 1032:0.84149998 1040:0.83609998 1042:0.86669999 1065:0.84060001 1069:0.86849999 1080:0.85769999 1086:0.85769999 1089:0.85680002 1109:0.82440001 1118:0.84149998 1127:0.8793 1146:0.85140002 1160:0.87029999 1205:0.85769999 1242:0.89999998 1283:0.8793 1284:0.87029999 1330:0.8136 1339:0.83700001 1345:0.82440001 1375:0.85049999 1386:0.81449997 1397:0.84960002 1408:0.87480003 1425:0.85769999 1432:0.86129999 1450:0.85049999 1453:0.85320002 1473:0.87300003 1500:0.87480003 1514:0.89279997 1521:0.82800001 1525:0.82440001 1527:0.82080001 1546:0.85589999 1548:0.82980001 1552:0.84689999 1558:0.83340001 1564:0.81449997 1582:0.87300003 1600:0.82800001 1608:0.89279997 1621:0.85589999 1631:0.86580002 1643:0.84420002 1645:0.86940002 1672:0.87840003 1682:0.85500002 1684:0.88739997 1701:0.87120003 1715:0.83700001 1721:0.83520001 1723:0.8865 1724:0.88380003 1725:0.87120003 1734:0.86220002 1735:0.86220002 1741:0.83789998 1756:0.81900001 1831:0.85500002 1832:0.83520001 1834:0.83340001 1872:0.85229999 1875:0.84780002 1882:0.81089997 1909:0.82080001 1931:0.85769999 1975:0.83340001 2034:0.85140002 2067:0.84329998 2076:0.87300003 2107:0.83249998 2124:0.81900001 2135:0.84600002 2142:0.87660003 2145:0.83969998 2172:0.8973 2178:0.84600002 2193:0.83520001 2243:0.8811 2255:0.83520001 2272:0.86309999 2279:0.84600002 2282:0.82080001 2288:0.86849999 2291:0.8973 2332:0.82529998 2337:0.82889998 2339:0.85500002 2349:0.8154 2376:0.81629997 2380:0.83429998 2426:0.83520001 2448:0.83429998 2464:0.84600002 2465:0.87120003 2466:0.81629997 2473:0.85140002 2476:0.87120003 2480:0.86940002 2486:0.84689999 2488:0.82080001 2496:0.84420002 2505:0.85949999 2506:0.84780002 2513:0.86580002 2559:0.82980001 2564:0.83609998 2573:0.84600002 2583:0.8118 2723:0.85860002 2732:0.85949999 2787:0.81809998 2792:0.85500002 2819:0.83609998 2824:0.88380003 2855:0.82529998 2871:0.86309999 2889:0.83880001 2893:0.82349998 2905:0.85949999 2921:0.89999998 2949:0.83789998 2976:0.88380003 2986:0.81720001 2987:0.87029999 2991:0.82349998 2995:0.84149998 3008:0.8136 3019:0.82800001 3021:0.87300003 3039:0.83609998 3052:0.84240001 3068:0.85229999 3071:0.83609998 3106:0.85769999 3123:0.84960002 3137:0.85500002 3158:0.86220002 3163:0.81 3226:0.85860002 3251:0.81449997 3261:0.83340001 3264:0.89459997 3272:0.83789998 3374:0.87300003 3414:0.82800001 3454:0.8883 3456:0.85680002 3594:0.82169998 3602:0.83520001 3613:0.88020003 3626:0.84509999 3644:0.84329998 3664:0.82980001 3690:0.87840003 3702:0.84780002 3703:0.85680002 3716:0.85140002 3722:0.82169998 3737:0.87029999 3743:0.85769999 3795:0.82440001 3828:0.82620001 3876:0.84689999 3897:0.82169998 3934:0.84869999 3948:0.82169998 3969:0.86309999 4048:0.87660003 4067:0.85320002 4070:0.8118 4094:0.83520001 4099:0.8793 4114:0.84600002 4204:0.88380003 4248:0.82800001 4274:0.85589999 4329:0.8118 4367:0.89459997 4372:0.83160001 4374:0.89999998 #
0.0039335015879934653870719785118126 2:0.8811 17:0.8775 37:0.82260001 43:0.88919997 64:0.83069998 65:0.85229999 89:0.8919 95:0.89999998 124:0.86220002 162:0.85049999 165:0.85500002 222:0.8739 246:0.86489999 256:0.8775 282:0.82169998 287:0.86309999 333:0.89639997 354:0.84149998 356:0.83429998 382:0.89279997 386:0.84869999 425:0.88200003 585:0.8883 591:0.86040002 649:0.83969998 656:0.86129999 685:0.83880001 702:0.85769999 832:0.84960002 834:0.86760002 835:0.88200003 838:0.82169998 841:0.83969998 846:0.88739997 848:0.87120003 872:0.89459997 876:0.82349998 879:0.8901 880:0.8739 891:0.84960002 892:0.84869999 898:0.83069998 899:0.84780002 902:0.85589999 907:0.85680002 908:0.81269997 921:0.82800001 922:0.84240001 930:0.81900001 934:0.86400002 938:0.84600002 946:0.84780002 953:0.84509999 957:0.84060001 958:0.83520001 959:0.88380003 986:0.8811 996:0.82349998 997:0.84420002 1014:0.82889998 1020:0.8118 1022:0.82800001 1029:0.83069998 1030:0.86849999 1031:0.83789998 1036:0.83429998 1037:0.86580002 1040:0.83160001 1041:0.82800001 1042:0.88200003 1045:0.84780002 1055:0.82800001 1057:0.81989998 1060:0.84960002 1069:0.84689999 1071:0.83520001 1076:0.85769999 1078:0.83340001 1082:0.81 1086:0.81720001 1092:0.86489999 1097:0.82080001 1103:0.81269997 1109:0.83160001 1111:0.81449997 1117:0.8136 1129:0.82620001 1131:0.8847 1135:0.8136 1156:0.83340001 1177:0.8721 1180:0.83249998 1189:0.8739 1197:0.81809998 1202:0.82440001 1210:0.8919 1215:0.83520001 1220:0.87480003 1222:0.81629997 1234:0.83429998 1249:0.87480003 1259:0.84689999 1268:0.85049999 1273:0.83160001 1283:0.81629997 1287:0.85320002 1294:0.84689999 1297:0.84240001 1315:0.88020003 1324:0.84060001 1335:0.82889998 1336:0.85049999 1355:0.84149998 1358:0.89999998 1359:0.89999998 1360:0.89999998 1361:0.89999998 1362:0.89999998 1363:0.89999998 1364:0.89999998 1365:0.89999998 1366:0.89999998 1367:0.89999998 1368:0.89999998 1369:0.89999998 1370:0.89999998 1371:0.89999998 1372:0.89999998 1373:0.89999998 1374:0.89999998 1375:0.89999998 1376:0.89999998 1377:0.89999998 1378:0.89999998 1379:0.89999998 1380:0.89999998 1381:0.89999998 1382:0.89999998 1383:0.89999998 1384:0.89999998 1385:0.89999998 1386:0.89999998 1387:0.89999998 1388:0.89999998 1389:0.89999998 1390:0.89999998 1391:0.89999998 1392:0.89999998 1393:0.89999998 #
-0.0066877178105220246376316772796145 2:0.912 3:0.949 9:0.97899997 11:0.97600001 12:0.991 13:0.98799998 14:0.93900001 15:0.97600001 28:0.954 34:0.98699999 40:0.97299999 43:0.99199998 51:0.99000001 68:0.96200001 126:0.95599997 133:0.90899998 137:0.93900001 140:0.96100003 195:0.912 212:0.921 219:0.97899997 250:0.92000002 256:0.98400003 283:0.94999999 348:0.95599997 358:0.95999998 398:0.95300001 423:0.96700001 447:0.95899999 534:0.94599998 543:0.96600002 553:0.90200001 639:0.99000001 655:0.98299998 747:0.99599999 753:0.91100001 769:0.92900002 801:0.94499999 832:0.92500001 869:0.90499997 872:1 876:0.90100002 879:0.98900002 880:0.98000002 890:0.95300001 891:0.96700001 895:0.90799999 907:0.90600002 908:0.93800002 921:0.92299998 922:0.94499999 927:0.90899998 928:0.96799999 930:0.92799997 934:0.935 939:0.90399998 941:0.93400002 948:0.92000002 949:0.95999998 953:0.91000003 956:0.95599997 958:0.96499997 959:0.98500001 990:0.991 1005:0.94300002 1012:0.93699998 1018:0.92699999 1025:0.91600001 1031:0.97100002 1034:0.92500001 1037:0.95300001 1040:0.963 1042:0.93699998 1045:0.96600002 1050:0.935 1069:0.90700001 1071:0.94199997 1074:0.90399998 1076:0.94999999 1082:0.90399998 1086:0.96899998 1111:0.91100001 1116:0.93800002 1117:0.90200001 1118:0.93800002 1120:0.903 1122:0.935 1123:0.91299999 1129:0.92900002 1150:0.96499997 1160:0.96899998 1166:0.91399997 1177:0.90700001 1180:0.90700001 1183:0.92299998 1184:0.97100002 1197:0.91500002 1202:0.91100001 1206:0.95599997 1208:0.90399998 1210:0.90200001 1215:0.91100001 1216:0.90799999 1222:0.903 1224:0.98299998 1225:0.92400002 1242:1 1248:0.96600002 1249:0.972 1264:0.92500001 1265:0.99699998 1272:0.91799998 1278:0.90700001 1280:0.94999999 1284:0.97600001 1288:0.91799998 1289:0.93900001 1355:0.94800001 1356:0.92799997 1375:0.935 1386:0.90799999 1390:0.94800001 1397:0.95099998 1408:0.98100001 1412:1 1413:1 1414:1 1415:1 1416:1 1417:1 1418:1 1419:1 1420:1 1421:1 1422:1 1423:1 1424:1 1425:1 1426:1 1427:1 1428:1 1429:1 1430:1 1431:1 1432:1 1433:1 1434:1 1435:1 1436:1 1437:1 1438:1 1439:1 1440:1 1441:1 1442:1 1443:1 1444:1 1445:1 1446:1 1447:1 1448:1 1449:1 1450:1 1451:1 1452:1 1453:1 1454:1 1455:1 1456:1 1457:1 1458:1 1459:1 1460:1 1461:1 1462:1 #
-0.0041574308689619650369895254016228 9:0.98799998 28:0.986 337:1 512:0.93599999 629:0.97100002 840:0.926 853:0.92699999 861:0.91799998 868:0.99699998 872:0.98500001 879:0.98000002 880:0.99400002 891:0.935 911:0.977 915:0.94199997 922:0.91799998 923:1 928:0.94300002 931:0.94800001 949:0.99699998 953:0.95999998 958:0.96399999 959:0.99400002 990:0.95899999 1005:0.92299998 1022:0.90899998 1042:0.96799999 1052:0.98799998 1058:0.96899998 1069:0.97500002 1086:0.954 1091:0.99699998 1092:0.954 1109:0.93199998 1118:0.91399997 1120:0.91799998 1138:0.98799998 1150:0.98799998 1160:0.98900002 1165:0.95499998 1198:0.93300003 1215:0.96399999 1236:0.96499997 1242:0.99699998 1259:0.97299999 1283:0.94199997 1284:0.96399999 1308:0.96100003 1338:0.95700002 1364:0.91500002 1414:0.92699999 1418:0.91500002 1420:0.991 1423:0.99400002 1425:0.93900001 1429:0.949 1432:0.95899999 1440:0.963 1442:0.99199998 1450:0.97600001 1451:0.95499998 1473:0.97500002 1479:0.991 1514:0.95200002 1525:0.92500001 1551:0.93400002 1589:0.98000002 1592:0.91399997 1600:0.92500001 1602:0.98400003 1621:0.92900002 1623:0.93800002 1631:0.954 1632:0.99400002 1638:0.921 1642:0.95300001 1654:0.99400002 1658:0.99400002 1669:0.92699999 1682:0.94999999 1684:0.98500001 1701:0.96799999 1723:0.95999998 1725:0.96899998 1734:0.94 1765:0.92199999 1785:0.90200001 1812:0.921 1865:0.92000002 1883:0.97899997 1916:0.94400001 2013:0.95700002 2016:0.98199999 2023:0.94099998 2060:0.98199999 2065:0.94999999 2070:0.917 2073:0.90600002 2193:0.91900003 2202:0.903 2249:0.91100001 2265:0.90899998 2288:0.95599997 2337:0.986 2340:0.912 2348:0.935 2355:0.958 2356:0.926 2365:0.94099998 2366:0.99199998 2371:0.977 2376:0.92000002 2380:0.954 2385:0.99699998 2419:0.93599999 2423:0.954 2426:0.94099998 2441:0.98799998 2465:0.95599997 2468:0.94999999 2476:0.92000002 2488:0.991 2516:0.90700001 2525:0.92500001 2535:0.94199997 2588:0.958 2622:0.99699998 2626:0.98400003 2674:0.954 2775:0.92500001 2778:0.95899999 2792:0.99199998 2802:0.92400002 2813:0.96100003 2819:0.92299998 2855:0.91900003 2875:0.93900001 2889:0.926 2896:0.92799997 2899:0.92299998 2904:0.93300003 2905:0.96200001 2916:0.90100002 2949:0.95899999 2955:0.99400002 2964:0.95499998 2976:0.986 2991:0.91500002 2995:0.92900002 2997:0.949 3020:0.93099999 3045:0.94099998 3058:0.90100002 3071:0.93400002 3103:0.921 3106:0.96700001 3108:0.91900003 3137:0.94800001 3217:0.949 3235:0.94800001 3284:0.98500001 3285:0.92199999 3289:0.93900001 3329:0.912 3339:0.92400002 3348:0.93000001 3374:0.95899999 3393:0.94400001 3414:0.93699998 3560:0.94 3690:0.97100002 3702:0.93599999 3710:0.90100002 3750:0.94999999 3759:0.99199998 3772:0.93800002 3814:0.91399997 3819:0.94700003 3831:0.98000002 3843:0.94499999 3858:0.92500001 3867:0.91100001 3898:0.93400002 3904:0.90600002 3948:0.98000002 3971:0.91799998 3985:0.958 3986:0.91900003 4006:0.91299999 4067:0.94700003 4070:0.90799999 4074:0.93199998 4094:0.991 4099:0.94999999 4114:0.96100003 4199:0.93800002 4274:0.95200002 4305:0.94400001 4310:0.95499998 4353:0.92400002 4384:0.99400002 4428:0.93699998 4429:0.912 4465:0.935 4520:0.95300001 4529:1 4554:0.93099999 4567:0.921 4693:0.94499999 4730:0.92699999 4762:0.95999998 4781:0.94400001 4815:0.95700002 4825:0.91799998 4852:0.90399998 4856:0.92900002 4869:0.95599997 4880:0.93599999 4894:0.926 4899:0.96600002 5041:0.94800001 5075:0.93800002 5123:0.97500002 5139:0.93800002 5156:0.93699998 5172:0.94400001 5180:0.903 5259:0.94400001 5388:0.97000003 5394:0.96200001 5417:0.93800002 5511:0.92199999 5571:0.977 5597:0.95099998 5624:0.95300001 5666:0.96399999 5690:0.90100002 5705:0.949 5767:0.97899997 5803:0.94300002 5812:0.95499998 5823:0.949 5891:0.98199999 5933:0.94599998 6016:0.91600001 6063:0.92299998 6075:0.949 6205:0.95999998 6478:0.93000001 6601:0.99199998 6614:0.94599998 6633:0.95999998 6653:0.92299998 6673:0.93300003 6690:0.92400002 6735:0.91799998 6751:1 6752:1 6753:1 6754:1 6755:1 6756:1 6757:1 6758:1 6759:1 6760:1 #
0.005957674840723500842010196265619 7:0.87120003 50:0.88739997 75:0.89639997 86:0.87840003 162:0.85049999 343:0.89999998 835:0.87120003 841:0.85949999 872:0.88020003 876:0.8973 879:0.88739997 880:0.86849999 887:0.86400002 890:0.85229999 891:0.83520001 897:0.85229999 911:0.8973 919:0.83789998 928:0.84869999 931:0.81989998 934:0.86400002 946:0.84509999 949:0.86940002 958:0.81989998 959:0.86129999 964:0.88919997 986:0.86220002 992:0.83969998 994:0.84240001 1018:0.83160001 1027:0.81089997 1091:0.83609998 1092:0.88020003 1109:0.84780002 1118:0.84240001 1127:0.84869999 1160:0.8901 1165:0.87120003 1206:0.88919997 1210:0.88380003 1216:0.84780002 1225:0.8775 1280:0.85229999 1294:0.86489999 1312:0.82709998 1315:0.85860002 1324:0.84149998 1334:0.82889998 1368:0.82529998 1370:0.85320002 1397:0.86489999 1417:0.8154 1424:0.85140002 1438:0.82260001 1440:0.8793 1446:0.8739 1451:0.84960002 1454:0.85409999 1473:0.8739 1499:0.84240001 1502:0.8136 1514:0.85949999 1525:0.84420002 1527:0.82080001 1546:0.85049999 1554:0.81089997 1576:0.85140002 1581:0.85049999 1583:0.88739997 1589:0.88200003 1621:0.85140002 1623:0.87029999 1631:0.86129999 1640:0.82080001 1651:0.84780002 1672:0.87840003 1682:0.89999998 1694:0.83520001 1701:0.88380003 1734:0.84060001 1735:0.87120003 1741:0.83609998 1771:0.8757 1809:0.84240001 1829:0.83969998 1856:0.81089997 1859:0.86220002 1884:0.88739997 1897:0.86220002 1901:0.86220002 1907:0.8739 2007:0.87300003 2025:0.81989998 2034:0.82889998 2083:0.82709998 2088:0.85949999 2092:0.82080001 2116:0.85140002 2157:0.81629997 2179:0.8154 2205:0.8793 2243:0.88380003 2255:0.83880001 2256:0.81989998 2285:0.83429998 2291:0.89999998 2337:0.82889998 2349:0.8118 2353:0.87660003 2355:0.85500002 2376:0.83429998 2385:0.8937 2404:0.82800001 2435:0.88200003 2465:0.87120003 2476:0.83160001 2480:0.85589999 2588:0.86489999 2612:0.85500002 2729:0.83880001 2733:0.85140002 2792:0.84240001 2819:0.83880001 2825:0.84149998 2852:0.82529998 2855:0.82709998 2896:0.83789998 2949:0.85949999 2964:0.85409999 2969:0.84960002 2976:0.83700001 2986:0.86129999 2991:0.81809998 2997:0.82529998 3033:0.88200003 3041:0.8865 3071:0.85949999 3106:0.83249998 3213:0.8811 3219:0.86849999 3285:0.82800001 3329:0.81269997 3359:0.8775 3393:0.84960002 3414:0.82709998 3446:0.88919997 3454:0.85409999 3469:0.82800001 3514:0.85860002 3561:0.89459997 3562:0.88919997 3563:0.8847 3566:0.89999998 3567:0.89999998 3568:0.89999998 3569:0.89999998 3570:0.89999998 3571:0.89999998 #
